4.657995328307151794e-02
-3.574211895465850830e-01
-3.112414181232452393e-01
-3.113970533013343811e-02
-7.628089189529418945e-02
3.692616894841194153e-02
-3.238076567649841309e-01
-1.052038148045539856e-01
-3.054078817367553711e-01
-3.447536826133728027e-01
-3.020441234111785889e-01
7.216261327266693115e-02
2.962792664766311646e-02
-3.550728410482406616e-02
-3.193780481815338135e-01
-3.966179862618446350e-02
1.924861371517181396e-01
7.942925393581390381e-02
-3.144994974136352539e-01
-3.230610787868499756e-01
-3.373432755470275879e-01
-4.438520595431327820e-02
2.663542330265045166e-02
4.375243186950683594e-02
1.228917762637138367e-02
-3.244099020957946777e-02
-3.397106826305389404e-01
-5.371737852692604065e-02
-2.600097283720970154e-02
-3.319498896598815918e-01
-3.011433780193328857e-01
3.790539130568504333e-02
-6.014921702444553375e-03
-8.936809748411178589e-02
-2.559429407119750977e-01
-4.530926048755645752e-02
3.614411503076553345e-02
-3.401629030704498291e-01
1.461739689111709595e-01
-2.693855166435241699e-01
