3.938042558729648590e-03
1.600823481567203999e-03
-1.979608647525310516e-02
-3.222169354557991028e-02
9.611836634576320648e-03
2.320315316319465637e-02
-1.079073874279856682e-03
-1.772288605570793152e-02
1.352469157427549362e-02
1.269594393670558929e-02
-1.446032524108886719e-02
-3.285420686006546021e-02
2.542832307517528534e-02
-3.550920169800519943e-03
-4.057443886995315552e-02
-6.276581436395645142e-02
1.683905161917209625e-02
3.927719593048095703e-02
-2.914671041071414948e-02
-2.233525365591049194e-02
1.999706774950027466e-02
2.181359753012657166e-02
9.867317974567413330e-02
2.644628658890724182e-02
4.170127213001251221e-03
6.180582195520401001e-02
4.743072018027305603e-02
1.818888448178768158e-02
4.337741527706384659e-03
-5.145052820444107056e-02
1.995566301047801971e-02
-1.458444353193044662e-02
-1.947705633938312531e-02
2.835637144744396210e-02
-2.278112806379795074e-02
-7.686113007366657257e-03
2.414903044700622559e-02
-2.223239652812480927e-02
-5.552897602319717407e-02
2.270054817199707031e-02
-4.111609421670436859e-03
-2.073252201080322266e-02
-2.518509887158870697e-02
-6.234603747725486755e-02
2.232966199517250061e-02
1.626564189791679382e-02
7.501460146158933640e-03
-9.081291034817695618e-03
1.173629891127347946e-03
3.478534147143363953e-02
-2.783741056919097900e-02
3.424135223031044006e-02
-1.081454381346702576e-02
3.639611601829528809e-02
3.231859952211380005e-02
3.124154359102249146e-02
2.245407924056053162e-02
1.992432866245508194e-03
4.081633873283863068e-03
-1.112360414117574692e-02
-1.255772728472948074e-02
-5.455142632126808167e-02
3.815483069047331810e-03
-5.139342322945594788e-02
-7.544464431703090668e-03
3.008346259593963623e-02
4.613280668854713440e-02
3.107396326959133148e-02
-1.204202324151992798e-02
-5.708435177803039551e-02
-2.020283602178096771e-02
1.026735175400972366e-02
4.274230916053056717e-03
1.984007842838764191e-02
-3.113230131566524506e-02
-1.502669975161552429e-02
-1.882656104862689972e-02
-2.071208087727427483e-03
2.095821872353553772e-02
-3.170437365770339966e-02
6.621991842985153198e-02
1.230126526206731796e-02
3.328356519341468811e-02
-2.935001254081726074e-02
-8.224262855947017670e-03
-9.057435393333435059e-02
-4.966640099883079529e-02
-5.379918962717056274e-03
2.225974807515740395e-03
-9.187517687678337097e-03
-2.864367701113224030e-02
-4.240344464778900146e-02
-1.733956113457679749e-02
8.433868736028671265e-02
-6.430468708276748657e-02
-1.999296247959136963e-02
6.108521297574043274e-02
-7.964163087308406830e-03
3.175648301839828491e-02
-2.844634465873241425e-02
6.506590545177459717e-02
-7.126275449991226196e-02
1.474660914391279221e-02
-4.496957361698150635e-02
2.055795118212699890e-02
-1.134041622281074524e-01
7.100057788193225861e-03
2.506016939878463745e-02
-8.201474323868751526e-03
6.988070160150527954e-02
4.137196764349937439e-02
-2.774593885987997055e-03
5.940332636237144470e-02
2.507126517593860626e-02
1.907620020210742950e-02
-4.870929941534996033e-02
3.386497497558593750e-02
4.434809088706970215e-02
4.953967034816741943e-02
3.734483569860458374e-02
-3.612179309129714966e-02
2.357513271272182465e-02
-3.368381783366203308e-02
-4.065095912665128708e-03
9.371569380164146423e-03
-8.056816644966602325e-03
-1.057000923901796341e-02
-1.411690935492515564e-02
-6.149108707904815674e-02
-8.085943758487701416e-02
-5.549627542495727539e-02
-2.193924784660339355e-02
7.486488670110702515e-02
-5.220314115285873413e-02
4.924244713038206100e-03
-4.598098993301391602e-02
5.882007256150245667e-02
2.540646865963935852e-02
-2.087671123445034027e-02
-2.008070424199104309e-02
5.643129721283912659e-02
5.737697333097457886e-02
1.446007401682436466e-03
-2.896114997565746307e-02
5.833695828914642334e-02
5.315233394503593445e-02
-2.818583510816097260e-02
-3.900111839175224304e-02
-4.761125892400741577e-02
3.341994713991880417e-03
-2.627409296110272408e-03
-3.102623485028743744e-02
7.069634646177291870e-02
-1.593161933124065399e-02
-6.012953817844390869e-02
-1.702435500919818878e-02
-1.174573600292205811e-01
-1.859263330698013306e-02
-5.207267403602600098e-02
-1.571386493742465973e-02
2.961809746921062469e-03
6.562260538339614868e-02
-6.026673689484596252e-02
-3.479935601353645325e-02
1.014159154146909714e-02
-5.141722410917282104e-02
2.794387005269527435e-02
5.913859233260154724e-02
-6.028595194220542908e-02
2.828033268451690674e-02
7.407896220684051514e-02
5.338291451334953308e-02
3.556188568472862244e-02
6.694024801254272461e-02
5.183307826519012451e-02
-3.281971439719200134e-02
1.865346357226371765e-02
-4.708578065037727356e-02
6.345505267381668091e-02
2.981875650584697723e-02
-4.533999413251876831e-02
-8.006512373685836792e-02
-4.138058423995971680e-02
-3.694746410474181175e-03
9.637147741159424186e-05
-9.053220041096210480e-03
-4.024047777056694031e-02
-5.304143950343132019e-02
2.232420630753040314e-02
-8.322017267346382141e-03
-3.336127847433090210e-02
2.507770992815494537e-02
4.003357887268066406e-02
-3.703430294990539551e-02
1.684909500181674957e-02
7.820891588926315308e-02
-7.953839004039764404e-02
1.987187570193782449e-04
1.337112113833427429e-02
-6.172108650207519531e-02
-1.490941178053617477e-02
4.301062226295471191e-02
-2.088502980768680573e-03
-9.773846715688705444e-03
1.079942844808101654e-02
1.285736635327339172e-02
3.531100461259484291e-03
-3.447361662983894348e-02
6.643345579504966736e-03
3.645545616745948792e-02
-8.076515980064868927e-03
5.337798036634922028e-03
1.879712007939815521e-02
-5.878202989697456360e-02
2.756100520491600037e-02
8.309312909841537476e-02
2.044150605797767639e-02
-6.315850652754306793e-03
-7.866139709949493408e-02
-6.553629040718078613e-02
-1.404043193906545639e-02
1.501838676631450653e-02
-7.165426760911941528e-02
-1.711374334990978241e-02
-2.488328143954277039e-02
-5.678405612707138062e-02
-3.892462467774748802e-03
-1.016250252723693848e-01
-8.299624174833297729e-02
-6.737490743398666382e-02
-4.383346438407897949e-02
8.915522694587707520e-02
-9.654766321182250977e-02
2.041008695960044861e-02
3.685430437326431274e-02
-2.155001461505889893e-02
7.446105778217315674e-02
1.038133800029754639e-01
3.132075816392898560e-02
2.064524590969085693e-02
-4.066229984164237976e-02
1.936635002493858337e-02
4.180845990777015686e-02
1.285518519580364227e-02
8.445568382740020752e-03
6.217036861926317215e-03
-6.089316681027412415e-03
2.070098184049129486e-02
-6.645510904490947723e-03
1.223256252706050873e-02
1.414317358285188675e-02
-4.312899895012378693e-03
-5.661651492118835449e-03
-5.399947613477706909e-02
1.837019808590412140e-02
2.611275576055049896e-02
4.408340319059789181e-04
3.497978299856185913e-02
1.834438368678092957e-02
2.117653563618659973e-02
-2.409448847174644470e-02
9.628416970372200012e-03
-2.880933880805969238e-02
3.077836881857365370e-04
3.692628443241119385e-02
2.375507913529872894e-02
-1.249995734542608261e-02
2.013258077204227448e-02
1.216705236583948135e-02
3.147749230265617371e-02
-4.023128747940063477e-02
-7.003001403063535690e-03
-4.582918062806129456e-02
-6.003949418663978577e-02
3.460666909813880920e-02
2.465860173106193542e-02
2.123144827783107758e-02
3.290357068181037903e-02
-1.156676281243562698e-02
3.075717948377132416e-03
-3.159901872277259827e-02
-2.613561600446701050e-02
8.244165219366550446e-03
1.249413657933473587e-02
8.289020508527755737e-03
-3.566088154911994934e-02
-7.275872863829135895e-03
1.602026261389255524e-02
-6.609577685594558716e-03
-3.538901731371879578e-02
-1.821432821452617645e-02
-4.134259000420570374e-02
5.424739792943000793e-03
-1.177819538861513138e-02
-1.343677751719951630e-02
4.693542420864105225e-02
-3.902772814035415649e-02
-2.089578285813331604e-02
-1.170817762613296509e-02
1.830186136066913605e-02
-1.098100189119577408e-02
2.747420594096183777e-02
-5.950811901129782200e-04
2.035313472151756287e-02
-1.350182108581066132e-02
-7.402319461107254028e-03
-4.914871603250503540e-02
2.424518205225467682e-02
3.833789750933647156e-02
2.400159277021884918e-02
-8.619943633675575256e-03
2.124300971627235413e-02
2.679082192480564117e-02
-1.386043615639209747e-02
4.204859212040901184e-02
1.290368963964283466e-03
-1.291452534496784210e-02
1.222318876534700394e-02
-1.224231161177158356e-02
-7.491123396903276443e-03
2.141991426469758153e-04
1.496610417962074280e-02
-1.349869463592767715e-02
-3.117492794990539551e-02
2.568070217967033386e-02
2.021761983633041382e-02
1.320622302591800690e-02
1.018830388784408569e-02
-1.448419596999883652e-02
1.363137643784284592e-02
-3.050561621785163879e-02
-7.517795544117689133e-03
3.227892797440290451e-03
1.738937757909297943e-02
-2.820562012493610382e-02
-1.790193840861320496e-02
3.030076064169406891e-02
3.259851038455963135e-02
-3.238920867443084717e-02
-4.012728750240057707e-04
9.608662687242031097e-03
1.803204976022243500e-02
2.160954847931861877e-02
3.946927841752767563e-03
-2.319545747013762593e-04
3.651355952024459839e-02
-1.320667215622961521e-04
-3.838040633127093315e-03
-5.210927873849868774e-02
-4.730764776468276978e-02
2.528021670877933502e-02
-1.601484976708889008e-02
-3.940095752477645874e-02
-2.399716340005397797e-02
-3.175583109259605408e-02
-4.948680754750967026e-03
2.055193483829498291e-02
-5.285474937409162521e-03
-3.142411261796951294e-02
2.579495683312416077e-02
4.211293533444404602e-03
-2.799255959689617157e-02
2.339608222246170044e-02
-1.793382875621318817e-02
3.954509738832712173e-03
1.591771654784679413e-02
2.767877094447612762e-02
3.484991937875747681e-02
-3.088516369462013245e-02
5.903098732233047485e-02
-1.304650399833917618e-02
3.128626942634582520e-02
-2.164353430271148682e-02
3.354214876890182495e-02
4.355965927243232727e-02
6.809785217046737671e-02
-1.138939242810010910e-02
-2.187666669487953186e-02
1.809246954508125782e-03
-6.722225341945886612e-03
-9.575058706104755402e-03
-3.672850877046585083e-02
-9.482927620410919189e-03
-5.661172047257423401e-02
2.118893340229988098e-02
1.161353010684251785e-02
-1.465893117710947990e-03
4.441467300057411194e-02
5.304642021656036377e-03
-7.304085791110992432e-02
-2.111038379371166229e-02
3.023714013397693634e-02
-8.655791170895099640e-03
4.894081875681877136e-02
-3.210005909204483032e-02
-4.518228888628073037e-05
1.667131669819355011e-02
-3.080098889768123627e-02
-3.306969301775097847e-03
-1.577934063971042633e-02
1.167661859653890133e-03
-2.767443470656871796e-02
-9.421233087778091431e-02
2.103259973227977753e-02
6.655435264110565186e-02
-1.318464428186416626e-01
1.274716574698686600e-02
4.029503557831048965e-03
-5.164051800966262817e-02
-7.701314985752105713e-03
-6.409621238708496094e-02
-2.104328759014606476e-02
-8.600048720836639404e-03
-4.407076910138130188e-02
-3.292949497699737549e-02
3.139578178524971008e-02
6.224016542546451092e-04
-2.423351816833019257e-02
-3.125638514757156372e-02
-7.792974263429641724e-02
4.396916925907135010e-02
-4.638572037220001221e-02
5.988680291920900345e-03
-3.128743171691894531e-02
4.908519610762596130e-02
-1.795571856200695038e-02
-2.894680388271808624e-02
3.298908099532127380e-02
5.875965114682912827e-03
3.103877231478691101e-02
-2.057961001992225647e-02
4.086060822010040283e-02
5.972910206764936447e-03
2.261059358716011047e-02
-4.012541845440864563e-03
-3.508779406547546387e-02
-3.636754304170608521e-02
-2.295419946312904358e-02
1.038011386990547180e-01
2.294225990772247314e-02
5.068651959300041199e-02
-3.981097787618637085e-02
-1.940914615988731384e-02
-3.485568240284919739e-02
6.279098242521286011e-02
2.492830343544483185e-02
1.011480763554573059e-01
-2.809914015233516693e-02
-1.734401844441890717e-02
5.363500118255615234e-02
-4.442722350358963013e-02
8.307199925184249878e-02
6.030554696917533875e-02
-3.353466838598251343e-02
-2.317317761480808258e-02
-3.012152016162872314e-02
-1.228223787620663643e-03
9.358478710055351257e-03
9.606724488548934460e-04
-1.609964412637054920e-03
-5.636692047119140625e-03
2.235417440533638000e-02
5.566087365150451660e-02
-1.109722536057233810e-02
6.793218106031417847e-02
2.744010835886001587e-02
8.140279352664947510e-02
2.694671414792537689e-02
4.243631660938262939e-02
4.157525021582841873e-03
-5.426965653896331787e-02
-4.967265576124191284e-02
2.113148197531700134e-02
2.189536020159721375e-02
8.510215207934379578e-03
1.089672371745109558e-02
4.455079510807991028e-02
3.125651180744171143e-02
2.496296912431716919e-02
-2.306144312024116516e-02
5.964985489845275879e-02
2.776726894080638885e-02
-1.028563603758811951e-01
-6.994181871414184570e-02
-2.731770463287830353e-02
-5.678783170878887177e-03
3.500004112720489502e-02
1.673536375164985657e-02
-2.327377535402774811e-02
3.260010387748479843e-03
9.832665324211120605e-02
5.752594023942947388e-02
-8.250931650400161743e-02
6.900215055793523788e-03
6.472215801477432251e-02
-3.131551295518875122e-02
1.398344151675701141e-02
-7.656020671129226685e-02
3.281738609075546265e-02
4.289687424898147583e-02
-7.082408666610717773e-02
-3.666541725397109985e-02
-3.076770156621932983e-02
-2.560107968747615814e-02
7.877587340772151947e-03
-3.711019456386566162e-02
1.409132219851016998e-02
-4.787477105855941772e-02
1.005775853991508484e-02
-4.076715558767318726e-02
-2.661696635186672211e-02
5.883164331316947937e-02
9.067487902939319611e-03
-1.519548054784536362e-02
3.695446252822875977e-02
5.568811669945716858e-02
-5.217714235186576843e-02
-8.613116224296391010e-04
2.426150068640708923e-02
-2.460407093167304993e-03
-2.788639999926090240e-02
4.026712849736213684e-02
-1.851596520282328129e-03
-5.926817655563354492e-02
-5.615581944584846497e-02
-1.660807989537715912e-02
-5.898825079202651978e-02
-3.535968810319900513e-02
-1.109197642654180527e-02
4.559061303734779358e-02
2.639673464000225067e-02
-9.003770351409912109e-02
1.390386745333671570e-02
-1.835192553699016571e-02
-3.072275966405868530e-02
-1.514247152954339981e-02
4.259546473622322083e-02
-6.414914503693580627e-03
-5.589257553219795227e-02
-3.317396715283393860e-02
1.015947479754686356e-02
1.435999479144811630e-02
-5.447170138359069824e-02
-1.369140669703483582e-02
4.944894090294837952e-02
-7.647292315959930420e-02
4.028998315334320068e-02
-1.025602370500564575e-01
-6.824027746915817261e-02
-1.125876232981681824e-01
5.535332858562469482e-02
2.764871716499328613e-02
-1.007537916302680969e-01
4.903613403439521790e-02
2.959800139069557190e-02
-5.800621956586837769e-02
-3.747955337166786194e-02
5.382016301155090332e-02
9.137128293514251709e-02
3.307724744081497192e-02
-3.183151036500930786e-02
1.049112249165773392e-02
1.589189842343330383e-02
-2.772793173789978027e-02
5.058177188038825989e-02
2.391505427658557892e-02
-1.995985768735408783e-02
2.752193436026573181e-02
-1.804769225418567657e-02
-3.081124648451805115e-02
-2.675913088023662567e-02
-8.116526529192924500e-03
3.875601664185523987e-02
-1.615062914788722992e-02
-4.449808970093727112e-02
5.214043892920017242e-03
3.984990343451499939e-02
8.368214964866638184e-02
-1.725123822689056396e-02
-2.819015830755233765e-02
2.279091626405715942e-02
-8.446158841252326965e-03
1.398523431271314621e-02
1.481861341744661331e-02
-2.542320638895034790e-02
5.779092758893966675e-02
8.912750519812107086e-03
8.677834644913673401e-03
2.517995238304138184e-02
-8.982435800135135651e-03
-3.407466039061546326e-02
-2.119190432131290436e-02
1.729547977447509766e-02
2.963458187878131866e-02
2.219512872397899628e-02
3.170450776815414429e-02
1.584432274103164673e-02
-1.187481265515089035e-02
-1.631310395896434784e-02
-2.924785949289798737e-03
-9.526791051030158997e-03
-6.063110777176916599e-04
-4.222264885902404785e-02
-4.980596899986267090e-02
1.499806065112352371e-02
2.016933634877204895e-02
-1.875305175781250000e-02
8.508494123816490173e-03
-2.145854569971561432e-02
5.890232697129249573e-02
-4.765723831951618195e-03
-1.450029294937849045e-02
2.371872030198574066e-02
2.037627808749675751e-02
2.428953535854816437e-03
1.870015868917107582e-03
9.649307467043399811e-03
2.343126013875007629e-02
6.242986768484115601e-03
-9.025582112371921539e-03
-3.481545718386769295e-03
-7.677026558667421341e-03
-2.453308925032615662e-02
-5.839923024177551270e-02
-7.994838058948516846e-03
8.007325977087020874e-02
4.641905054450035095e-02
2.646633610129356384e-02
-4.931975528597831726e-02
-4.311514273285865784e-02
-1.302017550915479660e-02
-5.419757217168807983e-03
2.031243406236171722e-02
6.808844860643148422e-03
-1.078596338629722595e-02
3.634981438517570496e-02
1.775434054434299469e-02
-5.552314966917037964e-02
-1.702874526381492615e-02
-4.466387629508972168e-02
-3.176223859190940857e-02
-2.658681385219097137e-02
-1.063654869794845581e-01
6.197123788297176361e-03
2.277298131957650185e-03
3.864959254860877991e-02
-1.281746942549943924e-02
2.450492791831493378e-02
4.796113446354866028e-02
2.575718797743320465e-02
-1.340696495026350021e-02
-7.242915779352188110e-02
7.982701808214187622e-02
-4.186186194419860840e-02
-7.397764828056097031e-03
-7.222118228673934937e-02
8.863263577222824097e-02
-2.474814839661121368e-02
9.643403813242912292e-03
1.395821757614612579e-02
-2.143232151865959167e-02
7.753769867122173309e-03
9.577712416648864746e-02
5.302268639206886292e-02
1.294149458408355713e-02
-3.022345248609781265e-03
4.554462432861328125e-02
-9.457732085138559341e-05
-2.807279862463474274e-02
-8.283942937850952148e-02
5.664286389946937561e-02
4.780767485499382019e-02
-3.680504485964775085e-02
1.055848551914095879e-03
-6.683554034680128098e-03
-1.865582773461937904e-03
1.902375183999538422e-02
-2.968646585941314697e-02
2.891807630658149719e-02
6.662587821483612061e-02
1.183127239346504211e-02
-7.000199519097805023e-03
4.619269445538520813e-02
5.179294198751449585e-02
4.729476571083068848e-02
-1.883882656693458557e-02
4.824117198586463928e-02
-1.873969216831028461e-03
3.465896099805831909e-02
6.129680573940277100e-02
-5.534465238451957703e-02
1.993539743125438690e-02
-2.242045942693948746e-03
-3.708376735448837280e-02
5.980768054723739624e-02
-4.750704020261764526e-02
-1.629716344177722931e-02
-1.042772457003593445e-02
4.510396160185337067e-03
3.810574114322662354e-02
2.460340782999992371e-02
4.267636686563491821e-03
2.862588874995708466e-02
6.058634724467992783e-03
-1.726154796779155731e-02
-2.602081559598445892e-02
1.946615800261497498e-02
2.635839860886335373e-03
6.072754971683025360e-03
-5.473166704177856445e-03
-4.717770963907241821e-02
9.612335707060992718e-04
5.299020092934370041e-03
4.533758386969566345e-02
-7.140400260686874390e-02
4.101422056555747986e-02
-3.202629461884498596e-02
3.336365520954132080e-02
-1.477393321692943573e-02
-5.034711584448814392e-02
-4.127353802323341370e-02
7.467077672481536865e-02
6.772621069103479385e-03
2.182180434465408325e-02
-2.944536879658699036e-02
4.762925580143928528e-02
-7.130318135023117065e-02
1.120100449770689011e-02
4.885998368263244629e-02
2.617540955543518066e-02
1.669884845614433289e-02
-7.489684969186782837e-02
8.209534734487533569e-02
-3.331035841256380081e-03
-3.655085712671279907e-02
-1.287339162081480026e-02
-2.775665558874607086e-02
-7.936544716358184814e-03
-2.093972172588109970e-03
-4.483048990368843079e-02
-1.261661993339657784e-03
4.657776560634374619e-03
-2.258880436420440674e-02
4.985162988305091858e-02
-1.777354627847671509e-02
2.441697753965854645e-02
2.096190303564071655e-02
7.131286710500717163e-02
-1.339821051806211472e-02
1.348240487277507782e-02
6.025579571723937988e-02
2.430630661547183990e-02
-3.959508612751960754e-02
6.238652393221855164e-02
-3.328353539109230042e-02
-1.268192827701568604e-01
7.190015166997909546e-02
4.748460371047258377e-03
5.572988465428352356e-02
6.020379066467285156e-02
1.210547983646392822e-02
-7.449627388268709183e-03
-7.592957117594778538e-04
3.621898964047431946e-02
5.574830994009971619e-02
-6.230027414858341217e-03
3.916832432150840759e-02
-7.408100366592407227e-02
4.739594459533691406e-02
-2.037084102630615234e-02
-6.955913454294204712e-02
5.146461725234985352e-02
-1.333918888121843338e-02
-2.778666093945503235e-02
4.450123384594917297e-02
-4.470517858862876892e-02
-8.134694769978523254e-03
5.180188640952110291e-02
-2.471017837524414062e-02
1.844719797372817993e-02
3.224209696054458618e-02
1.086288131773471832e-03
3.435852751135826111e-02
4.191845282912254333e-02
5.162352230399847031e-03
-1.861789636313915253e-02
3.613841161131858826e-02
1.537531241774559021e-02
-1.680457219481468201e-02
-4.958667233586311340e-02
-7.108283042907714844e-02
-4.443015530705451965e-02
5.378052964806556702e-02
-2.328260015929117799e-04
-8.927580714225769043e-02
2.985128201544284821e-02
-6.611622869968414307e-02
1.570808887481689453e-02
-2.280909009277820587e-02
-8.786614239215850830e-02
-4.382022842764854431e-02
-2.981539443135261536e-02
6.630130857229232788e-02
-1.890897937119007111e-02
-4.220469668507575989e-02
3.552950546145439148e-02
7.158865034580230713e-02
-4.825162235647439957e-03
1.152066607028245926e-02
1.050791665911674500e-01
4.324809461832046509e-02
-1.752308197319507599e-02
-1.118913590908050537e-01
2.948190271854400635e-02
3.397312015295028687e-02
-3.178953751921653748e-02
3.521311655640602112e-02
7.880406081676483154e-02
2.998569281771779060e-03
6.384944915771484375e-02
-9.444507956504821777e-02
-3.290712134912610054e-03
9.269192814826965332e-02
-1.260192226618528366e-02
1.015556324273347855e-02
-7.154776901006698608e-02
-5.656079854816198349e-03
-7.739080488681793213e-02
-3.308335691690444946e-02
-6.303136795759201050e-02
7.321346085518598557e-03
-7.958940416574478149e-02
-9.258046746253967285e-02
-9.703937917947769165e-02
-3.178042173385620117e-02
1.472435742616653442e-01
4.227028787136077881e-02
1.159584242850542068e-02
-6.590150296688079834e-03
-3.678137063980102539e-02
-2.621286176145076752e-02
-1.963491318747401237e-03
1.312180906534194946e-01
1.532809529453516006e-02
-2.170313894748687744e-02
6.703661754727363586e-03
-3.398929536342620850e-02
-3.438356146216392517e-02
-3.730036318302154541e-02
-2.703209780156612396e-02
1.895481534302234650e-02
-4.011503979563713074e-02
-3.841441124677658081e-02
-1.980708166956901550e-02
-9.953839331865310669e-02
1.009700968861579895e-01
7.901611924171447754e-02
-4.055775701999664307e-02
2.475610934197902679e-02
-1.463491935282945633e-02
3.811601921916007996e-02
-8.951833099126815796e-02
-3.602154552936553955e-02
8.297942578792572021e-02
5.817249417304992676e-03
-5.340711772441864014e-02
5.042794719338417053e-02
4.518937319517135620e-02
-5.183555558323860168e-02
-3.299972787499427795e-02
3.468478471040725708e-02
7.686531543731689453e-02
-9.262317419052124023e-02
4.220551252365112305e-02
-2.465310320258140564e-02
6.575071066617965698e-02
7.854782976210117340e-03
1.055309362709522247e-02
4.317396879196166992e-02
4.123478755354881287e-02
5.377161782234907150e-03
7.069785147905349731e-02
7.044359575957059860e-03
-1.178330089896917343e-02
-2.439280599355697632e-02
5.149967968463897705e-03
-4.344025999307632446e-02
5.441805347800254822e-02
-3.586623072624206543e-02
-2.887694165110588074e-03
2.480573207139968872e-02
-1.819224469363689423e-02
2.892114780843257904e-02
4.823724552989006042e-02
1.561644580215215683e-02
3.702339529991149902e-02
1.347489561885595322e-02
-2.194569259881973267e-02
4.708673804998397827e-02
-5.340703763067722321e-03
-2.780887298285961151e-03
-5.738669261336326599e-02
-1.868793740868568420e-02
-2.155711315572261810e-02
-2.018593251705169678e-02
1.403053570538759232e-02
-4.115140810608863831e-02
1.226329896599054337e-02
-5.137289687991142273e-02
3.580738604068756104e-02
-3.938344120979309082e-02
-6.920755840837955475e-03
-8.585231378674507141e-03
-5.867826193571090698e-02
-2.770081907510757446e-02
2.567638084292411804e-02
-1.305871084332466125e-02
-1.123959664255380630e-02
3.140390664339065552e-02
-4.381839558482170105e-02
1.474717259407043457e-02
-3.746635466814041138e-02
2.170041762292385101e-02
2.146925218403339386e-02
-2.429580315947532654e-02
-1.858420856297016144e-02
1.162020862102508545e-02
-4.517839848995208740e-02
1.895881257951259613e-02
9.854773990809917450e-03
-2.865261957049369812e-02
2.546651102602481842e-02
-3.203413635492324829e-02
-2.169997431337833405e-02
-2.852290309965610504e-02
-2.550810948014259338e-02
5.297486111521720886e-02
2.159197255969047546e-02
5.714319646358489990e-03
-6.785543169826269150e-03
-2.601400390267372131e-02
3.507192432880401611e-02
7.974272593855857849e-03
2.069614827632904053e-02
-5.623671226203441620e-03
4.441813100129365921e-03
-4.161031916737556458e-02
1.374358404427766800e-02
4.426641017198562622e-02
3.635930269956588745e-02
-3.380799666047096252e-02
-6.270637363195419312e-02
5.379282683134078979e-02
2.853350527584552765e-02
2.781324088573455811e-02
-1.092212554067373276e-02
-4.014319926500320435e-02
-8.604582399129867554e-03
1.711718179285526276e-02
1.002611592411994934e-02
-6.395074725151062012e-02
-2.609632909297943115e-02
-1.864981092512607574e-02
-4.623482748866081238e-02
4.541646316647529602e-02
-7.980456948280334473e-02
1.529678143560886383e-02
-2.359176985919475555e-02
-7.527211308479309082e-02
-1.080026105046272278e-02
-2.068465016782283783e-02
3.504032641649246216e-02
3.318891301751136780e-02
-3.296361491084098816e-02
-3.352506086230278015e-02
7.027205079793930054e-02
8.449333719909191132e-03
6.905040889978408813e-02
-4.497561603784561157e-02
-5.000241473317146301e-02
-5.908576305955648422e-03
-2.585468348115682602e-03
-4.533352330327033997e-02
-2.258629724383354187e-02
8.105229586362838745e-03
6.524740904569625854e-02
2.522272616624832153e-02
4.189465567469596863e-02
6.895852088928222656e-02
4.049513116478919983e-02
-1.375914923846721649e-02
-6.941893137991428375e-03
2.471258677542209625e-02
1.438745763152837753e-02
5.127200484275817871e-02
4.643524438142776489e-02
-7.248288393020629883e-02
-4.671153146773576736e-03
8.332431316375732422e-02
-3.124769218266010284e-02
1.980346627533435822e-02
-3.151703253388404846e-02
-2.880830876529216766e-02
-6.238481029868125916e-02
4.337576776742935181e-02
5.228029936552047729e-02
1.459191273897886276e-02
-1.050514169037342072e-02
-1.639585196971893311e-02
5.980860069394111633e-02
-3.022358007729053497e-02
2.846475131809711456e-02
2.426496706902980804e-02
4.005346819758415222e-02
-2.624695748090744019e-02
5.005874671041965485e-03
1.594243384897708893e-02
2.457235753536224365e-02
-1.505727134644985199e-02
8.745841681957244873e-03
-4.916329402476549149e-03
1.183978747576475143e-02
-5.795971490442752838e-03
-1.383889839053153992e-02
3.121057152748107910e-02
4.363036155700683594e-02
9.275568276643753052e-02
5.498262867331504822e-02
-3.271891549229621887e-02
3.058948554098606110e-02
-3.047897666692733765e-02
-7.178975269198417664e-03
3.667733445763587952e-02
2.044067950919270515e-03
8.557078428566455841e-03
7.065930962562561035e-02
7.565290480852127075e-02
-3.867203742265701294e-02
9.272911585867404938e-03
-1.303097698837518692e-02
-2.592902444303035736e-02
4.080665484070777893e-02
3.889787942171096802e-02
3.824512287974357605e-02
4.678379371762275696e-02
-2.691379562020301819e-02
-1.435760036110877991e-02
6.091986224055290222e-02
-6.795813888311386108e-02
-5.001173820346593857e-03
-2.125792205333709717e-02
-1.642508246004581451e-02
-3.081765584647655487e-02
-2.603580988943576813e-02
-1.493187737651169300e-03
3.781595081090927124e-02
2.757226862013339996e-02
1.900093816220760345e-02
1.438716147094964981e-02
-2.435098960995674133e-02
-1.444206340238451958e-03
-3.449581936001777649e-02
-2.179443277418613434e-02
-1.980295404791831970e-02
1.104218605905771255e-02
1.359525881707668304e-02
-4.096591100096702576e-02
1.839517848566174507e-03
-2.848769538104534149e-02
3.670760989189147949e-02
-6.581107527017593384e-02
-2.015084400773048401e-02
-1.369163580238819122e-02
-4.147791117429733276e-02
2.761297114193439484e-02
2.900546975433826447e-02
1.401586551219224930e-02
-2.748344326391816139e-03
2.504936791956424713e-02
-8.042794652283191681e-03
-2.101745922118425369e-03
-7.853745482861995697e-03
-1.642637886106967926e-03
-3.857962787151336670e-03
3.297847136855125427e-02
-8.926983922719955444e-03
1.348451152443885803e-02
-2.168438583612442017e-02
-3.987190127372741699e-02
-5.388002609834074974e-04
-2.435820922255516052e-02
-3.297491744160652161e-02
2.046076767146587372e-02
-4.430785775184631348e-02
-3.747920691967010498e-02
-4.169255122542381287e-02
-3.414914710447192192e-03
2.935377694666385651e-02
5.434029269963502884e-03
-2.374462038278579712e-02
3.209345042705535889e-02
3.371227905154228210e-02
1.892475760541856289e-03
-4.775321111083030701e-03
-3.118584863841533661e-02
9.806687012314796448e-03
-4.051186889410018921e-02
2.337044104933738708e-02
4.075944423675537109e-02
5.108815059065818787e-02
-9.411717765033245087e-03
3.130106488242745399e-03
3.755402565002441406e-02
-1.554316096007823944e-02
6.423109769821166992e-02
-1.778392679989337921e-02
-5.690016224980354309e-02
2.026562951505184174e-02
-7.883642800152301788e-03
-3.985562548041343689e-02
-1.988246291875839233e-02
1.398741453886032104e-02
9.144540876150131226e-03
-1.002799160778522491e-02
-7.822839543223381042e-03
-4.836394265294075012e-02
2.596227219328284264e-03
-2.992069907486438751e-02
4.589126631617546082e-02
-2.474015019834041595e-02
-4.688438202720135450e-04
-2.681916393339633942e-02
-2.551908232271671295e-02
1.848805695772171021e-02
-3.873731940984725952e-02
-3.867577016353607178e-02
-2.810303308069705963e-02
-4.205678775906562805e-02
3.437745943665504456e-02
-5.231355130672454834e-02
-7.824589312076568604e-02
-6.347042322158813477e-02
3.889001533389091492e-02
3.675415366888046265e-02
-2.567843720316886902e-02
-3.883925825357437134e-02
-2.568045072257518768e-02
-1.787344738841056824e-02
4.835035279393196106e-02
4.512288793921470642e-02
2.663396485149860382e-02
1.790845021605491638e-02
2.510200068354606628e-02
8.487535268068313599e-02
1.054283510893583298e-02
-1.947007887065410614e-02
3.064350970089435577e-02
3.940742462873458862e-03
4.574793577194213867e-02
-5.049834493547677994e-03
-6.406799890100955963e-03
4.999570176005363464e-02
-4.574795067310333252e-02
5.429809540510177612e-02
5.442509055137634277e-02
5.038044974207878113e-02
5.574206262826919556e-02
-8.107122033834457397e-02
2.634125016629695892e-02
-2.026730775833129883e-02
-2.534636110067367554e-02
1.626646704971790314e-02
2.832160331308841705e-03
-6.868585199117660522e-02
-5.326005071401596069e-02
-5.056886747479438782e-02
8.363190293312072754e-02
2.764357626438140869e-02
3.585327416658401489e-03
3.391803056001663208e-02
1.051544845104217529e-01
1.650144695304334164e-03
-3.567464009393006563e-04
1.145209558308124542e-02
2.521342597901821136e-02
-3.526152670383453369e-02
-6.031042430549860001e-03
-6.316207349300384521e-02
-1.699606329202651978e-02
-5.702813621610403061e-03
3.941984102129936218e-02
9.164954535663127899e-03
3.633674606680870056e-02
5.383092444390058517e-03
-1.988341845571994781e-02
6.133740767836570740e-02
-7.654579356312751770e-03
5.693915486335754395e-02
1.733921281993389130e-02
-2.425587736070156097e-02
-7.776217069476842880e-03
3.064002841711044312e-02
-8.049522526562213898e-03
-3.099255636334419250e-02
-3.146448358893394470e-02
2.488602325320243835e-02
-3.171044215559959412e-02
1.832261495292186737e-02
-9.780193679034709930e-03
1.212994847446680069e-02
1.327870786190032959e-02
6.455227732658386230e-03
2.706153877079486847e-02
-7.961057126522064209e-03
3.411922976374626160e-02
1.203524693846702576e-02
1.119070500135421753e-02
-2.108721993863582611e-02
1.230840291827917099e-02
2.422214485704898834e-02
1.136057171970605850e-02
-1.072840113192796707e-02
2.467504143714904785e-02
-1.019874773919582367e-02
-1.114569720812141895e-03
3.639245405793190002e-02
-1.329653710126876831e-02
-1.124127209186553955e-02
-2.294865250587463379e-02
6.418787408620119095e-03
-3.953134641051292419e-03
-1.497796922922134399e-02
-3.060023672878742218e-02
-3.842553496360778809e-02
1.004934590309858322e-02
8.556883782148361206e-03
-1.453984063118696213e-02
2.675994858145713806e-02
-1.666123420000076294e-02
8.639133884571492672e-04
-2.606994938105344772e-03
-2.695064991712570190e-02
-7.603689096868038177e-03
-6.032010423950850964e-04
1.120771747082471848e-02
1.041383016854524612e-02
-5.158070009201765060e-03
-5.116971954703330994e-02
2.180494554340839386e-02
2.452638372778892517e-02
-2.814446389675140381e-02
3.080562455579638481e-03
-5.382357165217399597e-02
3.021236881613731384e-02
-3.244086867198348045e-03
3.049386665225028992e-02
2.751793339848518372e-02
2.116293273866176605e-02
-2.033997513353824615e-02
1.316260267049074173e-02
-1.354522258043289185e-02
1.823638752102851868e-02
2.576501108705997467e-02
-7.016259478405117989e-04
-1.593576371669769287e-02
-1.206221804022789001e-02
-5.030089616775512695e-02
1.802997849881649017e-02
1.961353980004787445e-02
4.776904731988906860e-02
-5.076993629336357117e-02
2.277493104338645935e-02
5.745509639382362366e-02
6.051429081708192825e-03
1.293042954057455063e-02
-2.276451140642166138e-02
-2.968870103359222412e-02
-7.107657380402088165e-03
-1.199216640088707209e-04
-3.349439706653356552e-03
2.520101703703403473e-02
9.443866088986396790e-03
3.056281618773937225e-02
6.143405660986900330e-02
6.232461333274841309e-02
-6.880535185337066650e-02
3.170338273048400879e-02
3.585979342460632324e-02
-2.972268499433994293e-02
1.642833091318607330e-02
-4.108094051480293274e-02
1.434636488556861877e-02
-9.628310054540634155e-02
-5.449482053518295288e-02
9.575778618454933167e-03
3.692103922367095947e-02
-3.684578090906143188e-02
3.309799358248710632e-02
-5.533683579415082932e-03
-2.747993730008602142e-02
-4.728779196739196777e-02
1.640763506293296814e-02
-7.100377976894378662e-02
1.151551492512226105e-02
5.257824063301086426e-02
-4.465765133500099182e-02
-9.815867990255355835e-03
1.628561690449714661e-02
-4.315470345318317413e-03
6.517858058214187622e-02
-6.533543765544891357e-02
1.200196705758571625e-02
-2.883871085941791534e-02
-2.148137986660003662e-02
1.832133159041404724e-02
-2.786523289978504181e-02
4.142631217837333679e-02
-8.411471731960773468e-03
1.491332985460758209e-02
8.201862685382366180e-03
2.617436274886131287e-02
6.994035560637712479e-03
1.329340855590999126e-03
8.160730451345443726e-02
6.302370131015777588e-02
-2.359877526760101318e-02
4.107656702399253845e-02
7.980810105800628662e-02
-2.928438968956470490e-02
-3.256448358297348022e-02
7.279176730662584305e-03
-6.616371218115091324e-03
3.148711472749710083e-02
-1.239047106355428696e-02
1.011090911924839020e-02
1.600367762148380280e-02
-1.455172244459390640e-02
1.094063557684421539e-02
1.315503474324941635e-02
-2.314225211739540100e-02
3.223618865013122559e-02
4.821662791073322296e-03
5.188557505607604980e-02
6.410402804613113403e-02
-1.557587273418903351e-02
3.931757062673568726e-03
-5.831608921289443970e-02
-6.326059228740632534e-04
2.371956966817378998e-02
5.034026131033897400e-02
4.024742171168327332e-03
5.426014959812164307e-02
1.418059971183538437e-02
1.387850288301706314e-02
5.195946246385574341e-02
5.379613721743226051e-04
3.120202943682670593e-02
4.702873528003692627e-02
-4.074651747941970825e-03
3.784204274415969849e-02
-1.663257740437984467e-02
3.041448444128036499e-02
6.837977468967437744e-02
4.591545835137367249e-02
6.891345977783203125e-02
-3.159858658909797668e-02
2.337606623768806458e-02
5.031968280673027039e-02
-3.271310031414031982e-02
2.598928054794669151e-03
-2.802548557519912720e-02
3.731758799403905869e-03
-5.529805645346641541e-02
-4.876493290066719055e-02
4.694316070526838303e-03
3.131828457117080688e-02
-4.012276884168386459e-03
4.303692281246185303e-02
8.647411130368709564e-03
-1.126482058316469193e-02
-2.313398011028766632e-02
1.595608144998550415e-02
-5.955553799867630005e-02
8.629494113847613335e-04
2.218819968402385712e-02
-3.049360960721969604e-02
-2.901941910386085510e-02
2.377008646726608276e-02
4.240258131176233292e-03
5.372939631342887878e-02
-6.463667005300521851e-02
-1.439875806681811810e-03
-1.795748248696327209e-02
-3.464181721210479736e-02
6.931252032518386841e-02
-3.776047378778457642e-03
1.932845264673233032e-02
-1.287096459418535233e-02
9.732626378536224365e-03
1.699075661599636078e-02
-2.279034629464149475e-02
1.480443635955452919e-03
-2.249079383909702301e-02
5.741904303431510925e-02
5.239098891615867615e-02
-2.439990639686584473e-02
1.696138270199298859e-02
5.944906547665596008e-02
-3.725232183933258057e-02
-4.936858266592025757e-02
-7.456149905920028687e-04
-2.545756474137306213e-02
2.991672046482563019e-02
-3.740913793444633484e-02
-5.859949626028537750e-03
6.363257765769958496e-03
-2.751652896404266357e-02
2.801796793937683105e-02
1.970069669187068939e-02
-6.171924993395805359e-03
3.124316781759262085e-02
2.092453092336654663e-02
1.906476728618144989e-02
4.295760765671730042e-02
-4.005014523863792419e-02
1.330758817493915558e-02
-7.817209511995315552e-02
1.261965185403823853e-02
3.194472193717956543e-02
6.024790927767753601e-02
1.520669274032115936e-02
3.447671979665756226e-02
3.865219280123710632e-02
-2.535203658044338226e-02
6.873729825019836426e-02
-3.294332418590784073e-03
-1.171517930924892426e-02
3.274958208203315735e-02
-2.289072796702384949e-02
-1.176225673407316208e-02
-3.521418944001197815e-02
1.186086907982826233e-01
-9.799534082412719727e-02
-2.992149256169795990e-02
-1.148379500955343246e-02
-3.120558708906173706e-02
-6.283479277044534683e-03
3.504734486341476440e-02
3.562054410576820374e-02
3.596103563904762268e-02
1.951166987419128418e-02
-6.756686419248580933e-02
2.399601973593235016e-02
-4.140388220548629761e-03
-7.166256196796894073e-03
2.706685289740562439e-02
6.649962812662124634e-02
-1.263597141951322556e-02
6.743563339114189148e-03
3.719934448599815369e-02
1.149918790906667709e-02
6.451760232448577881e-02
4.629879444837570190e-02
-1.737771928310394287e-02
-4.054930061101913452e-02
-1.301324516534805298e-01
5.808403342962265015e-02
8.071927353739738464e-03
-7.242239266633987427e-02
-8.732123672962188721e-02
6.535372138023376465e-02
-7.464613765478134155e-03
-3.787663578987121582e-02
-3.638631198555231094e-03
-4.821957647800445557e-02
8.312781155109405518e-02
1.001634448766708374e-01
-6.688901223242282867e-03
4.689140710979700089e-03
1.860752142965793610e-02
-3.831021115183830261e-02
-7.032074034214019775e-02
6.047063693404197693e-02
7.061805110424757004e-03
-5.233258381485939026e-02
1.783682405948638916e-02
6.369356531649827957e-03
2.363595180213451385e-02
-1.943188905715942383e-02
4.186061397194862366e-02
6.356617063283920288e-02
-1.069292053580284119e-02
-2.807346731424331665e-02
5.878478288650512695e-03
3.680652007460594177e-02
-4.128063842654228210e-02
6.304560601711273193e-02
1.840538159012794495e-02
5.925824120640754700e-02
-2.202489785850048065e-02
5.291719455271959305e-03
-9.642557241022586823e-03
-6.874033249914646149e-03
5.402124673128128052e-02
1.086798980832099915e-01
-7.247442752122879028e-02
2.998671866953372955e-02
2.828666754066944122e-02
7.025083154439926147e-02
-9.048566967248916626e-02
7.783311605453491211e-02
5.555513501167297363e-02
-2.419272623956203461e-02
-2.885150723159313202e-02
-9.091746807098388672e-02
-1.748985052108764648e-02
-3.197121992707252502e-02
4.516268521547317505e-02
1.921079866588115692e-02
8.040504157543182373e-02
-2.534678764641284943e-02
4.588112607598304749e-02
-8.061324059963226318e-02
-3.966495394706726074e-02
-3.967442736029624939e-02
6.345815211534500122e-02
5.812506005167961121e-02
3.974547609686851501e-02
1.048437729477882385e-01
1.138353813439607620e-02
-1.473088632337749004e-03
-1.369907520711421967e-02
8.762685954570770264e-02
-1.256490126252174377e-02
-4.921951517462730408e-02
-1.787359477020800114e-03
4.241906851530075073e-02
-1.865773461759090424e-02
8.702405611984431744e-04
8.455621078610420227e-03
-3.705709800124168396e-02
-4.924765671603381634e-04
-5.232436582446098328e-03
-1.282478123903274536e-02
-3.609091043472290039e-02
8.167704567313194275e-03
-2.223260514438152313e-02
-4.815609753131866455e-02
-1.915984414517879486e-02
-2.418974327156320214e-04
4.717156663537025452e-02
2.361874282360076904e-02
1.365727861411869526e-03
-3.399297967553138733e-02
1.122808316722512245e-03
-6.722308695316314697e-02
-6.375009566545486450e-02
-7.156524062156677246e-02
2.075906097888946533e-02
-3.613983467221260071e-02
-7.895285636186599731e-02
-1.685491390526294708e-02
-2.992063760757446289e-02
5.268967524170875549e-02
1.706965453922748566e-02
-2.482741512358188629e-02
-2.540118247270584106e-02
4.880621656775474548e-02
3.124161437153816223e-02
-2.178571652621030807e-03
-7.983204908668994904e-03
3.747263178229331970e-02
-4.875238984823226929e-03
1.927774213254451752e-02
5.295063182711601257e-02
-1.700976490974426270e-02
-6.114754453301429749e-02
5.052543710917234421e-03
5.851460993289947510e-02
2.014359273016452789e-02
1.415870152413845062e-02
-2.219275943934917450e-02
1.682605780661106110e-02
7.917745038866996765e-03
5.866571143269538879e-02
3.738475963473320007e-03
7.641240954399108887e-02
3.621256351470947266e-02
8.014583960175514221e-03
-4.020350798964500427e-02
-4.425338655710220337e-02
1.528837718069553375e-02
1.611712388694286346e-02
4.656947404146194458e-02
-1.167174726724624634e-01
-1.251807808876037598e-02
5.331768188625574112e-04
2.290335297584533691e-02
-1.875990629196166992e-02
-5.390876904129981995e-02
2.792793698608875275e-02
-6.082276627421379089e-02
-3.192937374114990234e-02
1.602575369179248810e-02
3.132998198270797729e-02
-1.651764847338199615e-03
1.309849135577678680e-02
4.545909166336059570e-02
-8.780914358794689178e-03
-8.903544396162033081e-03
9.722512215375900269e-03
6.311383913271129131e-04
-4.903641343116760254e-02
9.436069428920745850e-02
1.114679407328367233e-02
-5.196637660264968872e-02
7.980535179376602173e-02
2.537255547940731049e-02
4.509166628122329712e-02
1.904708519577980042e-02
-1.113519683713093400e-04
-7.336928695440292358e-02
1.809548703022301197e-03
8.592373132705688477e-02
7.707857340574264526e-02
-5.454382300376892090e-02
-1.744742877781391144e-02
-1.986113563179969788e-02
-2.554658241569995880e-02
-1.815999113023281097e-02
2.853680215775966644e-02
-5.475163087248802185e-02
-4.337841272354125977e-02
-5.894711613655090332e-02
-9.173274040222167969e-03
2.661953493952751160e-02
1.298698130995035172e-02
3.461168333888053894e-02
-5.332828685641288757e-02
-5.897076055407524109e-02
-1.531883515417575836e-02
2.412255667150020599e-02
9.823678992688655853e-03
2.759937196969985962e-02
4.330625012516975403e-02
3.926842287182807922e-02
2.588609466329216957e-03
-4.917924478650093079e-02
1.908252201974391937e-02
-2.000505663454532623e-02
-2.118826657533645630e-02
-2.042829245328903198e-02
-4.437577724456787109e-02
1.200364436954259872e-03
-3.759909421205520630e-02
-4.116951674222946167e-02
4.867064207792282104e-02
4.413953050971031189e-02
-1.520960219204425812e-02
-1.123927254229784012e-02
8.265984058380126953e-02
-5.383699201047420502e-03
-1.830170489847660065e-02
4.884698614478111267e-02
3.631601482629776001e-02
-6.768216192722320557e-02
7.318392395973205566e-02
-3.301044553518295288e-02
-9.208994358777999878e-02
-1.622272655367851257e-02
1.936041750013828278e-02
-6.534631364047527313e-03
-1.853153668344020844e-02
3.183650970458984375e-02
-1.064818799495697021e-01
-3.802391886711120605e-02
1.443502842448651791e-03
-4.979563504457473755e-02
8.022756874561309814e-02
1.456995606422424316e-01
-4.297113418579101562e-02
3.217206150293350220e-02
3.472449630498886108e-02
5.415449850261211395e-03
-3.894905792549252510e-03
2.119630575180053711e-02
-2.987528778612613678e-02
3.033130802214145660e-02
-2.606954798102378845e-02
-8.540133945643901825e-03
3.208213020116090775e-03
7.970440201461315155e-03
3.079753182828426361e-02
-4.147050529718399048e-02
2.374368347227573395e-02
4.742212593555450439e-02
1.594502292573451996e-02
1.900887931697070599e-03
2.924091555178165436e-02
1.822157762944698334e-02
-7.546556647866964340e-03
-4.102159291505813599e-03
-2.367676049470901489e-02
-1.513465493917465210e-02
8.543496020138263702e-03
3.306807205080986023e-02
-3.179795295000076294e-02
-7.712927646934986115e-03
9.391645900905132294e-03
2.308592572808265686e-02
-2.815846726298332214e-02
-1.269379910081624985e-02
-2.795141562819480896e-02
-3.999669849872589111e-02
7.551120221614837646e-02
1.989716105163097382e-02
-2.721558883786201477e-02
4.580114781856536865e-02
1.493314187973737717e-02
3.152840770781040192e-03
-2.226047031581401825e-02
-6.197082344442605972e-03
-1.121124532073736191e-02
5.725144408643245697e-03
2.172677405178546906e-02
-1.856881752610206604e-02
-1.078660879284143448e-02
-1.213727518916130066e-02
-6.947008892893791199e-03
-3.756604623049497604e-03
-7.383716758340597153e-03
-2.904611080884933472e-02
-1.771500147879123688e-02
-3.361617214977741241e-03
-3.110806830227375031e-02
3.598361834883689880e-02
-1.040643360465764999e-02
2.369141951203346252e-02
-1.235679537057876587e-02
3.806965798139572144e-02
-9.676354820840060711e-04
6.713402271270751953e-02
1.266611926257610321e-02
1.931618154048919678e-02
-2.209412865340709686e-02
-1.319477567449212074e-03
-6.157869100570678711e-02
3.187582269310951233e-02
2.448227256536483765e-02
6.098170951008796692e-02
-2.843479625880718231e-02
3.431491088122129440e-03
6.380262225866317749e-02
-2.310971915721893311e-02
5.300919339060783386e-02
-1.992922043427824974e-03
-2.950887940824031830e-02
-2.318571321666240692e-02
1.972039608517661691e-04
-1.292101386934518814e-02
2.376348339021205902e-02
1.233824435621500015e-02
6.310017406940460205e-02
3.681146726012229919e-02
-4.353433381766080856e-03
3.514331206679344177e-02
5.492748692631721497e-02
-6.389887537807226181e-03
1.373868808150291443e-02
1.396741159260272980e-02
-1.167266722768545151e-02
-7.039020420052111149e-04
-1.344148721545934677e-02
4.984676837921142578e-03
-7.230658084154129028e-03
-1.476662512868642807e-02
-2.707021310925483704e-02
2.985692583024501801e-03
3.104318305850028992e-02
2.497112378478050232e-02
-1.548262592405080795e-02
1.739764586091041565e-02
1.465205103158950806e-02
2.285500057041645050e-02
1.030975021421909332e-02
3.406317904591560364e-02
6.043507251888513565e-03
6.794269662350416183e-03
1.592756435275077820e-02
-5.439551081508398056e-03
2.412064559757709503e-02
5.010051652789115906e-02
1.517348363995552063e-02
-3.983742371201515198e-02
2.028388343751430511e-02
-5.534368380904197693e-02
8.058794587850570679e-02
4.021414369344711304e-02
-2.955774031579494476e-02
-1.663059554994106293e-02
-3.597935661673545837e-02
-1.106593944132328033e-02
2.005690336227416992e-02
1.025807335972785950e-01
3.154275193810462952e-02
-5.178896710276603699e-02
2.780070900917053223e-02
8.704141527414321899e-02
-2.101673372089862823e-02
-6.279959529638290405e-02
1.780622452497482300e-02
1.656584627926349640e-02
5.147076025605201721e-02
-1.838230155408382416e-02
3.380083665251731873e-02
7.100471854209899902e-02
-8.614806085824966431e-02
-6.729734688997268677e-02
1.138793677091598511e-02
3.747884556651115417e-02
-9.416980668902397156e-03
-5.446688737720251083e-03
-1.753960736095905304e-03
3.053530119359493256e-02
-3.591028228402137756e-02
6.416480988264083862e-03
-5.760378763079643250e-02
1.408986188471317291e-02
2.810674486681818962e-03
5.697246268391609192e-02
2.367023751139640808e-02
-4.220521822571754456e-02
2.459301613271236420e-02
2.539421059191226959e-02
-8.760664612054824829e-03
6.137856282293796539e-03
3.663237672299146652e-03
4.230885580182075500e-02
-2.392251417040824890e-02
-3.236280754208564758e-02
1.820465922355651855e-02
1.054911408573389053e-02
-4.806156083941459656e-02
-3.518877178430557251e-02
-6.515870988368988037e-02
9.978686459362506866e-03
-7.521204650402069092e-02
3.014725400134921074e-03
2.554556913673877716e-02
1.138676796108484268e-02
4.330270364880561829e-02
2.565731666982173920e-02
6.375171989202499390e-02
1.612514257431030273e-02
2.304383553564548492e-02
1.728959847241640091e-03
-7.378339767456054688e-02
4.806181788444519043e-02
5.626465752720832825e-02
5.303499847650527954e-02
-7.421524077653884888e-02
-2.177084051072597504e-02
3.381955251097679138e-02
4.835882037878036499e-02
7.623036392033100128e-03
2.582754008471965790e-02
1.663507707417011261e-02
9.623558819293975830e-02
-6.219749804586172104e-03
7.383523136377334595e-02
-1.890085451304912567e-02
-9.788008173927664757e-04
-1.977447886019945145e-03
-1.439851149916648865e-02
-6.111362203955650330e-02
1.145720575004816055e-02
6.665832549333572388e-02
-3.079200163483619690e-02
-3.556220978498458862e-02
-1.389120146632194519e-02
-1.161325722932815552e-02
-8.858094923198223114e-03
-3.530761227011680603e-02
-3.249523788690567017e-02
-1.470870990306138992e-02
1.421629358083009720e-02
-2.819888107478618622e-02
-2.505419403314590454e-02
7.176196575164794922e-02
-1.400666590780019760e-02
2.775599062442779541e-02
1.013834327459335327e-01
-3.832585737109184265e-02
-6.702033337205648422e-03
1.978086074814200401e-03
-5.169946700334548950e-02
6.524997949600219727e-02
1.968413032591342926e-02
-2.303304709494113922e-02
-2.935542352497577667e-02
-5.081799253821372986e-02
4.265183210372924805e-02
-1.206823065876960754e-02
1.071157772094011307e-02
-3.352384641766548157e-02
1.276723295450210571e-02
2.656356431543827057e-02
-4.649873822927474976e-02
-1.054604817181825638e-02
-3.210981190204620361e-02
-1.242492813616991043e-02
-7.471496611833572388e-02
1.285426435060799122e-03
7.479401770979166031e-03
-3.599064797163009644e-02
1.547200791537761688e-02
2.859368920326232910e-02
-2.107482403516769409e-02
4.918389394879341125e-02
5.465392395853996277e-02
1.651710085570812225e-02
-1.096807233989238739e-02
-1.680826395750045776e-02
-4.710463806986808777e-03
6.376860290765762329e-02
-2.176017314195632935e-02
-1.083436794579029083e-02
-7.485680747777223587e-03
-6.862859427928924561e-02
2.705047372728586197e-03
-3.734446316957473755e-02
3.793975338339805603e-02
2.479212544858455658e-02
-4.556285683065652847e-03
-2.869488857686519623e-02
2.374701574444770813e-02
4.877836257219314575e-02
4.078998416662216187e-02
-2.251149155199527740e-02
-2.646269649267196655e-02
7.771340664476156235e-03
-1.015400234609842300e-02
-7.517971098423004150e-02
3.222903609275817871e-02
-1.042437943397089839e-04
5.848281085491180420e-02
-9.107258170843124390e-03
-6.861640140414237976e-03
-4.359893500804901123e-02
-3.718996420502662659e-02
-1.743752695620059967e-02
-1.312303263694047928e-02
2.065121755003929138e-02
-1.942047663033008575e-02
-2.778710052371025085e-02
-5.693656858056783676e-03
-1.409075316041707993e-02
2.505205571651458740e-02
2.025970444083213806e-02
-2.968082018196582794e-02
5.214802920818328857e-02
8.893639780580997467e-03
-3.759920131415128708e-03
-3.917087800800800323e-03
2.979329042136669159e-02
2.556432783603668213e-02
4.013610258698463440e-02
6.216327846050262451e-02
-3.806252032518386841e-02
3.997043892741203308e-02
1.611732691526412964e-02
-3.534339834004640579e-03
2.732653543353080750e-02
8.222287148237228394e-02
-3.018686920404434204e-02
5.233621969819068909e-02
1.915087364614009857e-02
5.145213566720485687e-03
1.283556688576936722e-02
-2.820045500993728638e-02
-1.312400773167610168e-02
-2.676445292308926582e-03
3.091702237725257874e-02
2.282441779971122742e-02
-4.706508480012416840e-03
4.686099663376808167e-02
1.949737407267093658e-02
-2.747479267418384552e-02
-3.303976729512214661e-02
1.267615333199501038e-02
-3.549215942621231079e-02
2.512449771165847778e-02
9.611496701836585999e-03
6.530707329511642456e-02
-3.688550367951393127e-02
6.958179920911788940e-02
9.831430017948150635e-02
-4.542011767625808716e-02
4.719196818768978119e-03
7.885818369686603546e-03
2.148911729454994202e-02
1.031154580414295197e-02
1.821333169937133789e-02
2.252639736980199814e-03
3.940727934241294861e-02
5.563434585928916931e-02
-9.591411799192428589e-03
1.595691032707691193e-02
-3.120835684239864349e-02
3.414388047531247139e-04
-4.724852368235588074e-02
-1.204189844429492950e-03
5.000204965472221375e-02
2.785274386405944824e-02
-5.323514714837074280e-02
-1.053782738745212555e-02
2.913755737245082855e-02
5.476045981049537659e-02
-1.289436500519514084e-02
-2.200351841747760773e-02
1.102617569267749786e-02
-8.988571353256702423e-03
6.679578218609094620e-03
2.731296233832836151e-02
-4.262081347405910492e-03
5.844098702073097229e-02
-3.489968553185462952e-02
-3.359627909958362579e-03
-3.749000281095504761e-02
-5.899143591523170471e-02
4.125623498111963272e-03
-1.262083090841770172e-02
2.630368247628211975e-02
1.499991677701473236e-02
-3.569202497601509094e-02
-1.279914751648902893e-02
3.835770115256309509e-02
1.997452974319458008e-02
-3.767019137740135193e-02
-2.672394178807735443e-02
3.587597608566284180e-02
1.258897129446268082e-02
1.805757544934749603e-02
-2.019030041992664337e-02
3.364108130335807800e-02
-3.508881665766239166e-03
3.658800944685935974e-02
5.892920866608619690e-02
-4.246568679809570312e-02
5.968123301863670349e-02
3.282034397125244141e-02
-1.006602961570024490e-02
3.780922666192054749e-02
2.920676954090595245e-02
-2.680442761629819870e-03
5.304365605115890503e-02
-1.075541973114013672e-02
-1.768747903406620026e-02
1.908562408061698079e-04
-7.337886840105056763e-03
-1.869387179613113403e-02
7.294581271708011627e-03
-7.971337065100669861e-03
-4.397515580058097839e-02
-1.009832415729761124e-02
8.358195424079895020e-02
1.730429939925670624e-02
1.182208303362131119e-03
-5.489236861467361450e-02
-2.606637775897979736e-02
-1.800619624555110931e-02
-1.044642645865678787e-02
2.404300030320882797e-03
6.159980595111846924e-02
-3.445161506533622742e-02
3.975249081850051880e-02
4.578443244099617004e-02
-4.937354475259780884e-02
4.965064581483602524e-03
-2.970007620751857758e-02
2.804237790405750275e-02
2.711297944188117981e-02
-5.514455214142799377e-02
-2.265506796538829803e-02
-8.568375371396541595e-03
-1.153398625319823623e-04
5.598436575382947922e-03
-1.085587777197360992e-02
-2.322693355381488800e-02
-2.153579331934452057e-02
5.710063129663467407e-02
3.639052063226699829e-02
2.205781079828739166e-02
2.286381274461746216e-02
5.724740028381347656e-02
-3.007707744836807251e-02
-3.338685492053627968e-03
-5.784148722887039185e-02
2.801104448735713959e-02
2.062951773405075073e-02
-7.706514745950698853e-02
-2.781271189451217651e-02
-4.332987219095230103e-02
-2.456321381032466888e-03
4.195675719529390335e-03
6.824702769517898560e-02
-3.078856877982616425e-02
-1.184267699718475342e-01
-1.660166075453162193e-03
-4.161025211215019226e-02
-2.740850113332271576e-02
6.509694457054138184e-02
6.537275039590895176e-04
-1.816541142761707306e-02
1.129538100212812424e-02
6.683749705553054810e-02
-5.940225720405578613e-02
-3.681715950369834900e-02
1.262461207807064056e-02
-1.495917607098817825e-02
1.887488923966884613e-02
1.993927359580993652e-02
9.553184732794761658e-03
-2.029138430953025818e-02
-1.859133876860141754e-02
-2.439799532294273376e-02
2.474691718816757202e-02
8.385141380131244659e-03
-3.050033003091812134e-03
9.623999707400798798e-03
8.166519924998283386e-03
-2.661408297717571259e-02
2.279655449092388153e-02
-4.625338315963745117e-02
-1.156229339540004730e-02
3.638672083616256714e-02
1.316155400127172470e-02
-2.282181009650230408e-02
-3.982014954090118408e-02
-5.694673210382461548e-02
3.744497522711753845e-02
1.660822890698909760e-03
-5.779590085148811340e-02
-1.168467104434967041e-02
-3.559113247320055962e-03
-7.057300209999084473e-02
4.110265523195266724e-02
-6.389445811510086060e-02
4.972727969288825989e-03
-4.444721341133117676e-02
6.796819623559713364e-03
6.076788529753684998e-02
-1.021703779697418213e-01
2.450665459036827087e-02
3.158319741487503052e-02
9.893911890685558319e-03
5.069687962532043457e-02
3.976513072848320007e-02
4.556498490273952484e-03
4.442538693547248840e-02
6.439496297389268875e-03
-4.826467484235763550e-03
3.465401753783226013e-02
-5.431687925010919571e-03
4.650510847568511963e-02
3.925575688481330872e-02
-8.233327418565750122e-03
3.111315518617630005e-02
-4.623895511031150818e-04
-2.738949097692966461e-02
-4.397187381982803345e-02
-1.012964174151420593e-02
4.189811646938323975e-02
8.862609043717384338e-03
-4.506018385291099548e-02
-2.019801177084445953e-02
4.016617778688669205e-03
5.837254598736763000e-02
-7.529045455157756805e-03
-2.280988730490207672e-02
3.137957677245140076e-02
-1.502889301627874374e-02
2.443661540746688843e-02
1.366329565644264221e-02
-6.140634417533874512e-03
4.567512497305870056e-02
-1.259809639304876328e-02
-4.661860002670437098e-04
-1.135056652128696442e-02
-3.345941007137298584e-02
-6.164729129523038864e-03
-1.374940667301416397e-02
2.413702197372913361e-02
1.090336684137582779e-02
-2.759214304387569427e-02
3.845063271000981331e-03
3.732380270957946777e-02
1.098550669848918915e-02
-2.075611799955368042e-02
-5.854725372046232224e-03
1.217297837138175964e-02
6.463997531682252884e-03
3.152284538373351097e-03
-3.674949705600738525e-02
2.602066099643707275e-02
9.238969534635543823e-03
1.891841925680637360e-02
2.199506014585494995e-02
-2.590474113821983337e-02
4.254945367574691772e-02
9.172276593744754791e-03
-1.001190207898616791e-02
3.493888676166534424e-02
-5.724092479795217514e-03
-9.437086060643196106e-03
4.262778908014297485e-03
6.268093362450599670e-03
-8.187193423509597778e-03
1.959317922592163086e-02
8.241897448897361755e-03
-3.993569873273372650e-03
6.423645652830600739e-03
-2.672908362001180649e-03
-4.001468792557716370e-02
-3.756010439246892929e-03
7.263266295194625854e-02
3.063676320016384125e-02
3.025850513949990273e-03
-4.100353643298149109e-02
-3.105652146041393280e-02
-1.207896135747432709e-02
-1.060026139020919800e-02
1.005435548722743988e-02
5.148796364665031433e-02
1.715906197205185890e-03
1.515290699899196625e-02
2.120340988039970398e-02
-3.619230166077613831e-02
8.213292807340621948e-03
-3.856180235743522644e-02
-4.423229023814201355e-02
2.159113995730876923e-02
4.764406383037567139e-02
3.053502878174185753e-03
-6.245142780244350433e-03
1.689563132822513580e-02
-2.162441145628690720e-03
2.257320284843444824e-02
-5.925153382122516632e-03
-4.238363821059465408e-03
-1.092638447880744934e-02
1.944375038146972656e-02
7.561548613011837006e-03
-5.919091776013374329e-02
2.408961392939090729e-02
4.629483073949813843e-02
-1.955933868885040283e-02
1.671154797077178955e-02
2.118106931447982788e-02
1.815342716872692108e-02
-2.298029325902462006e-02
5.389402620494365692e-03
-5.600753240287303925e-03
-5.470896605402231216e-03
3.646938875317573547e-02
3.673373535275459290e-02
-1.657036691904067993e-02
1.073706988245248795e-02
2.329270355403423309e-02
3.805800154805183411e-02
-3.284022584557533264e-02
1.822076924145221710e-02
-1.040864363312721252e-02
-3.042903542518615723e-02
8.313791453838348389e-02
5.244087893515825272e-03
-2.075034007430076599e-02
4.633118957281112671e-02
-1.458714157342910767e-02
-1.467849407345056534e-02
-2.557585574686527252e-02
-6.088249851018190384e-03
-4.797093104571104050e-03
2.526279352605342865e-02
2.503155358135700226e-02
-3.754634782671928406e-02
-8.285808376967906952e-03
1.768990233540534973e-02
8.120280690491199493e-03
-1.806996203958988190e-02
3.874982940033078194e-04
-4.539276659488677979e-02
8.321846835315227509e-03
-8.890950120985507965e-03
-3.469798481091856956e-03
4.333658143877983093e-02
-6.007197126746177673e-02
9.729714132845401764e-03
-1.769759692251682281e-02
4.243260994553565979e-02
-1.648515835404396057e-02
5.000179260969161987e-02
8.312487974762916565e-03
2.648491412401199341e-02
-2.978547289967536926e-02
-1.043488155119121075e-03
-7.773396372795104980e-02
3.559077158570289612e-02
2.834011428058147430e-02
5.201086029410362244e-02
-1.615571789443492889e-02
1.953894738107919693e-03
6.547600030899047852e-02
-3.387095034122467041e-02
5.346298217773437500e-02
1.072572637349367142e-02
-2.790925465524196625e-02
9.029065258800983429e-03
-1.303079165518283844e-02
-2.612968347966670990e-02
6.624585948884487152e-03
7.133190333843231201e-02
-4.032805934548377991e-02
-2.866208180785179138e-02
4.765977151691913605e-03
-4.254531115293502808e-02
-4.594807513058185577e-03
-3.419673442840576172e-02
4.091177135705947876e-02
6.860252469778060913e-02
-5.173480510711669922e-02
-6.216761469841003418e-02
2.157895592972636223e-03
1.681817509233951569e-02
-5.353661254048347473e-02
1.052809879183769226e-02
7.494438439607620239e-02
5.033345520496368408e-02
-2.496811933815479279e-02
4.868484660983085632e-02
6.683556735515594482e-02
7.788757979869842529e-02
7.478460669517517090e-02
-1.389118563383817673e-02
-3.533547744154930115e-02
-1.556647121906280518e-01
5.125056207180023193e-02
5.153581127524375916e-02
-5.104782804846763611e-02
-4.932233691215515137e-02
3.114096634089946747e-02
-2.479556947946548462e-02
-8.769981563091278076e-02
-2.354210428893566132e-02
-1.049135462380945683e-03
6.444158405065536499e-02
9.873031079769134521e-02
1.127779483795166016e-03
-3.651110827922821045e-02
5.577261000871658325e-02
-3.530831634998321533e-02
-3.614700958132743835e-02
4.019385948777198792e-02
4.205008968710899353e-02
-4.855320975184440613e-02
6.152625381946563721e-02
-1.176117546856403351e-02
1.893658377230167389e-02
-2.851973474025726318e-02
3.876899927854537964e-02
-4.043909162282943726e-02
-2.806627936661243439e-02
-8.485899120569229126e-02
-2.668548747897148132e-02
6.011187285184860229e-02
1.428831368684768677e-03
7.404386252164840698e-02
2.405466325581073761e-02
6.565179675817489624e-02
-5.301707424223423004e-03
3.851279988884925842e-02
-6.428258866071701050e-02
1.101261284202337265e-02
4.324607923626899719e-02
8.518205583095550537e-02
-8.095367997884750366e-02
-1.538349036127328873e-02
1.555643975734710693e-02
5.171886831521987915e-02
-7.000896334648132324e-02
7.400911301374435425e-02
1.600013300776481628e-02
3.018599934875965118e-02
-2.092298306524753571e-02
-1.001455932855606079e-01
-1.058792229741811752e-03
-3.018245846033096313e-02
3.649266436696052551e-04
-6.852335296571254730e-03
1.031446978449821472e-01
-5.618791654706001282e-02
4.290955513715744019e-02
-6.749050319194793701e-02
-5.506629124283790588e-02
-1.123442966490983963e-02
-3.555987775325775146e-02
2.207232639193534851e-02
3.786480752751231194e-03
-1.362748723477125168e-02
3.468176349997520447e-02
-4.581166431307792664e-02
-1.392120122909545898e-02
2.176994644105434418e-02
2.939172089099884033e-02
2.251643501222133636e-02
2.509144507348537445e-02
5.740980431437492371e-02
-2.256220392882823944e-02
-3.326674550771713257e-02
3.824668750166893005e-02
-1.263059303164482117e-02
8.533295243978500366e-03
-1.336507219821214676e-02
2.489452436566352844e-02
3.254751861095428467e-02
-3.080703131854534149e-02
-3.454198315739631653e-02
-8.042661473155021667e-03
-2.050752937793731689e-02
-7.186005264520645142e-02
7.775206863880157471e-02
-5.257509276270866394e-02
-8.771029114723205566e-02
-6.717789173126220703e-02
-3.264996781945228577e-02
4.886541888117790222e-02
3.075383417308330536e-02
-3.239503502845764160e-02
-4.978436976671218872e-03
2.127770893275737762e-02
-1.137371920049190521e-02
-2.716931328177452087e-02
3.975410014390945435e-02
2.532834745943546295e-02
-2.475901879370212555e-02
3.770071268081665039e-02
9.769218415021896362e-02
1.841515069827437401e-03
2.323011495172977448e-02
1.696843653917312622e-02
-4.764373600482940674e-02
6.679892539978027344e-02
-1.150994654744863510e-02
8.232391439378261566e-03
3.095545433461666107e-02
3.472369164228439331e-02
1.327170059084892273e-03
-4.986102879047393799e-02
3.053811378777027130e-02
1.165842078626155853e-02
6.336239725351333618e-02
-1.551801525056362152e-02
3.453828394412994385e-02
1.300880592316389084e-02
4.199457913637161255e-02
-5.265742540359497070e-02
-7.172291167080402374e-03
-6.049740593880414963e-03
7.243665400892496109e-03
-5.397016927599906921e-02
-9.738299064338207245e-03
1.768781058490276337e-02
-3.264789655804634094e-02
3.890521824359893799e-02
-6.396053731441497803e-02
3.499564900994300842e-02
1.022306736558675766e-02
-4.307994246482849121e-02
4.293897375464439392e-02
6.282046437263488770e-02
1.001387354335747659e-04
8.045496419072151184e-03
-1.061858981847763062e-02
-3.171835467219352722e-02
-4.037449136376380920e-03
1.817108318209648132e-02
-3.790210187435150146e-02
-1.767080160789191723e-03
7.615349721163511276e-03
1.295002363622188568e-02
-5.134943500161170959e-02
2.675591967999935150e-02
4.528021812438964844e-02
5.634761881083250046e-03
-4.805213306099176407e-03
-1.229735836386680603e-02
2.834522351622581482e-02
6.025251746177673340e-02
2.072633802890777588e-02
2.631510049104690552e-02
-1.089647994376718998e-03
9.520476683974266052e-03
7.038971036672592163e-02
3.350485861301422119e-02
-9.616044349968433380e-03
3.314383700489997864e-02
2.467460371553897858e-02
2.600931562483310699e-02
1.175455190241336823e-02
6.210988387465476990e-03
-2.022238820791244507e-02
-4.501963034272193909e-03
7.420246489346027374e-03
3.725695982575416565e-02
1.177856978029012680e-02
5.275000259280204773e-02
3.343552350997924805e-02
-2.223490923643112183e-02
-2.344897948205471039e-02
3.317434107884764671e-03
-1.338148675858974457e-02
1.423878781497478485e-02
-1.555722579360008240e-02
-5.855206027626991272e-02
3.381526097655296326e-02
7.602614816278219223e-03
-1.826965995132923126e-02
-1.280750584555789828e-04
2.301348559558391571e-02
5.141543969511985779e-02
1.924685761332511902e-02
3.720266371965408325e-02
2.413604408502578735e-02
2.500549890100955963e-03
6.252906750887632370e-03
-5.593803524971008301e-02
2.752741239964962006e-02
9.714188054203987122e-03
8.516255766153335571e-03
-2.639147453010082245e-03
-6.760023068636655807e-03
-9.270943701267242432e-03
-3.487341850996017456e-02
-5.997584387660026550e-02
-7.488825172185897827e-02
5.575011670589447021e-02
3.801180049777030945e-02
-3.139915317296981812e-02
-5.376213416457176208e-02
-3.346728533506393433e-02
2.398660220205783844e-02
-4.356976971030235291e-02
-2.111957781016826630e-02
-1.834469102323055267e-02
-2.553505823016166687e-02
2.174891903996467590e-02
3.508110716938972473e-02
-5.739438906311988831e-02
1.789811626076698303e-02
-1.638192869722843170e-02
-6.106798537075519562e-03
3.799926489591598511e-02
-1.987065374851226807e-02
-1.591761410236358643e-02
-3.042820841073989868e-02
2.320500649511814117e-02
-5.744815990328788757e-02
3.642531484365463257e-02
-8.991091512143611908e-03
5.133952479809522629e-03
2.355166524648666382e-02
4.155209753662347794e-03
4.837367311120033264e-02
-1.058615371584892273e-02
3.089854307472705841e-02
2.283777855336666107e-02
6.199907977133989334e-03
-3.242259845137596130e-02
2.539692074060440063e-02
2.487217262387275696e-02
-5.950686987489461899e-03
-1.728767156600952148e-02
7.252733688801527023e-03
1.215039170347154140e-03
1.855208189226686954e-03
5.200467631220817566e-02
-1.851016469299793243e-02
-7.847280241549015045e-03
-2.817982807755470276e-02
1.330216415226459503e-02
-2.317595481872558594e-02
-5.892260465770959854e-03
-1.432812493294477463e-02
-3.523039817810058594e-02
2.654443262144923210e-03
-3.861341392621397972e-03
-1.794796437025070190e-02
3.224540501832962036e-02
1.072219479829072952e-02
-1.444256119430065155e-02
6.310377269983291626e-03
-1.415287237614393234e-02
-1.074446085840463638e-02
-1.396568212658166885e-02
-1.178553421050310135e-02
-7.128151599317789078e-03
-4.057806450873613358e-03
-4.766031727194786072e-02
2.179170586168766022e-02
7.766030728816986084e-03
-2.052945457398891449e-02
1.393908075988292694e-02
-7.265529036521911621e-02
2.352095581591129303e-02
-1.114515680819749832e-02
3.421982051804661751e-03
2.586149983108043671e-02
2.491147071123123169e-02
-1.799133233726024628e-02
-1.035237032920122147e-02
-2.092803269624710083e-02
3.136877715587615967e-02
2.641859464347362518e-02
4.889697302132844925e-03
-9.728292934596538544e-05
-7.381949108093976974e-03
-4.572436586022377014e-02
2.358988858759403229e-02
2.829529345035552979e-02
4.237782582640647888e-02
-4.801011830568313599e-02
-2.321999333798885345e-02
4.707711189985275269e-02
-1.857445226050913334e-03
8.175342343747615814e-03
-1.900896988809108734e-02
-5.102356523275375366e-02
-1.053588371723890305e-02
1.496039610356092453e-02
3.337306901812553406e-03
-1.693209446966648102e-02
-9.628896601498126984e-03
-8.130704052746295929e-03
-1.499849651008844376e-02
4.319767653942108154e-02
2.375483978539705276e-03
-1.998609397560358047e-03
4.188581835478544235e-03
-4.147690534591674805e-02
-4.258571658283472061e-03
-3.555242344737052917e-02
1.894853636622428894e-02
1.909334957599639893e-02
-1.703118346631526947e-02
-1.816657371819019318e-02
2.207400836050510406e-02
4.597710445523262024e-02
2.532895095646381378e-02
-2.290987223386764526e-02
-8.044567890465259552e-03
-1.055861008353531361e-03
-5.633106455206871033e-03
-3.010349161922931671e-02
1.180507242679595947e-02
-1.921742595732212067e-02
5.317555740475654602e-02
-2.224455820396542549e-03
-1.072734012268483639e-03
-1.294671557843685150e-02
-3.194949030876159668e-02
-7.638177834451198578e-03
1.179973914986476302e-04
1.966649666428565979e-02
-1.358552183955907822e-02
-1.275098882615566254e-02
1.076003722846508026e-02
-1.356284413486719131e-02
2.129287831485271454e-02
1.917738281190395355e-02
-2.034005336463451385e-02
1.951713860034942627e-02
-5.057780537754297256e-03
-2.505037467926740646e-03
-1.940293051302433014e-02
1.306555513292551041e-02
1.250297389924526215e-02
2.294709905982017517e-02
3.219724074006080627e-02
-3.725344315171241760e-02
4.281517863273620605e-02
-5.521742277778685093e-04
1.184013672173023224e-03
-1.338480156846344471e-03
4.326457902789115906e-02
-2.109724469482898712e-02
4.233576729893684387e-02
1.474329549819231033e-02
8.310008794069290161e-03
1.326215639710426331e-02
-7.413178682327270508e-03
-1.029655523598194122e-02
1.411097031086683273e-02
1.120471954345703125e-02
-2.160430420190095901e-03
-2.254053251817822456e-03
4.978656396269798279e-02
1.485486514866352081e-02
-5.444815848022699356e-03
-3.042631782591342926e-02
1.633662916719913483e-02
-1.924685761332511902e-02
1.967194303870201111e-02
2.036851458251476288e-02
3.571608290076255798e-02
-1.898348331451416016e-02
4.160627722740173340e-02
4.139143973588943481e-02
-5.022894218564033508e-02
-1.129716541618108749e-02
-1.310295145958662033e-02
-8.191923797130584717e-02
-3.066994994878768921e-02
1.922854408621788025e-02
2.622555755078792572e-02
-3.260664409026503563e-03
-7.737732678651809692e-02
7.926261425018310547e-02
-3.525226190686225891e-02
-1.284611225128173828e-02
-4.638813436031341553e-03
-2.058874117210507393e-03
-7.503816485404968262e-02
6.066030263900756836e-02
-1.004311162978410721e-02
3.800097620114684105e-03
-1.931965723633766174e-02
1.243090182542800903e-01
1.906900550238788128e-03
-6.351418793201446533e-02
5.872178357094526291e-03
-1.639258861541748047e-02
6.222774833440780640e-02
1.434315741062164307e-01
4.157999902963638306e-02
-7.652799040079116821e-02
1.755160465836524963e-02
3.174491226673126221e-02
3.012852557003498077e-02
-2.381623163819313049e-02
-4.770277813076972961e-02
4.340257495641708374e-02
5.038692429661750793e-02
-7.077101618051528931e-02
-6.142308935523033142e-02
-2.579807117581367493e-02
-1.517952326685190201e-02
4.018354043364524841e-02
-3.963081538677215576e-02
-9.242895059287548065e-03
1.065860912203788757e-01
-1.675104722380638123e-02
-7.368894666433334351e-02
1.362134143710136414e-02
1.074413768947124481e-02
-2.619273774325847626e-02
-1.176017150282859802e-02
6.751122325658798218e-02
5.422433838248252869e-02
1.029498875141143799e-02
7.418200373649597168e-02
-5.165009945631027222e-02
9.568858891725540161e-02
1.627529226243495941e-02
6.241409108042716980e-03
6.047715619206428528e-02
2.649312280118465424e-02
-6.918280851095914841e-03
-5.385202914476394653e-02
3.320016711950302124e-02
2.010923624038696289e-02
-1.090149767696857452e-02
-5.847378075122833252e-02
1.342200860381126404e-02
-2.316405065357685089e-02
-1.143249589949846268e-02
-4.333256185054779053e-02
-5.511749535799026489e-02
5.854109302163124084e-02
1.034243255853652954e-01
-3.286815062165260315e-02
-1.015234831720590591e-02
-4.885019361972808838e-02
-3.577168285846710205e-02
5.232486128807067871e-02
-5.919619463384151459e-03
1.638673432171344757e-02
-1.941787078976631165e-02
3.901669988408684731e-03
-7.317955605685710907e-03
-1.061528250575065613e-01
-7.963735610246658325e-03
-2.547457581385970116e-03
-5.033654160797595978e-03
-1.031381264328956604e-02
-1.109340228140354156e-02
1.028844714164733887e-02
-1.077758800238370895e-02
5.264579504728317261e-02
-2.527947537600994110e-02
-3.882017359137535095e-02
1.601514406502246857e-02
-4.818389564752578735e-02
2.601073822006583214e-03
3.569983318448066711e-02
-6.488833576440811157e-02
-1.331400498747825623e-02
3.152013570070266724e-02
-2.052920684218406677e-02
2.651068195700645447e-02
-8.604303933680057526e-03
3.036621958017349243e-02
-2.932720445096492767e-02
4.717115312814712524e-02
-7.160380482673645020e-03
-2.160009741783142090e-02
4.475614055991172791e-02
1.021227519959211349e-02
-1.336791180074214935e-02
-1.466186437755823135e-02
2.008711174130439758e-02
4.183591902256011963e-02
2.944381162524223328e-02
3.514863923192024231e-02
1.519992761313915253e-02
-2.201655320823192596e-02
-4.313054308295249939e-02
1.989378221333026886e-02
6.850777193903923035e-03
-6.984289269894361496e-03
2.282879874110221863e-02
-7.705567870289087296e-03
-9.413610212504863739e-03
-9.212238341569900513e-02
-3.556456789374351501e-02
-1.384753920137882233e-02
-1.391753274947404861e-02
1.082305703312158585e-02
-3.110957331955432892e-02
-4.379188176244497299e-03
-1.930742152035236359e-02
-1.104764919728040695e-02
2.976997569203376770e-02
-1.609098352491855621e-02
7.980030030012130737e-03
-4.250862170010805130e-03
-1.161294803023338318e-02
7.561111822724342346e-03
1.437417883425951004e-02
-2.720505557954311371e-02
-2.222832851111888885e-02
5.422957241535186768e-03
3.436143323779106140e-02
8.208153769373893738e-03
-4.097191244363784790e-02
4.083442315459251404e-02
1.926597021520137787e-02
-1.717177219688892365e-02
3.163686394691467285e-02
9.047442115843296051e-03
-1.738626696169376373e-02
-4.861763119697570801e-02
-1.042376551777124405e-02
2.591402269899845123e-02
3.000873327255249023e-02
-2.653781883418560028e-02
-5.143503844738006592e-02
-4.756660759449005127e-02
1.887167617678642273e-02
-1.496404316276311874e-02
-6.769051402807235718e-02
-4.916482791304588318e-02
-2.547331713140010834e-02
-5.017953459173440933e-03
-2.993328310549259186e-02
-3.666568547487258911e-03
-2.077871933579444885e-02
9.931708686053752899e-03
-2.294999547302722931e-02
-2.285096980631351471e-02
-2.014735527336597443e-02
1.594291970832273364e-04
3.724351758137345314e-03
7.146842032670974731e-02
-3.076207125559449196e-03
6.855291314423084259e-03
5.118973553180694580e-03
2.181582152843475342e-02
9.447015076875686646e-02
-2.310861088335514069e-02
2.029108628630638123e-02
-1.852576248347759247e-02
-3.614210989326238632e-03
4.901064559817314148e-02
1.876702532172203064e-02
-4.750030115246772766e-02
4.635982587933540344e-02
1.982036978006362915e-02
3.219515830278396606e-02
3.768817335367202759e-02
1.486545056104660034e-02
1.082244981080293655e-02
-1.505626831203699112e-02
-5.538611207157373428e-03
1.456375606358051300e-02
1.055318489670753479e-02
6.316015869379043579e-02
1.788714900612831116e-02
-3.701477125287055969e-02
-1.471690367907285690e-02
1.862192898988723755e-02
-8.708405308425426483e-03
-1.437980122864246368e-02
-1.251429785043001175e-02
-5.929744616150856018e-02
1.137941796332597733e-02
2.163893543183803558e-02
-1.950111612677574158e-02
7.772407028824090958e-03
-1.614108041394501925e-04
4.709932580590248108e-02
-1.836089417338371277e-02
-7.309583481401205063e-03
2.149611711502075195e-02
1.115175057202577591e-02
-9.812287054955959320e-03
1.737727783620357513e-02
4.492107778787612915e-02
8.214903064072132111e-03
1.970484852790832520e-02
6.996763404458761215e-03
-7.084270007908344269e-03
8.071775548160076141e-03
-2.474875375628471375e-02
-1.527887489646673203e-02
9.506752714514732361e-03
6.377412378787994385e-02
3.792108595371246338e-02
3.120374865829944611e-02
-3.322106599807739258e-02
-2.446051500737667084e-02
1.455412898212671280e-02
4.742127377539873123e-03
2.437872579321265221e-03
-4.946685396134853363e-03
-1.624259166419506073e-02
6.450512260198593140e-02
3.101678565144538879e-02
-6.152134761214256287e-02
1.420692773535847664e-03
-2.216054126620292664e-02
1.338003724813461304e-01
-1.166133023798465729e-02
-5.442694760859012604e-03
-5.746739730238914490e-02
-5.728863552212715149e-02
-1.363221108913421631e-01
-2.896388992667198181e-02
-8.926288038492202759e-02
4.584343731403350830e-02
-2.235428057610988617e-02
-5.660855094902217388e-04
-2.270431630313396454e-02
4.047536104917526245e-02
4.854269325733184814e-02
1.089678145945072174e-02
-1.678822096437215805e-03
4.877517744898796082e-02
-9.967539459466934204e-02
2.136278711259365082e-02
-3.181986045092344284e-03
6.065533682703971863e-02
-9.058284014463424683e-02
-1.513015851378440857e-02
-4.721824452280998230e-02
1.893716864287853241e-02
-3.322739526629447937e-02
-1.669435575604438782e-02
7.103249430656433105e-02
3.213441371917724609e-02
-5.244039464741945267e-03
7.434120029211044312e-02
-1.533159054815769196e-02
6.064384803175926208e-02
2.010717801749706268e-02
1.613820553757250309e-03
-2.610774710774421692e-02
-1.710492372512817383e-02
6.635504309087991714e-03
7.252062857151031494e-02
4.326170682907104492e-02
-6.458465754985809326e-02
4.885932430624961853e-02
-5.168079514987766743e-04
-1.615772768855094910e-02
-1.367859356105327606e-02
-6.049902644008398056e-03
-3.470496460795402527e-02
-1.205337117426097393e-03
-5.340864509344100952e-02
-1.703222468495368958e-02
-4.684498161077499390e-02
-3.737581148743629456e-02
8.491422981023788452e-02
-3.372224420309066772e-02
-1.641424931585788727e-02
-2.246192656457424164e-02
7.600773870944976807e-02
-5.060867965221405029e-02
-2.513576298952102661e-02
-1.627554744482040405e-02
4.048721864819526672e-02
7.757796347141265869e-02
-3.042921423912048340e-03
-1.939567551016807556e-02
8.302001655101776123e-02
-1.198345981538295746e-02
-3.913861000910401344e-04
-8.190800994634628296e-02
-6.964766234159469604e-02
-3.609823808073997498e-02
2.677375636994838715e-02
-3.609307482838630676e-02
-3.832994401454925537e-02
1.076162979006767273e-02
-2.731642685830593109e-02
-9.330512024462223053e-03
-5.992018431425094604e-02
3.629900980740785599e-03
-7.354310899972915649e-02
-6.008438393473625183e-02
3.909398242831230164e-02
-6.697424687445163727e-03
-2.547459676861763000e-02
-4.561244323849678040e-02
-7.278512418270111084e-02
7.206960022449493408e-02
-2.768892608582973480e-02
2.969942288473248482e-03
9.031615406274795532e-02
2.605499513447284698e-02
-3.051510266959667206e-02
1.272117160260677338e-02
3.393493965268135071e-02
1.676586223766207695e-03
2.002399042248725891e-02
-2.375770173966884613e-02
-8.702364563941955566e-02
1.843432150781154633e-02
1.776165701448917389e-02
2.646201662719249725e-02
3.354708105325698853e-02
7.114627398550510406e-03
8.846585452556610107e-02
3.289601579308509827e-02
4.988102242350578308e-02
8.032793551683425903e-02
1.233543362468481064e-02
1.218760479241609573e-02
5.229498445987701416e-02
-1.182026322931051254e-02
1.647337526082992554e-02
-4.797573201358318329e-03
2.546623162925243378e-02
1.060074660927057266e-02
1.641334779560565948e-02
-5.093153193593025208e-02
3.996075317263603210e-02
3.573021665215492249e-02
-5.057761073112487793e-02
-3.079320676624774933e-02
1.121534965932369232e-02
-5.034164991229772568e-03
2.722881548106670380e-02
1.835100585594773293e-03
-6.272137165069580078e-03
-4.656605049967765808e-02
2.787874080240726471e-02
-1.908787898719310760e-02
6.050109863281250000e-02
-3.102599829435348511e-02
6.425559520721435547e-03
1.959868147969245911e-02
-3.405991708859801292e-03
-1.588483341038227081e-02
1.487887930124998093e-02
1.317753363400697708e-02
-2.754673175513744354e-02
3.543763188645243645e-03
-1.674057543277740479e-02
5.360394343733787537e-02
-5.587220937013626099e-02
-3.131482051685452461e-03
1.992614008486270905e-02
-2.033213898539543152e-02
-5.291787162423133850e-02
1.035945862531661987e-02
2.075084671378135681e-02
-1.890292949974536896e-02
-1.655342243611812592e-02
8.941495791077613831e-03
-1.737339422106742859e-02
-7.186710834503173828e-02
1.755039021372795105e-02
-1.451216172426939011e-02
-4.527365323156118393e-03
-4.789039120078086853e-02
-2.367202192544937134e-02
7.633748929947614670e-03
1.787550002336502075e-02
1.952748186886310577e-02
-2.532697468996047974e-02
-3.485275059938430786e-02
1.953395828604698181e-02
2.710804902017116547e-02
2.747337892651557922e-02
-4.731037095189094543e-02
8.306197822093963623e-03
4.900983348488807678e-02
-6.594533473253250122e-02
-7.587682455778121948e-02
-2.166812866926193237e-02
-1.671530306339263916e-02
-2.137599699199199677e-02
5.840288475155830383e-02
-9.515092521905899048e-02
-4.051848314702510834e-03
1.465961188077926636e-01
-4.449615627527236938e-02
5.375767126679420471e-02
-2.896274439990520477e-02
2.038142085075378418e-02
-2.411698177456855774e-02
5.494831502437591553e-02
-1.329754479229450226e-02
-4.024687036871910095e-02
-2.935714647173881531e-02
1.910646073520183563e-02
-9.504592162556946278e-04
2.916940674185752869e-02
2.159609086811542511e-02
7.724548876285552979e-02
7.573783397674560547e-02
8.539645373821258545e-02
7.041499949991703033e-03
1.244895625859498978e-02
-7.289629429578781128e-02
-1.375426072627305984e-02
1.100975740700960159e-02
4.135316982865333557e-02
6.182075664401054382e-02
-2.329928427934646606e-02
-2.004536986351013184e-02
-1.494825780391693115e-01
-2.300764247775077820e-02
-2.192125655710697174e-02
-2.959688007831573486e-02
3.052178584039211273e-02
2.557992748916149139e-02
-3.585402853786945343e-03
-4.203875362873077393e-02
3.655489906668663025e-02
8.095134049654006958e-02
6.796766072511672974e-02
-1.380565389990806580e-02
-1.000627223402261734e-02
-6.267005950212478638e-02
-6.711130030453205109e-03
-3.559083491563796997e-02
-3.510301560163497925e-02
2.710323035717010498e-02
2.097727358341217041e-02
2.692539244890213013e-02
-4.051141068339347839e-02
-7.033513486385345459e-02
-2.300480008125305176e-02
1.364612579345703125e-02
-6.632708758115768433e-02
-9.897109121084213257e-03
1.613489538431167603e-02
1.907000504434108734e-02
-2.462114393711090088e-02
-7.088060677051544189e-02
5.910764448344707489e-03
6.659317761659622192e-02
-5.533628538250923157e-02
-3.455058857798576355e-02
9.238932281732559204e-03
-1.542910747230052948e-02
-2.221579663455486298e-02
-1.297674179077148438e-01
-1.994596980512142181e-02
-3.622967004776000977e-02
2.510607056319713593e-02
-4.568761959671974182e-02
3.108765184879302979e-02
2.101970463991165161e-02
5.129759386181831360e-02
-6.785244680941104889e-03
4.666820541024208069e-02
-2.233903855085372925e-02
2.875354327261447906e-02
-3.541861847043037415e-02
1.665349863469600677e-02
4.072729498147964478e-03
-1.173625420778989792e-02
-3.125127404928207397e-02
1.881849765777587891e-02
4.466014355421066284e-02
-5.838536843657493591e-02
-2.009278163313865662e-02
2.703059464693069458e-02
-5.426811520010232925e-03
4.516628757119178772e-02
2.314295992255210876e-02
-8.118606172502040863e-03
4.784154891967773438e-02
6.294772028923034668e-03
-2.595619484782218933e-02
-1.058757625287398696e-04
-6.002692505717277527e-03
3.505432978272438049e-02
-3.134456649422645569e-02
1.887197792530059814e-02
3.415604680776596069e-02
-2.489272132515907288e-02
6.726066116243600845e-03
3.160323575139045715e-02
-1.373658794909715652e-02
-3.428025916218757629e-02
2.389070019125938416e-02
1.579190045595169067e-02
1.136208418756723404e-02
-6.400768179446458817e-03
-1.082973647862672806e-02
-1.403361372649669647e-02
-1.033259835094213486e-02
4.526380871539004147e-05
7.922891527414321899e-03
1.459374837577342987e-02
3.126963227987289429e-02
-8.930174633860588074e-03
1.183890830725431442e-02
-2.633226849138736725e-02
1.013848464936017990e-02
8.673025295138359070e-03
3.715285286307334900e-02
2.820721082389354706e-02
-2.881350554525852203e-02
2.575116790831089020e-02
-5.438042804598808289e-03
3.893110551871359348e-04
2.637904323637485504e-02
1.550429686903953552e-02
-4.319575428962707520e-02
2.064836584031581879e-02
-4.636905156075954437e-03
3.294362453743815422e-03
1.769073307514190674e-02
4.186875373125076294e-02
-4.742758721113204956e-02
-7.053924491629004478e-04
2.283709868788719177e-02
-5.423876270651817322e-02
2.205741032958030701e-02
2.648309618234634399e-02
-4.061098396778106689e-02
-1.448285114020109177e-02
-1.066093239933252335e-02
2.055489830672740936e-02
1.572154345922172070e-03
4.474807903170585632e-02
-8.500209078192710876e-03
-2.646011114120483398e-02
9.174505248665809631e-03
-1.340284012258052826e-02
-2.900035493075847626e-02
-5.829727742820978165e-03
4.331067204475402832e-03
3.914875537157058716e-02
2.776714973151683807e-02
-4.390913993120193481e-02
-3.718354552984237671e-02
-4.141552839428186417e-03
-1.928007230162620544e-02
-7.819367200136184692e-02
6.431687623262405396e-03
6.295385770499706268e-03
-9.018286131322383881e-03
6.066858023405075073e-02
-7.679488975554704666e-03
2.985630929470062256e-02
-1.136420480906963348e-02
-2.546979300677776337e-02
-3.589564561843872070e-02
-3.387063974514603615e-03
-8.211810886859893799e-02
1.511788810603320599e-03
-1.346776820719242096e-02
-8.059999905526638031e-03
9.176525473594665527e-02
3.431811928749084473e-02
2.313552889972925186e-03
1.118916124105453491e-01
2.031029202044010162e-02
4.008341208100318909e-02
-4.901816695928573608e-02
-5.144747905433177948e-03
3.736267238855361938e-02
1.740664988756179810e-02
7.224813103675842285e-02
-2.472786232829093933e-03
1.813660934567451477e-02
5.931668565608561039e-04
1.254982687532901764e-02
-2.645489759743213654e-02
-6.515768915414810181e-02
-1.896290108561515808e-02
-9.206787683069705963e-03
-1.860208436846733093e-02
-4.283205792307853699e-02
-2.857626602053642273e-02
8.220717310905456543e-03
1.088778208941221237e-02
-4.869346506893634796e-03
2.282642759382724762e-03
-2.738455869257450104e-02
3.821875900030136108e-02
5.156755447387695312e-02
-1.222849357873201370e-03
-6.889738142490386963e-02
2.313816733658313751e-02
5.651327595114707947e-02
6.460779346525669098e-03
-5.375145003199577332e-02
6.363669037818908691e-02
7.532253861427307129e-02
3.960636258125305176e-02
-7.794809993356466293e-03
-5.340385064482688904e-02
-3.317348286509513855e-02
-4.947967454791069031e-02
4.659150913357734680e-02
5.663300678133964539e-02
-2.866838127374649048e-03
-2.512047253549098969e-02
-3.393197059631347656e-02
-4.841032251715660095e-02
-2.977439202368259430e-02
-2.585038729012012482e-02
1.800009235739707947e-02
-1.140071358531713486e-02
4.944792389869689941e-02
-6.678918004035949707e-02
-7.394994050264358521e-02
-1.625196449458599091e-02
2.830235846340656281e-02
-2.794043347239494324e-02
3.607574477791786194e-02
-3.023465164005756378e-02
4.539776220917701721e-02
5.930417403578758240e-02
3.353671729564666748e-02
6.792250275611877441e-02
5.970677733421325684e-02
6.529636681079864502e-02
-8.602330461144447327e-03
-4.462698474526405334e-02
-3.106446564197540283e-02
3.479954600334167480e-02
1.444386318325996399e-02
-8.050576597452163696e-02
1.710203476250171661e-02
3.184036165475845337e-02
2.563434652984142303e-02
-4.441753029823303223e-03
3.156651044264435768e-03
-7.419001311063766479e-03
-5.607764050364494324e-02
1.793662831187248230e-02
4.479148611426353455e-02
3.712218254804611206e-02
3.653145581483840942e-02
-3.901920514181256294e-03
1.411601342260837555e-02
-4.888311028480529785e-03
5.574586987495422363e-02
-4.176608473062515259e-02
4.188545048236846924e-02
4.609753936529159546e-02
-2.365895733237266541e-02
-1.645412482321262360e-02
6.247660890221595764e-02
-3.925372287631034851e-02
4.534067586064338684e-02
-6.124755740165710449e-02
5.439509078860282898e-02
-6.320828199386596680e-02
-4.494598507881164551e-02
4.261278733611106873e-02
2.667814120650291443e-02
3.352838009595870972e-02
3.135622665286064148e-02
2.743060141801834106e-02
-6.228896230459213257e-02
2.282375236973166466e-03
4.205467551946640015e-02
-6.709706038236618042e-02
5.827352032065391541e-02
-5.571296438574790955e-02
-1.284369640052318573e-02
-7.684278767555952072e-03
7.094205170869827271e-02
-5.064562335610389709e-02
2.302482910454273224e-02
-2.965307608246803284e-02
4.790711030364036560e-02
8.264434337615966797e-02
-7.263007760047912598e-02
-5.040202289819717407e-03
-5.762503668665885925e-02
-1.745546609163284302e-02
1.272630691528320312e-01
-4.703441634774208069e-02
-1.453533116728067398e-02
7.172974944114685059e-02
-3.204535925760865211e-03
3.208884224295616150e-02
9.875632077455520630e-02
2.411348931491374969e-02
-3.323421627283096313e-02
-1.452473551034927368e-02
1.694050244987010956e-02
3.916358575224876404e-02
2.905510365962982178e-03
1.503140665590763092e-02
1.571744307875633240e-02
-6.015099934302270412e-04
-2.389086782932281494e-02
-1.034498587250709534e-02
-1.841467991471290588e-02
-1.284378208220005035e-02
2.909379266202449799e-02
7.102438714355230331e-03
-3.921525925397872925e-02
2.485032379627227783e-02
3.120424598455429077e-02
-1.259984541684389114e-02
9.025570005178451538e-03
4.483981523662805557e-03
1.270848326385021210e-02
-1.530892495065927505e-02
4.543139785528182983e-02
1.856886222958564758e-02
9.032872505486011505e-03
-1.439910195767879486e-02
-2.154423668980598450e-02
-1.637496985495090485e-02
4.942019935697317123e-03
-4.547566175460815430e-03
3.237333521246910095e-02
-1.851576939225196838e-02
1.037660334259271622e-02
-1.737575978040695190e-02
-1.547914277762174606e-02
5.297564715147018433e-02
2.263077907264232635e-02
3.755910322070121765e-03
3.276161104440689087e-02
-1.293370220810174942e-02
1.665049605071544647e-02
-1.107599679380655289e-02
9.498818777501583099e-03
-3.598815994337201118e-03
1.251724082976579666e-02
3.718772158026695251e-02
2.573783509433269501e-02
6.282773800194263458e-03
2.162600168958306313e-03
-1.738834008574485779e-02
9.529332630336284637e-03
3.162330761551856995e-02
1.303397002629935741e-03
2.376409014686942101e-03
-1.107640285044908524e-02
5.623892415314912796e-03
1.856196299195289612e-02
-2.676929160952568054e-02
1.461714506149291992e-02
6.464614067226648331e-03
3.029142692685127258e-02
3.877067193388938904e-02
-2.061757259070873260e-02
9.965586476027965546e-03
2.444955520331859589e-02
-3.620309010148048401e-02
2.352859824895858765e-02
-5.152519047260284424e-02
4.207023605704307556e-02
-1.327199488878250122e-02
3.738889843225479126e-02
-1.146578695625066757e-02
7.265357766300439835e-03
2.056358847767114639e-03
-9.013855829834938049e-03
1.197030954062938690e-02
-4.290939774364233017e-03
-1.286800019443035126e-02
-4.756530746817588806e-03
-2.575765363872051239e-02
-1.045744773000478745e-02
-1.918689347803592682e-02
-1.056079659610986710e-02
1.407906785607337952e-02
-2.990466915071010590e-02
1.034385431557893753e-02
5.849722656421363354e-04
1.816189661622047424e-02
2.043880335986614227e-02
-6.668225862085819244e-03
-9.584653191268444061e-03
1.792164519429206848e-02
-2.930625528097152710e-02
1.202077139168977737e-02
3.504764288663864136e-02
-5.627229809761047363e-03
-2.286249957978725433e-02
3.996069729328155518e-02
1.445834618061780930e-02
-6.885942071676254272e-02
-8.116989396512508392e-03
2.112243557348847389e-03
-1.525587576907128096e-04
2.244991436600685120e-02
1.291047595441341400e-02
1.917569665238261223e-03
2.228024974465370178e-02
2.944262698292732239e-03
-4.358623921871185303e-02
-3.973435983061790466e-02
-2.864129375666379929e-03
1.896652765572071075e-02
-2.991730161011219025e-02
-1.391399651765823364e-02
6.526917684823274612e-03
-6.261470168828964233e-02
1.072162482887506485e-02
4.891783464699983597e-03
1.575653068721294403e-02
-2.720966376364231110e-02
3.192888200283050537e-02
2.715744078159332275e-03
-6.113785319030284882e-03
2.535976935178041458e-03
-6.061016581952571869e-03
-1.508288644254207611e-02
-6.240709684789180756e-03
3.630098700523376465e-02
9.340111282654106617e-04
-4.451210051774978638e-02
1.047275681048631668e-02
-8.805372752249240875e-03
2.952256239950656891e-03
-6.335813086479902267e-03
-4.471749998629093170e-03
2.850690484046936035e-02
5.613524839282035828e-02
-1.704143732786178589e-02
-3.478314727544784546e-02
1.331447530537843704e-02
-2.715528942644596100e-03
-2.105283318087458611e-03
4.212376661598682404e-03
1.173583138734102249e-02
-1.536580082029104233e-02
-2.875243546441197395e-03
1.507991831749677658e-02
-2.300428785383701324e-02
2.563695982098579407e-02
2.320838533341884613e-02
-3.904616087675094604e-02
-1.527663040906190872e-02
2.027397230267524719e-02
-4.045839980244636536e-02
4.656680300831794739e-02
1.215157005935907364e-02
-4.857026040554046631e-02
-6.859652698040008545e-03
-1.580941490828990936e-02
-1.571368984878063202e-02
2.541254833340644836e-02
-1.728903502225875854e-02
-6.657798588275909424e-02
-6.365045160055160522e-02
4.390789568424224854e-02
4.844752140343189240e-03
-7.398971915245056152e-02
4.529839381575584412e-02
1.195909269154071808e-02
-2.842088788747787476e-02
2.053062431514263153e-02
-2.090086042881011963e-02
-2.538881264626979828e-02
-6.186658982187509537e-03
-2.468769438564777374e-02
1.435264479368925095e-02
1.830898039042949677e-02
2.937084063887596130e-02
-1.076374668627977371e-02
-2.177213132381439209e-02
-5.259567871689796448e-02
2.817843575030565262e-03
-9.289686568081378937e-03
1.222889591008424759e-02
-8.764523081481456757e-03
6.109121814370155334e-02
2.500390633940696716e-02
-3.315571811981499195e-04
-8.015665411949157715e-02
2.187499590218067169e-02
3.878263756632804871e-02
2.116770297288894653e-02
3.598133847117424011e-02
1.003677584230899811e-02
5.016869306564331055e-02
5.173645168542861938e-02
7.145201321691274643e-03
-9.112700074911117554e-02
-5.418160185217857361e-02
1.509946119040250778e-02
1.815362088382244110e-02
2.424966171383857727e-02
-3.020432963967323303e-02
-5.258777178823947906e-03
-1.886323280632495880e-02
5.955629050731658936e-02
2.722848672419786453e-03
3.360829129815101624e-02
-4.392198100686073303e-02
1.384060271084308624e-02
5.119692161679267883e-02
-3.160249069333076477e-02
3.021659329533576965e-02
3.648348152637481689e-02
-1.637946814298629761e-02
-5.757543817162513733e-02
-4.163128137588500977e-02
1.778875291347503662e-02
-2.945936471223831177e-02
-8.138152770698070526e-03
-2.175005152821540833e-02
3.991085570305585861e-03
5.201661959290504456e-02
2.620236016809940338e-02
3.245151415467262268e-02
8.335617184638977051e-02
-5.597432330250740051e-02
2.760656364262104034e-02
3.383860737085342407e-02
2.483113668859004974e-02
9.648560546338558197e-03
-2.874607453122735023e-03
-1.777825690805912018e-02
-9.158381260931491852e-03
5.923079326748847961e-02
8.266168087720870972e-02
-5.486219655722379684e-03
3.085329756140708923e-02
1.646435633301734924e-02
-1.057040598243474960e-02
1.839674194343388081e-03
5.384271964430809021e-02
1.036120927892625332e-03
-2.508780360221862793e-02
-4.119845107197761536e-02
-3.637950634583830833e-03
5.246865004301071167e-02
-2.456903830170631409e-02
1.073706615716218948e-02
-3.255303204059600830e-02
5.710950121283531189e-02
3.269602730870246887e-02
4.659708216786384583e-02
-2.482729963958263397e-02
-9.324569255113601685e-04
3.988846391439437866e-02
-8.510779589414596558e-03
-4.085502121597528458e-03
-6.905224919319152832e-02
-4.159147385507822037e-03
4.306117072701454163e-02
-8.258743584156036377e-02
1.348638907074928284e-02
1.725898124277591705e-02
4.397118836641311646e-02
3.794085059780627489e-04
-5.675145983695983887e-02
5.706933513283729553e-02
-5.875092931091785431e-03
2.841789461672306061e-02
-9.617775678634643555e-03
2.400837279856204987e-02
1.858181692659854889e-02
-1.172795146703720093e-02
3.570271655917167664e-02
2.084252424538135529e-03
3.387616947293281555e-02
-6.998556852340698242e-02
1.664736866950988770e-02
8.133468776941299438e-02
-4.543590918183326721e-02
-6.431779265403747559e-02
7.784789800643920898e-02
1.976910047233104706e-02
2.700945362448692322e-02
-8.804547786712646484e-02
2.334429323673248291e-02
-5.530475080013275146e-02
-3.454451914876699448e-03
1.247761957347393036e-02
3.420422971248626709e-02
2.774707600474357605e-02
-1.149661606177687645e-03
7.005403749644756317e-03
-6.156477611511945724e-03
-1.469185948371887207e-02
-6.100278347730636597e-03
-2.384716272354125977e-02
-3.900495171546936035e-02
-4.510841518640518188e-02
3.337600827217102051e-02
-1.016127876937389374e-02
9.890945628285408020e-03
4.111716523766517639e-02
-6.336261052638292313e-03
2.215198427438735962e-02
-2.764088567346334457e-03
7.968083769083023071e-02
-1.027254909276962280e-01
-3.443438094109296799e-03
-1.038398221135139465e-01
6.351101677864789963e-03
2.309291996061801910e-02
-3.037422150373458862e-02
5.272075161337852478e-02
6.808932125568389893e-02
-3.095579333603382111e-02
-1.623658835887908936e-02
3.094365075230598450e-02
8.371806144714355469e-02
3.468364849686622620e-02
-4.513862729072570801e-02
-9.368670172989368439e-03
6.535594817250967026e-03
-3.574386611580848694e-02
6.081539019942283630e-02
2.609904296696186066e-02
1.673508062958717346e-02
6.535357329994440079e-03
1.741140708327293396e-02
-2.568210847675800323e-02
8.546894416213035583e-03
-2.722055837512016296e-02
1.989516429603099823e-02
-3.897801786661148071e-02
-9.931928478181362152e-03
1.591531001031398773e-02
-2.346689254045486450e-02
7.366423308849334717e-02
-3.790705651044845581e-02
-1.072987820953130722e-02
-7.331883069127798080e-03
-4.408125765621662140e-03
1.174897979944944382e-02
2.465420961380004883e-02
-1.071844529360532761e-02
1.088212989270687103e-02
-3.525963425636291504e-02
-1.336848363280296326e-02
4.027130454778671265e-02
1.806191168725490570e-02
4.476502910256385803e-02
-1.758484542369842529e-02
1.661150343716144562e-02
2.780589275062084198e-02
1.374297682195901871e-02
1.554364059120416641e-02
2.523870579898357391e-02
-2.249585092067718506e-02
2.188745327293872833e-02
1.813268661499023438e-02
-1.481280568987131119e-02
1.125099323689937592e-02
-4.952219128608703613e-02
9.432481601834297180e-03
1.405894663184881210e-02
1.018775068223476410e-02
-8.311004494316875935e-04
2.146367914974689484e-02
-3.407833399251103401e-03
2.861129492521286011e-02
5.681977141648530960e-03
-1.441979315131902695e-02
-1.063982024788856506e-02
-1.111858617514371872e-02
2.926952205598354340e-03
-7.368489168584346771e-03
1.233861502259969711e-02
7.161226123571395874e-03
2.845045365393161774e-02
-2.640660619363188744e-03
3.529472649097442627e-02
2.794115617871284485e-02
1.475753355771303177e-02
-2.017084136605262756e-02
3.097756206989288330e-02
5.102436244487762451e-02
2.713990211486816406e-02
5.701734125614166260e-02
2.044354937970638275e-02
-3.254827111959457397e-02
-1.703231409192085266e-02
1.023051328957080841e-02
-2.525054104626178741e-02
-3.364468924701213837e-03
4.112682491540908813e-02
2.088675834238529205e-02
2.460972219705581665e-02
-3.461623564362525940e-02
6.621938198804855347e-03
-1.749697839841246605e-03
-2.660633251070976257e-02
-7.808756828308105469e-02
-1.749696768820285797e-02
1.908975467085838318e-02
7.749532163143157959e-02
3.986192122101783752e-02
5.337022244930267334e-02
5.683508887887001038e-02
8.342047035694122314e-02
-1.663969084620475769e-02
-5.434504244476556778e-03
-9.958476573228836060e-02
4.739407822489738464e-02
-1.954693719744682312e-02
3.325217589735984802e-02
-5.156793072819709778e-02
6.087304279208183289e-02
-4.556347057223320007e-02
4.635870456695556641e-03
-2.486672019585967064e-03
-5.543338879942893982e-02
4.203128442168235779e-02
2.489712834358215332e-02
3.616336360573768616e-02
-2.038160711526870728e-02
-2.055883407592773438e-02
-2.154476474970579147e-03
-6.050571054220199585e-02
-2.591288089752197266e-02
-4.098883271217346191e-02
1.416031084954738617e-02
4.261065647006034851e-02
3.240392729640007019e-02
2.020552009344100952e-02
2.233679406344890594e-02
7.380291819572448730e-02
-7.043281197547912598e-02
-1.225976925343275070e-02
-5.318296328186988831e-02
5.723782256245613098e-02
4.355354700237512589e-03
2.000182121992111206e-02
1.901324838399887085e-02
4.162259772419929504e-02
8.101099170744419098e-03
-6.926273554563522339e-02
6.910224258899688721e-02
8.508631959557533264e-03
3.977997601032257080e-02
4.883769154548645020e-02
-1.215975452214479446e-02
2.565897256135940552e-02
-1.587053202092647552e-02
-1.532011944800615311e-02
-2.144627040252089500e-03
-1.981873251497745514e-02
1.535110082477331161e-02
3.039431013166904449e-02
-1.101593021303415298e-02
-2.944870665669441223e-02
2.851905487477779388e-02
2.487563341856002808e-02
7.067489624023437500e-02
-3.447942808270454407e-02
-3.369757207110524178e-03
-8.338893204927444458e-02
8.819501847028732300e-03
-5.502879992127418518e-02
1.483806688338518143e-02
-4.559301584959030151e-02
-6.842248886823654175e-02
-7.929684594273567200e-03
-6.931307166814804077e-02
6.465040892362594604e-02
-5.472911894321441650e-02
-7.166912779211997986e-03
8.440817706286907196e-03
2.236106619238853455e-02
-2.969458326697349548e-02
4.531453549861907959e-02
-1.458763424307107925e-02
-3.255708888173103333e-02
