-6.392779946327209473e-02
1.032155901193618774e-01
3.585094809532165527e-01
-4.832226037979125977e-02
3.307071030139923096e-01
3.157139122486114502e-01
-1.603336781263351440e-01
6.360270082950592041e-02
6.021260842680931091e-02
3.166079819202423096e-01
7.584814727306365967e-02
1.538278162479400635e-01
-3.541949018836021423e-02
-2.690889500081539154e-02
2.821842730045318604e-01
1.657946556806564331e-01
3.695755004882812500e-01
5.041420459747314453e-02
9.773051738739013672e-02
1.417010836303234100e-02
1.458161622285842896e-01
-7.279018312692642212e-02
3.559157848358154297e-01
-2.732602879405021667e-02
-7.923560589551925659e-02
1.868533641099929810e-01
-1.073676645755767822e-01
1.335540860891342163e-01
8.745229244232177734e-02
7.529965788125991821e-02
3.467867374420166016e-01
-6.890448927879333496e-02
4.406554996967315674e-02
-1.049046665430068970e-01
3.331155180931091309e-01
3.736877143383026123e-01
3.122244775295257568e-01
1.394940614700317383e-01
-9.413549676537513733e-03
3.027076125144958496e-01
