6.023867055773735046e-03
4.490246623754501343e-02
-3.503385186195373535e-02
5.261933896690607071e-03
-1.168602798134088516e-02
7.296837121248245239e-02
4.622398591891396791e-06
7.811188232153654099e-03
7.463441044092178345e-02
4.425967484712600708e-02
-5.067592114210128784e-02
8.946293964982032776e-03
2.777717635035514832e-02
2.078724466264247894e-02
2.421618625521659851e-02
-1.755889505147933960e-03
1.627885922789573669e-02
-5.484473076649010181e-04
-9.722741320729255676e-03
1.078717503696680069e-02
-8.388508856296539307e-02
-1.086467597633600235e-02
-3.498769924044609070e-02
-4.466839879751205444e-02
5.194860510528087616e-03
-2.562236040830612183e-03
2.287397161126136780e-02
1.279773470014333725e-02
-2.283169701695442200e-02
3.556321188807487488e-02
-1.332561951130628586e-02
-2.535475976765155792e-02
-5.848174914717674255e-03
-1.012417342280969024e-04
-5.596625804901123047e-02
1.041547115892171860e-02
-3.895060857757925987e-03
-3.652311116456985474e-02
-1.518075354397296906e-02
-3.287459537386894226e-02
2.686113491654396057e-02
6.130153313279151917e-02
-3.655263781547546387e-02
2.365523390471935272e-02
1.217251643538475037e-02
-9.775432758033275604e-03
-1.005392987281084061e-02
1.346979849040508270e-02
2.322437427937984467e-02
-4.808966442942619324e-02
-3.592707589268684387e-02
-2.881509251892566681e-02
-2.203821577131748199e-02
5.192641168832778931e-03
-1.903826743364334106e-02
9.714678861200809479e-03
3.786936402320861816e-03
-1.029973570257425308e-02
-5.941032432019710541e-03
-5.101257003843784332e-03
-1.851593330502510071e-02
8.388194255530834198e-03
-9.295688010752201080e-03
-1.668296381831169128e-02
-8.797219954431056976e-03
1.903746090829372406e-02
1.310735940933227539e-02
2.797552756965160370e-02
1.129059866070747375e-02
3.543499857187271118e-02
-2.234365418553352356e-02
7.744377478957176208e-03
3.754948964342474937e-03
-8.144311606884002686e-03
-1.607728190720081329e-02
1.454000733792781830e-02
-2.377452142536640167e-02
-4.375763237476348877e-02
3.851785510778427124e-02
-4.218219593167304993e-02
2.193645201623439789e-02
1.488289143890142441e-02
-4.230413958430290222e-02
1.324021606706082821e-03
1.327704917639493942e-02
2.144943177700042725e-02
-1.078349165618419647e-02
9.260847233235836029e-03
1.231715921312570572e-02
-7.973330467939376831e-02
-3.014535643160343170e-02
1.423487905412912369e-02
3.487844392657279968e-02
2.380073070526123047e-02
-9.053888171911239624e-02
1.872208155691623688e-02
-1.824980787932872772e-02
-2.937780506908893585e-02
6.967409979552030563e-03
-2.855643443763256073e-02
7.701666653156280518e-02
-1.017032627714797854e-04
-2.606971375644207001e-02
7.824102416634559631e-03
-2.228406816720962524e-02
-1.053047925233840942e-02
3.310364484786987305e-02
3.552970709279179573e-03
-6.993024609982967377e-03
2.563853934407234192e-02
-2.125293202698230743e-02
-1.918564923107624054e-02
2.197327837347984314e-02
-1.098427921533584595e-02
-2.361910790205001831e-02
3.627750277519226074e-02
-4.015530459582805634e-03
-4.952928051352500916e-02
-8.924942230805754662e-04
-3.823305293917655945e-02
6.180352997034788132e-03
1.635951921343803406e-04
4.875901341438293457e-02
4.646188579499721527e-03
-4.464885685592889786e-03
7.881926745176315308e-02
-1.883414015173912048e-02
-6.770752370357513428e-03
1.026725172996520996e-01
5.123135447502136230e-02
-2.306616492569446564e-02
1.399019733071327209e-02
1.602828502655029297e-02
2.718877047300338745e-02
6.579172611236572266e-02
2.821525791659951210e-03
2.757081761956214905e-02
1.621703803539276123e-02
-9.049618616700172424e-03
-1.576083712279796600e-02
-6.264904141426086426e-02
-2.876294543966650963e-03
-2.943003177642822266e-02
-4.837710782885551453e-02
6.777776870876550674e-04
-1.386603619903326035e-02
-2.240329049527645111e-02
-1.581777469255030155e-03
-1.025518029928207397e-02
6.805951893329620361e-02
4.508540965616703033e-03
-3.857794031500816345e-02
-3.408122807741165161e-03
-6.505266763269901276e-03
-8.449061959981918335e-02
7.633871398866176605e-03
-1.602349244058132172e-02
9.480560570955276489e-02
-2.404676377773284912e-02
-2.912636287510395050e-02
2.877085097134113312e-02
1.284211967140436172e-02
6.624945998191833496e-02
2.226967737078666687e-02
2.014859579503536224e-02
-1.947961747646331787e-02
-5.120736081153154373e-03
3.517376258969306946e-03
4.664534702897071838e-02
-5.055265873670578003e-02
-4.736338742077350616e-03
-2.565348334610462189e-02
-4.550714418292045593e-02
7.377743255347013474e-03
1.239510718733072281e-02
1.474305056035518646e-02
9.309362620115280151e-03
3.822583239525556564e-03
-1.847233437001705170e-02
-3.274080157279968262e-02
1.497694058343768120e-03
1.751437410712242126e-02
-2.338301157578825951e-03
-1.469323411583900452e-02
-1.837972551584243774e-02
1.177494600415229797e-02
-2.862701006233692169e-02
1.951785013079643250e-02
2.657307125627994537e-02
6.680037081241607666e-02
-4.119707271456718445e-02
1.502980361692607403e-03
8.375895209610462189e-03
-1.696201413869857788e-02
-3.517720475792884827e-02
1.676461100578308105e-02
-3.491212427616119385e-02
8.401385694742202759e-02
4.017721489071846008e-02
-4.227671772241592407e-02
2.325075492262840271e-02
-3.196214511990547180e-02
4.314603656530380249e-02
-5.687217693775892258e-03
2.566113509237766266e-02
1.152649335563182831e-02
-1.768813841044902802e-02
1.637174980714917183e-03
2.775062620639801025e-02
-8.827740699052810669e-02
-6.804963108152151108e-03
2.234158106148242950e-02
2.047047019004821777e-02
2.330727130174636841e-02
-6.558051705360412598e-02
2.473955042660236359e-02
-2.094870992004871368e-02
-2.194099687039852142e-02
-1.510196086019277573e-02
-5.909384414553642273e-02
7.554598152637481689e-02
4.562318325042724609e-03
-3.034938499331474304e-02
1.742019504308700562e-02
-3.749013319611549377e-02
-2.259312383830547333e-02
-1.284555532038211823e-02
-7.227688096463680267e-03
-1.080865622498095036e-03
4.998235031962394714e-02
-5.538571998476982117e-02
-1.900367066264152527e-02
2.996490523219108582e-02
-2.117814868688583374e-02
-2.617469616234302521e-02
4.259614646434783936e-02
-9.584875777363777161e-03
9.364037960767745972e-02
-3.314763074740767479e-03
-4.933879524469375610e-02
1.426795218139886856e-02
-5.229494720697402954e-02
1.219219993799924850e-02
5.434730555862188339e-04
-1.887058257125318050e-03
8.155955374240875244e-02
5.053797736763954163e-02
-1.412265934050083160e-02
1.055940389633178711e-01
4.378232359886169434e-02
2.938055805861949921e-02
1.488245464861392975e-02
1.349100377410650253e-02
2.813884988427162170e-02
2.568214759230613708e-02
7.864612154662609100e-03
2.735116146504878998e-02
2.155616506934165955e-02
7.587912678718566895e-02
-3.403742238879203796e-02
-1.939182914793491364e-02
4.331722389906644821e-03
-2.701598219573497772e-02
-4.325715079903602600e-02
4.236885346472263336e-03
-1.580888964235782623e-02
6.449164450168609619e-02
-1.010050345212221146e-02
-5.167355295270681381e-03
-1.043260749429464340e-02
5.096191912889480591e-02
-3.328848257660865784e-02
1.839356613345444202e-03
-5.742652807384729385e-03
-7.779531925916671753e-02
9.291429887525737286e-04
-1.184372976422309875e-02
5.943887867033481598e-03
-2.298707887530326843e-02
-1.871590875089168549e-02
3.417871519923210144e-02
-4.051868990063667297e-02
2.804967388510704041e-02
1.578116603195667267e-02
1.903603784739971161e-02
-1.663005165755748749e-02
8.420585095882415771e-02
-1.871051383204758167e-03
4.900508001446723938e-02
-5.624384805560112000e-02
2.747067995369434357e-02
-2.441702969372272491e-02
-5.006721615791320801e-02
8.670232258737087250e-03
6.152894347906112671e-03
1.750862039625644684e-02
9.779540821909904480e-03
1.001996733248233795e-02
7.190570980310440063e-02
-5.046633258461952209e-02
4.556101746857166290e-03
2.428125031292438507e-02
7.034635636955499649e-04
-1.073043327778577805e-02
-1.481302920728921890e-02
1.029431167989969254e-02
6.873147189617156982e-02
1.365202665328979492e-02
3.204794600605964661e-02
-1.023714244365692139e-02
-3.403852134943008423e-02
6.949131842702627182e-03
1.355806179344654083e-02
-1.727898418903350830e-02
-2.420537546277046204e-02
1.410918310284614563e-02
-3.160856664180755615e-02
-2.723423298448324203e-03
4.032636806368827820e-02
-3.259931877255439758e-02
2.690177410840988159e-02
-7.350720465183258057e-02
1.408191211521625519e-02
-1.054879091680049896e-02
3.068188019096851349e-02
1.546052470803260803e-02
5.600295215845108032e-02
-2.466493286192417145e-03
2.314590662717819214e-02
-9.238532185554504395e-02
1.316977757960557938e-02
2.326516807079315186e-02
1.804457046091556549e-02
2.513293735682964325e-02
-2.296040765941143036e-02
2.636541426181793213e-02
-1.880672015249729156e-02
-1.349458005279302597e-02
5.789488926529884338e-02
-8.148495852947235107e-02
2.452782355248928070e-02
1.160368602722883224e-02
-2.906817011535167694e-02
2.292291261255741119e-02
-3.727809712290763855e-02
-2.379264682531356812e-02
5.674379318952560425e-02
-1.283892709761857986e-02
2.822714159265160561e-03
-2.966889552772045135e-02
-6.499689072370529175e-02
-8.422044105827808380e-03
3.500119224190711975e-02
-2.229615487158298492e-02
-4.608876071870326996e-03
4.220056906342506409e-02
-5.724928341805934906e-03
2.128711901605129242e-02
-4.564731381833553314e-03
-4.509222880005836487e-02
2.276924811303615570e-02
-2.308327145874500275e-02
-3.340850397944450378e-02
-6.526540499180555344e-03
4.366816487163305283e-03
7.158359885215759277e-02
3.374427184462547302e-02
-1.431001815944910049e-02
9.137880057096481323e-02
4.256501421332359314e-02
4.637590050697326660e-02
8.188202045857906342e-03
9.792782366275787354e-03
1.708763465285301208e-02
7.345733232796192169e-03
4.088117275387048721e-03
2.333616837859153748e-02
1.870666444301605225e-02
-2.053427882492542267e-02
-2.673483826220035553e-02
9.182537905871868134e-03
1.148250885307788849e-03
-3.061216324567794800e-02
-3.919722139835357666e-02
5.664222873747348785e-03
-1.740902476012706757e-02
-5.753279663622379303e-03
-1.352644152939319611e-02
-6.015404593199491501e-03
-7.112494111061096191e-02
7.409500330686569214e-02
-2.580086886882781982e-02
-4.481851123273372650e-03
-4.250473342835903168e-03
-6.630463898181915283e-02
-1.216831500642001629e-03
2.652795519679784775e-03
-6.064682826399803162e-02
-1.794748939573764801e-02
-1.541739422827959061e-02
3.439448028802871704e-02
-1.782127097249031067e-02
-3.114552237093448639e-02
5.816658958792686462e-03
2.501753345131874084e-02
-1.674821600317955017e-02
5.223690345883369446e-02
-3.351543564349412918e-03
3.574232384562492371e-02
-4.020246490836143494e-02
2.620396949350833893e-02
-2.892911806702613831e-02
-4.494196176528930664e-02
5.171145676285959780e-05
1.972810178995132446e-02
9.320760145783424377e-03
1.028466504067182541e-02
1.128493435680866241e-02
-1.453931350260972977e-02
-4.048794135451316833e-02
-4.208956379443407059e-03
1.927524991333484650e-02
-2.738627372309565544e-03
-1.858601719141006470e-02
-6.357947364449501038e-03
1.348087843507528305e-02
-2.080983016639947891e-03
1.425412483513355255e-02
3.100281022489070892e-02
-6.229540705680847168e-02
-1.999480277299880981e-02
1.223162631504237652e-03
3.808912122622132301e-03
-1.088386122137308121e-02
-1.717009954154491425e-02
1.537231076508760452e-02
-2.328020147979259491e-02
-6.697154045104980469e-02
3.270410746335983276e-02
-2.850757725536823273e-02
2.690442651510238647e-02
-3.484319522976875305e-02
-1.961685530841350555e-02
-1.655877754092216492e-02
4.907358810305595398e-02
1.726649515330791473e-02
3.259254992008209229e-02
-1.090242760255932808e-03
1.161561626940965652e-02
-7.133778929710388184e-02
2.995528746396303177e-03
9.842449799180030823e-03
2.022132277488708496e-02
1.203186437487602234e-02
1.989023573696613312e-02
1.448343601077795029e-02
-7.868154905736446381e-03
-5.886706989258527756e-03
-3.357748314738273621e-02
-6.654755771160125732e-02
-1.723546721041202545e-02
5.068799480795860291e-03
-2.463859133422374725e-02
5.892095621675252914e-03
-2.269036136567592621e-02
-1.651235111057758331e-02
-8.438974618911743164e-03
-1.173848658800125122e-02
1.425853231921792030e-03
-8.091153204441070557e-02
-4.863234609365463257e-02
-1.615115441381931305e-02
2.154755219817161560e-02
-1.079505681991577148e-02
5.627202801406383514e-03
3.816649317741394043e-02
-2.830539364367723465e-03
-3.787898272275924683e-02
-1.708362065255641937e-02
-3.671595826745033264e-02
2.728087455034255981e-02
3.816399350762367249e-02
2.025271765887737274e-02
-1.567061245441436768e-02
9.691154584288597107e-03
6.108273565769195557e-02
-3.857704997062683105e-02
-1.971792615950107574e-02
6.346469372510910034e-02
3.219160437583923340e-02
6.449179351329803467e-02
5.877618212252855301e-03
1.033515110611915588e-02
1.239982061088085175e-02
-5.918180942535400391e-02
1.074516028165817261e-02
2.066056989133358002e-02
2.131113037467002869e-02
-5.689600110054016113e-02
-3.181866183876991272e-02
5.076532065868377686e-02
8.123277686536312103e-03
-3.612139821052551270e-02
-3.436535969376564026e-02
1.391696464270353317e-02
-1.048832572996616364e-02
1.596862822771072388e-02
-2.104219608008861542e-02
-1.537658390589058399e-03
-5.343579687178134918e-03
7.171817123889923096e-02
-1.515395194292068481e-02
2.293242374435067177e-03
-8.140435675159096718e-04
-5.251404643058776855e-02
-1.732165925204753876e-02
2.233169740065932274e-03
-3.105704381596297026e-04
-1.149080973118543625e-02
-2.771258004941046238e-04
3.358441963791847229e-02
4.335810989141464233e-02
1.868141070008277893e-02
-8.576773107051849365e-03
2.590081468224525452e-02
-1.423889957368373871e-02
-4.300895333290100098e-02
-1.099969353526830673e-02
1.222281530499458313e-02
-3.282386809587478638e-02
3.263720497488975525e-02
-2.949079126119613647e-02
-3.869191929697990417e-02
-4.290780983865261078e-03
-2.123305387794971466e-02
1.197932474315166473e-02
8.556062355637550354e-03
1.378410216420888901e-02
-4.901416599750518799e-02
-4.342949390411376953e-02
-5.809825961478054523e-04
2.327781543135643005e-02
-1.144130062311887741e-02
-1.734165474772453308e-02
2.204854274168610573e-03
1.526180282235145569e-02
1.639053784310817719e-02
4.280586726963520050e-03
3.113742731511592865e-02
5.056593101471662521e-03
-5.347243044525384903e-03
7.884208112955093384e-03
8.140400052070617676e-03
-9.155347011983394623e-03
-7.816827856004238129e-03
-3.229899448342621326e-04
-2.771639265120029449e-02
4.056453239172697067e-03
2.974604256451129913e-02
-4.996242467314004898e-03
2.553514391183853149e-02
3.847017511725425720e-02
2.345771342515945435e-02
-2.644350379705429077e-02
5.325617268681526184e-02
2.073379047214984894e-02
-3.704096004366874695e-02
-7.063778582960367203e-03
-5.144527181982994080e-03
-5.896398797631263733e-02
-1.679125591181218624e-03
4.570731427520513535e-03
1.870687119662761688e-02
4.963573068380355835e-03
2.720979601144790649e-02
1.376454904675483704e-02
-6.004721857607364655e-03
-1.471914467401802540e-03
-6.806524842977523804e-02
-6.137078627943992615e-02
-6.631564348936080933e-02
9.383657947182655334e-03
-2.699203602969646454e-02
4.870481789112091064e-03
-1.936673000454902649e-02
-1.196537539362907410e-02
2.288119494915008545e-02
-1.829134486615657806e-02
3.275293624028563499e-03
-8.971228264272212982e-03
-2.640112116932868958e-02
-4.698537755757570267e-03
2.339682169258594513e-02
-1.236354187130928040e-02
8.478269912302494049e-03
2.097618021070957184e-02
-1.035325415432453156e-02
1.829111389815807343e-02
-1.856056414544582367e-02
-6.732323206961154938e-03
-2.579474635422229767e-02
-2.728233300149440765e-02
-6.073276698589324951e-02
3.803133964538574219e-03
-2.867550030350685120e-02
7.364442199468612671e-02
-2.440501563251018524e-02
-1.034816447645425797e-02
5.240542348474264145e-03
8.399096876382827759e-02
-6.881631910800933838e-02
1.983078196644783020e-02
2.651549316942691803e-02
2.533171512186527252e-02
6.781505048274993896e-02
-5.132390651851892471e-03
2.524048835039138794e-02
1.239704806357622147e-02
-2.529390156269073486e-03
5.283065140247344971e-02
-8.152990043163299561e-02
-8.148584514856338501e-03
-2.850182168185710907e-02
-4.302540421485900879e-02
7.294152397662401199e-03
-8.106454275548458099e-03
3.711272776126861572e-02
-1.132810721173882484e-03
-2.011294290423393250e-02
-1.340364944189786911e-02
-1.292973291128873825e-02
-3.829312324523925781e-02
-1.916835200972855091e-03
1.173415803350508213e-03
2.569553907960653305e-03
1.437463145703077316e-02
-9.128352627158164978e-03
7.761253416538238525e-02
-3.182554244995117188e-02
-5.668711289763450623e-02
2.330868737772107124e-03
-1.123927999287843704e-02
-7.161142677068710327e-02
2.717963233590126038e-02
-6.867066957056522369e-03
-2.411925420165061951e-02
-3.732861205935478210e-02
-2.628891088534146547e-04
-2.694060094654560089e-02
-5.029000341892242432e-03
-4.937254264950752258e-02
-1.206397172063589096e-02
-4.007079452276229858e-02
5.554582923650741577e-03
-1.958222565008327365e-04
1.142593193799257278e-02
3.644452895969152451e-03
-1.994719263166189194e-03
3.534134943038225174e-03
5.569608882069587708e-02
-2.955407602712512016e-03
1.603460684418678284e-02
1.236412487924098969e-02
-1.219075825065374374e-02
-9.206037037074565887e-03
1.650388352572917938e-02
2.478280477225780487e-02
1.969231851398944855e-02
2.189327217638492584e-02
-1.359729841351509094e-02
7.592800538986921310e-03
4.667970351874828339e-03
1.221276354044675827e-02
-8.029816672205924988e-03
2.103695273399353027e-02
2.105466276407241821e-02
-2.171027101576328278e-02
6.314159929752349854e-02
4.663072153925895691e-02
-6.142294779419898987e-02
2.250332152470946312e-03
-6.352058053016662598e-02
-7.507226616144180298e-02
3.002051031216979027e-03
-1.731636747717857361e-02
1.224391628056764603e-02
-3.150187060236930847e-02
-1.711986493319272995e-03
-1.545276027172803879e-02
-4.215874150395393372e-02
-3.742024675011634827e-02
4.223712533712387085e-02
2.134422026574611664e-02
2.725633606314659119e-02
-8.667483925819396973e-02
2.566415816545486450e-02
-2.598790824413299561e-02
-2.559021674096584320e-02
2.557377703487873077e-02
6.251167505979537964e-02
1.057219132781028748e-01
1.058255136013031006e-02
-3.157282248139381409e-02
2.704909630119800568e-02
-2.768873423337936401e-02
-1.881160587072372437e-02
4.402396082878112793e-02
-6.725585088133811951e-03
-3.421738510951399803e-03
-3.641167888417840004e-03
3.224103897809982300e-02
-1.401519123464822769e-02
3.558381646871566772e-02
-1.299582887440919876e-02
-9.034035727381706238e-03
4.278779402375221252e-02
3.136394312605261803e-03
6.866586953401565552e-02
4.520584363490343094e-03
-5.945710465312004089e-02
-2.646165154874324799e-02
-8.088457584381103516e-02
1.025824844837188721e-01
5.398388486355543137e-03
-2.334461919963359833e-02
7.590173184871673584e-02
-3.866902738809585571e-02
-2.139226533472537994e-02
1.531684212386608124e-02
1.097817793488502502e-01
-5.057933926582336426e-02
2.303138561546802521e-02
1.395420543849468231e-02
3.010400012135505676e-02
8.055807650089263916e-02
-9.843667503446340561e-04
3.678340837359428406e-02
2.775488980114459991e-02
-8.082637935876846313e-02
9.356997162103652954e-02
-5.806788802146911621e-02
-1.893443171866238117e-03
-2.339103631675243378e-02
-4.660617932677268982e-02
2.667199820280075073e-03
-1.702720858156681061e-02
-6.457518786191940308e-02
-1.251480914652347565e-02
-9.902182035148143768e-03
8.291728794574737549e-02
4.222696647047996521e-03
-4.826836287975311279e-02
-4.777162394020706415e-04
-5.807199981063604355e-03
-4.036056995391845703e-02
1.800392870791256428e-03
-2.242323197424411774e-02
5.505238473415374756e-02
-3.936491161584854126e-02
-2.918921969830989838e-02
5.431129131466150284e-03
-6.338841468095779419e-02
1.142027080059051514e-01
2.777585946023464203e-02
2.770240185782313347e-03
-3.962691873311996460e-02
-2.875498495995998383e-02
-7.502504158765077591e-03
-2.357005886733531952e-02
1.648597978055477142e-02
-2.534724213182926178e-02
-9.670615196228027344e-03
-6.641580164432525635e-02
5.341626703739166260e-03
1.498832646757364273e-02
1.776612922549247742e-02
9.904894046485424042e-03
1.133127696812152863e-02
-9.040673077106475830e-02
9.730233252048492432e-02
1.135319471359252930e-02
2.320360764861106873e-02
2.060873992741107941e-02
-9.572594426572322845e-03
-1.879284530878067017e-02
1.159096043556928635e-02
-7.005338370800018311e-02
1.382886432111263275e-02
3.484679013490676880e-02
7.928803563117980957e-02
-2.013240195810794830e-02
2.136285882443189621e-03
1.703747361898422241e-02
-1.769748143851757050e-02
-1.350616011768579483e-02
1.430138759315013885e-02
-3.403306379914283752e-02
4.950660094618797302e-02
5.165203288197517395e-02
-3.899924084544181824e-02
5.550006870180368423e-03
-1.049293279647827148e-01
8.691836148500442505e-02
-2.355751115828752518e-03
-2.988210879266262054e-03
-2.487603574991226196e-03
-3.664855286478996277e-02
-7.022753357887268066e-03
-1.853059418499469757e-02
-2.657806687057018280e-02
-1.794700697064399719e-02
5.024766921997070312e-02
4.017812665551900864e-03
2.453866600990295410e-02
-6.063270568847656250e-02
3.356875851750373840e-02
-2.779621444642543793e-02
-1.767056062817573547e-02
-7.165414094924926758e-02
9.969618171453475952e-02
8.930202573537826538e-02
1.428377255797386169e-02
-3.656927868723869324e-02
3.837990760803222656e-02
-4.418592900037765503e-02
-2.956271730363368988e-02
-5.286999419331550598e-02
-1.509337499737739563e-02
8.526471210643649101e-04
7.731407135725021362e-02
-1.162067800760269165e-02
-8.876523934304714203e-03
4.406905919313430786e-02
-2.498557791113853455e-02
-2.560404501855373383e-02
3.794598206877708435e-02
-1.681668218225240707e-03
7.580444216728210449e-02
4.440485499799251556e-03
-4.634367302060127258e-02
-2.103642001748085022e-02
-4.735578969120979309e-02
1.709633320569992065e-02
3.150744596496224403e-03
-2.223766408860683441e-02
7.297226786613464355e-02
5.842905119061470032e-02
-2.967886254191398621e-02
1.770629175007343292e-02
1.046348065137863159e-01
1.515785418450832367e-02
2.261279337108135223e-02
1.121232938021421432e-02
2.996786683797836304e-02
2.618866506963968277e-03
2.798604080453515053e-03
3.653688728809356689e-02
3.178628161549568176e-02
3.838632255792617798e-02
1.138721704483032227e-01
-7.013155613094568253e-03
2.031729556620121002e-03
-2.454326488077640533e-02
-4.158857464790344238e-02
5.830506328493356705e-03
-2.064932696521282196e-02
9.936368465423583984e-02
-2.118640393018722534e-02
-7.453263737261295319e-03
9.904912859201431274e-02
5.024590343236923218e-02
-4.478837549686431885e-02
2.517243148759007454e-03
-6.265142466872930527e-03
-5.894453078508377075e-02
-8.600292727351188660e-03
-2.393199503421783447e-02
-1.092171594500541687e-01
-3.754613175988197327e-02
-6.327513139694929123e-03
9.941941127181053162e-03
-3.293339908123016357e-02
2.983979880809783936e-02
2.289464510977268219e-02
3.372951876372098923e-03
-4.179195687174797058e-02
8.799723535776138306e-02
-1.336808130145072937e-02
-2.040923386812210083e-02
2.157890982925891876e-02
2.074733562767505646e-02
-1.008510310202836990e-02
-7.030715793371200562e-02
4.649707116186618805e-03
-1.175558473914861679e-02
2.040388621389865875e-02
1.033476367592811584e-02
1.626839675009250641e-02
3.181428834795951843e-02
1.203317120671272278e-01
4.406867083162069321e-03
2.669331058859825134e-02
2.015801146626472473e-02
-5.546965170651674271e-03
-1.503842789679765701e-02
9.436168707907199860e-03
1.079814359545707703e-01
8.146988227963447571e-03
3.739920631051063538e-02
9.877718985080718994e-02
-2.938034012913703918e-02
6.639828439801931381e-03
2.008697018027305603e-02
-1.843204163014888763e-02
-2.062964998185634613e-02
7.428316399455070496e-03
-3.613613173365592957e-02
-1.063537150621414185e-01
5.191863700747489929e-02
-1.690528728067874908e-02
8.258163928985595703e-03
-5.247817188501358032e-02
1.703611761331558228e-02
-6.314307451248168945e-03
5.121818743646144867e-03
-4.864718299359083176e-03
6.110881268978118896e-02
-1.131717022508382797e-02
-2.255050651729106903e-02
-1.913056150078773499e-02
1.807002350687980652e-02
4.890251904726028442e-02
2.432797104120254517e-03
2.348545752465724945e-02
-1.881109923124313354e-02
3.487932682037353516e-02
-2.550338022410869598e-02
-9.271639399230480194e-03
3.139154985547065735e-02
1.162497401237487793e-01
1.347466185688972473e-02
1.804487407207489014e-02
-3.905722871422767639e-02
4.524038732051849365e-02
-4.448692500591278076e-02
-3.152326494455337524e-02
8.702702820301055908e-02
-1.999405212700366974e-02
2.355128526687622070e-03
8.931821584701538086e-02
-4.844760149717330933e-02
2.059739781543612480e-03
4.669998586177825928e-02
-2.653287723660469055e-02
-1.873528026044368744e-02
3.098798543214797974e-02
-8.748543914407491684e-04
-7.633342593908309937e-02
2.914884127676486969e-03
-2.684865891933441162e-02
-1.122803241014480591e-02
5.005989596247673035e-02
-6.411727517843246460e-02
-1.711577060632407665e-03
-1.577852666378021240e-02
5.772238969802856445e-02
3.713848441839218140e-02
-2.644665725529193878e-02
2.485986240208148956e-02
8.482974767684936523e-02
5.553561449050903320e-02
1.500448677688837051e-02
4.270849749445915222e-03
1.969278044998645782e-02
-3.192727640271186829e-02
8.446485735476016998e-04
3.269043192267417908e-02
2.719219401478767395e-02
1.060142591595649719e-01
8.711738884449005127e-02
2.524263784289360046e-02
-1.149630639702081680e-03
-2.717945352196693420e-02
-3.862144052982330322e-02
4.654319956898689270e-03
-2.236580848693847656e-02
-3.011879324913024902e-02
-2.193387225270271301e-02
-7.984420284628868103e-03
-1.648931764066219330e-02
6.917359679937362671e-02
-3.505530580878257751e-02
-3.553245449438691139e-03
-7.953415624797344208e-03
-7.497449964284896851e-02
-1.183949969708919525e-02
-1.213588286191225052e-02
-3.627382591366767883e-02
-2.934330515563488007e-02
2.859741216525435448e-04
1.217516511678695679e-02
5.901524797081947327e-02
-6.557727605104446411e-02
1.425637770444154739e-02
1.148940529674291611e-02
-4.342000558972358704e-02
5.100617185235023499e-02
-1.181570068001747131e-02
-1.438590325415134430e-02
2.024508267641067505e-02
4.040951654314994812e-02
-1.643310487270355225e-02
-6.567757576704025269e-02
-3.123166505247354507e-03
-7.779302075505256653e-03
1.476954855024814606e-02
1.174276694655418396e-02
1.620291545987129211e-02
1.068518981337547302e-01
9.677015990018844604e-02
-9.337233379483222961e-03
2.103571034967899323e-02
1.794882118701934814e-02
-1.528402604162693024e-02
-9.279742836952209473e-03
1.216127071529626846e-02
-2.220020815730094910e-02
1.077215187251567841e-02
3.598139435052871704e-02
-1.115998066961765289e-02
-4.208955913782119751e-02
2.450815867632627487e-03
1.025131624191999435e-02
-1.528883166611194611e-02
-3.468691185116767883e-02
5.756668280810117722e-03
-3.046937286853790283e-02
-3.278860449790954590e-02
4.628539457917213440e-02
-6.123606581240892410e-03
9.996668435633182526e-03
5.406577140092849731e-02
-4.877457022666931152e-02
-1.264105178415775299e-02
2.720402367413043976e-02
-5.588566418737173080e-03
3.079813532531261444e-02
-7.530489936470985413e-03
-1.659658551216125488e-02
-1.235643494874238968e-02
2.165674604475498199e-02
3.351290896534919739e-02
2.191540785133838654e-03
1.065171044319868088e-02
2.449427358806133270e-02
2.548503689467906952e-02
-1.268043555319309235e-02
-2.548272954300045967e-03
8.816025406122207642e-02
9.071878343820571899e-02
-4.666845127940177917e-02
1.068543456494808197e-02
-3.252287209033966064e-02
2.685211598873138428e-02
-3.259935230016708374e-02
-2.416936308145523071e-02
-3.251671791076660156e-02
-1.638770475983619690e-02
6.765917642042040825e-04
-2.248652838170528412e-02
-6.849440932273864746e-02
-5.023155361413955688e-03
3.327479213476181030e-02
-1.856615953147411346e-02
-2.081675454974174500e-02
2.085107006132602692e-02
4.346623609308153391e-04
-2.191882021725177765e-02
-7.627401966601610184e-03
-8.520022965967655182e-03
-2.430801047012209892e-03
6.384275108575820923e-02
2.714580856263637543e-02
-8.848552592098712921e-03
-2.857060404494404793e-03
4.635630548000335693e-02
-7.053758949041366577e-02
-2.855863980948925018e-02
5.166322924196720123e-03
6.447537243366241455e-02
7.019125670194625854e-02
1.362509559839963913e-02
7.303814869374036789e-03
1.482877507805824280e-02
-9.137907624244689941e-02
1.080104894936084747e-02
2.810495905578136444e-02
2.792882174253463745e-02
-3.738877922296524048e-02
4.696878790855407715e-02
7.121541351079940796e-02
4.248204175382852554e-03
-3.190495446324348450e-02
-3.164637461304664612e-02
1.272507943212985992e-02
-1.674633659422397614e-02
7.324216887354850769e-03
-2.852669730782508850e-02
-2.970134839415550232e-03
-8.049985766410827637e-02
8.516595512628555298e-02
-2.418462559580802917e-02
4.970854148268699646e-03
-4.908498842269182205e-03
-7.723168283700942993e-02
-3.227178752422332764e-02
-1.335814967751502991e-02
2.868245542049407959e-02
-1.819292828440666199e-02
3.001989796757698059e-02
1.577994786202907562e-02
6.776728481054306030e-02
2.368605323135852814e-02
1.416994258761405945e-03
2.051764912903308868e-02
-3.844600170850753784e-02
-8.266459405422210693e-02
-1.527245622128248215e-02
-2.584352716803550720e-02
2.019000425934791565e-02
4.030589386820793152e-02
-1.663639768958091736e-02
-5.423469096422195435e-02
-8.389405906200408936e-03
-4.317326471209526062e-02
2.104343287646770477e-02
8.107564412057399750e-03
1.633867435157299042e-02
-3.326126560568809509e-02
5.816940963268280029e-02
-2.734450157731771469e-03
2.343316935002803802e-02
8.998563513159751892e-03
-1.226188242435455322e-02
-5.237357108853757381e-04
1.329115498811006546e-02
8.674806915223598480e-03
2.326719462871551514e-03
3.638536855578422546e-02
-7.344935089349746704e-02
-1.957550458610057831e-02
9.052528068423271179e-03
1.606450229883193970e-02
-1.327197626233100891e-02
-3.260713815689086914e-02
-1.471390761435031891e-02
-3.517001494765281677e-02
3.827552124857902527e-02
4.584907367825508118e-02
3.129612281918525696e-02
1.163680572062730789e-02
7.684598118066787720e-02
2.703939378261566162e-02
-2.252328395843505859e-02
4.105787724256515503e-02
-1.914053456857800484e-03
-7.226183265447616577e-02
-9.181728586554527283e-03
-2.014370448887348175e-02
-6.617512088268995285e-03
9.284371510148048401e-03
2.823522314429283142e-02
5.127762909978628159e-03
1.549380947835743427e-03
3.662059083580970764e-02
2.797845192253589630e-02
-1.252900063991546631e-02
-7.018867763690650463e-04
-5.188249051570892334e-02
6.116160377860069275e-02
-9.305319190025329590e-02
1.225767191499471664e-02
-3.513530269265174866e-02
2.844826504588127136e-02
-2.882989682257175446e-02
-1.980996131896972656e-02
1.395774260163307190e-02
-2.119310386478900909e-02
1.797601347789168358e-03
-8.234812319278717041e-02
-5.143557116389274597e-02
6.221848074346780777e-03
3.665758296847343445e-02
-1.927101053297519684e-02
-1.939774490892887115e-02
-2.961410908028483391e-03
-6.595790386199951172e-03
2.891893684864044189e-02
-7.012238260358572006e-03
3.647479414939880371e-02
-3.627764061093330383e-02
-7.323138415813446045e-02
-5.552643164992332458e-02
5.364771466702222824e-03
-1.482526678591966629e-02
5.027755349874496460e-02
-3.735440596938133240e-02
-1.387796644121408463e-02
-4.487828910350799561e-02
3.114723972976207733e-02
-8.214050531387329102e-02
1.637135818600654602e-02
2.393187023699283600e-02
2.196799218654632568e-02
8.513321727514266968e-02
-1.633862964808940887e-02
2.555874176323413849e-02
1.799150742590427399e-02
4.311377927660942078e-02
-5.323264002799987793e-02
-7.195247709751129150e-02
-7.865776307880878448e-03
-3.893125336617231369e-03
-4.200946912169456482e-02
6.353443488478660583e-03
-1.027512922883033752e-02
3.835872933268547058e-02
-7.273233495652675629e-03
-1.167788077145814896e-02
-7.328616827726364136e-02
-2.957707643508911133e-02
-4.807318001985549927e-02
-9.449372999370098114e-03
6.960517726838588715e-03
7.474752515554428101e-02
1.187354605644941330e-02
-1.949331141076982021e-03
6.527862697839736938e-02
-4.806522279977798462e-02
-4.215608164668083191e-02
-4.806289914995431900e-03
-6.493016332387924194e-02
-7.362745702266693115e-02
3.087310865521430969e-02
-2.361755818128585815e-03
-3.872532024979591370e-02
-5.237691104412078857e-02
-2.002024091780185699e-03
-3.270455077290534973e-02
2.271883562207221985e-02
-6.010367348790168762e-02
-1.651193946599960327e-02
-4.246502369642257690e-02
1.953283092007040977e-03
1.248103566467761993e-02
-1.614679582417011261e-03
3.298551542684435844e-03
5.721014458686113358e-03
5.541918799281120300e-02
-5.040911212563514709e-02
7.740980479866266251e-03
1.552843395620584488e-02
4.223004356026649475e-02
-1.304829120635986328e-02
-1.307868678122758865e-02
1.042873132973909378e-02
2.456528693437576294e-02
1.439169514924287796e-02
2.998812682926654816e-02
-6.887467950582504272e-02
2.903450094163417816e-02
2.235127612948417664e-03
1.736646168865263462e-03
-4.205987323075532913e-03
5.649312213063240051e-02
1.971511729061603546e-02
-7.465756032615900040e-03
5.303288623690605164e-02
4.035873711109161377e-02
-3.628633171319961548e-02
-5.726150702685117722e-03
-1.043574064970016479e-01
-7.482974976301193237e-02
4.782093223184347153e-03
-2.838504314422607422e-02
2.908313879743218422e-03
-4.161552712321281433e-02
-6.025135517120361328e-03
-1.136868260800838470e-02
1.343555469065904617e-02
-3.654899075627326965e-02
3.923644125461578369e-02
1.599054038524627686e-02
2.416075021028518677e-02
-7.689368724822998047e-02
8.202526718378067017e-03
-2.934666536748409271e-02
-1.933394744992256165e-02
6.312125921249389648e-02
-3.155520185828208923e-02
1.169442683458328247e-01
8.342623710632324219e-03
-1.816673018038272858e-02
3.104959055781364441e-02
-3.094545938074588776e-02
-2.538808248937129974e-02
4.877093806862831116e-02
-1.242729648947715759e-02
-3.238939447328448296e-03
-4.904563352465629578e-02
7.135327905416488647e-02
-9.033618494868278503e-03
1.994456723332405090e-02
-1.054945867508649826e-02
1.740770414471626282e-02
3.748063370585441589e-02
1.584122888743877411e-02
7.077259570360183716e-02
-2.760244533419609070e-03
-3.051659464836120605e-02
-4.336698725819587708e-02
-2.133258990943431854e-02
1.277305334806442261e-01
5.485869012773036957e-03
-2.263090014457702637e-02
5.054205283522605896e-02
-3.834677115082740784e-02
-2.415942028164863586e-02
-5.701236426830291748e-02
4.473754763603210449e-02
-8.623273670673370361e-02
1.777455210685729980e-02
8.969582617282867432e-03
2.387079969048500061e-02
4.556074738502502441e-02
-1.128585543483495712e-02
3.811527043581008911e-02
3.098927997052669525e-02
-8.284898102283477783e-02
-7.857794314622879028e-02
-4.255037754774093628e-02
-3.772165859118103981e-03
-3.484054701402783394e-03
-4.669083282351493835e-02
2.295188838616013527e-03
-2.217626571655273438e-02
-8.871177583932876587e-02
-2.082035876810550690e-02
-4.913734272122383118e-03
-2.958025410771369934e-02
-2.599689178168773651e-02
-5.715234950184822083e-02
-9.707292541861534119e-03
-1.296760397963225842e-03
4.661666601896286011e-02
-4.248263780027627945e-03
-2.014996670186519623e-02
-1.018755808472633362e-01
-6.023852154612541199e-02
-8.316435851156711578e-03
-6.987942382693290710e-03
-1.180637627840042114e-02
1.354576945304870605e-01
2.974472567439079285e-02
-3.114808816462755203e-03
-5.403738468885421753e-02
-3.167302906513214111e-02
-9.506165981292724609e-03
-4.578877612948417664e-02
4.512371495366096497e-02
-5.306961014866828918e-02
-1.463753823190927505e-02
-6.951704621315002441e-02
-1.020797295495867729e-03
-4.224626813083887100e-03
6.728368811309337616e-03
9.605222381651401520e-03
1.590525917708873749e-02
-8.676522970199584961e-02
-8.131761848926544189e-02
1.849764399230480194e-02
1.967762410640716553e-02
4.581983387470245361e-02
-1.132787205278873444e-02
-2.193132974207401276e-02
2.059500897303223610e-03
-9.367094188928604126e-02
5.775806959718465805e-03
3.840238228440284729e-02
-2.953986637294292450e-02
8.353207958862185478e-04
1.510775473434478045e-04
4.914204124361276627e-03
-1.511077675968408585e-02
3.726108744740486145e-02
9.659846313297748566e-03
-2.436298690736293793e-02
-1.048481836915016174e-01
4.115344211459159851e-02
-8.412799797952175140e-03
-5.550391506403684616e-03
-3.708393126726150513e-02
1.081296801567077637e-01
-2.394004026427865028e-03
-2.525175549089908600e-02
-1.052181050181388855e-02
-3.363449499011039734e-02
-1.134471874684095383e-02
-2.554589696228504181e-02
3.164992108941078186e-02
-3.371311351656913757e-02
4.552769660949707031e-02
-2.093553310260176659e-03
1.763783209025859833e-02
-6.024972349405288696e-02
1.787921786308288574e-02
-3.121191635727882385e-02
-1.379845757037401199e-02
-6.531438231468200684e-02
-6.002314388751983643e-02
8.802233636379241943e-02
8.596442639827728271e-03
-2.834843285381793976e-02
4.235322028398513794e-02
-4.787442833185195923e-02
-4.005364701151847839e-02
-7.015585899353027344e-02
-2.323493734002113342e-02
-3.050304250791668892e-03
-6.406142842024564743e-03
3.393196687102317810e-02
-1.348188030533492565e-03
2.620337717235088348e-02
-2.444612234830856323e-02
1.022076699882745743e-02
2.676637470722198486e-02
9.582709521055221558e-03
-8.204374462366104126e-02
-6.530166603624820709e-03
-8.035786449909210205e-03
-3.825036063790321350e-02
7.095041126012802124e-02
2.648677490651607513e-02
6.209837272763252258e-03
-2.419562079012393951e-02
4.614934697747230530e-02
7.649032771587371826e-02
-2.966229803860187531e-02
-5.498071014881134033e-02
2.303287014365196228e-02
-1.097621954977512360e-02
1.878004521131515503e-02
7.545890752226114273e-03
2.592617273330688477e-02
-5.101909860968589783e-02
-7.775420323014259338e-03
4.013201594352722168e-02
3.594006970524787903e-02
-1.122136414051055908e-01
-4.949237406253814697e-02
-5.325555335730314255e-03
1.048868638463318348e-03
-6.497126538306474686e-03
-4.339657351374626160e-02
5.444777198135852814e-03
-2.301408164203166962e-02
1.091729030013084412e-01
-2.659655734896659851e-02
-1.890999497845768929e-03
7.800231128931045532e-02
4.354948177933692932e-03
-5.188633501529693604e-02
-6.719893775880336761e-03
-2.541836583986878395e-03
2.511781826615333557e-02
-1.948342099785804749e-02
-2.511605806648731232e-02
-9.214230626821517944e-02
-5.536036565899848938e-02
1.600778847932815552e-02
-2.133897272869944572e-03
7.827821373939514160e-02
3.961943462491035461e-02
2.701897546648979187e-02
-2.954767318442463875e-03
-5.547523126006126404e-02
1.019618213176727295e-01
-1.363081019371747971e-02
-4.075030609965324402e-02
3.770780935883522034e-02
-2.747182443272322416e-04
-1.333214435726404190e-02
-7.114956527948379517e-02
-1.043711381498724222e-04
-3.695129603147506714e-02
1.080623827874660492e-02
1.239974796772003174e-02
2.176265791058540344e-02
-1.261939108371734619e-01
-5.198746174573898315e-02
-7.545195519924163818e-03
2.329840324819087982e-02
4.316657409071922302e-02
-8.754080161452293396e-03
-1.817147247493267059e-02
2.507560886442661285e-03
1.183111816644668579e-01
2.256168285384774208e-03
4.040625318884849548e-02
8.049534261226654053e-02
-2.717512100934982300e-02
6.176354363560676575e-03
8.262729272246360779e-03
-1.677357964217662811e-02
2.707193978130817413e-02
-3.538243472576141357e-03
-2.989318221807479858e-02
-9.085143357515335083e-02
4.482393711805343628e-02
1.442753616720438004e-02
-1.054943073540925980e-03
7.404410839080810547e-02
2.759055607020854950e-02
-4.685206804424524307e-03
-1.790080778300762177e-02
-1.150778122246265411e-02
8.022672683000564575e-02
-1.387400832027196884e-02
-2.390178851783275604e-02
2.654739841818809509e-02
6.849227007478475571e-03
4.644210264086723328e-02
-2.316074213013052940e-03
1.805095374584197998e-02
-1.069360598921775818e-02
2.153957076370716095e-02
-2.663351595401763916e-02
-4.012461286038160324e-03
-9.874443709850311279e-02
-3.548099845647811890e-02
-1.335794664919376373e-02
1.282626576721668243e-02
-3.226267546415328979e-02
4.837520048022270203e-02
-4.823827371001243591e-02
-3.945867717266082764e-02
1.009975001215934753e-01
-2.503684535622596741e-02
-1.492165145464241505e-03
9.262310713529586792e-02
-2.099076099693775177e-02
1.139720343053340912e-02
2.965564094483852386e-02
-2.706083282828330994e-02
1.369688846170902252e-02
1.142284274101257324e-02
8.458084426820278168e-03
-7.771527767181396484e-02
-5.101310089230537415e-03
1.605686172842979431e-02
-2.787907235324382782e-02
7.271620631217956543e-02
-6.637392193078994751e-02
1.134919119067490101e-03
-1.855633780360221863e-02
3.485766053199768066e-02
3.719169646501541138e-02
-1.986273750662803650e-02
-4.460285231471061707e-02
2.979512093588709831e-03
4.835556820034980774e-02
1.159752346575260162e-02
6.149339955300092697e-03
1.328624226152896881e-02
-8.078549057245254517e-02
-9.236369282007217407e-03
3.652173653244972229e-02
2.922434359788894653e-02
9.131177514791488647e-02
-2.940380759537220001e-02
1.987735927104949951e-02
-5.408822093158960342e-03
-1.244118157774209976e-02
-3.914644569158554077e-02
5.405811592936515808e-03
-2.544404752552509308e-02
-4.297674819827079773e-02
-2.383924275636672974e-02
-4.672023467719554901e-03
1.050581932067871094e-01
2.033678069710731506e-02
-4.022628068923950195e-02
-1.240589935332536697e-02
-3.444737056270241737e-03
-1.183069124817848206e-02
-2.072628960013389587e-02
-1.705460622906684875e-02
7.761679589748382568e-02
-4.756454750895500183e-02
1.606746017932891846e-02
1.030501327477395535e-03
7.873253524303436279e-02
-6.809689849615097046e-02
1.859763450920581818e-02
5.906007252633571625e-03
-5.279258266091346741e-02
4.658579453825950623e-02
-6.925396621227264404e-03
-3.007470816373825073e-02
2.720826305449008942e-02
3.630568087100982666e-02
-1.936138793826103210e-02
-5.911603942513465881e-02
-1.014408003538846970e-02
-3.370796516537666321e-02
7.217232137918472290e-03
1.372551545500755310e-02
1.953167468309402466e-02
8.577101677656173706e-02
-3.002350218594074249e-02
-2.721908129751682281e-02
1.447914075106382370e-02
3.846874833106994629e-02
-1.725916378200054169e-02
-1.085772179067134857e-02
4.393394105136394501e-03
-3.695881366729736328e-02
6.789675913751125336e-03
3.655348718166351318e-02
1.102241352200508118e-01
-5.904024094343185425e-02
3.161034779623150826e-03
-6.108343950472772121e-04
-1.233312953263521194e-02
-4.342818283475935459e-04
-4.960645455867052078e-03
-2.768275514245033264e-02
7.903971523046493530e-02
3.817898407578468323e-02
2.167947031557559967e-02
1.780229504220187664e-03
9.104818850755691528e-02
-4.964129999279975891e-02
-1.165679283440113068e-02
5.431292112916707993e-03
-1.016152556985616684e-02
3.115697205066680908e-02
-4.908579867333173752e-03
-1.640706695616245270e-02
2.027516439557075500e-02
2.275337465107440948e-02
3.108612634241580963e-02
3.619042458012700081e-03
2.698165131732821465e-03
3.085018135607242584e-02
1.527202408760786057e-02
-1.357067562639713287e-02
5.517843528650701046e-04
9.150407463312149048e-02
-1.699882745742797852e-02
-8.275036513805389404e-02
2.439843025058507919e-03
-2.728048525750637054e-02
3.182791173458099365e-02
-3.480556234717369080e-02
-3.225285187363624573e-02
-4.317071288824081421e-02
-1.863833144307136536e-02
-5.140605382621288300e-03
1.098145470023155212e-01
-6.838162243366241455e-02
5.367055535316467285e-03
1.788746938109397888e-02
-1.777839660644531250e-02
4.568972624838352203e-03
1.064434181898832321e-03
8.344998583197593689e-03
5.893437191843986511e-02
-1.646470278501510620e-02
3.173789381980895996e-02
-1.964105665683746338e-02
-1.412299275398254395e-02
2.807109430432319641e-02
-3.192851552739739418e-03
-9.941124357283115387e-03
2.601389028131961823e-02
-8.443521708250045776e-02
-2.013647742569446564e-02
-5.057285726070404053e-02
-2.337121590971946716e-02
8.458261936902999878e-02
1.465323194861412048e-02
9.046239778399467468e-03
1.119696162641048431e-02
-9.904184937477111816e-02
3.439471358433365822e-03
3.335262089967727661e-02
3.039650246500968933e-02
5.110593885183334351e-02
-2.402931824326515198e-02
5.964355543255805969e-02
1.714399782940745354e-03
-1.472777500748634338e-02
-3.408074751496315002e-02
1.165648270398378372e-02
-2.015203610062599182e-02
-1.382374484091997147e-02
-2.782081998884677887e-02
1.689886208623647690e-03
8.694939315319061279e-03
3.606687113642692566e-02
-3.122859820723533630e-02
-2.974015427753329277e-03
-2.639198675751686096e-03
-4.243145883083343506e-02
-4.523173347115516663e-02
-2.198313735425472260e-02
4.112692922353744507e-02
-3.612347319722175598e-02
4.383023828268051147e-02
3.583495039492845535e-03
-1.356731541454792023e-02
2.278359606862068176e-02
8.546856231987476349e-03
1.168725267052650452e-02
-4.497407376766204834e-02
-9.956850111484527588e-02
-9.235693141818046570e-03
-2.867991849780082703e-02
1.202144473791122437e-02
5.799372866749763489e-02
-1.560800615698099136e-02
-4.778937250375747681e-02
-1.335563696920871735e-02
-3.959013894200325012e-02
1.705620624125003815e-02
1.114546693861484528e-02
1.966150104999542236e-02
5.294818431138992310e-02
-1.881654188036918640e-02
-2.127297408878803253e-02
1.842350512742996216e-02
3.110479749739170074e-02
-1.570711098611354828e-02
-4.129170905798673630e-03
4.602352622896432877e-03
-1.146660093218088150e-02
-2.822392561938613653e-04
3.809586912393569946e-02
1.316028647124767303e-02
-5.800596624612808228e-02
7.983322255313396454e-03
6.500015035271644592e-03
-1.243324112147092819e-02
-2.258847467601299286e-02
-3.008473478257656097e-02
-3.623954579234123230e-02
4.967987537384033203e-02
3.789602592587471008e-02
5.639163404703140259e-02
1.913584768772125244e-03
2.265403978526592255e-02
2.832716330885887146e-02
-2.009248360991477966e-02
1.664401963353157043e-02
-5.333201494067907333e-03
-8.486784994602203369e-02
-5.131872836500406265e-03
-1.136728562414646149e-02
8.382876403629779816e-03
2.624082937836647034e-02
3.001765161752700806e-02
6.196674890816211700e-03
-4.208137746900320053e-03
5.168844759464263916e-02
2.219333313405513763e-02
-1.211365684866905212e-02
2.525242744013667107e-03
4.261493310332298279e-02
-6.512274965643882751e-03
-1.214663833379745483e-01
5.203263834118843079e-03
-2.854782529175281525e-02
3.306541219353675842e-02
-3.260750323534011841e-02
-2.824959531426429749e-02
-1.531533896923065186e-03
-2.135849557816982269e-02
-3.251457354053854942e-03
-3.379949601367115974e-03
-8.170159161090850830e-02
1.501410733908414841e-02
2.335259877145290375e-02
-2.036355249583721161e-02
-1.169046759605407715e-02
-2.781448513269424438e-02
-1.391389407217502594e-03
1.763203926384449005e-02
-1.593829505145549774e-02
7.274982333183288574e-02
-2.919361367821693420e-02
-1.811484980862587690e-04
-5.419939383864402771e-02
3.093209583312273026e-03
3.622251562774181366e-03
2.318499609827995300e-02
-3.392109647393226624e-02
-1.558209210634231567e-02
-1.743976399302482605e-02
-4.649326577782630920e-02
-5.643199011683464050e-02
1.111439708620309830e-02
1.784256286919116974e-02
1.871881447732448578e-02
7.982612401247024536e-02
-1.917667686939239502e-02
1.825980469584465027e-02
1.539227645844221115e-02
4.111577197909355164e-02
1.010188180953264236e-02
-4.720294848084449768e-02
-3.665385069325566292e-03
-7.877098396420478821e-04
-2.321758866310119629e-02
2.455709967762231827e-03
-1.103752851486206055e-02
3.659078851342201233e-02
-1.113281771540641785e-02
-5.100412759929895401e-03
-2.344988100230693817e-02
-5.589578673243522644e-02
-2.882700972259044647e-02
-8.692463859915733337e-03
5.665847100317478180e-03
6.761515885591506958e-02
-2.402253681793808937e-03
1.484710630029439926e-02
-2.634122595191001892e-02
-3.949260339140892029e-02
-3.158683702349662781e-02
-2.524322364479303360e-03
5.422797519713640213e-03
-7.617818564176559448e-02
2.855465188622474670e-02
6.798991002142429352e-03
-3.955308347940444946e-02
-5.438898503780364990e-02
-3.600409952923655510e-03
1.549498923122882843e-02
9.243391454219818115e-03
-3.598396480083465576e-02
-1.925505138933658600e-02
-3.811502829194068909e-02
1.685359166003763676e-03
2.536528185009956360e-02
-8.301206864416599274e-03
2.247175434604287148e-04
7.723319809883832932e-03
4.400124773383140564e-02
3.927987534552812576e-03
1.657841727137565613e-02
1.707814820110797882e-02
4.285385832190513611e-02
-9.106365963816642761e-03
-1.207505073398351669e-02
7.044325582683086395e-03
2.203769795596599579e-02
1.157977804541587830e-02
3.008918650448322296e-02
-1.868202164769172668e-02
3.357239440083503723e-02
1.117870584130287170e-02
-2.108640968799591064e-03
-1.125166192650794983e-03
3.173012658953666687e-02
9.334460482932627201e-04
7.587732747197151184e-03
-3.437110036611557007e-02
3.728929162025451660e-02
-1.753360778093338013e-02
-5.181015003472566605e-03
-5.240391474217176437e-03
-6.941832602024078369e-02
9.167519398033618927e-03
-2.952160872519016266e-02
1.113896258175373077e-03
-3.892613574862480164e-02
-8.682682178914546967e-03
2.563184127211570740e-02
3.417928144335746765e-02
-1.309226173907518387e-02
2.280477061867713928e-02
1.144222822040319443e-02
2.201386727392673492e-02
-4.750621691346168518e-02
-4.804120399057865143e-03
-2.338658645749092102e-02
-8.273862302303314209e-03
3.875423967838287354e-02
1.285976264625787735e-02
1.058661863207817078e-01
1.322191115468740463e-02
-2.215419523417949677e-02
2.660738304257392883e-02
-2.081022039055824280e-02
-2.145632728934288025e-02
4.496780410408973694e-02
-1.281211804598569870e-02
2.668027998879551888e-03
-9.830905124545097351e-03
7.263483852148056030e-02
-8.480274700559675694e-04
7.604724727571010590e-03
-2.434255089610815048e-03
3.564257640391588211e-03
1.050600595772266388e-02
2.449779398739337921e-02
-1.115998346358537674e-02
-7.645962759852409363e-03
-8.969813585281372070e-03
-3.501827269792556763e-02
5.770266801118850708e-02
1.220672577619552612e-01
6.895863451063632965e-03
-8.557806722819805145e-03
2.258281596004962921e-02
-2.948258072137832642e-02
-2.297723107039928436e-02
-2.181983180344104767e-02
-6.144614517688751221e-02
-7.528346776962280273e-02
1.199477817863225937e-02
4.004272166639566422e-03
2.106419764459133148e-02
1.816567219793796539e-02
-1.200581993907690048e-02
3.129848092794418335e-02
2.811247669160366058e-02
5.994576215744018555e-02
-2.365082874894142151e-02
-1.939728111028671265e-02
2.258303109556436539e-03
-7.008636021055281162e-05
-2.928995341062545776e-02
-2.492185914888978004e-03
-2.133992686867713928e-02
-7.936958223581314087e-02
-2.174871787428855896e-02
2.952037379145622253e-03
-7.153515517711639404e-02
-5.829380825161933899e-02
-3.598815202713012695e-02
-6.693458184599876404e-03
-3.810820402577519417e-03
5.549938976764678955e-02
-1.691380701959133148e-02
-3.861523699015378952e-03
-1.035711988806724548e-01
-4.936477169394493103e-02
-5.171583499759435654e-03
-3.135227365419268608e-03
6.605933606624603271e-02
1.263870149850845337e-01
3.022349439561367035e-02
2.505288226529955864e-03
-5.373543873429298401e-02
-2.999883890151977539e-02
-9.402477182447910309e-03
1.536508463323116302e-02
1.064809132367372513e-02
-4.198044165968894958e-02
-1.769505068659782410e-02
-6.142535433173179626e-02
-1.219263183884322643e-03
-1.575373928062617779e-03
2.044140361249446869e-03
7.178899832069873810e-03
1.724709756672382355e-02
5.849936231970787048e-02
-3.732081875205039978e-02
2.092572115361690521e-02
2.217851951718330383e-02
4.656119644641876221e-02
-9.010140784084796906e-03
-2.125579863786697388e-02
-6.225579418241977692e-04
-8.069884032011032104e-02
4.329414572566747665e-03
3.850749507546424866e-02
-7.200562953948974609e-02
2.982113882899284363e-02
9.878308512270450592e-03
2.718165516853332520e-03
-1.331881061196327209e-02
2.779880352318286896e-02
-9.056743234395980835e-03
-9.805080480873584747e-03
-1.019180119037628174e-01
3.909267485141754150e-02
3.518174169585108757e-03
-2.069050213322043419e-03
7.027231156826019287e-02
1.071700006723403931e-01
4.810073412954807281e-03
-3.230417147278785706e-02
-8.491704240441322327e-03
-2.461887896060943604e-02
-1.246066018939018250e-02
2.708809264004230499e-02
3.768583759665489197e-02
-2.280238643288612366e-02
2.774415351450443268e-02
-3.832802176475524902e-03
1.522092148661613464e-02
-2.910091541707515717e-02
6.888053379952907562e-03
-2.374512702226638794e-02
-2.387640066444873810e-03
6.570638716220855713e-02
-2.461343631148338318e-02
7.130899280309677124e-02
1.424196176230907440e-02
-3.050494566559791565e-02
3.535234928131103516e-02
-3.756153210997581482e-02
-3.487709537148475647e-02
-5.879789963364601135e-02
-2.097951620817184448e-02
3.245378844439983368e-03
-4.438533633947372437e-02
7.121150940656661987e-02
7.430486381053924561e-03
1.489488966763019562e-02
-1.737042330205440521e-02
5.261007696390151978e-03
-2.171199768781661987e-03
1.805801875889301300e-02
-9.141925722360610962e-02
-1.045629754662513733e-02
1.120673306286334991e-02
-3.405832871794700623e-02
6.577617675065994263e-02
1.208159234374761581e-02
7.093959487974643707e-03
-1.438261196017265320e-02
2.347258105874061584e-02
4.617201164364814758e-02
-2.538943849503993988e-02
-1.625561341643333435e-02
-7.103692740201950073e-02
-2.827086485922336578e-02
9.843597188591957092e-03
5.433872807770967484e-03
2.016170322895050049e-02
-5.950932949781417847e-02
-8.134363219141960144e-03
3.310444578528404236e-02
3.007704392075538635e-02
-1.232312098145484924e-01
-4.369854927062988281e-02
1.616889983415603638e-02
3.691556164994835854e-03
-7.521155755966901779e-03
-2.583403885364532471e-02
8.639719453640282154e-04
-2.248410694301128387e-02
8.683909475803375244e-02
-2.645082399249076843e-02
3.738284576684236526e-03
-4.130304232239723206e-02
-3.206777200102806091e-02
-3.194952011108398438e-02
-4.630501847714185715e-03
-4.295479040592908859e-03
4.315795376896858215e-02
-2.866678498685359955e-02
-1.053528860211372375e-02
6.411495059728622437e-02
-4.356566816568374634e-02
1.215110812336206436e-02
-1.030808198265731335e-03
7.368741929531097412e-02
2.431677840650081635e-02
2.706188522279262543e-02
5.486434092745184898e-04
-4.705295711755752563e-02
6.561110913753509521e-02
-1.067442260682582855e-02
2.442701160907745361e-02
1.145670283585786819e-02
-1.336788292974233627e-02
-1.881331764161586761e-02
-5.825043842196464539e-02
-3.156116697937250137e-03
-2.047576196491718292e-02
7.380465976893901825e-03
9.722669608891010284e-03
2.077749744057655334e-02
-1.328344494104385376e-01
-5.998246371746063232e-02
-1.388788106851279736e-03
2.233858220279216766e-02
3.945114463567733765e-02
-6.621982436627149582e-03
-1.639616303145885468e-02
-2.380130317760631442e-04
9.993463754653930664e-02
9.428011253476142883e-04
3.798507526516914368e-02
-4.068060964345932007e-02
1.924370042979717255e-02
1.445041317492723465e-02
5.284068640321493149e-03
-1.368136052042245865e-02
2.464548684656620026e-02
-1.911689527332782745e-02
-1.756232418119907379e-02
6.886271387338638306e-02
4.319531470537185669e-02
1.968220248818397522e-02
1.352067803964018822e-03
9.221167117357254028e-02
1.868725195527076721e-02
1.671983627602458000e-03
-2.862563170492649078e-02
-1.056818291544914246e-03
4.921248927712440491e-02
-1.255700178444385529e-02
3.504190966486930847e-02
4.160536825656890869e-02
-5.122827365994453430e-03
2.570855803787708282e-02
-8.714275900274515152e-04
1.206419151276350021e-02
3.574819117784500122e-02
1.205389667302370071e-02
-1.993512734770774841e-02
4.577153827995061874e-03
-1.055675968527793884e-01
-5.062662810087203979e-02
-2.197064273059368134e-02
1.438102312386035919e-02
-3.693890944123268127e-02
4.115741699934005737e-02
-3.660291805863380432e-02
-3.416648879647254944e-02
8.494955301284790039e-02
-2.211257815361022949e-02
2.264905720949172974e-03
-3.179889405146241188e-03
4.430219531059265137e-02
1.829494722187519073e-02
1.734827831387519836e-02
-1.900045946240425110e-02
6.623543333262205124e-03
-1.476986613124608994e-02
1.547540724277496338e-02
5.047221109271049500e-02
-8.146197535097599030e-03
2.878148667514324188e-02
-2.697570621967315674e-02
-1.449191104620695114e-02
-6.768448650836944580e-02
5.347745958715677261e-03
-1.796371676027774811e-02
1.452805567532777786e-02
2.805798314511775970e-02
-1.456684339791536331e-02
-2.124466560781002045e-02
-7.472371309995651245e-02
3.035403229296207428e-02
3.705749288201332092e-03
3.809071378782391548e-03
8.896880783140659332e-03
-7.442449033260345459e-02
-8.601020090281963348e-03
3.046282194554805756e-02
2.319970726966857910e-02
-6.240265071392059326e-02
-3.640016913414001465e-02
3.552993386983871460e-02
1.242395082954317331e-04
-1.149710081517696381e-02
-2.274741046130657196e-02
-3.229172725696116686e-04
-2.489779517054557800e-02
-3.382533043622970581e-02
-2.214494347572326660e-02
4.529884550720453262e-03
4.969942197203636169e-02
-1.185749098658561707e-02
-1.848961971700191498e-02
-8.620089851319789886e-03
-7.118412293493747711e-03
1.634734869003295898e-02
-2.334705367684364319e-02
-5.084706936031579971e-03
1.083836108446121216e-01
-3.389829024672508240e-02
1.774412929080426693e-03
1.349779195152223110e-04
-1.355284918099641800e-02
-7.160870730876922607e-02
2.158447355031967163e-02
1.735441270284354687e-03
-4.267050325870513916e-02
3.371909633278846741e-02
-3.683368209749460220e-03
2.182486094534397125e-02
8.365832269191741943e-03
2.450593188405036926e-02
-2.380571328103542328e-02
-4.624277725815773010e-02
-1.176198199391365051e-02
-1.745504513382911682e-02
5.014932248741388321e-03
1.159976888447999954e-02
1.836056448519229889e-02
-6.602847576141357422e-02
-5.007233470678329468e-02
-1.558725908398628235e-02
1.590759307146072388e-02
3.645653277635574341e-02
-1.443458162248134613e-02
-1.034895889461040497e-02
1.786045264452695847e-03
-2.644728496670722961e-02
6.168417166918516159e-03
3.697508201003074646e-02
5.365229025483131409e-02
-1.232958491891622543e-02
1.429173257201910019e-02
-1.743348431773483753e-03
-1.145384646952152252e-02
1.077117305248975754e-02
-1.407911721616983414e-02
-1.695361174643039703e-02
1.159428358078002930e-01
3.969343006610870361e-02
1.573326438665390015e-02
2.887334208935499191e-03
2.380106225609779358e-02
-4.765223711729049683e-02
-3.715618746355175972e-03
-1.417646557092666626e-02
5.483499262481927872e-04
2.079907990992069244e-02
-3.777420846745371819e-03
2.887653373181819916e-02
3.730876743793487549e-02
1.194098126143217087e-02
1.297086756676435471e-02
4.817783366888761520e-03
-1.905398676171898842e-03
5.793294310569763184e-02
8.062234148383140564e-03
-7.564096711575984955e-03
8.075376972556114197e-03
-4.789881780743598938e-02
-4.231572151184082031e-02
-7.314942777156829834e-02
6.224256940186023712e-03
-3.041061013936996460e-02
2.710068039596080780e-02
-2.611655183136463165e-02
-2.790087088942527771e-02
-3.453491628170013428e-02
-1.480038743466138840e-02
1.075274194590747356e-03
7.940340042114257812e-02
-3.517567878589034081e-03
1.579439826309680939e-02
8.385855704545974731e-03
-1.305510010570287704e-02
1.074911095201969147e-02
-1.817546412348747253e-02
1.585182361304759979e-02
8.845477551221847534e-02
-1.595543138682842255e-02
3.335591778159141541e-02
-2.379070594906806946e-02
-7.369793206453323364e-02
2.345481328666210175e-02
2.614166587591171265e-03
-1.901818066835403442e-02
1.023229490965604782e-02
-4.548064246773719788e-02
-1.167701464146375656e-02
-4.188358411192893982e-02
-8.174393326044082642e-02
6.970427185297012329e-02
7.508210372179746628e-03
7.201648782938718796e-03
7.800864987075328827e-03
-6.175134703516960144e-02
3.680600086227059364e-03
2.595238946378231049e-02
2.143207378685474396e-02
3.505980968475341797e-02
-4.834659397602081299e-02
7.245407253503799438e-02
5.210399627685546875e-03
-8.410893380641937256e-03
-1.659430935978889465e-02
6.450716871768236160e-03
-1.862918958067893982e-02
-1.165686291642487049e-03
-2.277668938040733337e-02
9.236173704266548157e-03
8.860887587070465088e-02
-7.108330726623535156e-03
-7.936930283904075623e-03
-3.364669100847095251e-04
-6.011180579662322998e-03
-1.020729169249534607e-02
-4.667280986905097961e-02
-1.340046897530555725e-02
-1.932663470506668091e-02
-2.320028096437454224e-02
2.534961514174938202e-02
-1.823133090510964394e-03
-7.540299743413925171e-02
1.920900307595729828e-02
1.316363271325826645e-02
-1.066367840394377708e-03
-3.046523593366146088e-02
-6.332218647003173828e-02
-2.204198390245437622e-03
2.753566484898328781e-03
6.421374622732400894e-03
4.711842909455299377e-02
-1.895380020141601562e-02
-3.361567482352256775e-02
-1.402841601520776749e-02
-8.221431635320186615e-03
1.538213621824979782e-02
7.823648862540721893e-03
1.621527038514614105e-02
3.386032208800315857e-02
-4.778991267085075378e-02
-8.550310740247368813e-04
1.770901307463645935e-02
3.477495536208152771e-02
-1.226964872330427170e-02
-1.979142893105745316e-03
4.524275660514831543e-03
-3.223074891138821840e-04
2.933608135208487511e-03
3.671913966536521912e-02
9.059295803308486938e-02
-3.580946102738380432e-02
2.076057344675064087e-02
4.673246294260025024e-03
-9.932564571499824524e-03
-4.652450792491436005e-03
-3.796062618494033813e-02
-2.784104645252227783e-02
-1.037550903856754303e-02
3.858409076929092407e-02
4.525575414299964905e-02
-1.210910850204527378e-03
-1.779119856655597687e-02
3.305213153362274170e-02
-1.085880678147077560e-02
-1.016346924006938934e-02
7.634649984538555145e-03
-4.789864644408226013e-02
-5.706186057068407536e-04
1.347444485872983932e-02
3.119067661464214325e-02
1.593606546521186829e-02
1.344317384064197540e-02
8.622043766081333160e-03
-7.607343606650829315e-03
7.193082571029663086e-02
1.622273959219455719e-02
-7.319759577512741089e-03
7.533218245953321457e-03
3.190678358078002930e-02
-4.247017949819564819e-02
-8.947052806615829468e-02
6.386682391166687012e-03
-2.575775980949401855e-02
2.946533635258674622e-02
-2.117850445210933685e-02
-2.064485289156436920e-02
8.609143085777759552e-03
-1.344832126051187515e-02
9.057507268153131008e-04
8.716209977865219116e-02
-4.761480912566184998e-02
2.567852474749088287e-02
1.347428746521472931e-02
-1.315232925117015839e-02
2.620017854496836662e-03
-4.528356716036796570e-02
5.212683696299791336e-03
-3.567697852849960327e-02
-1.616403646767139435e-02
6.675180792808532715e-02
-2.017972990870475769e-02
3.102712705731391907e-02
-2.480933256447315216e-02
1.204527798108756542e-03
1.755057647824287415e-02
-1.583619602024555206e-02
-2.286602184176445007e-02
-1.540986075997352600e-02
2.583249937742948532e-03
-9.926455467939376831e-02
-4.877426102757453918e-02
8.968221955001354218e-03
1.704458729363977909e-03
1.190518215298652649e-02
2.302765101194381714e-02
-2.655587345361709595e-02
1.018408965319395065e-02
1.196519192308187485e-02
-5.862348899245262146e-02
2.038652263581752777e-02
-2.960346266627311707e-02
1.030030194669961929e-03
1.287813764065504074e-02
-7.133428473025560379e-03
3.323821350932121277e-03
-7.274599745869636536e-03
1.492256298661231995e-02
-1.201999280601739883e-02
3.139779902994632721e-03
4.700860753655433655e-02
-4.997369274497032166e-02
-2.712610363960266113e-02
-1.068943645805120468e-02
1.198606286197900772e-02
5.513064190745353699e-02
-1.594695448875427246e-02
2.454224042594432831e-02
-3.844802826642990112e-02
-3.969732299447059631e-02
1.364846806973218918e-02
6.260536611080169678e-04
3.844178467988967896e-02
-4.173024743795394897e-02
2.430020645260810852e-02
1.178435049951076508e-02
-4.723167791962623596e-02
-4.680141061544418335e-02
-4.927883390337228775e-03
3.615441173315048218e-02
-2.512604184448719025e-02
-3.238963708281517029e-02
-2.251704595983028412e-02
-3.720515593886375427e-02
-3.426460316404700279e-03
-3.637137124314904213e-03
-1.594643108546733856e-02
-6.831543520092964172e-03
6.840643938630819321e-03
-7.053274661302566528e-02
2.467337995767593384e-02
1.488771289587020874e-02
1.854331418871879578e-02
5.026622861623764038e-02
1.006577862426638603e-03
-1.089363917708396912e-02
2.544216578826308250e-03
-1.190767507068812847e-03
7.046388927847146988e-03
2.929019369184970856e-02
3.894262388348579407e-02
2.787341736257076263e-02
1.109929941594600677e-02
-6.108055356889963150e-03
6.244293879717588425e-03
9.057005867362022400e-03
-1.508017908781766891e-02
1.895076595246791840e-02
-4.851691424846649170e-02
3.023442067205905914e-02
3.182733058929443359e-02
-5.714493338018655777e-03
4.923095181584358215e-02
-3.834007680416107178e-02
5.305948667228221893e-03
-2.941192314028739929e-02
-6.431325804442167282e-03
-3.269670531153678894e-02
-1.061874162405729294e-02
3.043602406978607178e-02
2.011310122907161713e-02
-7.085144985467195511e-03
1.614568568766117096e-02
-7.033306173980236053e-04
1.651525497436523438e-02
-4.335336387157440186e-02
-1.767791248857975006e-02
-2.988355048000812531e-02
-7.092673331499099731e-03
-7.332940399646759033e-02
3.319239616394042969e-02
7.927558571100234985e-02
1.300705503672361374e-02
-1.197982765734195709e-02
3.138336166739463806e-02
-1.924842596054077148e-02
-1.831860654056072235e-02
2.065139822661876678e-02
-1.212747208774089813e-02
4.066189576406031847e-04
4.393458366394042969e-02
6.684278696775436401e-02
5.410756915807723999e-03
-2.286134287714958191e-03
4.456744994968175888e-03
-5.790621973574161530e-03
-1.485461089760065079e-02
3.376305848360061646e-02
-3.402445092797279358e-02
-8.661974221467971802e-03
4.927152395248413086e-02
-2.915616892278194427e-02
2.847169339656829834e-02
1.051744446158409119e-01
7.372729014605283737e-03
-8.355966419912874699e-04
-1.420472096651792526e-02
-3.190467366948723793e-03
-2.113073691725730896e-02
7.576541975140571594e-03
-1.123623177409172058e-01
-7.294496893882751465e-02
1.034439448267221451e-02
-1.213793270289897919e-02
1.514032576233148575e-02
-5.074529349803924561e-02
-1.775492914021015167e-02
2.380150929093360901e-02
2.407706156373023987e-02
7.592388987541198730e-02
4.398972541093826294e-02
-1.485290471464395523e-02
6.863636430352926254e-03
1.297754887491464615e-02
-1.293594762682914734e-02
-1.035439549013972282e-03
-1.986986398696899414e-02
-5.385070666670799255e-02
-2.381668798625469208e-02
1.060196757316589355e-02
-1.262650825083255768e-02
-5.206275358796119690e-02
-3.421849384903907776e-02
-7.274607662111520767e-03
2.987485844641923904e-03
6.432212144136428833e-02
-2.211936190724372864e-02
4.561723675578832626e-03
2.656839787960052490e-02
-5.179791152477264404e-02
2.682166919112205505e-02
-3.849280299618840218e-03
3.907756134867668152e-02
1.104728728532791138e-01
2.776098996400833130e-02
1.306138437939807773e-04
-5.330338701605796814e-02
-1.313570793718099594e-02
-9.811492636799812317e-03
4.678598418831825256e-02
-2.702532708644866943e-02
-4.281637072563171387e-02
-2.058700472116470337e-02
-5.629297718405723572e-02
-5.916699767112731934e-03
-3.851398453116416931e-02
-4.909514915198087692e-03
6.463942554546520114e-05
1.518584322184324265e-02
7.203558087348937988e-02
4.857253283262252808e-02
8.952270261943340302e-03
2.268011495471000671e-02
5.278183147311210632e-02
9.394781081937253475e-04
-1.931603439152240753e-02
-9.482227265834808350e-03
-6.016077101230621338e-02
-3.606522222980856895e-03
3.600057959556579590e-02
-2.052338048815727234e-02
4.689045995473861694e-02
9.242646396160125732e-03
-9.516815189272165298e-04
-5.360795650631189346e-03
2.444332465529441833e-02
-1.786244846880435944e-02
1.575759844854474068e-03
2.357917837798595428e-02
2.958143129944801331e-02
3.922338783740997314e-02
-4.989517852663993835e-03
6.141281500458717346e-02
9.096941351890563965e-02
2.074800431728363037e-03
-3.973161429166793823e-02
-6.599440239369869232e-03
-4.054475110024213791e-03
-1.275932509452104568e-02
4.173846170306205750e-02
2.298018522560596466e-02
-2.121188491582870483e-02
2.077277377247810364e-02
-1.270091813057661057e-02
9.392900392413139343e-03
-2.274330705404281616e-02
-5.549983587116003036e-03
-3.079178370535373688e-02
-3.201017854735255241e-03
7.279003411531448364e-02
5.391232669353485107e-02
3.838277608156204224e-02
1.194230280816555023e-02
-2.040331251919269562e-02
3.983280062675476074e-02
-3.558583930134773254e-02
-3.541261330246925354e-02
-3.757455572485923767e-02
-2.252112515270709991e-02
-9.494284749962389469e-04
-5.579032935202121735e-03
9.539281576871871948e-02
1.365725696086883545e-02
4.963351413607597351e-03
-1.029220409691333771e-02
4.228875506669282913e-03
-2.092950232326984406e-02
2.782276459038257599e-02
1.469726115465164185e-02
-1.233201939612627029e-02
5.743969231843948364e-02
-2.790807001292705536e-02
-4.168895259499549866e-02
1.479051727801561356e-02
1.053346879780292511e-02
-8.182477205991744995e-03
-1.120459940284490585e-02
3.563765063881874084e-02
-2.122280746698379517e-02
1.457897573709487915e-02
-1.014659702777862549e-01
-4.103365540504455566e-02
9.921214543282985687e-03
-9.753407910466194153e-03
1.544408779591321945e-02
-9.414987266063690186e-02
-1.476695388555526733e-02
2.730592153966426849e-02
2.664819173514842987e-02
2.561275660991668701e-02
4.246032238006591797e-02
1.056999200955033302e-03
8.671488612890243530e-03
5.545465275645256042e-03
-1.012155972421169281e-02
1.540924538858234882e-03
-1.966478303074836731e-02
4.568534716963768005e-02
-2.550086565315723419e-02
1.213391777127981186e-02
-6.080118194222450256e-02
-3.611576929688453674e-02
-2.773457579314708710e-02
-6.391370203346014023e-03
1.349091879092156887e-03
6.711108982563018799e-02
-2.962241321802139282e-02
-5.648728460073471069e-03
1.253515779972076416e-01
-4.467676579952239990e-02
3.232015296816825867e-02
-1.637114328332245350e-03
-3.539193794131278992e-02
2.506760880351066589e-02
2.714215777814388275e-02
-4.156106617301702499e-03
-4.328911378979682922e-02
4.839030280709266663e-02
-9.584647603332996368e-03
5.530625209212303162e-02
-1.321510039269924164e-02
-2.329677715897560120e-02
-2.020913176238536835e-02
-4.949818551540374756e-02
-6.919888313859701157e-03
-3.692300617694854736e-02
9.544355998514220119e-05
4.329968243837356567e-03
1.920072361826896667e-02
2.291494794189929962e-02
4.636242240667343140e-02
-2.772607281804084778e-02
2.245810441672801971e-02
4.553123190999031067e-02
2.526464406400918961e-03
-1.505549810826778412e-02
-8.484333753585815430e-03
5.657874047756195068e-02
-5.527999252080917358e-03
3.530785068869590759e-02
-6.526458263397216797e-02
4.852989315986633301e-02
1.575423777103424072e-02
4.874856094829738140e-04
-6.928211078047752380e-03
3.576840460300445557e-02
-2.437133900821208954e-02
-9.104947559535503387e-03
1.371355950832366943e-01
3.506679460406303406e-02
4.275323450565338135e-02
-6.882690940983593464e-04
-4.720844794064760208e-03
1.434538699686527252e-02
1.124844886362552643e-03
-4.051268100738525391e-02
4.240419249981641769e-03
3.684176132082939148e-02
-1.088092755526304245e-02
4.654809832572937012e-02
3.814745321869850159e-02
-1.164051238447427750e-02
2.039487287402153015e-02
-6.890635937452316284e-03
7.230595219880342484e-03
4.588513076305389404e-02
-3.344595897942781448e-04
-2.520937100052833557e-02
4.051744937896728516e-03
3.703724220395088196e-02
4.709784686565399170e-02
-5.358194932341575623e-02
1.139144506305456161e-02
-2.600971981883049011e-02
4.532603174448013306e-02
-3.518618270754814148e-02
-3.356886655092239380e-02
4.748854413628578186e-02
-2.071774750947952271e-02
-1.932551385834813118e-03
-2.858005464076995850e-02
8.873980492353439331e-02
2.665942907333374023e-02
6.320847664028406143e-03
-1.305561978369951248e-02
1.267088204622268677e-02
-2.935759164392948151e-02
2.276646904647350311e-02
1.006651371717453003e-01
-9.361731819808483124e-03
6.078388169407844543e-02
-2.459701523184776306e-02
-8.165160566568374634e-02
-5.219898372888565063e-02
7.704864721745252609e-03
-1.794641837477684021e-02
-1.137404516339302063e-02
7.292606402188539505e-03
-6.954537238925695419e-03
8.590104989707469940e-03
-8.423975110054016113e-02
1.280756201595067978e-02
3.833937225863337517e-03
-8.101806975901126862e-03
3.296308917924761772e-03
-6.858785450458526611e-02
-1.314060296863317490e-02
2.494165301322937012e-02
1.747093908488750458e-02
-6.169121339917182922e-02
3.762709349393844604e-02
1.880019158124923706e-02
3.108951263129711151e-03
-2.030740026384592056e-03
-5.998606327921152115e-03
2.574546495452523232e-03
-2.233618125319480896e-02
-3.024003654718399048e-02
-1.934379339218139648e-02
1.053767371922731400e-02
-3.215701878070831299e-02
-1.981963962316513062e-02
-1.211695745587348938e-02
-9.213896468281745911e-03
6.390798371285200119e-04
5.904392153024673462e-02
-2.044266834855079651e-02
-5.489144241437315941e-04
-3.261954337358474731e-02
-3.510892391204833984e-02
1.580914109945297241e-02
-3.679254092276096344e-03
-7.896149903535842896e-02
-5.186006054282188416e-02
2.121847309172153473e-02
-7.897702977061271667e-03
-3.030753508210182190e-02
1.335921417921781540e-02
-1.043748943629907444e-05
5.002590641379356384e-02
-2.849548764061182737e-04
1.212883088737726212e-02
-2.417856827378273010e-02
-3.455628827214241028e-02
-1.596786268055438995e-02
-1.483439560979604721e-02
-4.294481768738478422e-04
6.397045683115720749e-03
1.413759496062994003e-02
-6.955043226480484009e-02
4.547063633799552917e-02
-3.086770512163639069e-02
1.391292829066514969e-02
3.963443264365196228e-02
-4.396031145006418228e-03
-5.615176633000373840e-03
-6.301854737102985382e-03
-2.303923666477203369e-02
3.001371223945170641e-04
3.185455873608589172e-02
-2.989143878221511841e-02
2.729943953454494476e-02
1.707606762647628784e-02
-5.446970462799072266e-03
-2.191058127209544182e-03
4.142965003848075867e-02
-1.605217531323432922e-02
-9.100617840886116028e-03
-2.053726091980934143e-02
3.195793554186820984e-02
3.277249634265899658e-02
-1.089425059035420418e-03
-3.924335166811943054e-02
-3.427561745047569275e-02
-4.316740669310092926e-03
-3.123519569635391235e-02
1.332322508096694946e-02
3.977031912654638290e-03
-1.916894398164004087e-04
4.104858636856079102e-02
4.658548906445503235e-02
1.322895288467407227e-03
9.621500968933105469e-03
1.466769492253661156e-03
-6.442185491323471069e-03
6.830467283725738525e-02
-1.546022249385714531e-03
-1.280656456947326660e-02
4.477322101593017578e-03
-5.753163620829582214e-02
4.072526097297668457e-02
-8.152728527784347534e-02
1.457502250559628010e-03
-2.146304585039615631e-02
3.277645632624626160e-02
-2.101842127740383148e-02
-2.713863924145698547e-02
-2.786626107990741730e-02
-1.257387362420558929e-02
-5.052682012319564819e-03
6.001184694468975067e-03
5.601329356431961060e-02
2.474827319383621216e-02
-4.334025434218347073e-04
-4.700227640569210052e-03
3.016706928610801697e-02
-2.639472670853137970e-02
2.259837463498115540e-02
-4.662326350808143616e-02
-1.617373153567314148e-02
5.621420592069625854e-02
-2.338823489844799042e-02
-5.603568628430366516e-02
6.370259914547204971e-03
6.952189374715089798e-03
-2.652212977409362793e-02
-1.168735604733228683e-02
-3.296978026628494263e-02
-3.892191220074892044e-03
-6.667505949735641479e-03
-7.668012380599975586e-02
6.008690223097801208e-02
8.392636664211750031e-03
-4.783558659255504608e-03
3.833488561213016510e-03
-3.614836186170578003e-02
-3.277092706412076950e-03
2.190095186233520508e-02
1.560199819505214691e-02
-4.189057741314172745e-03
-3.665086114779114723e-03
5.149969831109046936e-02
7.939532399177551270e-03
-2.840040833689272404e-04
-1.101368339732289314e-03
7.275308482348918915e-03
-1.591665111482143402e-02
-1.798929832875728607e-02
-1.693797484040260315e-02
1.420291513204574585e-02
3.630388155579566956e-02
-1.119094248861074448e-02
-4.407268133945763111e-04
-4.493558779358863831e-03
-3.188170667272061110e-04
4.868705198168754578e-02
-4.125979170203208923e-02
-1.155639532953500748e-02
-6.288573145866394043e-02
-2.451996132731437683e-02
3.133825585246086121e-02
-7.076823152601718903e-03
-6.152077019214630127e-02
8.731608279049396515e-03
1.485367678105831146e-02
-1.747027225792407990e-02
-1.802956499159336090e-02
-5.003478005528450012e-02
1.351368613541126251e-03
3.272741287946701050e-02
1.103652361780405045e-02
4.004256054759025574e-02
-1.925188861787319183e-02
-2.297999523580074310e-02
-1.639563404023647308e-02
1.807370572350919247e-04
7.942426018416881561e-03
4.386434331536293030e-03
1.224564108997583389e-02
-1.557039469480514526e-02
1.327740587294101715e-02
-1.034709904342889786e-02
1.517739705741405487e-02
3.697556629776954651e-02
-3.051996463909745216e-03
1.331575796939432621e-03
-2.447410020977258682e-03
-1.874727942049503326e-02
-7.607628504047170281e-05
3.081480786204338074e-02
4.288684204220771790e-02
3.777196398004889488e-03
2.486043237149715424e-02
-2.558607142418622971e-03
-2.237734850496053696e-03
4.455913603305816650e-02
-3.682882338762283325e-02
-2.209940552711486816e-02
-5.899987742304801941e-02
3.202600032091140747e-02
5.142219364643096924e-02
-6.286561954766511917e-03
-1.346505340188741684e-02
2.099577896296977997e-02
-9.591651149094104767e-03
-3.490383923053741455e-02
1.877747476100921631e-02
-3.488603979349136353e-02
3.114066552370786667e-03
2.683725208044052124e-02
4.980685934424400330e-02
9.339997544884681702e-03
1.107552740722894669e-02
5.434741266071796417e-03
-9.529786184430122375e-03
7.421070337295532227e-02
4.845300223678350449e-03
-1.053670886904001236e-02
4.751222208142280579e-03
-1.581925526261329651e-02
7.831542752683162689e-03
-8.261791616678237915e-02
1.319646718911826611e-03
-1.773455925285816193e-02
3.494706004858016968e-02
-1.712489500641822815e-02
-1.889618672430515289e-02
-6.578954868018627167e-03
-8.121767081320285797e-03
-5.644973833113908768e-03
5.282259359955787659e-02
1.130491495132446289e-02
3.574395552277565002e-02
1.477743964642286301e-03
-6.001675035804510117e-03
3.838606923818588257e-02
-4.874524474143981934e-02
1.108616217970848083e-02
-7.040154188871383667e-02
-1.650972478091716766e-02
7.526850700378417969e-02
