1.246738247573375702e-02
-2.900426834821701050e-02
5.253827475826255977e-05
2.120216190814971924e-02
-2.354015782475471497e-02
-3.157377988100051880e-02
2.571514248847961426e-02
4.666451737284660339e-02
-1.271299738436937332e-02
2.004701644182205200e-02
3.580580651760101318e-02
-9.265231341123580933e-02
-2.099217288196086884e-02
-1.167296618223190308e-02
3.893209248781204224e-02
5.229007452726364136e-02
1.358523964881896973e-02
-8.697154000401496887e-03
-2.149846032261848450e-02
3.258697921410202980e-03
1.179352030158042908e-02
-2.596782147884368896e-02
2.559563331305980682e-02
1.571552082896232605e-02
-2.971467003226280212e-02
7.130169868469238281e-02
4.240809381008148193e-02
-1.933843642473220825e-02
-4.553346894681453705e-03
3.110245428979396820e-02
-3.821482881903648376e-03
-1.499600615352392197e-02
-3.063810802996158600e-02
4.121544212102890015e-02
-1.666542515158653259e-02
-2.524822019040584564e-02
5.638457834720611572e-02
-3.081672266125679016e-02
-5.700749345123767853e-03
-2.753930166363716125e-02
-2.360755763947963715e-02
-4.901135805994272232e-03
4.901394993066787720e-02
1.250984240323305130e-02
4.839174798689782619e-04
-4.278783127665519714e-02
-4.823320545256137848e-03
-2.101164078339934349e-03
-2.705990709364414215e-02
-3.843560814857482910e-02
2.773340046405792236e-02
6.087172403931617737e-02
4.478839784860610962e-02
-3.492740541696548462e-02
3.454985097050666809e-02
3.034232370555400848e-02
-5.135725717991590500e-03
-1.829687878489494324e-02
5.166351795196533203e-02
-1.585969515144824982e-02
1.273273956030607224e-02
-4.534963518381118774e-02
2.283498272299766541e-02
-2.382121747359633446e-03
-2.749984385445713997e-03
9.402520023286342621e-03
-8.431678637862205505e-03
-2.205368829891085625e-03
2.807121537625789642e-02
-1.133333519101142883e-02
2.867343369871377945e-03
-5.735950544476509094e-03
-8.066147565841674805e-03
-1.070796698331832886e-02
2.320215106010437012e-02
-3.398275468498468399e-03
1.733045838773250580e-02
3.202959150075912476e-02
-4.114268720149993896e-02
3.703351691365242004e-02
3.171150758862495422e-02
-1.784954220056533813e-02
1.578664593398571014e-02
-1.422448642551898956e-02
-7.092306390404701233e-03
1.870404928922653198e-02
-1.561892218887805939e-02
2.700211107730865479e-02
-2.814738638699054718e-02
2.956614643335342407e-02
-9.348292835056781769e-03
2.105413749814033508e-02
1.206039637327194214e-02
-4.445859789848327637e-02
3.072797320783138275e-02
-6.609086878597736359e-03
-9.247530251741409302e-03
1.378225907683372498e-02
2.576569793745875359e-03
1.862100511789321899e-02
1.080634724348783493e-02
2.026976086199283600e-02
-2.073565311729907990e-02
2.032518573105335236e-02
-2.479577064514160156e-02
-5.595064256340265274e-03
-1.746853254735469818e-02
6.576644722372293472e-03
5.868253298103809357e-03
9.511576965451240540e-03
2.102385647594928741e-02
1.559895183891057968e-02
7.307356223464012146e-03
1.575530879199504852e-02
2.272010780870914459e-03
-1.253613736480474472e-02
2.002215944230556488e-02
1.378211379051208496e-02
-1.442028116434812546e-02
2.146409824490547180e-03
-2.420097030699253082e-02
-2.895839512348175049e-02
5.987119674682617188e-02
1.343102473765611649e-02
2.486421167850494385e-02
4.008147865533828735e-03
-4.251569509506225586e-03
-4.088437184691429138e-03
-2.903080172836780548e-02
2.788686892017722130e-03
4.054896906018257141e-02
2.606976591050624847e-02
-1.367093063890933990e-04
1.665473170578479767e-02
-4.945546854287385941e-03
-6.872258149087429047e-03
2.323019877076148987e-02
-2.684214897453784943e-02
9.834075346589088440e-03
3.050314961001276970e-03
1.817084150388836861e-03
-1.240260805934667587e-02
1.559256576001644135e-02
4.113938848604448140e-05
-7.203184999525547028e-03
-7.320710923522710800e-03
-1.837302371859550476e-02
3.379581496119499207e-02
-1.528231427073478699e-02
-2.847995422780513763e-02
-1.308386214077472687e-02
-3.724272549152374268e-02
1.933229854330420494e-03
-1.147564686834812164e-02
-3.410202637314796448e-02
1.104942150413990021e-02
4.528058320283889771e-02
3.195419162511825562e-02
-8.351363241672515869e-03
-1.616718433797359467e-02
2.480320259928703308e-02
7.293435931205749512e-02
-3.333823289722204208e-03
1.013932600617408752e-01
2.568026818335056305e-02
-3.739220276474952698e-02
-7.812259253114461899e-03
-4.281338676810264587e-02
-5.091369524598121643e-02
4.231993108987808228e-03
-7.450560480356216431e-02
-3.019773028790950775e-02
1.101579666137695312e-01
-2.295245602726936340e-02
-4.932077601552009583e-02
-5.218348652124404907e-02
1.136979535222053528e-01
6.308566778898239136e-02
-9.186967462301254272e-02
5.378068611025810242e-02
-5.919566005468368530e-02
-1.450191345065832138e-02
-7.931128144264221191e-02
-4.611279442906379700e-02
4.494809359312057495e-02
9.014987200498580933e-02
3.812216687947511673e-03
-3.475610911846160889e-02
2.073858864605426788e-02
1.732428558170795441e-02
1.240199133753776550e-01
4.746995121240615845e-02
-3.528052195906639099e-02
7.213635742664337158e-02
1.010849475860595703e-01
3.883000090718269348e-02
-4.642098397016525269e-02
3.679319098591804504e-02
6.213394924998283386e-02
-2.862169221043586731e-02
4.170506447553634644e-02
5.250403285026550293e-02
-1.055601686239242554e-01
-3.401994705200195312e-02
4.746790975332260132e-02
-2.156712673604488373e-02
-5.454711988568305969e-02
-1.410977263003587723e-02
2.167426981031894684e-02
-3.821026906371116638e-02
6.448052078485488892e-02
2.355296537280082703e-02
-4.354404658079147339e-02
2.489903941750526428e-02
1.281779818236827850e-02
-8.235638588666915894e-02
-1.782392896711826324e-02
-4.702881351113319397e-02
-6.087882071733474731e-02
-4.752235114574432373e-02
-1.117387339472770691e-01
-1.444695889949798584e-02
-3.131700679659843445e-02
-4.976787045598030090e-02
-2.858182601630687714e-02
-6.307901442050933838e-02
-3.752045333385467529e-02
-5.152252689003944397e-02
7.044314593076705933e-02
-1.116403192281723022e-02
1.496679931879043579e-01
-4.122760891914367676e-02
-7.022693753242492676e-03
3.580135107040405273e-02
3.996532876044511795e-03
8.091952651739120483e-02
4.087710753083229065e-02
2.877376973628997803e-02
-2.973697334527969360e-02
-8.966971188783645630e-02
1.452788803726434708e-02
-2.255485579371452332e-02
1.496363896876573563e-03
1.818670891225337982e-02
-3.082428686320781708e-02
-3.370538353919982910e-02
3.392415121197700500e-02
3.126645088195800781e-02
-3.120060451328754425e-02
2.059583202935755253e-04
2.882654219865798950e-02
-9.577668458223342896e-02
-1.782342791557312012e-02
4.889873322099447250e-03
2.602904662489891052e-02
3.784042596817016602e-02
2.219595946371555328e-02
-1.236763317137956619e-02
-1.455617789179086685e-02
2.275651553645730019e-03
1.279503572732210159e-02
-4.155272617936134338e-02
2.394735813140869141e-02
1.861860044300556183e-02
-3.272297605872154236e-02
7.613112777471542358e-02
2.379005029797554016e-02
-1.839326508343219757e-02
4.163712728768587112e-03
2.535082586109638214e-02
-1.845596823841333389e-03
-2.706586197018623352e-02
-2.737588249146938324e-02
2.313010580837726593e-02
-2.001719735562801361e-02
-1.943151094019412994e-02
5.381702631711959839e-02
-2.502474933862686157e-02
-5.023638252168893814e-03
-9.445744566619396210e-03
-2.133609354496002197e-02
-6.453031208366155624e-03
4.340553656220436096e-02
2.641563862562179565e-02
-2.040955796837806702e-02
-3.556374832987785339e-02
-5.418490152806043625e-03
-1.185245439410209656e-02
-2.421012893319129944e-02
-2.108928933739662170e-02
1.537458319216966629e-02
5.206075683236122131e-02
2.878193557262420654e-02
-4.821142181754112244e-02
3.138656541705131531e-02
3.989198431372642517e-02
-1.086380425840616226e-02
-7.571381516754627228e-03
5.096019431948661804e-02
-3.737971931695938110e-02
1.522642094641923904e-02
-3.494377061724662781e-02
9.267674759030342102e-03
-6.965773180127143860e-03
4.417590331286191940e-03
8.323733694851398468e-03
-2.591510117053985596e-02
-1.447767205536365509e-02
3.874300420284271240e-02
-1.856023212894797325e-03
-6.947479676455259323e-03
-2.446156553924083710e-02
-7.165357470512390137e-03
-1.644217036664485931e-02
2.342774905264377594e-02
-3.107868600636720657e-03
1.184241566807031631e-02
5.158121511340141296e-02
-1.768692396581172943e-02
4.290657863020896912e-02
-5.729677528142929077e-02
-6.664793193340301514e-02
-1.256645005196332932e-02
7.699563167989253998e-03
7.992579787969589233e-02
-6.946026533842086792e-02
-8.352817967534065247e-03
-3.972864709794521332e-03
-4.862041026353836060e-02
-3.364087268710136414e-02
-3.185317292809486389e-02
-2.122411876916885376e-02
9.536994248628616333e-02
-3.286075592041015625e-02
-5.448972061276435852e-02
-1.707434467971324921e-02
8.921965956687927246e-02
1.006324067711830139e-01
-5.737884342670440674e-02
-5.502158775925636292e-03
1.046063285320997238e-02
-1.420357497408986092e-03
-1.004270315170288086e-01
-4.077458754181861877e-02
-1.237722020596265793e-02
2.496779523789882660e-02
1.479424070566892624e-02
-3.874086774885654449e-03
5.094599723815917969e-02
2.325815707445144653e-02
8.973414450883865356e-02
7.718646526336669922e-02
1.319182757288217545e-02
-6.270606815814971924e-02
8.153251558542251587e-02
-2.800772897899150848e-02
-6.847974873380735517e-05
2.270279265940189362e-02
2.774950675666332245e-02
3.732030466198921204e-02
5.337885022163391113e-02
2.260974980890750885e-02
-1.849712282419204712e-01
1.259230542927980423e-02
2.880916744470596313e-02
2.922554500401020050e-02
-1.020621322095394135e-02
1.626360579393804073e-03
1.017567217350006104e-01
-7.594151049852371216e-02
4.382995888590812683e-02
-5.243902560323476791e-04
-2.771747298538684845e-02
-3.665701951831579208e-03
3.660153970122337341e-02
-2.034328691661357880e-02
-8.238691836595535278e-02
-1.677167019806802273e-03
8.027514442801475525e-03
8.792706765234470367e-03
-5.256404727697372437e-02
3.893014788627624512e-02
-3.765906766057014465e-02
-8.251997828483581543e-02
4.993964731693267822e-02
-9.786942601203918457e-02
-1.653326209634542465e-03
2.566622756421566010e-02
1.012070477008819580e-01
-2.286039851605892181e-02
4.189914092421531677e-02
-1.070082467049360275e-02
-1.384237874299287796e-02
3.686139360070228577e-02
2.220422774553298950e-02
-2.070873789489269257e-02
2.954911440610885620e-02
8.302299678325653076e-02
-3.901942819356918335e-02
-8.654046058654785156e-02
-1.234117802232503891e-02
2.551164943724870682e-03
-8.854937553405761719e-02
-1.201434805989265442e-02
4.154378548264503479e-02
-4.265986010432243347e-02
-4.574153106659650803e-03
-1.593831181526184082e-02
1.326587144285440445e-02
2.095014601945877075e-02
-2.408946119248867035e-02
-3.706582263112068176e-02
-9.140362031757831573e-03
2.662941813468933105e-02
-5.590797588229179382e-02
2.692396566271781921e-02
3.762781247496604919e-02
-9.034087881445884705e-03
-9.168863296508789062e-03
-2.845760434865951538e-02
-3.294931724667549133e-02
2.709649130702018738e-02
1.548253651708364487e-02
-2.652828209102153778e-02
5.712436139583587646e-02
2.427400834858417511e-02
1.122412383556365967e-01
-1.134671941399574280e-01
3.169472515583038330e-02
9.375709295272827148e-02
2.904858067631721497e-02
8.702043443918228149e-02
-1.017175018787384033e-01
5.001308023929595947e-02
7.915626466274261475e-02
3.816169127821922302e-02
-1.558003127574920654e-01
5.308003351092338562e-02
2.104198373854160309e-02
-5.774015560746192932e-02
-3.316491469740867615e-02
4.252941161394119263e-02
-7.089966535568237305e-02
3.710574284195899963e-02
-3.992321342229843140e-02
2.549096196889877319e-02
-9.739202447235584259e-03
8.152355253696441650e-02
-2.592089027166366577e-02
-6.594631820917129517e-02
4.774574935436248779e-02
1.215730607509613037e-01
-5.531538277864456177e-02
5.711179971694946289e-02
1.071455702185630798e-01
-2.085091918706893921e-02
-9.408766776323318481e-02
-5.043513327836990356e-02
-3.614329919219017029e-02
-1.398281380534172058e-02
7.579050213098526001e-02
-3.742679953575134277e-02
2.036766521632671356e-02
-2.680652961134910583e-02
6.442158669233322144e-02
4.593492671847343445e-02
4.874097555875778198e-02
-2.009245008230209351e-02
8.142188936471939087e-02
-1.603500917553901672e-02
-9.245635569095611572e-02
2.952219918370246887e-02
5.425136908888816833e-02
5.817408859729766846e-02
3.058694675564765930e-02
4.428833723068237305e-03
3.198783472180366516e-02
2.174614556133747101e-02
4.363914020359516144e-03
-9.432089515030384064e-03
-3.098538704216480255e-02
-3.909214958548545837e-02
5.323228612542152405e-02
1.280429586768150330e-02
-2.259251102805137634e-02
7.271851412951946259e-03
-3.124730894342064857e-03
1.143136993050575256e-02
4.982402175664901733e-02
-1.557237748056650162e-02
2.331474423408508301e-02
1.947728358209133148e-02
1.178296562284231186e-02
-1.806002669036388397e-02
4.063639044761657715e-02
1.494166254997253418e-02
3.049614466726779938e-02
4.289111820980906487e-04
-1.618316769599914551e-02
4.627539310604333878e-03
1.260652113705873489e-02
9.349850565195083618e-02
-9.958571940660476685e-02
1.193970092572271824e-03
-3.736544400453567505e-02
-1.105931401252746582e-02
1.971819996833801270e-02
-2.881238050758838654e-02
8.172928355634212494e-03
5.103188008069992065e-02
7.004144042730331421e-02
-9.283402003347873688e-03
-1.272480562329292297e-02
1.817522943019866943e-02
-4.537690803408622742e-02
8.413005620241165161e-03
-1.022636797279119492e-02
2.835145965218544006e-02
2.367545105516910553e-02
2.741277962923049927e-02
-1.644629985094070435e-02
-3.171842172741889954e-02
5.664129182696342468e-02
-1.474173553287982941e-02
-3.536350652575492859e-02
1.099845673888921738e-02
-1.097264140844345093e-02
6.421373691409826279e-03
-4.039602354168891907e-02
4.328286647796630859e-02
3.824001410976052284e-03
-5.230161175131797791e-02
-9.146112203598022461e-02
4.401611909270286560e-02
-3.624705597758293152e-02
-1.207061950117349625e-02
5.365698039531707764e-02
-1.642421702854335308e-03
1.601534895598888397e-02
-1.179846748709678650e-02
-5.030203610658645630e-02
1.104195490479469299e-01
8.303766697645187378e-02
-1.621788367629051208e-02
2.035568282008171082e-02
1.980931125581264496e-02
-1.901366934180259705e-02
-4.136912897229194641e-02
-1.686333678662776947e-02
-7.784399390220642090e-02
-5.806276947259902954e-02
-5.342006310820579529e-02
1.141091226600110531e-03
4.339192993938922882e-03
-1.861321181058883667e-02
-6.024222820997238159e-02
-1.215781830251216888e-02
1.982459425926208496e-02
-2.366768568754196167e-02
-3.705776855349540710e-02
1.560510043054819107e-02
-3.643699735403060913e-02
6.279532797634601593e-03
2.948092762380838394e-03
-2.459365874528884888e-02
-2.226858027279376984e-02
2.701416052877902985e-02
2.897829189896583557e-02
-1.770008169114589691e-02
-4.286593291908502579e-03
1.676302589476108551e-02
-7.373618334531784058e-02
1.269599772058427334e-03
1.227146852761507034e-02
9.776921942830085754e-03
4.023104533553123474e-02
1.430548913776874542e-02
-1.883307658135890961e-02
-2.202208898961544037e-02
5.102831870317459106e-03
1.344865653663873672e-02
1.395616563968360424e-04
2.534972131252288818e-02
3.136488050222396851e-02
-3.696196526288986206e-02
7.103765010833740234e-02
8.035553619265556335e-03
-5.795475095510482788e-03
-2.632962306961417198e-03
4.020971432328224182e-02
-3.487736918032169342e-03
-3.185668215155601501e-02
-1.914734020829200745e-02
4.788538441061973572e-02
1.000853162258863449e-02
-2.024773694574832916e-02
1.635243184864521027e-02
-2.891408279538154602e-02
2.915298973675817251e-04
-1.851583644747734070e-02
-3.353144228458404541e-02
1.025636680424213409e-02
2.129206247627735138e-02
2.513831481337547302e-02
6.662273081019520760e-04
-3.839549794793128967e-02
1.895857043564319611e-02
9.840246289968490601e-03
-7.384893950074911118e-03
-2.109598368406295776e-02
-2.234075032174587250e-02
6.763143837451934814e-02
2.347893081605434418e-02
-3.462326526641845703e-02
3.470888733863830566e-02
5.484046041965484619e-02
-1.855895482003688812e-02
-5.218273960053920746e-03
5.260077863931655884e-02
-6.051740050315856934e-02
2.709993533790111542e-02
-2.486099861562252045e-02
6.082537584006786346e-03
-3.944606520235538483e-03
2.507609315216541290e-02
1.306410226970911026e-02
1.804554020054638386e-03
-2.600412629544734955e-02
2.897843345999717712e-02
-6.108186673372983932e-03
-2.243180759251117706e-02
2.163832262158393860e-02
1.624652370810508728e-02
4.503762722015380859e-02
2.374530583620071411e-02
-1.916149817407131195e-02
-1.012452971190214157e-02
2.161443606019020081e-02
-2.856981242075562477e-03
2.335867099463939667e-02
1.323241461068391800e-02
2.142401412129402161e-02
1.078632567077875137e-02
-4.339890554547309875e-03
5.412257462739944458e-02
2.747411839663982391e-02
3.479764983057975769e-02
8.213753812015056610e-03
-6.876437459141016006e-03
2.914819866418838501e-02
3.377611516043543816e-03
8.309957385063171387e-02
3.298027813434600830e-02
-2.567555569112300873e-02
4.254655539989471436e-02
-1.409303955733776093e-02
-4.956097900867462158e-02
-4.703200981020927429e-02
-6.528521189466118813e-04
3.800606355071067810e-02
-2.421195385977625847e-03
-3.169959038496017456e-02
1.654419116675853729e-02
-7.595919072628021240e-03
-1.246991753578186035e-02
3.581421042326837778e-04
-3.968455269932746887e-02
2.742791315540671349e-03
4.270196333527565002e-02
-1.228578668087720871e-02
-9.475950151681900024e-03
3.164041414856910706e-02
5.299834534525871277e-02
1.888948492705821991e-02
2.687732689082622528e-02
-1.165136229246854782e-02
7.696145772933959961e-02
2.960234135389328003e-02
-6.710524111986160278e-02
-2.370888926088809967e-02
4.893686249852180481e-02
1.770539395511150360e-02
9.940445423126220703e-03
4.035189747810363770e-03
5.901911482214927673e-02
9.376439265906810760e-03
1.509940810501575470e-02
1.960616186261177063e-02
1.334516052156686783e-02
7.083290722221136093e-03
-3.560844436287879944e-02
8.393910527229309082e-02
-4.587575385812669992e-04
-1.118871010839939117e-02
2.201179973781108856e-02
1.239913236349821091e-02
5.424486473202705383e-03
-2.202821150422096252e-02
9.019711986184120178e-03
-2.642197906970977783e-02
2.715738303959369659e-02
-3.341077268123626709e-02
3.015502169728279114e-02
1.806275732815265656e-02
2.590235089883208275e-03
-1.370030082762241364e-02
6.433078087866306305e-04
-6.759270280599594116e-02
1.130630355328321457e-02
-1.028138212859630585e-03
3.217108547687530518e-02
4.602284356951713562e-02
-3.602974489331245422e-02
4.220305755734443665e-02
-2.564004622399806976e-03
1.349355652928352356e-02
4.485780373215675354e-02
-4.723814874887466431e-02
2.539542317390441895e-02
3.258981183171272278e-02
3.625042736530303955e-03
-6.583015900105237961e-03
9.367979131639003754e-03
5.534244701266288757e-02
-2.720972709357738495e-02
2.243672311305999756e-02
-5.794772878289222717e-04
7.988100871443748474e-03
1.832218840718269348e-02
1.537820976227521896e-02
-2.762792631983757019e-02
-5.008319765329360962e-02
-4.604169167578220367e-03
-2.054509334266185760e-02
-2.544884197413921356e-02
1.540406700223684311e-02
-3.040545433759689331e-02
-7.663004216738045216e-04
2.080794423818588257e-02
3.469582274556159973e-02
8.000052720308303833e-02
3.619032679125666618e-03
2.355953678488731384e-03
6.479860842227935791e-02
3.089666832238435745e-03
4.519259184598922729e-02
7.012508064508438110e-02
1.538974815048277378e-03
6.359405070543289185e-02
4.090148210525512695e-02
9.180173277854919434e-03
7.516463845968246460e-02
-5.495505779981613159e-02
9.111405909061431885e-02
3.169362619519233704e-02
8.712085336446762085e-02
-2.996068075299263000e-02
-1.169444900006055832e-02
6.876186281442642212e-02
2.247522026300430298e-02
-1.863783784210681915e-02
-2.542670443654060364e-02
-3.990318626165390015e-02
-8.120952174067497253e-03
-2.494352124631404877e-02
2.168532460927963257e-02
8.372809737920761108e-02
-1.086598541587591171e-02
2.259109914302825928e-02
4.406645521521568298e-02
-6.496420502662658691e-02
-3.553512692451477051e-02
-1.528031472116708755e-02
-2.849649824202060699e-02
-4.151537641882896423e-02
5.620675161480903625e-02
-1.826220564544200897e-02
4.418292641639709473e-02
-2.773121697828173637e-03
1.732631772756576538e-02
-6.566890049725770950e-03
2.175554545829072595e-04
-7.758869975805282593e-02
8.517843671143054962e-03
5.574195086956024170e-02
3.712352365255355835e-02
6.945716589689254761e-02
4.643193632364273071e-02
-1.544057484716176987e-02
1.393433660268783569e-02
-5.644886940717697144e-02
-5.232783406972885132e-02
-1.464990153908729553e-02
4.391642659902572632e-02
2.041917294263839722e-02
-1.165316030383110046e-01
-1.381700392812490463e-02
-7.315044756978750229e-03
-1.249037757515907288e-01
1.851308345794677734e-02
5.105812475085258484e-02
2.263665944337844849e-02
-1.092489995062351227e-02
-2.508625946938991547e-02
-7.789910770952701569e-03
1.869598403573036194e-02
5.141195282340049744e-02
-2.231193520128726959e-02
1.606548950076103210e-02
-1.161427050828933716e-02
7.764951325953006744e-03
3.701600059866905212e-02
1.798332110047340393e-02
3.411957994103431702e-03
3.160613030195236206e-02
-2.532857470214366913e-03
-5.405200272798538208e-02
3.127477597445249557e-03
3.750459849834442139e-02
3.088302537798881531e-02
-8.059980347752571106e-03
1.089380308985710144e-02
-1.506707724183797836e-02
-7.629900239408016205e-03
-2.973625808954238892e-02
3.564237430691719055e-02
-6.115879490971565247e-02
-1.678046397864818573e-02
6.992516573518514633e-03
-1.718965917825698853e-02
-1.532733533531427383e-02
2.319782413542270660e-02
2.722952514886856079e-02
5.809466820210218430e-03
1.167861092835664749e-02
-2.529345825314521790e-02
8.350819349288940430e-02
-2.345579117536544800e-02
-7.180346548557281494e-02
-1.303811185061931610e-02
3.787310421466827393e-02
3.104603849351406097e-02
-3.466567769646644592e-02
-6.396909244358539581e-03
4.372497648000717163e-02
-2.005552500486373901e-02
1.039991062134504318e-02
1.420709118247032166e-02
7.029518485069274902e-03
-1.639524474740028381e-02
-3.111234493553638458e-02
4.314639046788215637e-02
4.862803220748901367e-02
2.508673071861267090e-02
1.679091341793537140e-02
4.617505241185426712e-03
-1.564906910061836243e-02
1.738690771162509918e-02
3.025817126035690308e-02
1.276990305632352829e-02
1.993991062045097351e-02
-1.430047862231731415e-02
2.307557687163352966e-02
2.375918067991733551e-02
2.391516789793968201e-02
-4.359717667102813721e-02
3.960684314370155334e-02
-3.692376613616943359e-02
-1.499109156429767609e-02
1.038136892020702362e-02
2.923172339797019958e-02
3.698667883872985840e-02
4.908272996544837952e-03
1.926778932102024555e-03
-1.504005119204521179e-02
6.261146627366542816e-03
5.426232703030109406e-03
1.605647266842424870e-04
7.842891849577426910e-03
-3.542780410498380661e-03
-4.509889055043458939e-03
8.259207010269165039e-03
-1.902332343161106110e-02
-7.972182333469390869e-02
-7.035588473081588745e-02
3.277771919965744019e-02
-4.200143739581108093e-02
2.592633850872516632e-02
9.277557954192161560e-03
-9.064932353794574738e-03
-2.407601848244667053e-02
5.534650012850761414e-02
-1.425682660192251205e-02
-3.183348104357719421e-02
1.316147949546575546e-02
1.046887878328561783e-02
-5.358425155282020569e-02
3.549891291186213493e-03
-3.579428046941757202e-02
5.938524007797241211e-02
3.346126154065132141e-02
6.021204590797424316e-02
3.621449321508407593e-02
2.799065411090850830e-02
1.811332441866397858e-02
-2.951304661110043526e-03
-3.020463977009057999e-03
7.292630523443222046e-02
-4.570339620113372803e-02
-9.698794223368167877e-03
-2.308225817978382111e-02
3.019752912223339081e-02
1.952812820672988892e-02
4.512334614992141724e-02
2.402319759130477905e-02
-3.228713758289813995e-03
3.809215873479843140e-02
-3.950397297739982605e-02
3.692747652530670166e-02
2.958698011934757233e-02
-4.213158786296844482e-02
-5.749526433646678925e-03
-2.840395318344235420e-03
9.964055381715297699e-03
-5.058675631880760193e-02
7.810847461223602295e-02
6.665990501642227173e-02
-2.781158126890659332e-02
-1.279930397868156433e-02
-8.722484111785888672e-03
-5.310535803437232971e-02
1.630665734410285950e-02
-2.494905143976211548e-03
5.366086214780807495e-02
3.243146091699600220e-02
1.526780542917549610e-03
4.834477603435516357e-02
3.422880172729492188e-02
-4.908795282244682312e-02
-2.781607769429683685e-02
2.874165214598178864e-02
-1.338707935065031052e-02
-9.273621439933776855e-02
4.469842836260795593e-02
9.300723671913146973e-03
-5.099522322416305542e-02
-1.625369861721992493e-02
2.113096602261066437e-02
-5.516798421740531921e-02
-8.421607781201601028e-04
3.875987138599157333e-03
-6.052267923951148987e-02
1.081869192421436310e-02
1.728359237313270569e-02
-4.471626877784729004e-02
-3.948941081762313843e-02
-9.500829502940177917e-03
-1.023335009813308716e-02
-6.777759641408920288e-03
-1.233217678964138031e-02
7.198155671358108521e-02
5.209541320800781250e-02
-3.814053023234009743e-03
-2.431286731734871864e-03
8.292037062346935272e-03
2.155062370002269745e-02
3.399089723825454712e-02
1.636890880763530731e-02
5.092186853289604187e-03
-1.978346705436706543e-02
2.696301229298114777e-02
7.057476788759231567e-02
5.266598984599113464e-02
6.357053667306900024e-02
1.827074214816093445e-02
-1.934398198500275612e-03
-2.724573574960231781e-02
2.953618951141834259e-02
5.727649107575416565e-02
2.583818137645721436e-02
9.850603528320789337e-03
8.631931617856025696e-03
-1.012486498802900314e-02
-2.053545229136943817e-02
-1.175305899232625961e-02
1.256805285811424255e-02
-5.031165853142738342e-02
-1.688727177679538727e-02
2.534370124340057373e-02
2.313001547008752823e-03
1.308974996209144592e-02
3.897374868392944336e-02
4.122884199023246765e-02
-1.789947226643562317e-02
-1.184028945863246918e-02
1.877770875580608845e-03
7.814434170722961426e-02
-2.829328738152980804e-02
-3.570777922868728638e-02
1.757950522005558014e-02
1.181855145841836929e-02
5.550769716501235962e-02
-1.878911070525646210e-02
-1.394437998533248901e-02
7.054144889116287231e-02
-3.946961835026741028e-02
2.309373347088694572e-03
1.021530851721763611e-02
-1.383483689278364182e-02
6.054884288460016251e-03
3.009033389389514923e-05
2.459965460002422333e-02
1.432247273623943329e-02
1.947146840393543243e-02
1.013445574790239334e-02
1.799574703909456730e-03
-1.351331546902656555e-02
-1.866596634499728680e-03
3.249837830662727356e-02
4.474435374140739441e-02
-2.749487757682800293e-04
3.689797222614288330e-02
-3.143885405734181404e-03
8.099643513560295105e-03
3.197658061981201172e-02
-4.893989488482475281e-02
7.468283176422119141e-02
-3.205772116780281067e-02
-1.440707966685295105e-02
2.747248800005763769e-04
4.148403555154800415e-02
4.913073778152465820e-02
-1.162575371563434601e-02
4.035890102386474609e-02
5.929095670580863953e-03
2.121128700673580170e-02
-2.314263256266713142e-03
-4.620365507435053587e-04
1.493934635072946548e-02
-8.549378253519535065e-03
5.420199036598205566e-02
2.185534685850143433e-02
-5.123108625411987305e-03
-2.685605175793170929e-02
-2.244770899415016174e-02
6.644660979509353638e-02
5.964811146259307861e-02
-1.517408061772584915e-02
9.013283997774124146e-02
-2.390432916581630707e-02
-1.464029401540756226e-02
2.844212204217910767e-02
1.919348258525133133e-03
3.770631551742553711e-02
6.209124624729156494e-02
-4.220952279865741730e-03
-1.591413095593452454e-02
9.566234424710273743e-03
9.638114273548126221e-02
1.575862802565097809e-02
-2.533647045493125916e-02
-8.073886274360120296e-04
-3.779178857803344727e-02
-2.116260118782520294e-02
-1.959195360541343689e-02
1.646836102008819580e-02
-3.367159888148307800e-02
-5.801266059279441833e-02
9.819198399782180786e-03
1.666867919266223907e-02
1.749444752931594849e-02
2.672729827463626862e-02
-1.266147848218679428e-02
1.486158184707164764e-02
1.940554007887840271e-02
7.813818752765655518e-03
3.326628729701042175e-02
-2.079741843044757843e-02
-4.791859164834022522e-02
1.870001293718814850e-02
3.799957223236560822e-03
3.379320353269577026e-02
-9.976802393794059753e-03
-3.888033563271164894e-03
2.018919913098216057e-04
-8.795202709734439850e-03
-3.770435461774468422e-03
-1.990039087831974030e-02
2.056021057069301605e-02
-1.507561304606497288e-03
-5.871548876166343689e-02
-7.666395604610443115e-02
5.291022732853889465e-02
7.776873558759689331e-02
-8.454052731394767761e-03
-1.509339548647403717e-02
-1.326390355825424194e-02
5.779062584042549133e-02
1.166080776602029800e-02
6.532388273626565933e-03
1.657445542514324188e-02
5.514033883810043335e-02
3.569762781262397766e-02
1.641162298619747162e-02
4.554647952318191528e-02
-3.638499975204467773e-02
4.488732293248176575e-02
-6.952633708715438843e-02
-2.811852376908063889e-03
-1.209374982863664627e-02
1.585308276116847992e-02
4.369311034679412842e-03
-9.895413182675838470e-03
-1.298378780484199524e-02
-1.648810505867004395e-02
-1.746542938053607941e-02
-9.713014587759971619e-03
-1.608559046871960163e-03
-7.606123574078083038e-03
1.226059626787900925e-02
1.821469399146735668e-03
1.146034989506006241e-02
-1.350234635174274445e-02
-2.811779081821441650e-02
2.826353162527084351e-02
2.201214805245399475e-02
-8.029861375689506531e-03
1.672289520502090454e-02
-2.955656871199607849e-02
-9.382236748933792114e-03
2.026038616895675659e-02
-4.397825524210929871e-02
-3.894923627376556396e-02
2.287397347390651703e-02
2.853327430784702301e-02
1.082804147154092789e-02
-3.381513804197311401e-02
-3.491750732064247131e-02
2.023432031273841858e-02
2.274538017809391022e-02
1.789616607129573822e-02
3.011353686451911926e-02
-1.376817119307816029e-03
-1.955172419548034668e-02
6.045085936784744263e-02
-1.521698199212551117e-02
9.651985950767993927e-03
2.813060767948627472e-02
2.092562802135944366e-02
9.282391518354415894e-03
2.034763060510158539e-02
8.002415299415588379e-02
1.797621883451938629e-02
-5.277237854897975922e-03
3.446038067340850830e-02
-1.418897043913602829e-02
5.673206225037574768e-02
-2.378734759986400604e-03
-2.636104822158813477e-02
2.262479159981012344e-03
-1.016318053007125854e-02
1.408985932357609272e-03
-3.154978548991493881e-05
3.294466435909271240e-02
-2.074856869876384735e-02
3.778959065675735474e-02
8.149239234626293182e-03
1.038283295929431915e-02
-1.368930377066135406e-02
1.824561879038810730e-02
-4.344312474131584167e-02
-1.498925779014825821e-02
-1.005497574806213379e-02
3.730919212102890015e-02
1.900431141257286072e-02
-4.797676205635070801e-02
-5.772226490080356598e-03
1.398528832942247391e-02
-5.699463654309511185e-03
1.067074248567223549e-03
5.237241741269826889e-03
-2.300066687166690826e-02
-4.791560769081115723e-02
6.188981235027313232e-02
2.254738099873065948e-02
-1.511996891349554062e-02
-1.947426609694957733e-02
5.363360047340393066e-03
-2.845046110451221466e-02
3.616789123043417931e-03
9.293153882026672363e-03
-5.679658055305480957e-02
-3.798662871122360229e-02
1.702157035470008850e-02
1.679838635027408600e-02
-7.523768115788698196e-03
1.778908818960189819e-02
-2.486651763319969177e-02
9.854907169938087463e-03
1.715345075353980064e-03
-3.474002704024314880e-02
-1.515591517090797424e-02
-4.103894345462322235e-03
2.237097173929214478e-02
-5.604333057999610901e-02
5.645910743623971939e-03
7.960922084748744965e-03
4.673789720982313156e-03
3.464170917868614197e-02
2.261151792481541634e-03
-3.149031102657318115e-02
3.119479166343808174e-03
-3.131476044654846191e-02
-5.434024613350629807e-03
2.936624921858310699e-02
-2.320106839761137962e-03
-1.982408948242664337e-02
-7.529322803020477295e-02
4.382653906941413879e-02
6.146498396992683411e-02
5.915232002735137939e-02
4.041024297475814819e-02
3.033646196126937866e-02
-8.039571112021803856e-04
4.700947180390357971e-02
-8.160189725458621979e-03
1.206443458795547485e-02
2.033495903015136719e-02
5.720910802483558655e-02
4.369075596332550049e-02
4.095405712723731995e-02
7.324651628732681274e-02
-1.881161332130432129e-02
2.384257689118385315e-02
-1.852990873157978058e-02
1.812181994318962097e-02
-8.750585839152336121e-03
1.382128428667783737e-02
1.482925470918416977e-02
1.542333047837018967e-02
2.137617440894246101e-03
-2.377001801505684853e-03
3.667238354682922363e-02
6.710017472505569458e-02
-2.192024327814579010e-02
-2.531274920329451561e-03
4.666421562433242798e-02
-6.526840478181838989e-02
2.890426665544509888e-02
5.850663292221724987e-04
-6.600105762481689453e-02
-1.717553101480007172e-02
-3.144024685025215149e-02
2.146428450942039490e-02
-9.573721326887607574e-03
3.942494466900825500e-02
-3.511717950459569693e-04
1.158055569976568222e-02
-4.500168189406394958e-02
-1.037355735898017883e-01
2.479611895978450775e-02
9.539050050079822540e-03
-6.091111153364181519e-02
1.392019726336002350e-02
3.547145426273345947e-02
-3.350072726607322693e-02
-2.012921124696731567e-02
-9.229452349245548248e-03
-5.373523384332656860e-02
4.484297707676887512e-03
-4.285410046577453613e-02
-8.834984898567199707e-02
2.895592944696545601e-03
1.033226102590560913e-01
1.880534226074814796e-03
-5.567774921655654907e-02
-1.699208095669746399e-02
-1.467775180935859680e-02
-1.160275656729936600e-02
1.909761317074298859e-02
-3.143889829516410828e-02
-8.503774181008338928e-03
-4.853196442127227783e-02
-1.927614770829677582e-02
-5.773350596427917480e-02
2.166343480348587036e-02
-2.808372676372528076e-02
-3.705297783017158508e-02
2.287895791232585907e-02
-1.808460056781768799e-02
1.235362235456705093e-02
-4.170608241111040115e-03
-3.083744272589683533e-02
4.203843325376510620e-02
4.720397293567657471e-02
1.163173839449882507e-02
-4.477360472083091736e-02
4.036913067102432251e-02
3.124506212770938873e-02
1.557169575244188309e-02
-2.101700520142912865e-03
-7.891163229942321777e-02
2.427375130355358124e-02
6.528488546609878540e-02
8.474500477313995361e-02
-2.400783263146877289e-02
-5.651315301656723022e-02
1.634814543649554253e-03
2.391760237514972687e-02
5.407092720270156860e-02
-2.890832163393497467e-02
-3.236788138747215271e-02
6.765177845954895020e-02
1.225415244698524475e-02
2.254762500524520874e-02
5.386480316519737244e-02
5.728840827941894531e-02
-1.677243225276470184e-02
1.253883540630340576e-02
-7.065135985612869263e-03
2.713281847536563873e-02
-2.385020442306995392e-02
1.545293163508176804e-02
-1.521764136850833893e-02
-3.186823055148124695e-02
2.488515712320804596e-02
1.299246586859226227e-02
-2.597465366125106812e-02
-3.067254461348056793e-02
1.810077205300331116e-02
2.082956023514270782e-02
6.254091858863830566e-02
4.537059366703033447e-02
7.123265415430068970e-02
-6.544498354196548462e-02
-8.395336568355560303e-03
-3.279172116890549660e-03
8.749299449846148491e-04
-3.028917312622070312e-02
-4.078156128525733948e-02
-4.407633468508720398e-02
-1.723978202790021896e-03
-4.420413449406623840e-02
-2.708012238144874573e-02
7.143203169107437134e-02
-7.904022932052612305e-02
-4.984801635146141052e-02
-6.315559893846511841e-02
-6.649518758058547974e-02
2.291938848793506622e-02
1.710268482565879822e-02
-1.217464134097099304e-01
-4.117379337549209595e-02
-1.896405965089797974e-02
4.929425194859504700e-02
-1.905361306853592396e-03
3.193949162960052490e-02
-2.704334072768688202e-02
1.489388290792703629e-02
-4.167461395263671875e-02
-4.761563614010810852e-03
-7.325014565140008926e-03
2.121335640549659729e-02
3.320411220192909241e-02
-1.242856774479150772e-02
-1.636329293251037598e-02
-1.750368624925613403e-02
2.860386110842227936e-02
2.834959421306848526e-03
2.238963544368743896e-02
8.435338735580444336e-03
-1.294389250688254833e-03
5.947630852460861206e-04
-1.710570231080055237e-02
2.282255701720714569e-02
3.187536820769309998e-02
-1.217534672468900681e-02
-2.122358046472072601e-02
-4.617527872323989868e-02
1.809257082641124725e-02
5.657825618982315063e-03
2.414579689502716064e-02
-1.708799414336681366e-02
2.350241318345069885e-02
-5.284243822097778320e-02
3.661479800939559937e-02
2.432625554502010345e-02
-1.911081187427043915e-02
-1.663167774677276611e-02
5.045816302299499512e-02
2.945063449442386627e-02
-2.182886563241481781e-02
-2.912819012999534607e-02
4.949455335736274719e-02
-2.616024808958172798e-03
-3.815704956650733948e-02
4.164203628897666931e-02
-8.955209515988826752e-03
-1.773076876997947693e-02
-4.322224482893943787e-02
1.522013265639543533e-02
-3.242789581418037415e-02
3.171875327825546265e-02
6.396609824150800705e-03
-1.077614445239305496e-02
-2.252132631838321686e-02
-2.913961652666330338e-03
2.465852163732051849e-02
-6.998442858457565308e-02
1.739631593227386475e-02
1.841896772384643555e-02
5.207068473100662231e-02
-1.154450327157974243e-02
-1.358211785554885864e-02
5.539771635085344315e-03
1.357456482946872711e-02
2.107707224786281586e-02
-2.348674461245536804e-02
5.452351272106170654e-02
-2.800946310162544250e-02
-4.532034043222665787e-03
9.849902242422103882e-03
4.390965774655342102e-02
-1.287586614489555359e-02
1.026033610105514526e-02
4.140065982937812805e-03
-1.083431765437126160e-02
-1.458607148379087448e-02
1.578293927013874054e-02
-6.676902621984481812e-02
-2.868503145873546600e-02
1.083901058882474899e-02
1.825582608580589294e-02
4.183644801378250122e-02
1.898504421114921570e-02
-1.605348847806453705e-02
2.246456034481525421e-02
6.569141056388616562e-03
2.223665127530694008e-03
-2.127159386873245239e-02
3.457795083522796631e-02
1.742054894566535950e-02
-4.677719902247190475e-03
-2.931579388678073883e-02
1.323264441452920437e-03
5.399411171674728394e-02
4.111602902412414551e-02
1.048481208272278309e-03
5.855804309248924255e-03
2.172857150435447693e-02
-1.610183715820312500e-02
5.963844805955886841e-02
2.595470659434795380e-02
-4.980034381151199341e-02
5.227363854646682739e-02
-1.740350946784019470e-02
-5.597987771034240723e-02
-3.179875761270523071e-02
2.438007108867168427e-02
4.629663005471229553e-02
9.170952253043651581e-03
-7.880547083914279938e-03
2.358005568385124207e-02
9.754384867846965790e-03
-7.425874006003141403e-03
4.808746743947267532e-03
-4.642699286341667175e-02
6.794224027544260025e-03
1.213257201015949249e-02
-1.099863648414611816e-02
-1.003390736877918243e-02
3.771281614899635315e-02
-4.975987132638692856e-03
2.126445248723030090e-02
-5.621424410492181778e-03
-1.341228000819683075e-02
5.759643763303756714e-02
1.876194262877106667e-03
-7.444763183593750000e-02
-9.716381318867206573e-03
4.534052312374114990e-02
-1.162583660334348679e-02
-1.694033481180667877e-02
8.227619342505931854e-03
5.239664390683174133e-02
-9.095392189919948578e-03
3.460152447223663330e-02
9.318226948380470276e-03
-1.342279184609651566e-02
1.710932888090610504e-02
-3.429874777793884277e-02
3.374111279845237732e-02
1.503441389650106430e-02
2.227640710771083832e-02
9.804883040487766266e-03
1.865992136299610138e-02
-1.874431781470775604e-02
2.379720099270343781e-02
2.078558132052421570e-02
-3.137734159827232361e-02
2.172519825398921967e-02
-5.191576108336448669e-02
1.115958439186215401e-03
9.577077813446521759e-03
2.707895822823047638e-03
-2.606054767966270447e-02
1.582413539290428162e-02
-4.881842806935310364e-02
6.672390736639499664e-04
-8.356876671314239502e-03
1.035799551755189896e-02
9.715991094708442688e-03
1.525586005300283432e-02
1.947857253253459930e-02
-2.648472413420677185e-02
1.052979566156864166e-02
3.841651603579521179e-02
-2.926287241280078888e-02
1.742387376725673676e-02
7.191470358520746231e-03
-1.958537846803665161e-02
-2.543227188289165497e-02
1.332959532737731934e-02
8.417273871600627899e-03
2.766508376225829124e-03
-4.651659168303012848e-03
-3.915720153599977493e-03
2.925101667642593384e-02
2.395229967078194022e-04
-1.564830192364752293e-03
3.007671330124139786e-03
-2.689641223696526140e-05
-7.169451098889112473e-03
2.388003095984458923e-02
5.542202387005090714e-03
3.042045049369335175e-03
-9.684168617241084576e-04
5.789153743535280228e-03
1.166194584220647812e-02
-1.637544296681880951e-02
1.192160882055759430e-02
5.335508659482002258e-02
-3.424376249313354492e-02
-6.210044026374816895e-03
-4.845778271555900574e-02
8.037216030061244965e-03
1.984691806137561798e-02
-2.695661224424839020e-02
1.584038324654102325e-02
1.690191589295864105e-02
4.855405911803245544e-02
1.731502451002597809e-02
-1.020597852766513824e-02
-1.466148998588323593e-02
-2.921279147267341614e-02
5.913690198212862015e-03
1.608888618648052216e-02
2.570857293903827667e-02
-3.580328449606895447e-02
1.023089420050382614e-02
2.152030821889638901e-03
-1.481746323406696320e-02
1.339963078498840332e-02
4.525841213762760162e-03
5.744925001636147499e-04
5.571731366217136383e-03
-4.244187474250793457e-02
4.489012062549591064e-02
-2.448827959597110748e-02
5.858457647264003754e-03
3.895281255245208740e-02
-7.107199635356664658e-03
-6.849115341901779175e-02
2.736605517566204071e-02
3.172916127368807793e-03
-2.905673719942569733e-02
1.682218909263610840e-02
-1.268964540213346481e-02
6.539084482938051224e-03
-1.364207826554775238e-02
-9.181112982332706451e-03
9.396245703101158142e-03
5.575114395469427109e-03
-2.279806416481733322e-03
7.850280031561851501e-03
-6.180394906550645828e-03
-4.824248701333999634e-02
2.946736756712198257e-03
-1.526284031569957733e-02
-1.865604892373085022e-02
-2.217367663979530334e-02
-3.043646551668643951e-02
6.661846768110990524e-03
2.733572572469711304e-02
-7.337448187172412872e-03
-1.208753976970911026e-02
-5.485130823217332363e-04
5.408065393567085266e-03
-2.245360799133777618e-02
-2.701118029654026031e-02
1.932605728507041931e-02
1.827569358283653855e-04
-4.173557739704847336e-03
9.096774272620677948e-03
-1.946875639259815216e-02
2.097742259502410889e-02
-1.202803663909435272e-02
4.441474378108978271e-02
-6.474212277680635452e-04
1.832618564367294312e-02
-6.546420510858297348e-03
-3.486380726099014282e-02
-1.147886272519826889e-02
-3.689171746373176575e-02
3.509103134274482727e-02
1.829645782709121704e-02
-1.824417151510715485e-02
-2.482855459675192833e-03
5.180186126381158829e-03
2.280406281352043152e-02
8.526236750185489655e-03
-3.504921449348330498e-03
3.237026184797286987e-02
2.643698640167713165e-02
-4.082369804382324219e-02
3.986586257815361023e-02
2.169259451329708099e-02
-1.850052736699581146e-02
-1.045024115592241287e-02
1.776587404310703278e-02
9.684437885880470276e-03
3.079818328842520714e-03
-5.352466925978660583e-02
1.686903834342956543e-02
5.212314426898956299e-03
-2.087545022368431091e-02
5.481518805027008057e-02
-2.239079959690570831e-02
-4.218675941228866577e-02
-1.112256105989217758e-02
-1.504456531256437302e-02
-3.322133794426918030e-02
3.457618504762649536e-02
2.328789420425891876e-02
2.314281649887561798e-02
-2.266626805067062378e-02
-9.512738324701786041e-03
-3.676340449601411819e-03
-2.117361687123775482e-02
-1.127534196712076664e-03
2.218522131443023682e-02
4.799344390630722046e-02
5.007560551166534424e-02
-1.132729277014732361e-02
1.221907231956720352e-02
1.510684750974178314e-02
-1.236296351999044418e-02
-1.286470983177423477e-02
4.329567402601242065e-02
5.512758623808622360e-03
1.454615965485572815e-02
-2.514737844467163086e-02
3.250849619507789612e-02
-1.031232252717018127e-02
-6.797674112021923065e-03
4.174985922873020172e-03
3.522341605275869370e-03
-1.302734669297933578e-02
2.917855791747570038e-02
-1.034657191485166550e-02
-6.641753017902374268e-03
-1.862311549484729767e-02
1.651825942099094391e-02
-2.942644525319337845e-03
-1.747759804129600525e-02
1.781120896339416504e-02
4.873257875442504883e-02
2.961313538253307343e-02
-2.845880575478076935e-02
8.374784956686198711e-04
5.615219473838806152e-02
-1.472670864313840866e-02
2.822608873248100281e-02
3.218540223315358162e-04
-3.015387989580631256e-02
3.266966715455055237e-02
-4.107126966118812561e-02
2.069878764450550079e-02
1.569540798664093018e-02
2.519927173852920532e-02
-1.915145851671695709e-02
1.769753731787204742e-02
5.352367833256721497e-02
1.517398562282323837e-02
-1.680172421038150787e-02
-1.119235157966613770e-02
2.574118971824645996e-02
7.151327282190322876e-02
9.769142605364322662e-03
-6.047945003956556320e-03
6.633155862800776958e-04
3.321741521358489990e-02
-3.765424340963363647e-02
2.775613963603973389e-02
-1.446974184364080429e-02
-1.466356962919235229e-02
-1.298518478870391846e-02
-3.830234054476022720e-03
-2.303492464125156403e-02
3.198885917663574219e-02
2.736693434417247772e-02
3.179592022206634283e-04
7.318857312202453613e-02
1.932500302791595459e-02
2.678215503692626953e-02
1.463746372610330582e-02
-2.605680190026760101e-02
-4.172218590974807739e-02
6.136908754706382751e-02
2.469743974506855011e-02
-2.394157275557518005e-02
-7.799353450536727905e-03
7.377173006534576416e-02
-4.286432638764381409e-02
-2.293066121637821198e-02
3.376065194606781006e-02
5.367571022361516953e-03
-2.370081841945648193e-02
-3.159057348966598511e-02
-1.240742951631546021e-02
3.280869498848915100e-02
-1.608709804713726044e-02
-3.666560724377632141e-02
3.177837654948234558e-02
-2.356823161244392395e-02
-2.800944820046424866e-02
6.850755959749221802e-02
-1.603951863944530487e-02
6.786162964999675751e-03
4.794878885149955750e-02
1.859124749898910522e-03
6.213277950882911682e-02
4.304699599742889404e-03
3.159429412335157394e-03
2.241711318492889404e-02
-2.151020057499408722e-02
1.247761538252234459e-03
3.517217189073562622e-02
-5.918617546558380127e-02
-3.256563842296600342e-02
-2.329839020967483521e-02
4.082851111888885498e-02
-3.238259255886077881e-02
-8.739591576159000397e-03
-4.941643401980400085e-02
-2.872217632830142975e-02
6.958762183785438538e-03
1.555241178721189499e-02
5.743428133428096771e-03
-3.889073058962821960e-02
2.060603536665439606e-02
-5.268485471606254578e-02
8.107902854681015015e-02
-1.404700521379709244e-02
9.261461347341537476e-02
6.192640587687492371e-02
7.391247153282165527e-02
-3.515702113509178162e-02
1.828883215785026550e-02
2.929500304162502289e-02
-7.285015285015106201e-02
-3.252500295639038086e-02
-1.668883673846721649e-02
-1.546077150851488113e-02
2.119826897978782654e-02
-6.211359798908233643e-02
-3.172451257705688477e-02
6.012034043669700623e-02
1.171939191408455372e-03
-3.871910274028778076e-02
8.119902014732360840e-02
-6.550581660121679306e-03
-1.265394408255815506e-02
9.581910073757171631e-02
-1.310922391712665558e-02
-5.704094469547271729e-02
6.243104487657546997e-02
8.947694301605224609e-02
9.457081556320190430e-02
1.354919746518135071e-02
-9.473364800214767456e-02
-3.606411069631576538e-02
4.668392241001129150e-03
8.792346715927124023e-02
5.917166173458099365e-02
5.970026552677154541e-02
-1.393735408782958984e-01
1.762115769088268280e-02
1.243539527058601379e-01
-4.530617222189903259e-02
8.972425758838653564e-02
-3.795374184846878052e-02
-8.356535434722900391e-02
6.159370020031929016e-02
4.190997034311294556e-02
-4.042688012123107910e-02
1.225780919194221497e-01
2.069379261229187250e-04
1.207553446292877197e-01
6.785172969102859497e-02
1.413913350552320480e-02
8.635443449020385742e-02
-5.076858773827552795e-02
-7.425410300493240356e-02
-6.972023099660873413e-02
-3.969610109925270081e-02
-2.228634357452392578e-01
-2.504878863692283630e-02
-6.173776835203170776e-02
-8.330306410789489746e-02
6.967861950397491455e-02
-7.310592383146286011e-02
-3.537324815988540649e-02
-1.095813512802124023e-01
-3.327996283769607544e-02
-3.375812992453575134e-02
5.231257155537605286e-02
7.356195896863937378e-02
-1.191659346222877502e-01
-5.544705316424369812e-02
-4.540798068046569824e-02
3.413803502917289734e-02
8.839813619852066040e-02
7.416715472936630249e-02
1.081951856613159180e-01
-5.344736576080322266e-02
3.316494822502136230e-02
-3.087269328534603119e-02
4.329904541373252869e-02
6.600113958120346069e-02
4.388896003365516663e-02
2.634130232036113739e-02
-1.985003473237156868e-03
-3.147877380251884460e-02
-4.495255649089813232e-03
7.719014585018157959e-02
7.016316801309585571e-02
-2.371779456734657288e-02
1.249026805162429810e-01
-1.637502200901508331e-02
-3.012134507298469543e-02
5.432856455445289612e-02
-4.309828206896781921e-02
-2.516743540763854980e-02
8.945516496896743774e-02
-2.995949797332286835e-02
-6.124190613627433777e-02
-2.596661821007728577e-02
1.148693114519119263e-01
5.788329988718032837e-02
-4.664303362369537354e-02
-4.098339378833770752e-02
5.353372544050216675e-03
9.597506374120712280e-03
-1.469657756388187408e-02
2.798230201005935669e-02
-3.016287274658679962e-02
-2.337207831442356110e-02
3.975532948970794678e-03
-1.373044308274984360e-02
-5.377202294766902924e-03
7.100413739681243896e-02
-7.621308416128158569e-02
2.980499155819416046e-02
9.548887610435485840e-03
2.784701064229011536e-02
3.617008775472640991e-02
3.923067450523376465e-02
-9.608497470617294312e-02
1.388579327613115311e-02
1.904115453362464905e-02
-4.386025667190551758e-02
-1.162219676189124584e-03
5.019191280007362366e-02
1.474804128520190716e-03
6.099049374461174011e-02
3.459765762090682983e-02
-2.501322142779827118e-02
2.985557727515697479e-02
-7.276382297277450562e-03
-4.372530430555343628e-02
-1.018617227673530579e-01
4.659353196620941162e-02
3.696017432957887650e-03
2.165674790740013123e-02
-9.694547392427921295e-03
-4.120919480919837952e-02
3.066327422857284546e-02
-3.081030398607254028e-02
-4.152543097734451294e-02
3.370442241430282593e-02
-9.222477674484252930e-03
7.103415578603744507e-02
2.216406166553497314e-02
7.520518731325864792e-03
4.523509368300437927e-02
-7.506130728870630264e-03
-6.200180202722549438e-02
-1.618894375860691071e-02
-1.529879309237003326e-02
4.465548321604728699e-03
-5.589754134416580200e-02
4.510124679654836655e-03
2.570990845561027527e-02
-5.304511636495590210e-02
-1.368117518723011017e-02
6.737565621733665466e-03
-3.503261134028434753e-02
-8.833910338580608368e-03
1.620954833924770355e-02
-1.019477285444736481e-02
3.401519358158111572e-02
1.218171976506710052e-02
5.466915667057037354e-02
3.220310062170028687e-02
-3.550210595130920410e-02
-9.464369155466556549e-03
3.282015910372138023e-03
-1.047147437930107117e-03
3.180741146206855774e-02
5.333625897765159607e-02
-1.329272054135799408e-02
1.815566234290599823e-02
1.123740710318088531e-02
-1.479649563407292590e-05
3.437034785747528076e-02
2.195579465478658676e-03
3.790155053138732910e-02
-1.525974087417125702e-02
3.004150092601776123e-02
-1.217543520033359528e-02
-1.016938686370849609e-02
8.209878578782081604e-04
1.769704511389136314e-03
4.253979027271270752e-02
-5.368687561713159084e-04
2.253594994544982910e-02
-6.694475654512643814e-03
-5.554276518523693085e-03
-3.354350849986076355e-02
-3.758979216217994690e-02
2.441842854022979736e-02
4.406092688441276550e-02
-9.741054964251816273e-04
-3.664803504943847656e-02
-1.793550513684749603e-02
7.649318873882293701e-02
2.457032911479473114e-02
2.266899496316909790e-02
-2.584443986415863037e-02
-4.923848807811737061e-02
2.060810290277004242e-02
1.353191491216421127e-02
-1.578846946358680725e-02
6.929916888475418091e-02
2.506197243928909302e-02
2.562329173088073730e-02
3.484429558739066124e-03
-2.292544022202491760e-02
-3.078674897551536560e-02
9.029076993465423584e-02
5.338718369603157043e-02
-4.138244315981864929e-02
-3.672060370445251465e-02
6.983430124819278717e-03
1.293844776228070259e-03
7.562454044818878174e-02
-7.731957733631134033e-02
-3.757844865322113037e-02
3.815129771828651428e-02
-1.088923774659633636e-02
1.747526414692401886e-02
-1.379586610710248351e-04
2.034148946404457092e-02
-2.772299386560916901e-02
5.215804278850555420e-02
-1.832783780992031097e-02
-1.654400676488876343e-02
-4.163349792361259460e-02
5.240437760949134827e-02
6.551100313663482666e-02
5.799421109259128571e-03
-4.770457372069358826e-02
7.362358272075653076e-03
1.556482911109924316e-02
3.760104626417160034e-02
2.936678566038608551e-02
-6.705508567392826080e-03
1.262264978140592575e-02
3.705114871263504028e-02
-8.942525833845138550e-03
-9.371803142130374908e-03
7.547042798250913620e-03
-4.621871933341026306e-02
-7.546386867761611938e-02
8.437754586338996887e-03
-3.270810842514038086e-02
2.298201620578765869e-02
-2.055118605494499207e-02
7.346846163272857666e-03
-6.305631250143051147e-02
1.520582381635904312e-02
1.379062235355377197e-02
3.462508693337440491e-02
-1.649232022464275360e-02
1.842866092920303345e-02
-3.353134915232658386e-02
-4.304223135113716125e-02
2.484189346432685852e-02
2.667398564517498016e-02
8.485423028469085693e-02
-8.227066695690155029e-02
7.633625715970993042e-02
6.418995559215545654e-02
-2.115022391080856323e-02
1.289153937250375748e-02
8.439237717539072037e-04
8.752650767564773560e-02
8.171857148408889771e-02
2.450964227318763733e-02
-1.287409476935863495e-02
-4.222940653562545776e-02
-3.910657018423080444e-02
3.560808673501014709e-02
-3.965137526392936707e-03
7.026225328445434570e-02
1.296050380915403366e-02
-2.359542809426784515e-02
-3.803668916225433350e-02
6.056604161858558655e-02
-2.722628600895404816e-02
-6.458842195570468903e-03
6.876082718372344971e-02
1.327564707025885582e-03
-2.343731187283992767e-02
-4.868333414196968079e-02
6.206242740154266357e-02
-4.576428607106208801e-02
3.488032892346382141e-02
1.687772944569587708e-02
-2.829744294285774231e-02
7.851478457450866699e-02
7.915648631751537323e-03
5.271644331514835358e-03
-5.438118800520896912e-02
3.343569114804267883e-02
3.304739296436309814e-02
5.185814201831817627e-02
3.608478978276252747e-02
-6.454604119062423706e-02
2.012365497648715973e-02
2.724470570683479309e-02
-1.171678528189659119e-01
-3.134100139141082764e-02
4.849941655993461609e-02
-5.224991589784622192e-02
3.844146430492401123e-02
2.077194489538669586e-02
1.096566021442413330e-02
1.011669170111417770e-02
-6.540338695049285889e-02
-1.216197665780782700e-02
5.014890432357788086e-02
8.592153340578079224e-02
-3.122305311262607574e-02
-7.241840660572052002e-02
3.785576298832893372e-02
-4.757706448435783386e-02
-8.737359195947647095e-03
-5.413657054305076599e-03
3.182952478528022766e-02
1.634147018194198608e-02
2.489331178367137909e-02
-1.907611265778541565e-02
6.295725703239440918e-02
4.997551068663597107e-02
2.605188637971878052e-02
-4.681787919253110886e-03
-2.111909212544560432e-03
2.024985104799270630e-02
5.285476800054311752e-03
3.842046484351158142e-02
-2.230243571102619171e-02
-3.336267173290252686e-02
4.071528092026710510e-02
-7.558643352240324020e-03
-4.143321141600608826e-02
-5.895385518670082092e-02
6.257454864680767059e-03
5.102379247546195984e-02
-2.090894617140293121e-02
-5.415753275156021118e-02
1.760422065854072571e-02
-1.927289995364844799e-03
2.097964473068714142e-02
1.101328525692224503e-02
-8.108474314212799072e-03
9.016313590109348297e-03
4.463021084666252136e-02
-2.296180836856365204e-02
-2.500699460506439209e-02
2.108681388199329376e-02
2.371004410088062286e-02
9.642821736633777618e-03
2.950701490044593811e-02
-1.699701510369777679e-02
2.137259021401405334e-02
2.356832101941108704e-02
-2.320956066250801086e-02
-1.482527889311313629e-02
3.847153484821319580e-02
5.084624979645013809e-03
8.643907494843006134e-04
5.669005913659930229e-04
1.650672219693660736e-02
2.810469269752502441e-02
1.403101906180381775e-02
1.064143888652324677e-02
1.198065187782049179e-02
-1.703255064785480499e-02
-5.934378877282142639e-02
-1.210552267730236053e-02
3.009802661836147308e-03
-2.112963609397411346e-02
3.530983999371528625e-02
3.261432424187660217e-02
-3.785167634487152100e-02
-5.172023666091263294e-04
-3.043654561042785645e-02
-6.052055582404136658e-02
5.320262163877487183e-02
-5.949698016047477722e-02
5.039313691668212414e-05
1.087533961981534958e-02
-3.701377427205443382e-03
2.099224738776683807e-02
-2.833883650600910187e-02
-5.250027030706405640e-02
2.328449115157127380e-02
2.258123457431793213e-02
3.068135865032672882e-02
3.784590214490890503e-02
-3.663152083754539490e-02
7.712245453149080276e-03
-4.734432790428400040e-03
6.320265587419271469e-03
2.423408150207251310e-04
-4.401773959398269653e-02
1.313232444226741791e-02
5.426394194364547729e-02
2.286575175821781158e-02
-1.301142480224370956e-02
1.855817995965480804e-02
-2.715242328122258186e-03
-2.112212963402271271e-02
1.570142991840839386e-02
-5.994609091430902481e-03
2.266067638993263245e-02
-1.955775776877999306e-03
2.496350556612014771e-02
-1.630198024213314056e-02
2.030940167605876923e-02
1.955325901508331299e-02
-4.628594964742660522e-02
2.654668316245079041e-02
-9.783188579604029655e-04
-7.634020876139402390e-03
-3.188926028087735176e-03
-1.341215614229440689e-02
1.257742196321487427e-02
1.651237346231937408e-02
1.555059384554624557e-02
-1.948675513267517090e-02
2.521136775612831116e-02
-3.486985713243484497e-02
7.037331350147724152e-03
-1.966942101716995239e-02
-2.647907705977559090e-03
-1.981080509722232819e-02
1.485144253820180893e-02
2.509205974638462067e-02
-6.762086879462003708e-03
-1.466220524162054062e-02
3.118108585476875305e-02
-5.742980167269706726e-03
-2.410375326871871948e-02
2.358953654766082764e-02
-4.855974111706018448e-03
-1.712537929415702820e-02
-2.131662145256996155e-02
-2.310284180566668510e-03
-4.701917245984077454e-02
4.507460072636604309e-02
2.119572274386882782e-02
1.444070693105459213e-02
-1.482615713030099869e-03
-1.760751754045486450e-02
1.135398400947451591e-03
-5.046274513006210327e-02
1.110644638538360596e-02
7.227980531752109528e-03
4.458539560437202454e-02
3.120802342891693115e-03
2.304729074239730835e-02
-1.873950008302927017e-03
-3.255033632740378380e-03
2.239973470568656921e-02
-7.031887304037809372e-03
4.381356760859489441e-02
-2.037361264228820801e-02
1.519073266535997391e-03
-1.638861559331417084e-02
3.555196523666381836e-02
-8.425143547356128693e-03
-1.019982248544692993e-02
-1.134989503771066666e-02
-1.268578041344881058e-02
-7.358480710536241531e-03
6.995719857513904572e-03
-4.730406776070594788e-02
-2.570484019815921783e-02
2.599694533273577690e-03
-2.628857502713799477e-03
4.435632377862930298e-03
-1.270822435617446899e-02
-1.435690838843584061e-02
4.998042434453964233e-02
2.065554261207580566e-02
8.329904638230800629e-03
-2.330304495990276337e-02
5.705708172172307968e-03
-2.727611921727657318e-02
7.298067212104797363e-03
-1.002618763595819473e-02
-1.198940817266702652e-02
-6.389478221535682678e-03
1.162851927801966667e-03
2.190054953098297119e-02
-1.600763015449047089e-02
1.297081168740987778e-02
-7.934980094432830811e-03
-4.169330932199954987e-03
-2.517407701816409826e-04
-3.442466259002685547e-02
3.226921707391738892e-02
1.180456019937992096e-02
-6.656871177256107330e-03
-1.435814704746007919e-02
-2.115675620734691620e-02
9.677273221313953400e-03
2.073378674685955048e-02
1.668124273419380188e-02
-3.170871641486883163e-03
2.545041590929031372e-02
-5.213352292776107788e-02
1.522944401949644089e-02
-4.716493654996156693e-03
-9.295664727687835693e-03
-6.218155845999717712e-03
1.179215498268604279e-02
2.274620532989501953e-02
-1.270548813045024872e-02
-2.192556671798229218e-02
1.281630713492631912e-02
-1.492396462708711624e-02
-1.962957158684730530e-02
5.293417349457740784e-02
7.392736617475748062e-03
-4.623009264469146729e-02
-1.670600660145282745e-02
-1.292078057304024696e-03
-4.433741793036460876e-02
4.196706041693687439e-02
2.391804940998554230e-02
4.524911928456276655e-04
-2.458046004176139832e-02
-9.890720248222351074e-03
3.455896163359284401e-03
-3.244189545512199402e-02
1.474110875278711319e-02
2.817769534885883331e-02
4.537641257047653198e-02
1.246456056833267212e-02
2.601489424705505371e-03
6.404901854693889618e-03
4.020807973574846983e-04
1.704538799822330475e-02
-5.876411683857440948e-03
3.876192867755889893e-02
-2.285380475223064423e-02
-1.409927615895867348e-03
-2.597160451114177704e-02
2.757732197642326355e-02
-8.535597473382949829e-03
-1.732952776364982128e-03
-6.080585066229104996e-03
-1.709056273102760315e-02
7.373623520834371448e-05
1.461789570748806000e-02
-3.616742789745330811e-02
-2.209924161434173584e-02
-1.615850813686847687e-02
7.616786286234855652e-03
-9.751085191965103149e-03
2.912772353738546371e-03
-4.792647087015211582e-04
3.654515370726585388e-02
3.308979794383049011e-02
-1.127374917268753052e-02
-2.086143568158149719e-02
3.847111389040946960e-02
-8.692716248333454132e-03
1.228317897766828537e-02
4.831267520785331726e-03
-1.117991469800472260e-02
1.606613397598266602e-02
-2.241346798837184906e-02
2.098681218922138214e-02
-2.029276080429553986e-02
3.091737814247608185e-02
-1.823353022336959839e-02
8.444756269454956055e-03
2.285667695105075836e-02
-2.934171631932258606e-02
1.980440691113471985e-02
-1.389115466736257076e-03
4.835166968405246735e-03
1.768499985337257385e-02
1.072247605770826340e-02
1.509212516248226166e-02
8.091208525002002716e-03
1.105201337486505508e-02
-6.605793256312608719e-03
2.296203933656215668e-02
-2.264285460114479065e-02
-8.799184113740921021e-03
-8.560143411159515381e-03
-6.124504725448787212e-04
-9.722578339278697968e-03
4.798048175871372223e-03
2.726802416145801544e-02
1.128521747887134552e-02
-1.102130743674933910e-03
2.202543988823890686e-02
-3.018839284777641296e-03
5.518035613931715488e-04
1.138310879468917847e-02
1.003732252866029739e-02
4.816617351025342941e-03
6.372156785801053047e-04
-2.245322056114673615e-02
-3.230417519807815552e-02
7.034329324960708618e-02
6.514419335871934891e-03
2.065873332321643829e-02
2.098090387880802155e-02
-1.821731799282133579e-03
-1.190888136625289917e-02
-9.401029907166957855e-03
1.833719317801296711e-03
5.561012774705886841e-02
2.138371579349040985e-02
-1.018155459314584732e-02
6.418442819267511368e-03
-1.885929703712463379e-02
-4.441189579665660858e-03
1.858722232282161713e-02
-3.728381171822547913e-02
7.312373723834753036e-03
2.421849034726619720e-02
5.337452515959739685e-03
-9.062912315130233765e-03
1.129068993031978607e-02
-7.563741412013769150e-03
-1.557310950011014938e-02
3.193620126694440842e-03
-1.011996809393167496e-02
3.112812712788581848e-02
-1.822612620890140533e-02
-1.360852364450693130e-02
-9.092209860682487488e-03
-3.067095577716827393e-02
-2.908175811171531677e-03
-1.043546665459871292e-02
-1.792133040726184845e-02
1.787267439067363739e-02
4.113848134875297546e-02
1.347920671105384827e-02
-1.441017445176839828e-02
-1.884091086685657501e-02
-5.354069173336029053e-02
-4.109800979495048523e-02
-1.724409125745296478e-02
5.343141034245491028e-03
6.359288841485977173e-02
1.320201344788074493e-02
-7.055236026644706726e-03
-5.714350193738937378e-02
-2.481559105217456818e-02
2.456970140337944031e-02
9.344297461211681366e-03
-6.681278347969055176e-02
4.532474651932716370e-02
1.803337037563323975e-02
-2.034918218851089478e-02
9.081163443624973297e-04
-2.993001975119113922e-02
1.180260907858610153e-02
-2.557760477066040039e-02
-1.360811106860637665e-02
4.496550932526588440e-02
-1.642263308167457581e-02
-4.992912709712982178e-02
-1.088617555797100067e-02
5.149678885936737061e-02
3.081892058253288269e-02
5.710213631391525269e-02
1.066302508115768433e-02
3.713785111904144287e-02
3.811074420809745789e-02
6.515769753605127335e-03
8.070361614227294922e-02
-2.284556627273559570e-02
2.714113146066665649e-02
5.794545635581016541e-02
-1.236132904887199402e-02
4.059226438403129578e-02
9.039093740284442902e-03
1.262688077986240387e-02
-2.273610979318618774e-02
4.184374958276748657e-02
3.860884904861450195e-02
-4.389655962586402893e-02
-2.307118475437164307e-02
1.575246453285217285e-02
2.071286179125308990e-02
1.832258701324462891e-02
9.265275299549102783e-02
-2.928160363808274269e-03
-1.746345311403274536e-02
-4.962074756622314453e-02
-7.744488865137100220e-02
-5.511503666639328003e-02
1.451025367714464664e-03
5.715759098529815674e-02
-7.110043615102767944e-02
-7.948600500822067261e-02
-7.917787879705429077e-02
1.845792122185230255e-02
4.452110826969146729e-02
2.945818996522575617e-04
-7.236097007989883423e-02
2.652091346681118011e-02
5.044760555028915405e-02
5.213979259133338928e-02
2.119663404300808907e-03
2.650963142514228821e-02
-1.551616191864013672e-02
2.224098145961761475e-02
-1.096644625067710876e-02
5.935008637607097626e-03
-3.934510797262191772e-02
-4.215709865093231201e-03
2.893329598009586334e-02
3.996257483959197998e-02
-7.219639420509338379e-02
7.611388806253671646e-03
1.849408261477947235e-02
-8.683232218027114868e-02
-1.310752984136343002e-02
4.361041635274887085e-02
-2.923717163503170013e-02
5.775431543588638306e-02
-7.184477988630533218e-03
3.583859279751777649e-02
3.277777880430221558e-02
2.540823305025696754e-03
-7.854729890823364258e-03
-1.811265572905540466e-02
-3.396361367776989937e-03
5.483388528227806091e-02
-5.150200054049491882e-02
-6.757925264537334442e-03
-1.324645988643169403e-02
2.078678272664546967e-02
2.090555056929588318e-02
6.446363776922225952e-02
3.382290713489055634e-03
-2.639325894415378571e-02
2.399369888007640839e-02
-1.098024193197488785e-02
-3.937320783734321594e-02
-3.949648141860961914e-02
-1.288256049156188965e-02
7.346911821514368057e-03
3.802693635225296021e-02
5.444816872477531433e-02
-4.782329779118299484e-03
3.492574021220207214e-02
-1.991093158721923828e-02
-9.649835526943206787e-03
6.135780829936265945e-03
5.432175472378730774e-02
6.521659344434738159e-02
3.832975775003433228e-02
-5.883127078413963318e-02
2.191676944494247437e-02
-4.275911673903465271e-02
7.003197818994522095e-02
-2.294535748660564423e-02
-4.316529631614685059e-02
4.665377363562583923e-02
2.302909642457962036e-02
-2.475229650735855103e-02
1.803541369736194611e-02
2.260666340589523315e-02
-1.482480764389038086e-02
-4.612160846590995789e-02
1.344390213489532471e-02
-3.981968760490417480e-02
-1.063373405486345291e-02
-4.052845388650894165e-02
2.911193529143929482e-03
-2.890291251242160797e-02
6.639416515827178955e-02
7.884875684976577759e-02
-9.205338428728282452e-04
1.764526031911373138e-02
-4.009695723652839661e-02
-5.915217474102973938e-02
5.529837682843208313e-02
-2.063617482781410217e-02
7.291630376130342484e-03
3.011317923665046692e-02
-1.751537993550300598e-02
2.915044501423835754e-02
-5.953217670321464539e-02
-4.895944520831108093e-02
3.527655452489852905e-02
4.621800035238265991e-02
5.397664755582809448e-02
8.840139210224151611e-02
-5.601853877305984497e-02
-1.619112305343151093e-02
7.378503214567899704e-04
1.723985886201262474e-03
-3.131432086229324341e-02
-4.694781452417373657e-02
-2.128854952752590179e-02
6.376183778047561646e-02
4.556022211909294128e-02
-9.977024979889392853e-03
9.968913160264492035e-03
-1.446665171533823013e-02
1.165325567126274109e-02
1.182157284347340465e-04
-6.843642145395278931e-02
-1.441779080778360367e-02
7.573581300675868988e-03
-6.667451234534382820e-04
3.446339815855026245e-02
1.423139125108718872e-03
-1.653601764701306820e-03
3.111953660845756531e-02
-6.245134864002466202e-04
3.201009333133697510e-02
-1.274858368560671806e-03
1.429039239883422852e-02
-3.765996918082237244e-02
4.793373867869377136e-02
-4.147608205676078796e-02
-1.898637972772121429e-02
-2.363498136401176453e-02
1.353877969086170197e-02
-3.756842017173767090e-02
-9.245205670595169067e-03
3.175312280654907227e-02
2.434448152780532837e-02
2.436822466552257538e-02
2.756889536976814270e-02
-2.599042654037475586e-02
-1.880463957786560059e-02
4.496524855494499207e-02
3.346817567944526672e-02
3.249800577759742737e-02
-4.274631291627883911e-02
-6.881754379719495773e-03
-6.743859034031629562e-03
4.825390875339508057e-02
-4.248828440904617310e-02
-3.276913985610008240e-02
-7.194770034402608871e-03
1.080289762467145920e-02
7.388419937342405319e-03
-3.147648647427558899e-02
6.610900908708572388e-02
-8.334036916494369507e-03
1.257728436030447483e-03
-1.457152515649795532e-02
-1.955885998904705048e-02
3.850559517741203308e-02
-2.671020850539207458e-02
-2.980630472302436829e-02
-5.379581707529723644e-04
6.940531730651855469e-02
1.487134303897619247e-02
4.010268300771713257e-02
-3.157184273004531860e-02
5.790553987026214600e-03
-1.870583929121494293e-02
2.875503711402416229e-02
2.072183042764663696e-02
3.178823366761207581e-02
1.990002952516078949e-02
-9.793298318982124329e-03
4.708681255578994751e-02
2.891855547204613686e-03
1.513852551579475403e-02
-2.104179188609123230e-02
-2.279492764500901103e-04
4.269293323159217834e-02
2.760022319853305817e-02
2.003559283912181854e-02
1.651841402053833008e-02
3.790788725018501282e-02
4.424297716468572617e-03
-3.183681145310401917e-02
-3.693741559982299805e-02
2.426732517778873444e-02
-3.437875537201762199e-03
3.925659134984016418e-02
-5.698462482541799545e-03
7.674891967326402664e-03
1.260026916861534119e-02
-1.534821651875972748e-02
1.172820921055972576e-03
-3.529721871018409729e-02
3.833954036235809326e-02
-2.688733488321304321e-02
2.842340990900993347e-02
-1.000809716060757637e-03
1.049365755170583725e-02
3.019012697041034698e-02
-9.461940266191959381e-03
9.136800654232501984e-03
1.108699943870306015e-02
1.227864436805248260e-02
3.516436368227005005e-02
-4.529080470092594624e-04
2.526744734495878220e-03
3.298704326152801514e-02
5.003137141466140747e-02
-2.969912067055702209e-02
2.602001465857028961e-02
-1.558013539761304855e-02
-1.663778163492679596e-02
6.070918403565883636e-03
-5.755505990236997604e-03
1.759483129717409611e-03
1.335985399782657623e-02
3.759263455867767334e-02
2.547714859247207642e-02
3.753875568509101868e-02
1.327311247587203979e-02
8.280770853161811829e-04
-1.551446272060275078e-03
1.391271594911813736e-02
9.774629026651382446e-03
1.891344413161277771e-02
1.044780388474464417e-02
-4.232573881745338440e-02
-1.621238701045513153e-02
7.680533081293106079e-02
1.460384670644998550e-02
1.256293896585702896e-02
-1.789467781782150269e-02
-5.044338759034872055e-03
1.136803813278675079e-02
-2.132888883352279663e-02
-7.297095726244151592e-05
8.173897117376327515e-02
5.399935320019721985e-02
-7.406798657029867172e-03
1.379304938018321991e-02
-7.879747077822685242e-03
-2.220663800835609436e-02
4.841778054833412170e-02
-5.646394193172454834e-02
9.547749534249305725e-03
5.285125598311424255e-02
-1.200525928288698196e-02
9.988092817366123199e-03
1.083956472575664520e-02
-7.718903478235006332e-03
-3.804991021752357483e-03
-1.668499596416950226e-02
-5.420938599854707718e-03
5.385844036936759949e-02
-3.433033823966979980e-02
-2.835313417017459869e-02
-9.477855637669563293e-03
-3.480146452784538269e-02
4.784726188518106937e-04
-1.707050390541553497e-02
-2.676880545914173126e-02
8.827407844364643097e-03
3.037321753799915314e-02
3.696173429489135742e-02
-5.977849010378122330e-03
-3.112740442156791687e-02
1.951805315911769867e-02
4.712680820375680923e-03
4.384141066111624241e-04
3.426717966794967651e-02
3.444362059235572815e-02
-1.135313883423805237e-03
3.905444871634244919e-03
-1.461377646774053574e-02
1.704627461731433868e-02
-8.181941695511341095e-03
2.878377959132194519e-02
-1.466748211532831192e-02
-1.502229459583759308e-02
-2.438094466924667358e-02
2.312538586556911469e-02
-2.988599985837936401e-02
-4.975306615233421326e-02
-1.661408133804798126e-02
6.371973082423210144e-03
4.001597687602043152e-02
-4.027593508362770081e-02
-9.045560844242572784e-03
7.727659307420253754e-03
-2.609335444867610931e-02
2.651406265795230865e-02
-1.676699332892894745e-02
-2.621846506372094154e-03
-1.954154483973979950e-02
1.314875204116106033e-02
9.298199787735939026e-03
4.208140820264816284e-02
2.011344581842422485e-02
-1.076887082308530807e-02
-2.339337766170501709e-02
1.612996868789196014e-02
-1.124196313321590424e-02
1.873327419161796570e-02
-5.124053568579256535e-04
-6.287798285484313965e-02
-6.938494741916656494e-03
2.723169699311256409e-02
1.740482077002525330e-02
-3.860305994749069214e-02
-3.008036874234676361e-02
1.159440353512763977e-02
3.000625595450401306e-02
-4.198632761836051941e-02
4.567439481616020203e-02
-2.655878779478371143e-04
-3.578554838895797729e-02
5.564561579376459122e-03
-2.684375084936618805e-02
-3.304555639624595642e-02
1.816923171281814575e-02
2.240930683910846710e-02
-4.494510218501091003e-02
-4.312741104513406754e-03
-5.351403728127479553e-02
4.514512419700622559e-02
-1.447631046175956726e-02
-2.202723408117890358e-03
-8.925576112233102322e-04
-4.403152503073215485e-03
-2.447811327874660492e-02
-1.962973363697528839e-02
8.214589208364486694e-03
-4.503856226801872253e-02
2.224643155932426453e-02
-3.840260207653045654e-02
3.535605594515800476e-02
9.497628780081868172e-04
-1.693890988826751709e-02
3.045725403353571892e-03
-2.294164337217807770e-02
-3.149026073515415192e-03
1.208303403109312057e-02
1.357401814311742783e-02
-2.211740240454673767e-03
9.987886995077133179e-03
-6.429585628211498260e-03
-6.478886306285858154e-02
-8.256555348634719849e-02
3.293015435338020325e-02
7.600221782922744751e-02
7.878420501947402954e-02
3.449973836541175842e-02
-2.908990532159805298e-02
-1.218555960804224014e-02
6.625713407993316650e-02
-6.126010045409202576e-02
1.262869033962488174e-02
-8.378298580646514893e-02
-5.840617790818214417e-02
1.386752445250749588e-02
-1.668586395680904388e-02
-8.661373704671859741e-02
-8.794464170932769775e-02
-1.982287131249904633e-02
-3.634133934974670410e-02
-1.835759542882442474e-02
-3.276344388723373413e-02
-1.742630638182163239e-02
2.735506743192672729e-02
-1.086569726467132568e-01
1.436080634593963623e-01
-1.011473760008811951e-01
7.160937786102294922e-02
-3.436918556690216064e-02
9.192318469285964966e-02
6.741633266210556030e-02
7.425297796726226807e-02
2.024876885116100311e-02
-1.032888516783714294e-02
-1.243582740426063538e-01
4.903097823262214661e-02
8.365534245967864990e-03
-4.652101546525955200e-02
2.808654308319091797e-02
-8.285992592573165894e-02
-7.894866168498992920e-02
3.350222483277320862e-02
6.265795975923538208e-02
-5.888672173023223877e-02
-9.080398827791213989e-02
-7.975664734840393066e-02
1.461579650640487671e-01
-6.406127661466598511e-02
1.696800291538238525e-01
-5.230032280087471008e-02
-2.045615762472152710e-02
7.239577174186706543e-02
-8.580460399389266968e-02
-8.501785248517990112e-02
5.011298879981040955e-02
4.026867821812629700e-02
-1.415592581033706665e-01
-1.828086934983730316e-02
-2.001599781215190887e-02
7.512897253036499023e-02
-4.189977794885635376e-02
-8.680244907736778259e-03
6.890557706356048584e-03
-2.571975067257881165e-02
-2.447216026484966278e-02
-5.436442047357559204e-02
1.059906650334596634e-02
-9.946699440479278564e-02
8.940788358449935913e-02
-1.098112985491752625e-01
8.136978000402450562e-02
2.179973758757114410e-03
-3.866034373641014099e-02
-2.604265883564949036e-02
-2.120386064052581787e-02
1.094348379410803318e-03
-3.410990908741950989e-02
-1.521356217563152313e-02
-3.433132544159889221e-02
8.943252265453338623e-03
-2.941155992448329926e-02
8.115338161587715149e-03
-3.491336107254028320e-02
-2.442411147058010101e-02
-8.653781376779079437e-03
-5.123743787407875061e-03
1.685889251530170441e-02
-1.640681177377700806e-02
2.693100087344646454e-02
-2.259669080376625061e-02
-1.901599927805364132e-03
-1.500233728438615799e-02
5.945701617747545242e-03
-3.778546676039695740e-02
6.216455996036529541e-02
2.175379730761051178e-02
-4.351540654897689819e-02
-6.185242533683776855e-02
-3.693946078419685364e-02
1.751228049397468567e-02
-4.244750365614891052e-03
-3.396470099687576294e-02
-1.433952827937901020e-03
-7.479827105998992920e-02
-2.285016141831874847e-02
-1.308344863355159760e-02
-5.758193321526050568e-03
-1.339951879344880581e-03
3.914243541657924652e-03
3.112033940851688385e-02
5.591035820543766022e-03
-4.633999243378639221e-02
6.990927271544933319e-03
4.834587499499320984e-02
-4.889790900051593781e-03
3.891379386186599731e-02
2.735108509659767151e-02
3.904969245195388794e-02
-1.002351753413677216e-03
-7.061227411031723022e-02
-1.613521203398704529e-02
4.682480543851852417e-02
-4.918371513485908508e-02
7.513525336980819702e-02
-3.047896176576614380e-02
-1.113560497760772705e-01
1.327938735485076904e-01
-5.267034843564033508e-02
4.727953672409057617e-02
-1.418695896863937378e-01
-3.260926529765129089e-02
6.015469506382942200e-02
-6.814099848270416260e-02
-1.580971665680408478e-02
7.054582983255386353e-02
1.313538551330566406e-01
-5.686060711741447449e-02
8.753108978271484375e-02
1.272383779287338257e-01
3.515002503991127014e-02
-1.780128106474876404e-02
-1.100698485970497131e-03
9.647825732827186584e-03
-1.497894711792469025e-02
5.060758069157600403e-02
3.587199747562408447e-02
-5.203507840633392334e-02
-9.310267865657806396e-02
5.618068203330039978e-02
-5.201577767729759216e-02
-2.372327633202075958e-02
3.656957298517227173e-02
-2.381122298538684845e-02
-6.575800478458404541e-02
4.923527594655752182e-03
-8.435122668743133545e-03
-6.748953461647033691e-02
3.334870561957359314e-02
-5.838949978351593018e-02
6.616971641778945923e-02
-4.587638378143310547e-02
2.043091133236885071e-02
1.673373766243457794e-02
-7.509803399443626404e-03
5.677270703017711639e-03
-4.806238575838506222e-04
9.310147725045681000e-03
-8.952441625297069550e-03
1.121132820844650269e-02
3.374062245711684227e-03
2.593332342803478241e-02
-8.868274278938770294e-03
-6.441568024456501007e-03
-1.166208088397979736e-02
-7.378115318715572357e-03
3.596264496445655823e-02
7.360938470810651779e-03
-1.946885883808135986e-02
2.962144091725349426e-02
1.635214500129222870e-02
2.110812067985534668e-02
-7.968832738697528839e-03
-1.091295387595891953e-03
-1.666608266532421112e-03
1.617722027003765106e-02
-4.873781930655241013e-03
1.972600631415843964e-02
-2.199995098635554314e-03
-9.944437071681022644e-03
-2.431502938270568848e-02
-8.994689211249351501e-03
-7.929239422082901001e-03
1.564428023993968964e-02
-2.369157783687114716e-02
2.976384945213794708e-02
-2.983138838317245245e-04
-1.413751486688852310e-02
3.374710306525230408e-02
1.294166129082441330e-02
-8.858456276357173920e-03
-1.233268622308969498e-02
-3.233132883906364441e-02
-3.151929005980491638e-02
3.736621886491775513e-02
2.025347761809825897e-02
1.974965631961822510e-02
1.481308136135339737e-02
-8.783231489360332489e-03
-2.176820125896483660e-04
-1.545828115195035934e-02
-2.176629565656185150e-02
6.107579171657562256e-02
1.750001683831214905e-02
1.463567372411489487e-02
-2.117328811436891556e-03
2.621604129672050476e-02
2.004314213991165161e-03
1.024787593632936478e-02
-3.857557103037834167e-02
-6.204791367053985596e-03
3.215886279940605164e-02
1.476057106629014015e-03
-1.919756829738616943e-02
3.529784083366394043e-02
2.970230393111705780e-02
-1.944618672132492065e-02
2.520940080285072327e-02
-8.849634788930416107e-03
9.959864430129528046e-03
-1.020444743335247040e-02
-7.435752777382731438e-04
1.621014624834060669e-02
-2.751714363694190979e-02
-2.193146385252475739e-03
-8.632735349237918854e-03
-6.909606512635946274e-03
2.078805491328239441e-02
2.588665485382080078e-02
1.357241533696651459e-02
-1.163354702293872833e-02
5.714282160624861717e-04
-1.515668584033846855e-03
1.068486645817756653e-02
-2.514071390032768250e-02
3.290882706642150879e-02
-1.154075190424919128e-02
-1.134484726935625076e-02
-4.577911645174026489e-02
1.830854080617427826e-02
-5.497235804796218872e-03
2.402785979211330414e-02
-2.385684987530112267e-03
-1.229606755077838898e-02
-1.819102838635444641e-02
4.839191678911447525e-03
3.600035328418016434e-03
1.132067013531923294e-02
1.211678981781005859e-02
4.392614215612411499e-02
2.188610471785068512e-02
-9.988824604079127312e-04
-1.665325276553630829e-02
-1.483324263244867325e-02
-6.030295044183731079e-03
3.720941767096519470e-02
-5.564045161008834839e-03
1.206671237014234066e-03
1.461571361869573593e-02
1.185965538024902344e-02
-2.652483619749546051e-02
-2.562799118459224701e-02
-2.090896852314472198e-02
2.144410461187362671e-02
1.417970098555088043e-02
1.498951204121112823e-02
-3.736867336556315422e-03
-5.111175589263439178e-03
3.353402763605117798e-02
-1.056218147277832031e-02
2.130951173603534698e-02
-2.308172639459371567e-03
-2.783335931599140167e-02
-2.119660191237926483e-02
4.041853919625282288e-02
7.332181092351675034e-03
1.610036939382553101e-02
3.065694868564605713e-02
7.019132841378450394e-03
-2.114496193826198578e-02
-3.508624061942100525e-02
-2.131124585866928101e-02
8.617836236953735352e-02
1.456486992537975311e-02
8.948103524744510651e-03
-2.444020472466945648e-02
1.830488070845603943e-02
-1.010627392679452896e-02
5.223568156361579895e-02
-2.908291853964328766e-02
-2.312966808676719666e-02
3.155277296900749207e-02
-2.014834666624665260e-03
-1.116769853979349136e-02
9.798116981983184814e-03
2.239624783396720886e-02
-2.338524907827377319e-02
1.011709100566804409e-03
-2.625495754182338715e-02
1.657127961516380310e-02
-3.217649459838867188e-02
-2.742113778367638588e-03
2.456664666533470154e-02
-1.888713240623474121e-02
-1.157972589135169983e-02
-8.766039274632930756e-03
-1.368494797497987747e-02
2.368321456015110016e-02
2.864739857614040375e-02
-1.091170869767665863e-02
-1.133951544761657715e-02
-1.276974007487297058e-02
-6.950258463621139526e-02
-2.756094560027122498e-03
3.575310111045837402e-03
-9.249823167920112610e-03
-4.422879591584205627e-02
-7.344056665897369385e-02
-2.333629876375198364e-02
-6.371506955474615097e-03
4.378432407975196838e-02
5.393207818269729614e-02
1.980529353022575378e-02
-4.488442093133926392e-02
-9.062443673610687256e-02
1.876069977879524231e-02
1.989922253414988518e-03
4.035971686244010925e-02
-3.440002351999282837e-02
-4.831599537283182144e-03
3.176950290799140930e-02
5.576851218938827515e-02
9.350701235234737396e-03
-5.218013003468513489e-02
8.153270184993743896e-02
3.401792491786181927e-04
4.516072198748588562e-02
-3.184521570801734924e-02
-3.767497465014457703e-02
3.743220493197441101e-02
1.034261751919984818e-02
8.506314456462860107e-02
1.260574162006378174e-02
6.281727552413940430e-02
1.244280710816383362e-01
-3.582860110327601433e-03
-7.802349515259265900e-03
-2.017750032246112823e-02
1.285442803055047989e-02
-4.334885627031326294e-02
3.263911604881286621e-02
-4.933827742934226990e-02
-3.685433045029640198e-02
-7.782897911965847015e-03
4.772904887795448303e-02
2.250990085303783417e-02
-2.154172211885452271e-02
7.468144595623016357e-02
4.613435640931129456e-02
6.312282290309667587e-03
-3.492058068513870239e-02
-2.849401533603668213e-02
8.833762258291244507e-02
1.208609864115715027e-01
3.688729600980877876e-03
2.001343853771686554e-02
-3.362219780683517456e-02
-5.277433991432189941e-02
3.225963935256004333e-02
6.376135349273681641e-02
5.457495898008346558e-02
-3.203165903687477112e-02
-3.943445906043052673e-02
2.570910006761550903e-02
6.332119461148977280e-03
-4.042966663837432861e-02
3.652977198362350464e-02
1.038861088454723358e-02
-7.740242779254913330e-02
-2.346294187009334564e-02
-9.364966303110122681e-02
1.196908205747604370e-02
-2.010094467550516129e-03
-7.873598486185073853e-02
-1.041528657078742981e-01
7.046085596084594727e-02
-4.756987094879150391e-02
-1.504602469503879547e-02
5.795778334140777588e-02
-1.139927096664905548e-02
9.556408226490020752e-02
3.283961908891797066e-03
4.774687066674232483e-02
-3.905561938881874084e-02
-3.826364874839782715e-02
1.290669292211532593e-02
-2.592332195490598679e-03
2.954936586320400238e-03
1.566038466989994049e-02
5.204756930470466614e-02
-3.874237649142742157e-03
5.631677806377410889e-03
4.727166146039962769e-02
-7.571230083703994751e-02
-2.566578611731529236e-02
-3.207392618060112000e-02
4.416901990771293640e-02
2.056178264319896698e-02
2.595486119389533997e-02
-2.071332372725009918e-02
-8.520276285707950592e-03
-2.034161053597927094e-02
1.300568692386150360e-02
-1.044175401329994202e-02
1.074403245002031326e-02
3.285171091556549072e-02
-1.189153920859098434e-02
7.577634602785110474e-02
-1.049395371228456497e-02
2.024744637310504913e-02
6.941821891814470291e-03
8.624845184385776520e-03
-1.733123324811458588e-02
4.976111464202404022e-03
9.814298246055841446e-04
1.160741783678531647e-02
3.349569160491228104e-03
-5.365161225199699402e-02
4.530440270900726318e-02
-4.695983231067657471e-02
-3.682115301489830017e-02
-4.684751387685537338e-03
-3.578182682394981384e-02
-9.743716567754745483e-03
3.721002116799354553e-02
3.807880356907844543e-02
4.478668421506881714e-02
-4.623169824481010437e-02
4.983343183994293213e-03
-4.041408828925341368e-04
1.599732786417007446e-02
-3.289129585027694702e-02
2.165159909054636955e-03
6.518506258726119995e-02
2.262813411653041840e-02
-5.649418011307716370e-02
2.554437704384326935e-02
2.255670912563800812e-02
1.602384634315967560e-02
-2.004544716328382492e-03
2.905137650668621063e-02
3.352074883878231049e-03
2.810329198837280273e-02
-1.453072484582662582e-02
3.350907564163208008e-02
-2.756959525868296623e-03
1.945973560214042664e-02
2.876687608659267426e-02
4.079838283360004425e-03
-2.023163065314292908e-02
1.503924001008272171e-02
4.920009989291429520e-03
-3.714170306921005249e-02
2.001507207751274109e-02
1.681419461965560913e-02
-6.680637598037719727e-03
2.070292085409164429e-02
1.277649961411952972e-02
1.245549228042364120e-02
-2.304716501384973526e-03
-4.787248000502586365e-02
3.518807515501976013e-02
6.323935836553573608e-02
-1.995619758963584900e-02
2.174531668424606323e-02
-2.540975809097290039e-02
1.004265993833541870e-02
4.553361982107162476e-02
1.737316139042377472e-02
9.732496691867709160e-04
-1.906612701714038849e-02
1.838793046772480011e-02
1.868429034948348999e-02
2.251782454550266266e-02
2.242843993008136749e-02
-1.320709474384784698e-03
3.018939867615699768e-02
-1.572442986071109772e-02
-1.462412159889936447e-02
1.527159661054611206e-02
2.052747271955013275e-02
1.879896968603134155e-02
2.434930298477411270e-03
2.838055789470672607e-02
-3.503764513880014420e-03
-3.630766179412603378e-03
1.498404983431100845e-02
-3.384567424654960632e-02
-3.976612538099288940e-02
-1.572021469473838806e-02
-2.502262359485030174e-03
1.023574266582727432e-02
-1.225982699543237686e-02
2.984800375998020172e-02
1.256711129099130630e-02
1.591988652944564819e-02
-8.140446618199348450e-03
1.951666316017508507e-03
-1.465836656279861927e-03
-1.387179177254438400e-02
-7.954039028845727444e-04
8.883718401193618774e-03
-4.539225995540618896e-02
-2.735533379018306732e-02
5.426354333758354187e-02
7.129146158695220947e-02
2.622995153069496155e-02
-2.866908442229032516e-03
5.987515207380056381e-03
-2.876612544059753418e-02
1.199391204863786697e-02
-1.424824073910713196e-02
9.958505630493164062e-03
1.462633349001407623e-02
8.073998987674713135e-02
-2.050381619483232498e-03
-1.595520786941051483e-02
4.403580352663993835e-02
2.933951467275619507e-02
-1.792342588305473328e-02
-1.333747152239084244e-02
1.119081489741802216e-02
-2.856872044503688812e-03
-1.292528491467237473e-02
1.261153444647789001e-02
7.368994411081075668e-03
-4.139529913663864136e-02
-1.194430887699127197e-02
1.136257965117692947e-02
2.097503468394279480e-02
1.274603139609098434e-02
-2.578696003183722496e-03
3.721453016623854637e-03
3.477587131783366203e-03
1.724777184426784515e-02
-8.490992709994316101e-03
-1.277113612741231918e-02
1.257375162094831467e-02
2.315195091068744659e-02
1.967658102512359619e-02
1.489253155887126923e-02
-1.207742001861333847e-02
-3.029697202146053314e-02
-1.470078341662883759e-02
1.459911279380321503e-02
6.147925555706024170e-02
-4.166195541620254517e-02
-4.538739472627639771e-02
-1.023318897932767868e-02
-1.346857380121946335e-02
-1.138834655284881592e-02
2.498833835124969482e-02
2.960709296166896820e-02
-6.480933725833892822e-02
9.681073576211929321e-02
-1.769583672285079956e-02
-5.378730967640876770e-02
-2.380402572453022003e-02
9.287032485008239746e-02
-2.723448537290096283e-02
-5.897978693246841431e-02
5.409868061542510986e-02
1.524738734588027000e-03
-4.841672256588935852e-02
-8.429317176342010498e-02
-5.557660385966300964e-02
8.215701580047607422e-02
3.425887227058410645e-02
3.574590757489204407e-02
4.820263385772705078e-02
4.329826217144727707e-03
5.603748559951782227e-02
8.552507497370243073e-03
-9.114997461438179016e-03
-7.611264474689960480e-03
5.750431492924690247e-02
2.469461224973201752e-02
1.252209651283919811e-03
2.012250199913978577e-02
1.726051978766918182e-02
5.978663265705108643e-02
1.056973934173583984e-01
4.918387532234191895e-02
3.523889929056167603e-02
-9.907277673482894897e-02
2.620212174952030182e-02
3.590320236980915070e-03
-5.755336955189704895e-02
-3.320407867431640625e-02
8.872761391103267670e-03
1.333254128694534302e-01
2.925145206972956657e-03
1.969057880342006683e-02
-7.716077845543622971e-03
-2.544111339375376701e-03
-5.847449600696563721e-02
-3.890258818864822388e-02
-2.779689244925975800e-02
-4.523377865552902222e-02
2.786477096378803253e-02
2.075355872511863708e-02
-3.954098001122474670e-02
-7.542989403009414673e-02
1.153777539730072021e-01
2.104814350605010986e-02
-6.061673536896705627e-02
-1.089762896299362183e-03
4.040496796369552612e-02
-3.276368603110313416e-02
-6.051418185234069824e-02
7.395438104867935181e-02
1.049595326185226440e-02
9.486841410398483276e-02
-3.540429100394248962e-02
-7.172825280576944351e-03
-9.430036880075931549e-03
-3.349564969539642334e-02
8.280030637979507446e-02
6.028698012232780457e-02
3.634615987539291382e-02
1.918349042534828186e-02
-3.620003163814544678e-02
2.951163798570632935e-02
-4.866040498018264771e-02
-4.320678859949111938e-02
8.384837768971920013e-03
-8.760605938732624054e-03
-1.480914186686277390e-02
2.418583072721958160e-02
3.758220002055168152e-02
-1.239732932299375534e-02
3.753338241949677467e-03
5.159094184637069702e-02
-8.103428781032562256e-02
-1.110235508531332016e-02
-2.380735985934734344e-02
2.404452115297317505e-02
3.208991140127182007e-02
3.346653282642364502e-02
-1.411250140517950058e-02
6.745161022990942001e-03
-2.271810173988342285e-02
1.672018691897392273e-02
-1.829349622130393982e-02
2.809668891131877899e-02
2.693121694028377533e-02
-8.207215927541255951e-03
7.853139191865921021e-02
-2.812173590064048767e-02
1.501706242561340332e-02
1.077175047248601913e-02
2.352932933717966080e-03
-1.140896603465080261e-02
1.425570080755278468e-04
6.315825739875435829e-04
2.447388321161270142e-02
5.528211593627929688e-03
-3.973492607474327087e-02
4.049185290932655334e-02
-4.621123149991035461e-02
-3.903313726186752319e-02
1.269588433206081390e-02
-2.642615512013435364e-02
-5.253602284938097000e-03
4.248080030083656311e-02
3.040411695837974548e-02
2.695257402956485748e-02
-4.778253287076950073e-02
-4.874648060649633408e-03
-7.673557382076978683e-03
3.580569103360176086e-02
-2.975935488939285278e-02
5.045782309025526047e-03
6.288584321737289429e-02
-6.047817412763834000e-03
-7.451135665178298950e-02
3.670340403914451599e-02
2.777191251516342163e-02
1.555667631328105927e-02
6.071969401091337204e-03
3.436454758048057556e-02
-3.368197474628686905e-03
4.023899883031845093e-02
-2.269910648465156555e-02
2.856767922639846802e-02
-1.456973422318696976e-02
3.300008177757263184e-02
3.422297537326812744e-02
6.109122652560472488e-03
-2.107137627899646759e-02
1.200924813747406006e-02
7.561519276350736618e-03
-3.121294640004634857e-02
4.719122312963008881e-03
2.442559786140918732e-02
-2.421240089461207390e-03
2.226640656590461731e-02
2.656806318555027246e-04
1.700305193662643433e-02
5.789803341031074524e-03
-4.406775161623954773e-02
4.042977094650268555e-02
-8.206396549940109253e-02
-3.177955374121665955e-02
8.767121471464633942e-03
9.299536235630512238e-03
-2.501679956912994385e-02
-4.984148591756820679e-02
5.085724219679832458e-02
5.784006789326667786e-02
1.529823243618011475e-02
1.498458092100918293e-03
-1.094744261354207993e-02
1.025614514946937561e-02
1.061550900340080261e-01
-5.527403205633163452e-03
-3.336364030838012695e-02
-5.244585685431957245e-03
9.667675942182540894e-02
5.976472049951553345e-02
-2.539907209575176239e-02
2.208886481821537018e-02
1.149512175470590591e-02
-2.683898992836475372e-02
-8.181475102901458740e-03
-8.002327382564544678e-02
2.152706682682037354e-02
-1.986401528120040894e-02
7.582736015319824219e-02
1.273119705729186535e-03
3.487173840403556824e-02
-1.280812267214059830e-02
3.013679571449756622e-02
2.337217330932617188e-02
5.036378279328346252e-02
1.714428514242172241e-02
2.096454054117202759e-02
-2.729478292167186737e-02
-2.792475558817386627e-02
-6.017668638378381729e-04
3.154697641730308533e-02
6.277318298816680908e-02
6.148928403854370117e-02
6.632775068283081055e-03
-4.302944242954254150e-02
8.266323804855346680e-02
5.549198761582374573e-02
-1.309911254793405533e-02
-3.756263479590415955e-02
2.029479853808879852e-02
8.028808981180191040e-02
-3.965030610561370850e-02
7.165027782320976257e-03
3.634485602378845215e-02
-1.614233478903770447e-02
-5.699686333537101746e-02
-1.683803275227546692e-02
-6.455576419830322266e-02
-1.538494974374771118e-01
8.505519479513168335e-03
6.051213480532169342e-03
9.643899276852607727e-03
-5.608507618308067322e-02
1.795201152563095093e-01
1.061522169038653374e-03
-1.142030134797096252e-01
3.887322917580604553e-02
9.757893276400864124e-04
-2.978396601974964142e-02
9.632857516407966614e-03
6.821093708276748657e-02
-7.917006500065326691e-03
7.447250187397003174e-02
4.599821753799915314e-03
1.789948903024196625e-02
2.184306643903255463e-02
-2.735051326453685760e-02
8.898297697305679321e-02
4.015021398663520813e-02
6.165848299860954285e-02
1.392058376222848892e-02
-6.325820833444595337e-02
-7.726510986685752869e-03
-8.745022118091583252e-02
-6.623880565166473389e-02
-1.169822271913290024e-02
-4.091349989175796509e-02
3.563753515481948853e-02
-2.081684023141860962e-02
-3.441417065914720297e-04
3.824930172413587570e-03
6.647931039333343506e-02
-6.836664397269487381e-03
7.622652500867843628e-02
-3.009148128330707550e-02
8.739078417420387268e-03
-4.531676694750785828e-02
-5.761327221989631653e-03
1.020277813076972961e-01
-6.040333583950996399e-02
1.406591734848916531e-03
-7.171033881604671478e-03
-3.141998499631881714e-02
6.808119360357522964e-03
3.721688315272331238e-02
-6.290955096483230591e-02
-5.643459502607584000e-03
-2.619245089590549469e-02
5.794008448719978333e-02
-2.568535879254341125e-02
9.002587758004665375e-03
-3.524846956133842468e-02
2.886456809937953949e-02
4.347931966185569763e-02
-1.056850776076316833e-01
1.120544970035552979e-01
-2.280421555042266846e-03
-9.278772398829460144e-03
-7.149722427129745483e-02
4.752314090728759766e-02
1.338163614273071289e-01
-5.102105438709259033e-03
-6.047897785902023315e-02
3.311744332313537598e-02
4.759968724101781845e-03
1.725631020963191986e-02
-4.995891079306602478e-02
-2.534718811511993408e-02
-6.082026287913322449e-03
1.400788426399230957e-01
-1.267705112695693970e-02
1.204222068190574646e-01
1.842770539224147797e-02
1.034416332840919495e-01
1.420498173683881760e-02
-3.665435826405882835e-03
9.583906829357147217e-02
2.737538330256938934e-02
-3.531964123249053955e-02
-7.019484043121337891e-02
7.978915236890316010e-03
2.279218472540378571e-02
-1.406480744481086731e-02
5.513507500290870667e-02
1.292805373668670654e-02
-4.095374420285224915e-02
6.412128359079360962e-02
1.270285993814468384e-01
5.358677729964256287e-02
-4.218298196792602539e-02
6.171854957938194275e-02
9.228381328284740448e-03
-8.616659790277481079e-02
9.391738474369049072e-02
-4.251308739185333252e-02
8.746549487113952637e-02
-1.152362488210201263e-02
4.286782816052436829e-02
4.542158544063568115e-02
-1.486136671155691147e-02
-2.677612705156207085e-03
-2.024533040821552277e-02
-3.631497547030448914e-02
-5.906662344932556152e-02
6.237307563424110413e-02
5.800008773803710938e-03
1.035395357757806778e-02
1.230306643992662430e-02
1.361576654016971588e-02
3.834480419754981995e-02
7.052674144506454468e-02
-1.213761977851390839e-02
-6.800059694796800613e-03
9.920663200318813324e-03
6.125222891569137573e-03
4.006668180227279663e-02
1.511470694094896317e-02
7.590269669890403748e-03
1.056292749126441777e-04
-8.457603980787098408e-04
1.202612090855836868e-02
5.641282768920063972e-04
-5.079900473356246948e-02
5.370480194687843323e-02
-3.680004924535751343e-02
-4.404741339385509491e-03
-4.104107501916587353e-04
-7.813620567321777344e-02
1.304813474416732788e-02
-2.677203528583049774e-02
5.684807896614074707e-03
3.246952593326568604e-02
3.791782632470130920e-02
-1.606288179755210876e-02
-3.407367318868637085e-02
3.649188578128814697e-02
-2.626605518162250519e-02
4.136269539594650269e-02
-2.476594410836696625e-02
2.617871388792991638e-02
3.181074932217597961e-02
-1.855406881077215075e-04
-6.282350420951843262e-02
-3.042660467326641083e-02
4.055744782090187073e-02
4.167021438479423523e-02
-4.303464293479919434e-02
3.662686422467231750e-02
-2.141921781003475189e-02
-4.154935851693153381e-02
6.373112089931964874e-03
2.566204406321048737e-02
7.536823861300945282e-03
-6.102138385176658630e-02
1.119577512145042419e-02
2.566594444215297699e-02
-2.702240087091922760e-02
2.748535573482513428e-02
9.893925487995147705e-02
-5.796232074499130249e-02
1.497260294854640961e-02
-2.438956871628761292e-03
1.181028224527835846e-02
9.479230269789695740e-03
5.016179382801055908e-02
1.886015571653842926e-02
-3.118767961859703064e-02
-2.627645153552293777e-03
-1.471369527280330658e-02
2.685554325580596924e-02
1.508723385632038116e-02
-3.597258776426315308e-02
-1.734060235321521759e-02
-5.801610648632049561e-02
1.412199437618255615e-02
7.864851504564285278e-03
5.884418264031410217e-03
-1.334649045020341873e-02
-2.855633199214935303e-02
-2.793402969837188721e-02
3.658042475581169128e-02
-1.637961156666278839e-02
2.317883260548114777e-02
-3.833105415105819702e-02
-4.223120957612991333e-02
-9.127652272582054138e-03
1.954296138137578964e-03
-1.667082868516445160e-02
3.721158253028988838e-03
3.531508892774581909e-02
5.778004880994558334e-03
9.296579286456108093e-03
1.774575375020503998e-02
-5.029848590493202209e-02
-7.814420387148857117e-03
1.964698545634746552e-02
-1.789439120329916477e-04
1.738285459578037262e-02
2.261567488312721252e-02
-2.408885210752487183e-02
6.657167337834835052e-03
-1.073261140845716000e-03
2.949764486402273178e-03
-1.060779299587011337e-02
1.934491656720638275e-02
3.394643962383270264e-02
-1.680489629507064819e-02
5.151453986763954163e-02
-1.646718382835388184e-02
1.346415374428033829e-02
8.395884186029434204e-03
2.179401554167270660e-02
-1.804762147367000580e-02
1.388509990647435188e-03
-1.160091254860162735e-02
9.401360293850302696e-04
1.049801893532276154e-02
-4.922740533947944641e-02
1.352366991341114044e-02
-2.356861717998981476e-02
-2.461500279605388641e-02
3.769677877426147461e-02
-1.639074459671974182e-02
-2.425813814625144005e-03
2.246743068099021912e-02
3.110586479306221008e-02
6.199125666171312332e-03
-3.281577304005622864e-02
1.016466971486806870e-02
7.746507413685321808e-03
2.477702870965003967e-02
-1.395622268319129944e-02
-2.100067585706710815e-02
5.654722452163696289e-02
-2.946368791162967682e-02
-5.395625531673431396e-02
8.382786996662616730e-03
2.049649134278297424e-02
1.536475121974945068e-02
-2.214391715824604034e-02
3.494352847337722778e-02
-1.935091428458690643e-02
2.563123777508735657e-02
-2.470474690198898315e-02
-3.751633223146200180e-03
2.392931841313838959e-03
7.211235910654067993e-02
-2.927082241512835026e-04
8.844681084156036377e-03
6.871013902127742767e-04
1.012200210243463516e-02
-8.536470122635364532e-03
-4.995185509324073792e-02
2.145436964929103851e-02
2.792968787252902985e-02
3.948942944407463074e-02
3.397446498274803162e-02
1.102482061833143234e-02
-2.883201837539672852e-02
4.670047492254525423e-04
-4.478827759157866240e-04
3.335278481245040894e-02
7.577132899314165115e-03
3.846277296543121338e-02
-5.363965407013893127e-03
2.088660560548305511e-02
2.122867153957486153e-03
2.673839777708053589e-02
2.559566125273704529e-02
1.264230441302061081e-02
-3.009803406894207001e-02
4.079061746597290039e-02
7.227407302707433701e-03
2.127455547451972961e-02
4.614151269197463989e-02
-3.537584096193313599e-02
-1.307028066366910934e-02
-7.875378243625164032e-03
-1.586795784533023834e-02
-7.445269729942083359e-03
-7.322326302528381348e-03
4.298469796776771545e-02
8.524139411747455597e-03
-1.719474047422409058e-02
3.598087467253208160e-03
-2.654225192964076996e-02
4.020425304770469666e-02
-2.052973397076129913e-02
-3.476409241557121277e-02
1.670760475099086761e-02
-9.091516956686973572e-03
3.445173613727092743e-03
-3.103724494576454163e-02
5.042654275894165039e-02
4.930015653371810913e-02
3.004745952785015106e-02
-3.901488706469535828e-02
1.940007507801055908e-02
8.356244117021560669e-02
1.258901972323656082e-02
-2.710470370948314667e-02
2.545541524887084961e-02
1.039225608110427856e-01
-3.554990515112876892e-02
-6.698850076645612717e-03
1.357568427920341492e-02
4.707893356680870056e-02
5.763735971413552761e-04
2.142479829490184784e-02
3.886095713824033737e-03
-6.082191318273544312e-02
-2.014880813658237457e-02
-1.581357233226299286e-02
-9.386189281940460205e-03
-1.575759239494800568e-02
-2.751923352479934692e-02
-2.601827867329120636e-02
3.005515784025192261e-02
7.150607183575630188e-03
2.852552197873592377e-02
2.503771521151065826e-02
-2.633699029684066772e-02
-4.727058857679367065e-02
4.838517867028713226e-03
1.868657208979129791e-02
-2.205585828050971031e-03
1.464620046317577362e-02
-1.699678972363471985e-02
-1.095523219555616379e-02
-1.219958998262882233e-02
-6.085272412747144699e-03
-2.477161400020122528e-02
4.674428142607212067e-03
1.363671571016311646e-02
1.612133905291557312e-02
-2.148293890058994293e-03
-1.449289824813604355e-02
-3.311556356493383646e-04
4.041139781475067139e-02
2.192359045147895813e-02
4.514976590871810913e-02
4.268665984272956848e-02
-3.473333269357681274e-02
-5.944362655282020569e-02
-3.089480288326740265e-02
5.693246424198150635e-02
-6.120656803250312805e-02
