-5.604446632787585258e-04
-1.270674914121627808e-02
1.476110238581895828e-02
-1.902541145682334900e-03
1.551022753119468689e-03
3.969515860080718994e-02
-2.422535605728626251e-02
-4.900014493614435196e-03
2.123510465025901794e-02
7.351897074840962887e-04
2.685623243451118469e-02
5.141603574156761169e-02
-5.276484298519790173e-04
-1.908903755247592926e-02
-6.975708901882171631e-02
-5.095880106091499329e-02
2.721030730754137039e-03
-1.799929887056350708e-02
2.239346317946910858e-02
-4.488951526582241058e-03
-5.456004291772842407e-03
1.462406129576265812e-03
4.812787473201751709e-02
-2.959337644279003143e-02
1.536596659570932388e-02
-2.737473882734775543e-02
1.552805490791797638e-02
-1.250299718230962753e-02
-1.195271126925945282e-02
-1.023044157773256302e-02
-7.187057286500930786e-02
4.052418842911720276e-02
3.208876401185989380e-02
-1.265839952975511551e-02
5.008425936102867126e-02
8.457031846046447754e-02
5.153432488441467285e-02
1.591591536998748779e-02
2.732945419847965240e-02
-4.463316872715950012e-03
-8.743384853005409241e-03
-1.284048333764076233e-02
2.869727090001106262e-02
-7.260679733008146286e-03
-2.117454819381237030e-02
3.395120427012443542e-02
8.623708039522171021e-03
5.683473311364650726e-03
-1.240021176636219025e-02
-1.471071131527423859e-02
5.857667420059442520e-03
2.272107079625129700e-02
-2.836377546191215515e-02
1.429978758096694946e-02
-3.052665106952190399e-02
1.325617451220750809e-02
-2.804109826683998108e-03
1.741397008299827576e-02
1.505451649427413940e-02
-8.211604319512844086e-03
-1.814597472548484802e-02
-1.025962643325328827e-03
3.999217599630355835e-02
4.035826772451400757e-02
-3.153418749570846558e-02
-3.091242909431457520e-02
4.984095226973295212e-03
-7.727388874627649784e-04
3.756315854843705893e-04
-1.443950179964303970e-02
-1.162581495009362698e-03
1.027708500623703003e-02
4.103135690093040466e-02
-1.989774219691753387e-02
4.999480769038200378e-02
8.090200275182723999e-02
6.525880843400955200e-02
1.060445792973041534e-02
3.487277543172240257e-03
-8.725827932357788086e-02
-7.959137670695781708e-03
1.113789039663970470e-03
3.085860051214694977e-02
-1.287696044892072678e-02
-6.996451411396265030e-03
1.297419145703315735e-02
-8.036858402192592621e-03
-1.651077531278133392e-02
1.440200395882129669e-02
-1.164756435900926590e-02
1.653409563004970551e-02
1.383750815875828266e-03
1.874487288296222687e-02
9.250557050108909607e-03
2.673529647290706635e-02
-1.441083475947380066e-02
-3.205155953764915466e-02
-1.034438703209161758e-02
1.814471930265426636e-02
-1.574827171862125397e-02
-1.154590491205453873e-02
2.837706916034221649e-02
1.385235320776700974e-02
-2.251913584768772125e-02
6.177848204970359802e-03
-4.088662564754486084e-02
-1.142695453017950058e-02
1.126997289247810841e-03
-5.373321007937192917e-03
8.100071921944618225e-03
6.581579148769378662e-02
8.527473546564579010e-03
-3.901706775650382042e-03
6.842120550572872162e-03
4.808358103036880493e-02
8.138471096754074097e-02
6.337372213602066040e-02
1.013423409312963486e-02
1.587625965476036072e-02
-7.065507024526596069e-02
-1.994119724258780479e-03
-1.686186902225017548e-02
-2.026466652750968933e-02
-9.227181435562670231e-04
-6.331019103527069092e-03
3.315202891826629639e-02
-3.828812390565872192e-02
-6.869629025459289551e-03
2.514239959418773651e-02
-3.166716918349266052e-02
2.853914536535739899e-02
6.264889985322952271e-02
1.944060903042554855e-03
-1.467051450163125992e-02
-8.404459804296493530e-02
-7.632233947515487671e-02
-9.014618583023548126e-03
-2.477032691240310669e-02
2.824343554675579071e-02
-1.892401091754436493e-02
-3.600404597818851471e-03
-7.163179572671651840e-03
-7.598824054002761841e-02
-1.657256484031677246e-02
2.364652790129184723e-02
-3.041801787912845612e-02
3.360418230295181274e-02
-1.767398416996002197e-02
-1.776462979614734650e-02
-1.382154040038585663e-02
-7.700995355844497681e-02
5.678603425621986389e-02
3.258068859577178955e-02
-2.171462588012218475e-02
-4.461365193128585815e-02
-4.008045420050621033e-02
5.952408909797668457e-02
7.157942280173301697e-03
1.865802332758903503e-02
4.386013373732566833e-03
-1.861194148659706116e-02
-1.417261827737092972e-02
-3.703591227531433105e-02
-1.527672540396451950e-02
-7.397310808300971985e-03
3.072309494018554688e-02
9.072800166904926300e-03
3.476718207821249962e-03
-1.562618836760520935e-02
-2.701885532587766647e-03
1.045346725732088089e-02
2.828469127416610718e-02
-2.142838016152381897e-02
2.687255293130874634e-02
-3.635471686720848083e-02
5.779273342341184616e-03
-1.776050031185150146e-02
1.618470624089241028e-02
1.644913479685783386e-02
-1.685250550508499146e-02
-1.844656467437744141e-02
-6.094668991863727570e-03
-6.417629867792129517e-02
6.283724308013916016e-02
-3.624482080340385437e-02
-3.432137891650199890e-02
1.232224237173795700e-02
-2.463922137394547462e-03
-3.314439440146088600e-03
-1.704202964901924133e-02
5.329367239028215408e-03
1.053104456514120102e-02
4.297903552651405334e-02
-2.678999118506908417e-02
-4.009844735264778137e-02
-3.176768869161605835e-02
7.776024192571640015e-02
-2.020238898694515228e-03
-9.101936593651771545e-03
-8.903876692056655884e-02
-2.330679073929786682e-02
4.244416020810604095e-03
-2.340652793645858765e-02
-2.739589288830757141e-02
-1.498055458068847656e-02
2.005530148744583130e-02
-5.495517980307340622e-03
-2.553126960992813110e-02
1.282245293259620667e-02
3.463417664170265198e-02
2.610679902136325836e-02
-1.396005321294069290e-02
3.204368799924850464e-02
2.494814619421958923e-02
3.213405981659889221e-02
-3.112605540081858635e-03
-5.458007007837295532e-02
-1.886403374373912811e-02
2.112584747374057770e-02
-2.365580387413501740e-02
-1.395542453974485397e-02
3.490167111158370972e-02
-7.336262613534927368e-02
-1.006128359586000443e-02
6.335990969091653824e-03
-4.977310448884963989e-02
-8.764814585447311401e-03
-2.273994730785489082e-03
-1.141437608748674393e-02
1.158855389803647995e-02
8.631175756454467773e-02
-1.659278314036782831e-05
-1.152373477816581726e-02
1.009896676987409592e-02
-3.929702565073966980e-02
-3.188668191432952881e-02
7.716075330972671509e-02
5.378318019211292267e-03
1.045187469571828842e-02
-7.808889448642730713e-02
-2.924526575952768326e-03
-1.681053824722766876e-02
-2.354481443762779236e-02
2.301996210007928312e-05
4.723767563700675964e-02
-2.179721370339393616e-02
-3.294436261057853699e-02
-1.180767547339200974e-02
2.137253619730472565e-02
-5.594325438141822815e-02
2.028004080057144165e-02
7.077443599700927734e-02
-1.772452844306826591e-03
-1.808654516935348511e-02
-7.818017899990081787e-02
-1.021665260195732117e-01
-1.853630132973194122e-02
-1.897018589079380035e-02
2.508241310715675354e-02
-1.108390372246503830e-02
-1.254692790098488331e-03
-8.371146395802497864e-03
-7.760486751794815063e-02
-9.221711196005344391e-03
3.027504123747348785e-02
-2.115308679640293121e-02
3.361596912145614624e-02
-1.804320141673088074e-02
-1.756463386118412018e-02
-1.293891575187444687e-02
-2.103905007243156433e-02
5.479363352060317993e-02
2.401911281049251556e-02
-1.917991787195205688e-02
-1.194441132247447968e-02
-8.873290568590164185e-02
4.219198599457740784e-02
1.489889575168490410e-03
1.387608703225851059e-02
-9.160865098237991333e-03
-2.488621510565280914e-02
-1.353808585554361343e-02
-3.447590023279190063e-02
-2.075908146798610687e-02
8.193913847208023071e-02
-8.473295718431472778e-03
1.363278552889823914e-02
-6.366953602991998196e-04
-1.800736039876937866e-02
2.066685073077678680e-02
3.047615755349397659e-03
3.166193515062332153e-02
-2.234673686325550079e-02
2.052332274615764618e-02
-3.423738479614257812e-02
-1.625378243625164032e-02
-2.881628088653087616e-02
2.088799513876438141e-02
1.087449118494987488e-02
-4.838389344513416290e-03
-1.630138047039508820e-02
-7.022642064839601517e-03
-5.797767266631126404e-02
6.415060162544250488e-02
-3.363747149705886841e-02
-2.783506177365779877e-02
1.190337724983692169e-02
-1.486729364842176437e-03
-2.757208887487649918e-03
-1.604457758367061615e-02
1.463163550943136215e-02
4.725472535938024521e-03
3.802643716335296631e-02
-2.458936534821987152e-02
-7.364340126514434814e-03
-7.854695618152618408e-02
6.113471835851669312e-02
-1.094573177397251129e-02
-1.670324802398681641e-02
-1.015227884054183960e-01
-3.110040538012981415e-02
2.790811005979776382e-03
-3.458210080862045288e-02
-3.503847494721412659e-02
4.647485539317131042e-02
-8.497655391693115234e-03
-3.451018361374735832e-03
-3.210263699293136597e-02
6.718119140714406967e-03
9.182373434305191040e-02
2.483909018337726593e-02
-2.440502680838108063e-02
3.054137527942657471e-02
2.329113334417343140e-02
2.353560365736484528e-02
7.513029850088059902e-04
-6.740468740463256836e-02
-1.540818158537149429e-02
1.517878193408250809e-02
-1.298921555280685425e-02
-1.342343166470527649e-02
3.594267740845680237e-02
-5.851158499717712402e-02
-9.593082591891288757e-03
8.082658052444458008e-03
-4.905394092202186584e-02
-9.661492891609668732e-03
-4.441589582711458206e-03
-1.260009035468101501e-02
1.100448053330183029e-02
4.463066905736923218e-02
-9.909836575388908386e-03
-2.285016328096389771e-02
1.047505624592304230e-02
-1.486166287213563919e-02
-7.914452999830245972e-02
5.992179363965988159e-02
3.832741174846887589e-03
6.498527247458696365e-03
-9.253165125846862793e-02
2.715456765145063400e-03
-1.439067814499139786e-02
4.578549042344093323e-02
8.250351995229721069e-03
2.179775387048721313e-02
-4.197877645492553711e-02
-2.513431198894977570e-02
-7.438118569552898407e-03
5.006067454814910889e-03
-5.444061383605003357e-02
1.710107922554016113e-02
6.597256660461425781e-02
2.665503125172108412e-04
-2.323706820607185364e-02
-5.307565256953239441e-02
-1.037120074033737183e-01
-2.365083619952201843e-02
-1.175358239561319351e-02
9.274033829569816589e-03
-1.116669736802577972e-02
2.256507053971290588e-03
-7.599699776619672775e-03
7.317891716957092285e-02
-1.799522154033184052e-02
2.536582760512828827e-02
-1.056860014796257019e-02
8.865081705152988434e-03
-1.888629235327243805e-02
-1.744615659117698669e-02
-8.822948671877384186e-03
1.353887841105461121e-02
3.403293341398239136e-02
1.508540567010641098e-02
-1.326984632760286331e-02
3.675204515457153320e-02
-1.826964877545833588e-02
2.835225872695446014e-02
-4.318012855947017670e-03
1.384875271469354630e-02
2.011498436331748962e-02
-1.825718767940998077e-02
-1.098467595875263214e-02
5.159476771950721741e-02
-1.307651679962873459e-02
4.160153865814208984e-02
-1.478876452893018723e-02
1.477680541574954987e-02
5.772866308689117432e-03
-2.417991310358047485e-02
1.845069043338298798e-02
-2.655597170814871788e-03
2.953689545392990112e-02
-2.111490443348884583e-02
9.361661970615386963e-03
-1.798539981245994568e-02
-2.328199893236160278e-02
-3.619121760129928589e-02
2.302969433367252350e-02
-4.947624169290065765e-03
-1.350129721686244011e-03
-1.039292290806770325e-02
-9.043009020388126373e-03
8.608293533325195312e-02
4.716743901371955872e-02
-3.090909123420715332e-02
-2.041142061352729797e-02
-1.395655795931816101e-03
-1.456286176107823849e-03
-1.933164312504231930e-03
-1.230365503579378128e-02
1.612776331603527069e-02
8.104255539365112782e-04
3.714785724878311157e-02
-2.038358338177204132e-02
3.766220435500144958e-02
-1.014021784067153931e-02
5.090538412332534790e-02
-2.222138643264770508e-02
-1.689923182129859924e-02
-6.378808617591857910e-02
-2.180358208715915680e-02
3.138951724395155907e-03
3.469305858016014099e-02
-2.614511922001838684e-02
2.571878023445606232e-02
4.842698574066162109e-03
-6.763497367501258850e-03
-2.362166903913021088e-02
-6.505343131721019745e-03
8.381915092468261719e-02
1.550117693841457367e-02
-3.478679060935974121e-02
2.329863980412483215e-02
9.345792233943939209e-03
1.772459968924522400e-02
1.310762390494346619e-02
-7.181971520185470581e-02
-8.761865086853504181e-03
-5.952779203653335571e-03
-7.766126655042171478e-03
-7.326237391680479050e-03
2.648120187222957611e-02
9.518261253833770752e-02
-1.885781995952129364e-02
1.433338131755590439e-02
-5.242165923118591309e-02
-1.725786738097667694e-02
-5.956199020147323608e-03
-1.057737972587347031e-02
1.220607105642557144e-02
6.852113641798496246e-03
-8.137652650475502014e-03
-2.138943970203399658e-02
1.076007448136806488e-02
2.616949379444122314e-02
-2.547258324921131134e-02
4.456495493650436401e-02
-6.767111481167376041e-04
9.541670791804790497e-03
-6.159006059169769287e-02
5.658423993736505508e-03
-1.632810197770595551e-02
-1.705292239785194397e-02
1.160192396491765976e-02
-8.029428310692310333e-03
-6.334603577852249146e-02
-2.061716467142105103e-02
-7.517925463616847992e-03
-6.093400064855813980e-03
-7.609567046165466309e-02
9.894791990518569946e-03
6.024271622300148010e-02
-1.549813197925686836e-03
-2.917773649096488953e-02
-2.888949401676654816e-02
-8.089391887187957764e-02
-1.723373495042324066e-02
3.691229037940502167e-03
6.619910709559917450e-03
-2.110358560457825661e-03
6.131181493401527405e-03
-7.008450571447610855e-03
7.873561233282089233e-02
-8.388959802687168121e-03
3.275187313556671143e-02
-3.467031056061387062e-04
4.747947969008237123e-04
-1.860823668539524078e-02
-1.657152362167835236e-02
-7.073190528899431229e-03
4.692918807268142700e-02
2.358420379459857941e-02
7.867962121963500977e-03
-1.006194949150085449e-02
-9.148600511252880096e-04
4.854477941989898682e-02
1.529919216409325600e-03
-3.092598402872681618e-03
1.932279579341411591e-02
2.346324734389781952e-02
-1.475566159933805466e-02
-1.152810733765363693e-02
-2.735080011188983917e-02
-1.034327968955039978e-02
-2.190962806344032288e-02
-3.008999675512313843e-02
1.239602081477642059e-02
5.495626013725996017e-03
-2.611170150339603424e-02
-1.322084758430719376e-02
-5.796389654278755188e-03
2.518055588006973267e-02
-1.706646755337715149e-02
1.980687957257032394e-03
-5.550764035433530807e-03
-1.727035827934741974e-02
-3.099829331040382385e-02
3.253732994198799133e-02
-5.077912006527185440e-03
1.138219889253377914e-02
-5.031251814216375351e-03
-6.527105811983346939e-03
8.480618149042129517e-02
4.418420791625976562e-02
-1.678591407835483551e-02
-1.127886772155761719e-02
-3.383605508133769035e-03
-1.103402231819927692e-03
-2.990116481669247150e-04
-8.814484812319278717e-03
5.869625136256217957e-03
-3.099094144999980927e-03
3.225233405828475952e-02
-1.454430352896451950e-02
-2.756024710834026337e-03
4.358306527137756348e-02
2.508449740707874298e-02
-2.392837591469287872e-02
-9.311867877840995789e-03
-4.564874619245529175e-02
-1.644727215170860291e-02
3.872087690979242325e-04
-2.031794562935829163e-02
-2.140727825462818146e-02
1.970067154616117477e-03
-1.510155969299376011e-03
-9.501091204583644867e-03
-2.025646343827247620e-02
-1.620912551879882812e-02
3.311203792691230774e-02
1.690302789211273193e-02
-3.694552183151245117e-02
2.413327060639858246e-02
8.635384961962699890e-03
7.599170785397291183e-03
1.787618361413478851e-02
-6.023983657360076904e-02
2.543493872508406639e-03
-8.492335677146911621e-03
5.678692366927862167e-03
-3.715173108503222466e-03
2.569554373621940613e-02
1.021470725536346436e-01
-1.247421558946371078e-02
2.094201743602752686e-02
-4.533182457089424133e-02
-1.608777604997158051e-02
-6.683702580630779266e-03
-8.317686617374420166e-03
1.161142066121101379e-02
-6.308551877737045288e-02
-8.788139559328556061e-03
-2.430918812751770020e-02
1.147438585758209229e-02
-3.076075110584497452e-03
1.425091363489627838e-02
1.632329449057579041e-02
-1.893696491606533527e-03
1.340632792562246323e-02
-5.099017918109893799e-02
-3.880683099851012230e-03
-1.550355460494756699e-02
5.550299212336540222e-02
-7.878034375607967377e-03
-2.791659161448478699e-02
6.704702228307723999e-02
-4.487791657447814941e-02
-1.010161126032471657e-03
3.342553228139877319e-02
3.177707642316818237e-02
2.186091057956218719e-02
2.632686682045459747e-02
1.036156993359327316e-02
-6.994461640715599060e-03
-7.310453057289123535e-02
-1.349247246980667114e-02
3.196004033088684082e-02
-2.118886262178421021e-02
1.595695316791534424e-02
-1.579444110393524170e-02
-3.572360379621386528e-03
-1.404566690325737000e-02
9.810646623373031616e-02
-2.035787515342235565e-02
2.243253402411937714e-02
5.858717486262321472e-03
2.806482277810573578e-02
-1.374441292136907578e-02
-1.319410372525453568e-02
-1.099122501909732819e-02
-9.666008502244949341e-02
4.076538980007171631e-02
2.423554100096225739e-02
-1.564049534499645233e-02
-1.425926573574542999e-02
-4.085293412208557129e-02
6.461854279041290283e-02
1.650796271860599518e-02
2.664962783455848694e-02
1.059028953313827515e-01
-2.050064876675605774e-02
-1.412398368120193481e-02
7.212401181459426880e-02
-2.079320326447486877e-02
-4.820687696337699890e-02
5.959721654653549194e-02
1.018334366381168365e-02
2.889376133680343628e-03
6.380970589816570282e-04
-2.393714897334575653e-02
2.045695902779698372e-03
8.095573633909225464e-03
-1.834709197282791138e-02
2.579582110047340393e-02
-2.618864923715591431e-02
3.818047791719436646e-02
4.276026785373687744e-02
1.423281710594892502e-02
1.093188114464282990e-02
-9.696807712316513062e-03
-1.905612461268901825e-02
-1.493387855589389801e-02
8.566361665725708008e-02
5.690847709774971008e-02
-4.163457825779914856e-02
2.863936126232147217e-03
1.425969786942005157e-02
-1.304926234297454357e-03
-2.468854421749711037e-03
-1.652631908655166626e-02
-6.790191866457462311e-03
4.332611337304115295e-03
3.870503976941108704e-02
-2.326024882495403290e-02
-1.083670556545257568e-02
-2.972384169697761536e-02
7.385698705911636353e-02
2.490188227966427803e-03
-1.054815482348203659e-02
2.438796870410442352e-02
-2.497910335659980774e-02
2.339671598747372627e-03
6.707926839590072632e-02
-3.285610303282737732e-02
-3.011513501405715942e-02
2.925392054021358490e-02
-9.999174624681472778e-03
-2.764370106160640717e-02
2.743278071284294128e-02
-5.665352195501327515e-02
2.311570011079311371e-02
9.124048054218292236e-03
3.386816754937171936e-02
2.355949953198432922e-02
3.059291094541549683e-02
-1.346643827855587006e-02
4.133459553122520447e-02
-1.953228376805782318e-02
1.558944024145603180e-02
-1.872010156512260437e-02
-1.440563146024942398e-02
2.508197538554668427e-02
5.031150579452514648e-02
-1.150471996515989304e-02
7.216060068458318710e-03
-2.010873518884181976e-03
-9.192032739520072937e-03
9.775088401511311531e-04
-9.273156523704528809e-03
8.886657655239105225e-03
8.018078655004501343e-02
-1.007362548261880875e-02
-1.947936415672302246e-02
8.061599917709827423e-03
-1.307890843600034714e-02
-3.957124799489974976e-02
8.011244982481002808e-02
6.612779572606086731e-03
7.582278922200202942e-03
6.228073965758085251e-03
-4.110574256628751755e-03
-1.978718489408493042e-02
-6.427789479494094849e-02
-5.562792066484689713e-03
-3.698005527257919312e-02
6.069327890872955322e-02
-5.713891237974166870e-02
-3.023849800229072571e-03
4.012535139918327332e-02
-1.228240597993135452e-02
2.253283746540546417e-02
4.907851666212081909e-02
1.101488061249256134e-02
-4.762117750942707062e-03
-5.918043479323387146e-02
-3.966528549790382385e-02
7.357607781887054443e-02
-3.080282174050807953e-02
2.776822634041309357e-02
-2.657763846218585968e-02
-2.575634280219674110e-03
-2.209849096834659576e-02
4.392844066023826599e-02
-3.409566590562462807e-03
3.143323585391044617e-02
-1.423378754407167435e-02
5.092926323413848877e-02
-1.906566880643367767e-02
-1.819949969649314880e-02
-1.432919967919588089e-02
-7.504022121429443359e-02
5.932822078466415405e-02
2.053464390337467194e-02
-2.498196996748447418e-02
-4.461260139942169189e-02
-1.524460464715957642e-01
4.035660997033119202e-02
7.819279097020626068e-03
1.954807154834270477e-02
1.348371654748916626e-01
-2.998286299407482147e-02
-1.524918712675571442e-02
-7.474067062139511108e-02
-2.816330082714557648e-02
-3.445653244853019714e-02
5.628255382180213928e-02
1.339738722890615463e-02
-1.169473049230873585e-03
-5.887521183467470109e-05
-1.539744436740875244e-02
5.380531772971153259e-03
2.342425100505352020e-02
-1.444816309958696365e-02
3.665650635957717896e-02
-1.249385997653007507e-02
3.752037137746810913e-02
8.343590050935745239e-02
9.814805351197719574e-03
1.800192147493362427e-02
-1.367128640413284302e-02
-2.073371037840843201e-02
-1.899403706192970276e-02
4.616377875208854675e-02
8.408271521329879761e-02
-4.668449610471725464e-02
-2.178482711315155029e-02
2.635697089135646820e-02
-3.191197291016578674e-03
-5.584995727986097336e-03
-1.873071305453777313e-02
1.272889878600835800e-02
5.506285931915044785e-03
3.664905950427055359e-02
-3.002740815281867981e-02
-4.112162068486213684e-02
-1.341364085674285889e-01
5.409561470150947571e-02
-1.045852899551391602e-02
-2.240144833922386169e-02
4.824857413768768311e-02
-4.012943804264068604e-02
4.612591583281755447e-03
-5.856674909591674805e-02
-4.649120196700096130e-02
-4.542924836277961731e-02
3.794038295745849609e-02
-5.685048177838325500e-03
-3.960524499416351318e-02
2.817714959383010864e-02
-1.265063416212797165e-02
3.262805566191673279e-02
4.187350627034902573e-03
4.564674943685531616e-02
3.864935785531997681e-02
4.121446236968040466e-02
6.166037928778678179e-05
7.671226561069488525e-02
-3.215055167675018311e-02
2.428770437836647034e-02
-2.137914486229419708e-02
-1.851336285471916199e-02
3.309837728738784790e-02
2.531274780631065369e-02
4.181414842605590820e-03
7.747775875031948090e-03
-3.172923624515533447e-02
-3.533262759447097778e-03
-4.069269634783267975e-03
-1.580429263412952423e-02
1.201086398214101791e-02
9.529084712266921997e-02
-1.997794955968856812e-02
-3.053506277501583099e-02
1.065093372017145157e-02
-4.396193474531173706e-02
-1.427392959594726562e-01
6.014724448323249817e-02
1.428081537596881390e-03
3.127971431240439415e-03
2.617106772959232330e-02
-2.299751853570342064e-03
-2.012901008129119873e-02
-3.119363263249397278e-02
-1.151412609033286572e-03
7.567587494850158691e-02
-1.134425401687622070e-02
-5.170182511210441589e-02
-7.361407391726970673e-03
3.881661593914031982e-02
-4.270356521010398865e-02
1.895257830619812012e-02
5.989665538072586060e-02
1.044685672968626022e-02
-7.544049527496099472e-03
-3.439759090542793274e-02
-7.288926094770431519e-02
8.661083132028579712e-02
-2.552215382456779480e-02
2.864402718842029572e-02
-1.641456037759780884e-02
-7.686688913963735104e-04
-2.080732211470603943e-02
-1.324649155139923096e-01
5.144705064594745636e-03
3.736601769924163818e-02
-1.587946899235248566e-02
5.159410834312438965e-02
-1.861749403178691864e-02
-1.680676080286502838e-02
-1.415993366390466690e-02
-2.665759297087788582e-03
5.696872994303703308e-02
1.014999393373727798e-02
-2.418627589941024780e-02
7.135189324617385864e-02
-2.711385302245616913e-02
5.401101894676685333e-03
2.948324894532561302e-03
1.688996516168117523e-02
1.312373131513595581e-01
-3.324984386563301086e-02
-1.537801139056682587e-02
-3.744528815150260925e-02
-2.947229333221912384e-02
1.112347692251205444e-01
2.748926868662238121e-03
1.800873503088951111e-02
-5.408405791968107224e-03
-8.104595472104847431e-04
1.346726715564727783e-02
2.323227701708674431e-03
2.579892799258232117e-02
-1.283885259181261063e-02
3.142117336392402649e-02
1.793577568605542183e-03
1.995528303086757660e-02
9.705404192209243774e-02
1.513365656137466431e-02
1.516638137400150299e-02
1.293662702664732933e-03
-1.943347603082656860e-02
-1.797638088464736938e-02
-1.192109137773513794e-01
8.502520620822906494e-02
-4.533493518829345703e-02
-2.309679612517356873e-02
2.579773217439651489e-02
-1.769715221598744392e-03
-3.945794422179460526e-03
-1.889055967330932617e-02
1.802641153335571289e-02
-8.736186427995562553e-04
3.018314950168132782e-02
-2.951589785516262054e-02
7.169421017169952393e-02
-2.064881846308708191e-02
2.112280949950218201e-02
-1.846277154982089996e-02
-2.765377797186374664e-02
5.050230398774147034e-02
-4.380053281784057617e-02
2.599382540211081505e-03
-4.007791727781295776e-02
-4.872542247176170349e-02
6.841826438903808594e-02
-7.181997876614332199e-03
-3.334728535264730453e-03
-4.670260101556777954e-02
2.382092736661434174e-02
6.998096406459808350e-02
3.500678762793540955e-02
-9.835314936935901642e-03
4.681750014424324036e-02
3.835605084896087646e-02
3.165931999683380127e-02
1.063298247754573822e-02
8.671574294567108154e-02
-2.780202589929103851e-02
2.129996940493583679e-02
-6.478128023445606232e-03
-1.815080456435680389e-02
3.660934790968894958e-02
-1.241472065448760986e-01
4.543596412986516953e-03
8.781112730503082275e-03
-4.029078409075737000e-02
-4.735692404210567474e-03
-5.740209948271512985e-03
-1.560465712100267410e-02
1.062482502311468124e-02
2.782357297837734222e-02
-3.047421388328075409e-02
-4.190380871295928955e-02
9.665434248745441437e-03
6.085142493247985840e-02
-3.971274942159652710e-02
2.710657194256782532e-02
5.262042977847158909e-04
1.539500313811004162e-03
2.653756365180015564e-02
2.097891177982091904e-03
-1.764293201267719269e-02
1.172580048441886902e-01
6.508050020784139633e-03
3.070652857422828674e-02
-5.669127404689788818e-02
-4.154277592897415161e-02
-5.967994686216115952e-03
2.099907770752906799e-02
-4.613468423485755920e-02
1.681420952081680298e-02
7.203871756792068481e-02
1.108341291546821594e-02
-1.636771112680435181e-02
-3.578416071832180023e-03
-9.497482329607009888e-02
6.957693397998809814e-02
-2.019469626247882843e-02
1.827613264322280884e-02
-1.673133112490177155e-02
7.367612561210989952e-04
-1.768456399440765381e-02
-9.147748351097106934e-02
-4.879194311797618866e-03
2.869427949190139771e-02
-1.762926019728183746e-02
2.532073855400085449e-02
-1.892038248479366302e-02
-1.693578436970710754e-02
-1.009848248213529587e-02
3.486932069063186646e-02
3.606775403022766113e-02
6.831459468230605125e-04
-1.838839054107666016e-02
3.205404058098793030e-02
9.890647977590560913e-02
-9.955602698028087616e-03
-1.590440660947933793e-04
1.667486689984798431e-02
1.209540739655494690e-01
-2.690683864057064056e-02
-1.251325663179159164e-02
1.227507963776588440e-01
-2.114970795810222626e-02
5.117720365524291992e-02
-2.567488700151443481e-02
2.058708108961582184e-02
-1.751817064359784126e-03
-8.877745829522609711e-03
3.417534008622169495e-02
-2.646739827468991280e-03
3.474619239568710327e-02
-1.389853190630674362e-02
1.683099567890167236e-02
1.775832846760749817e-02
4.312000703066587448e-03
7.764107733964920044e-02
1.676414348185062408e-02
3.340836614370346069e-03
4.010491073131561279e-03
-1.524359546601772308e-02
-1.725755445659160614e-02
-8.447187393903732300e-02
6.587352603673934937e-02
-4.493896663188934326e-02
-2.854242362082004547e-02
1.206504739820957184e-02
-3.200727223884314299e-04
-2.625132678076624870e-03
-1.500249933451414108e-02
1.001277472823858261e-02
-3.991880454123020172e-03
2.868663519620895386e-02
-2.573916502296924591e-02
3.299435973167419434e-02
1.008452400565147400e-01
8.064326830208301544e-03
-2.713848464190959930e-02
-2.733875997364521027e-02
5.725079402327537537e-02
-3.387280926108360291e-02
2.949179615825414658e-03
9.727196395397186279e-02
-3.816461190581321716e-02
3.046992979943752289e-02
-1.099302060902118683e-02
-5.709206219762563705e-03
-4.158261418342590332e-02
9.211637079715728760e-03
1.077747419476509094e-01
2.607293054461479187e-02
-1.473761722445487976e-02
3.731672465801239014e-02
2.124236151576042175e-02
1.712385751307010651e-02
2.317757718265056610e-02
6.923598051071166992e-02
-2.094602026045322418e-02
4.582087974995374680e-03
-1.126673421822488308e-03
-1.320109330117702484e-02
2.913197316229343414e-02
-8.134515583515167236e-02
-4.243252333253622055e-03
1.202575210481882095e-02
-5.561120435595512390e-02
-1.189986709505319595e-02
-6.006175186485052109e-03
-1.273780409246683121e-02
1.185653172433376312e-02
-3.779782727360725403e-02
-2.764200232923030853e-02
-3.943207859992980957e-02
9.223606437444686890e-03
3.089602477848529816e-02
6.888028979301452637e-02
7.266538217663764954e-03
-1.692864112555980682e-03
5.944362375885248184e-03
3.993312269449234009e-02
4.249398130923509598e-03
-2.062384970486164093e-02
-2.313027158379554749e-02
9.078511968255043030e-03
-5.513501167297363281e-02
-7.199536263942718506e-02
-3.434508666396141052e-02
-1.004203222692012787e-02
8.131908252835273743e-03
-5.597326532006263733e-02
1.067355833947658539e-02
7.722154259681701660e-02
1.037619076669216156e-02
-2.377665601670742035e-02
2.043857052922248840e-02
-8.719817548990249634e-02
4.974809661507606506e-02
-7.922197692096233368e-03
1.907204650342464447e-02
-5.955583881586790085e-03
1.999055268242955208e-03
-1.443172059953212738e-02
4.470108449459075928e-02
1.258188392966985703e-03
3.251300752162933350e-02
-2.498394809663295746e-02
1.378205791115760803e-02
-1.919616572558879852e-02
-1.672842726111412048e-02
-1.036350615322589874e-02
6.958053261041641235e-02
2.431540377438068390e-02
-3.941892646253108978e-03
-1.623414456844329834e-02
-2.315149456262588501e-02
6.300698220729827881e-02
-5.245738849043846130e-02
-5.539687481359578669e-05
1.817474514245986938e-02
8.872780203819274902e-02
-2.302877232432365417e-02
-1.396227069199085236e-02
-3.792621567845344543e-02
-1.762830652296543121e-02
-6.725885719060897827e-02
-3.464154154062271118e-02
1.893516071140766144e-02
-4.915367811918258667e-03
-1.339331921190023422e-02
3.142947703599929810e-02
-5.075287073850631714e-03
3.624554350972175598e-02
-8.399297483265399933e-03
7.100874092429876328e-03
2.779661864042282104e-02
1.707993797026574612e-03
5.297882109880447388e-02
2.474710904061794281e-02
4.821677226573228836e-03
1.698262244462966919e-02
-1.194876432418823242e-02
-1.199425291270017624e-02
4.744276031851768494e-02
5.678999051451683044e-02
-3.339887037873268127e-02
-3.355495631694793701e-02
5.988883320242166519e-03
8.946289744926616549e-05
-1.028473488986492157e-03
-1.314227655529975891e-02
-1.736519974656403065e-03
-9.060843847692012787e-03
2.545393444597721100e-02
-2.083494141697883606e-02
-2.143315598368644714e-02
6.657736748456954956e-02
-3.264774009585380554e-02
-2.912437915802001953e-02
-2.145805023610591888e-02
4.344781115651130676e-02
-2.683032304048538208e-02
3.097994485870003700e-04
-2.820964343845844269e-02
-3.122841194272041321e-02
-4.313220083713531494e-02
-9.004572406411170959e-03
-7.674807216972112656e-03
-4.013738408684730530e-02
-3.344738157466053963e-03
1.027504652738571167e-01
2.758223749697208405e-02
-1.712807267904281616e-02
3.985713049769401550e-02
1.790958084166049957e-02
4.866398405283689499e-03
2.706080861389636993e-02
5.041043832898139954e-02
-9.984537959098815918e-03
2.533239778131246567e-03
1.339782122522592545e-02
-9.999707341194152832e-03
3.080838359892368317e-02
5.021107196807861328e-02
-2.326976740732789040e-03
1.573064923286437988e-02
-6.199955940246582031e-02
-1.375750545412302017e-02
-5.376797169446945190e-03
-9.269757196307182312e-03
1.056965161114931107e-02
-1.094404980540275574e-01
-2.816363610327243805e-02
-3.988937288522720337e-02
9.456668980419635773e-03
-1.199733279645442963e-02
3.618464618921279907e-02
-4.159887507557868958e-02
-3.781387349590659142e-03
8.438018150627613068e-03
2.674686349928379059e-02
1.020908355712890625e-02
-1.337721943855285645e-02
6.275901943445205688e-02
5.325198173522949219e-03
-3.347709029912948608e-02
6.915004551410675049e-02
-4.796732962131500244e-02
1.363534945994615555e-02
3.723203390836715698e-02
6.370348483324050903e-02
9.909187443554401398e-03
-4.654866829514503479e-02
1.648526079952716827e-02
6.797474343329668045e-03
-1.347490213811397552e-02
3.346143290400505066e-02
-8.662814646959304810e-02
-2.219246141612529755e-02
6.249443977139890194e-04
-2.096715569496154785e-02
2.526119642425328493e-04
-2.157750539481639862e-02
4.816556721925735474e-02
-1.315512042492628098e-02
2.348557859659194946e-02
2.110749483108520508e-02
2.898232825100421906e-02
-1.360192615538835526e-02
-1.034229248762130737e-02
-1.087473984807729721e-02
-8.177869766950607300e-02
4.167189449071884155e-02
1.514973770827054977e-02
-1.434323936700820923e-02
-4.160011932253837585e-02
-1.072789058089256287e-01
4.399494081735610962e-02
9.160798043012619019e-03
1.504010055214166641e-02
5.763977393507957458e-02
-1.157364621758460999e-02
-1.161436922848224640e-02
7.280884683132171631e-02
-1.199260074645280838e-02
-5.340848863124847412e-02
6.108468025922775269e-02
2.023228816688060760e-02
1.618293114006519318e-02
1.082959305495023727e-02
-2.023617364466190338e-02
-5.972464103251695633e-03
-3.830359131097793579e-02
-8.889562450349330902e-03
3.396600484848022461e-02
1.006866898387670517e-02
4.435437545180320740e-02
-7.309529930353164673e-02
1.083405129611492157e-02
3.828402841463685036e-04
-6.724555511027574539e-03
-1.343992631882429123e-02
-2.157483249902725220e-02
1.883894018828868866e-02
5.249129980802536011e-02
-4.685535281896591187e-02
1.427644211798906326e-02
1.504983380436897278e-02
-2.881993772462010384e-03
-7.498320774175226688e-04
-1.780315302312374115e-02
9.572840295732021332e-03
7.485595415346324444e-04
3.757438808679580688e-02
-2.220696769654750824e-02
-3.957670554518699646e-02
-9.926362335681915283e-02
4.607116803526878357e-02
-9.923860430717468262e-03
-2.424724400043487549e-02
4.286189749836921692e-02
-1.258969213813543320e-02
5.548787303268909454e-03
6.239671260118484497e-02
-2.138624340295791626e-02
-3.225078433752059937e-02
1.908518373966217041e-02
1.826466905185952783e-05
-1.385259814560413361e-02
3.468489646911621094e-02
-9.165463596582412720e-02
2.425419539213180542e-02
3.579726209864020348e-03
4.158649593591690063e-02
3.458008542656898499e-02
3.831476345658302307e-02
-1.811723969876766205e-02
-5.227658152580261230e-02
-2.394049614667892456e-02
8.971882984042167664e-03
-1.373571157455444336e-02
-5.890213418751955032e-03
1.773432083427906036e-02
-2.010998316109180450e-03
-1.030432153493165970e-02
5.165574140846729279e-03
3.233012184500694275e-02
-1.037037745118141174e-02
-1.581887481734156609e-04
-5.282955709844827652e-03
8.218000642955303192e-03
1.062700152397155762e-01
-1.984627544879913330e-02
-2.957113459706306458e-02
1.080036256462335587e-02
-4.122225195169448853e-02
-1.227335929870605469e-01
5.308884754776954651e-02
8.051009499467909336e-04
1.400136388838291168e-03
1.303244289010763168e-02
1.227945834398269653e-02
-1.685755699872970581e-02
-8.862032741308212280e-02
9.987707249820232391e-03
-3.936068341135978699e-02
7.436230778694152832e-02
-6.079449877142906189e-02
1.194897759705781937e-02
4.831592738628387451e-02
2.660246007144451141e-02
1.153715699911117554e-02
-3.361293673515319824e-02
1.967483200132846832e-02
7.020264863967895508e-03
1.077098585665225983e-02
1.582526229321956635e-02
-1.096524298191070557e-01
-2.925634756684303284e-02
1.479470729827880859e-02
-2.822408080101013184e-02
1.767311710864305496e-03
-2.955214679241180420e-02
1.590108573436737061e-01
4.979745950549840927e-03
3.511356934905052185e-02
1.728591974824666977e-03
5.489500239491462708e-02
-1.720165461301803589e-02
-1.326666120439767838e-02
-1.364005170762538910e-02
-4.586716741323471069e-02
6.201563775539398193e-02
1.006135623902082443e-02
-2.315678820013999939e-02
5.248763412237167358e-02
-3.060784004628658295e-02
3.133781952783465385e-03
3.894918365404009819e-03
1.291505061089992523e-02
6.228146329522132874e-02
-1.869697682559490204e-02
-1.207043230533599854e-02
-1.022732257843017578e-01
-1.654177345335483551e-02
-3.926667571067810059e-02
6.963142752647399902e-02
2.361938729882240295e-02
1.103048305958509445e-02
1.471439097076654434e-02
-2.114927209913730621e-02
-2.025188645347952843e-03
-3.068447858095169067e-02
-3.392206504940986633e-03
4.233805090188980103e-02
2.634824067354202271e-02
5.131654441356658936e-02
-9.483604878187179565e-02
8.050375618040561676e-03
1.061865687370300293e-02
-7.472934201359748840e-03
-1.499351579695940018e-02
-2.513969317078590393e-02
1.364518851041793823e-01
7.894397526979446411e-02
-4.984569177031517029e-02
-8.821815252304077148e-03
3.041771054267883301e-02
-3.957965411245822906e-03
-2.437205519527196884e-03
-1.939399540424346924e-02
3.003089502453804016e-02
2.891022246330976486e-03
3.478673845529556274e-02
-2.798296324908733368e-02
5.335590243339538574e-02
-2.125634253025054932e-02
1.190495025366544724e-02
-1.921859569847583771e-02
-3.146631270647048950e-02
5.246489495038986206e-02
-2.428473532199859619e-02
8.360695093870162964e-03
-8.325459808111190796e-02
-3.075619600713253021e-02
-4.672465845942497253e-02
4.235087707638740540e-02
4.908062051981687546e-03
-2.687614038586616516e-02
3.939632326364517212e-02
-6.521492451429367065e-02
3.534254059195518494e-02
7.358783022937132046e-07
5.594473332166671753e-02
4.878626763820648193e-02
3.701195120811462402e-02
-6.225972436368465424e-03
-7.341819256544113159e-02
-3.448076173663139343e-02
2.069038152694702148e-02
-1.225312706083059311e-02
-9.560337290167808533e-03
2.608206123113632202e-02
1.212840974330902100e-01
4.902481567114591599e-03
7.442792411893606186e-03
6.047847215086221695e-03
-3.097899956628680229e-03
-4.421229939907789230e-03
-1.011614222079515457e-02
1.170850545167922974e-02
1.046480685472488403e-01
-2.998152188956737518e-02
-4.086328670382499695e-02
1.417344622313976288e-02
5.111575871706008911e-02
-4.175503551959991455e-02
1.752305775880813599e-02
-9.886514162644743919e-04
1.097531057894229889e-03
2.611631341278553009e-02
1.386561989784240723e-02
-1.729981973767280579e-02
-4.073745012283325195e-02
1.431342773139476776e-02
9.901991486549377441e-02
-1.547283958643674850e-02
-5.299923568964004517e-02
6.848635617643594742e-03
4.816490784287452698e-02
-1.077488064765930176e-02
7.165422663092613220e-03
-2.144069410860538483e-02
1.685441657900810242e-02
2.515103900805115700e-03
2.950050309300422668e-02
-1.389858219772577286e-02
-8.957758545875549316e-02
-2.798842452466487885e-02
2.198140695691108704e-02
-1.411621179431676865e-02
2.036128658801317215e-03
-2.821705304086208344e-02
2.607502229511737823e-02
1.177129242569208145e-02
4.056246578693389893e-02
-1.171598117798566818e-02
5.862680450081825256e-02
-1.734950765967369080e-02
-1.219254266470670700e-02
-1.306519005447626114e-02
7.785702589899301529e-03
6.129160895943641663e-02
-1.901541370898485184e-03
-2.173911221325397491e-02
6.591691821813583374e-02
1.191630139946937561e-01
-3.405659645795822144e-02
1.206719316542148590e-03
1.070272177457809448e-02
4.210233688354492188e-02
-2.140220627188682556e-02
-1.186420302838087082e-02
-5.021727085113525391e-02
-1.659652590751647949e-02
1.343418061733245850e-01
-4.038649145513772964e-03
2.991682104766368866e-02
4.912947304546833038e-03
1.360187400132417679e-02
1.541192876175045967e-03
-6.790427491068840027e-03
-2.931774966418743134e-02
-5.637302529066801071e-03
3.557713329792022705e-02
3.039495460689067841e-02
4.586964100599288940e-02
-7.636191695928573608e-02
1.035166066139936447e-02
1.291542593389749527e-02
1.066107116639614105e-02
-1.541931275278329849e-02
-2.384636364877223969e-02
2.104771509766578674e-02
7.892159372568130493e-02
-4.912208020687103271e-02
-1.963073946535587311e-02
3.251814469695091248e-02
-2.723848680034279823e-03
-7.652157219126820564e-04
-1.895759440958499908e-02
8.830159902572631836e-03
-2.549471799284219742e-03
2.631901018321514130e-02
-2.677243947982788086e-02
6.579882651567459106e-02
1.068478450179100037e-01
-2.349300123751163483e-02
-2.401446923613548279e-02
-3.500756248831748962e-02
4.181012138724327087e-02
-2.706310898065567017e-02
6.611390039324760437e-03
-4.932828247547149658e-02
-3.106179647147655487e-02
9.186653047800064087e-02
-1.889678835868835449e-02
8.087038062512874603e-03
-3.686012700200080872e-02
3.537051379680633545e-02
1.494494546204805374e-02
3.625121340155601501e-02
-1.708565652370452881e-02
5.461949855089187622e-02
4.765498638153076172e-02
1.169557031244039536e-02
1.266287360340356827e-02
-5.658067762851715088e-02
-3.396620228886604309e-02
2.372575365006923676e-02
5.844451952725648880e-03
-1.070334017276763916e-02
2.901584841310977936e-02
7.251427974551916122e-03
5.370987113565206528e-03
7.841334678232669830e-03
-1.093588210642337799e-02
-1.916455104947090149e-03
-6.618848070502281189e-03
-9.818912483751773834e-03
1.082355901598930359e-02
-5.240594968199729919e-03
-4.035396873950958252e-02
-5.296742916107177734e-02
1.351964287459850311e-02
6.587067246437072754e-02
8.077640831470489502e-02
-1.997358351945877075e-02
8.155744872055947781e-04
1.137880259193480015e-03
2.271515876054763794e-02
1.570556685328483582e-02
-1.500217430293560028e-02
1.519740521907806396e-01
1.909927278757095337e-02
4.280345141887664795e-02
-6.594502180814743042e-02
-4.235339537262916565e-02
5.427910480648279190e-03
3.154638782143592834e-02
-1.648057065904140472e-02
7.068201899528503418e-03
-1.621916773729026318e-03
1.866856589913368225e-02
-9.246766567230224609e-03
5.493557453155517578e-02
-5.699725821614265442e-02
-6.279357522726058960e-02
-2.483046054840087891e-02
1.593322865664958954e-02
-1.179123949259519577e-02
2.162461401894688606e-03
-2.339971810579299927e-02
-9.998440742492675781e-02
-2.766843186691403389e-03
3.307268396019935608e-02
-2.513473853468894958e-02
3.079675137996673584e-02
-1.777219213545322418e-02
-1.225702930241823196e-02
-9.834917262196540833e-03
4.169037938117980957e-02
3.852728381752967834e-02
-1.045917160809040070e-02
-1.615919359028339386e-02
-4.654435068368911743e-02
9.771626442670822144e-02
-4.457584023475646973e-02
-4.925345419906079769e-04
1.002808660268783569e-02
1.484479848295450211e-02
-1.700517535209655762e-02
-9.878348559141159058e-03
1.519424617290496826e-01
-1.006164960563182831e-02
6.221011653542518616e-02
-3.428025171160697937e-02
3.287342190742492676e-02
4.767649341374635696e-03
6.925717927515506744e-03
3.387226164340972900e-02
-9.934223257005214691e-03
-1.704390160739421844e-02
-6.127822212874889374e-03
1.832419261336326599e-02
4.147006571292877197e-02
2.036550827324390411e-02
-5.293317139148712158e-02
1.179641485214233398e-02
4.579372704029083252e-03
1.467371545732021332e-02
-1.330658700317144394e-02
-2.232122793793678284e-02
-9.750368446111679077e-02
5.472505837678909302e-02
-4.728290438652038574e-02
-3.450252860784530640e-02
1.724663749337196350e-02
-2.060332568362355232e-03
1.276728144148364663e-04
-1.650660485029220581e-02
-1.870995765784755349e-04
-7.313654758036136627e-03
2.494278177618980408e-02
-2.382310479879379272e-02
-4.498112201690673828e-02
8.571834862232208252e-02
-3.101179748773574829e-02
-2.990726381540298462e-02
-3.387244418263435364e-02
3.105011023581027985e-02
-1.906334981322288513e-02
6.487476173788309097e-03
1.267772763967514038e-01
-2.195937559008598328e-02
4.321212321519851685e-02
-2.232694067060947418e-02
6.417731288820505142e-03
-3.679443523287773132e-02
2.312185987830162048e-02
8.231797069311141968e-02
2.847733162343502045e-02
-2.158331684768199921e-02
4.568919539451599121e-02
2.732630632817745209e-02
-7.561590988188982010e-03
1.914047263562679291e-02
-3.130451962351799011e-02
-2.708371356129646301e-02
1.048096269369125366e-02
1.287986896932125092e-02
-7.497029844671487808e-03
2.276994101703166962e-02
-1.062668710947036743e-01
-6.969246082007884979e-03
1.227193698287010193e-02
-3.527756780385971069e-02
-9.832232259213924408e-03
-6.974434014409780502e-03
-7.104631513357162476e-03
1.123605109751224518e-02
-7.739114761352539062e-02
-3.842714428901672363e-02
-4.828977584838867188e-02
1.239486131817102432e-02
-3.126613423228263855e-02
6.333743780851364136e-02
-3.657064214348793030e-02
1.016033929772675037e-03
6.789020728319883347e-03
1.987739466130733490e-02
1.657326892018318176e-02
-1.918789744377136230e-02
-4.208382964134216309e-02
2.132063359022140503e-02
-5.765823647379875183e-02
-8.929703384637832642e-02
-3.552353382110595703e-02
-1.218265155330300331e-03
2.094587869942188263e-02
-3.106436692178249359e-02
6.602724315598607063e-04
1.588493213057518005e-02
1.771212555468082428e-02
-1.895953901112079620e-02
5.767263099551200867e-02
-7.116088271141052246e-02
-4.284787178039550781e-02
-1.677767373621463776e-02
2.108193188905715942e-02
7.770907832309603691e-04
-3.014827962033450603e-04
-2.151752635836601257e-02
-4.553385823965072632e-02
-1.109222183004021645e-03
3.550105914473533630e-02
-4.668212682008743286e-02
2.143924869596958160e-02
-2.013854868710041046e-02
-1.338418945670127869e-02
-1.227462198585271835e-02
7.059090584516525269e-02
2.894677780568599701e-02
-1.549320947378873825e-02
-1.427179016172885895e-02
-9.897442534565925598e-03
-5.207378044724464417e-02
-7.818666100502014160e-02
-4.808727651834487915e-03
4.262364003807306290e-03
-2.533848024904727936e-02
-1.365054026246070862e-02
-1.207877416163682938e-02
-5.863288417458534241e-02
-5.799761973321437836e-03
-7.070123404264450073e-02
-5.156464129686355591e-02
2.917998097836971283e-02
-5.986345349811017513e-04
2.797628752887248993e-03
4.829511046409606934e-02
-1.323963887989521027e-02
-7.572829723358154297e-03
-1.125446287915110588e-03
6.708260625600814819e-03
3.560939058661460876e-02
7.851354777812957764e-03
-4.010462388396263123e-02
1.770038902759552002e-02
8.378607220947742462e-03
2.718774974346160889e-02
-1.346233300864696503e-02
-1.814975216984748840e-02
-4.505790770053863525e-02
4.147851839661598206e-02
-3.713247552514076233e-02
-5.189196765422821045e-02
1.266160141676664352e-02
-2.611120929941534996e-03
1.064402982592582703e-03
-1.632669009268283844e-02
-1.000147685408592224e-02
-1.015034224838018417e-02
2.010317705571651459e-02
-1.910625956952571869e-02
-1.068096049129962921e-02
-4.268051311373710632e-02
-6.226477399468421936e-02
-3.476130589842796326e-02
-3.374868631362915039e-02
1.940359012223780155e-03
-1.249227952212095261e-02
3.588499967008829117e-03
-5.012236908078193665e-02
-1.405685581266880035e-02
-4.330968856811523438e-02
-2.428163774311542511e-02
1.595865353010594845e-03
-3.855620697140693665e-02
1.126404851675033569e-02
1.153058260679244995e-01
2.879467792809009552e-02
-2.318213135004043579e-02
4.851262271404266357e-02
2.177631855010986328e-02
-2.559272758662700653e-02
1.996274478733539581e-02
-2.402705512940883636e-02
-1.808173395693302155e-02
1.085212081670761108e-02
2.673540264368057251e-02
-7.134459447115659714e-03
2.278447896242141724e-02
-4.744390770792961121e-02
-8.079346269369125366e-03
1.446023304015398026e-02
-5.419823154807090759e-02
-9.943048469722270966e-03
-6.755541544407606125e-03
-4.000591114163398743e-03
8.818873204290866852e-03
-1.333779543638229370e-01
-3.739128634333610535e-02
-4.881404712796211243e-02
1.267994660884141922e-02
3.852546447888016701e-03
-3.659686446189880371e-02
-7.777956873178482056e-02
-4.911749158054590225e-03
3.388649784028530121e-03
2.248434902867302299e-04
1.238303817808628082e-02
-1.395217515528202057e-02
5.263241752982139587e-02
6.563042290508747101e-03
-3.391693159937858582e-02
6.648658961057662964e-02
-4.056260734796524048e-02
2.066231705248355865e-02
2.138219960033893585e-02
7.887082546949386597e-02
1.009645313024520874e-02
-4.590835049748420715e-02
1.476640161126852036e-02
7.525988854467868805e-03
4.615756683051586151e-03
5.595950782299041748e-02
-6.447791587561368942e-03
-1.262061484158039093e-02
-1.216569263488054276e-02
-2.450900524854660034e-02
-4.943998646922409534e-04
-2.187864668667316437e-02
-6.936447322368621826e-02
-5.851312540471553802e-03
1.037935819476842880e-02
3.251989558339118958e-02
7.899058982729911804e-03
-1.230174209922552109e-02
-8.885024115443229675e-03
-1.135390251874923706e-02
-5.192499980330467224e-02
1.565850712358951569e-02
-4.491436760872602463e-03
-1.401095930486917496e-02
6.909703835844993591e-03
-3.462614491581916809e-02
3.696135058999061584e-02
3.502163570374250412e-03
1.820032834075391293e-03
-3.188833221793174744e-02
-7.541478145867586136e-03
-1.153173949569463730e-02
6.476482748985290527e-02
-6.772505119442939758e-03
-5.303009226918220520e-02
5.713132396340370178e-02
2.388505637645721436e-02
2.070483379065990448e-02
6.792202126234769821e-03
-8.641207590699195862e-03
-4.093951545655727386e-03
-2.667151205241680145e-02
-5.340597592294216156e-03
2.053997851908206940e-02
6.173932924866676331e-03
2.154141850769519806e-02
-9.071136824786663055e-03
8.767692372202873230e-03
-7.963805459439754486e-03
-2.976346295326948166e-03
-1.150430459529161453e-02
-2.342341840267181396e-02
-9.265265613794326782e-02
3.628769144415855408e-02
-5.064379423856735229e-02
2.431649155914783478e-02
5.303918849676847458e-03
-4.999742843210697174e-03
-1.220699632540345192e-03
-1.822957955300807953e-02
2.162420190870761871e-02
-1.132663898169994354e-02
3.223659843206405640e-02
-1.982120983302593231e-02
5.879436153918504715e-03
-2.715850062668323517e-02
3.216639533638954163e-02
-1.485714688897132874e-02
-3.101742453873157501e-02
1.808057539165019989e-02
-4.336585756391286850e-03
3.398177446797490120e-03
5.631053447723388672e-02
-1.076784078031778336e-02
-3.057086840271949768e-02
1.355915889143943787e-02
-2.237824024632573128e-03
-2.189795486629009247e-03
2.360958606004714966e-02
-8.910604566335678101e-02
2.688740193843841553e-02
3.140645846724510193e-02
3.214845061302185059e-02
2.148680388927459717e-02
1.184238586574792862e-02
-3.552474081516265869e-02
-2.613255637697875500e-04
-2.127331681549549103e-02
-8.531293133273720741e-04
-8.625761605799198151e-03
-3.529093693941831589e-03
9.277152828872203827e-03
-8.463960886001586914e-02
-1.226373016834259033e-02
4.745309706777334213e-03
6.658336520195007324e-02
-1.612411811947822571e-02
-2.399617573246359825e-03
-3.802217077463865280e-03
4.432550165802240372e-03
1.040684208273887634e-01
-2.806938812136650085e-02
-3.316719830036163330e-02
8.433458395302295685e-03
1.099720364436507225e-03
-5.364537611603736877e-02
3.025914169847965240e-02
2.054531360045075417e-04
8.717333548702299595e-04
6.849010009318590164e-03
1.428866293281316757e-02
-1.756723783910274506e-02
-9.700278937816619873e-02
1.038975082337856293e-02
-4.344438388943672180e-02
6.947685033082962036e-02
-4.807042330503463745e-02
1.819743961095809937e-02
3.371502459049224854e-02
4.777894169092178345e-02
1.066046953201293945e-02
-3.327881544828414917e-02
1.598797738552093506e-02
4.375429358333349228e-03
2.404421195387840271e-02
5.051025003194808960e-02
-2.775644697248935699e-02
-1.960405148565769196e-02
5.390119738876819611e-03
-2.817614562809467316e-02
-1.215638592839241028e-03
-2.898992411792278290e-02
5.606772378087043762e-02
1.145358290523290634e-02
2.173816226422786713e-02
2.719074487686157227e-02
3.359268978238105774e-02
-1.552500296384096146e-02
-1.175747532397508621e-02
-1.535417139530181885e-02
-2.849793620407581329e-02
3.750242292881011963e-02
-8.943575434386730194e-03
-2.173221483826637268e-02
4.898634180426597595e-02
9.060907363891601562e-02
2.931297349277883768e-04
1.168330432847142220e-03
1.236916868947446346e-03
-6.421006470918655396e-02
-1.314431615173816681e-02
-1.149480044841766357e-02
-1.036643013358116150e-01
-9.694359265267848969e-03
-4.394246265292167664e-02
6.609219312667846680e-02
3.136806562542915344e-02
1.467025000602006912e-02
1.295454241335391998e-02
-3.501448780298233032e-02
-1.350346487015485764e-03
-1.750235073268413544e-02
-2.408039988949894905e-03
2.556764148175716400e-02
1.418866589665412903e-02
3.606484830379486084e-02
-2.961859479546546936e-02
4.545033443719148636e-03
6.696805357933044434e-03
-2.466137520968914032e-04
-1.498914230614900589e-02
-2.575483545660972595e-02
2.767952345311641693e-02
6.071838736534118652e-02
-5.242471396923065186e-02
1.787597127258777618e-02
2.218542248010635376e-02
-5.867007654160261154e-03
-2.821807749569416046e-03
-2.035748586058616638e-02
2.032045461237430573e-02
-6.732889451086521149e-03
3.048630990087985992e-02
-2.395129390060901642e-02
5.044648796319961548e-02
8.823782205581665039e-02
1.213615527376532555e-03
-2.051864005625247955e-02
-3.553123772144317627e-02
-6.382231600582599640e-03
-1.295779179781675339e-02
5.717309657484292984e-03
-8.339471369981765747e-02
-1.649809628725051880e-02
-4.731599241495132446e-02
3.980639949440956116e-02
5.499328486621379852e-03
-1.556935627013444901e-02
3.023969940841197968e-02
-1.089498996734619141e-01
3.683434799313545227e-02
3.628641739487648010e-02
4.393431171774864197e-02
3.241510689258575439e-02
-6.377489771693944931e-03
-2.561874687671661377e-02
-1.769568957388401031e-02
-3.228603303432464600e-02
1.504990831017494202e-02
-3.214628435671329498e-03
-8.916635066270828247e-03
1.627993211150169373e-02
4.127506911754608154e-02
1.431748154573142529e-03
8.578786626458168030e-03
5.648057907819747925e-02
-7.604808080941438675e-03
-7.079712115228176117e-03
-8.285385556519031525e-03
6.159412674605846405e-03
6.856738030910491943e-02
-3.481319174170494080e-02
-4.080499708652496338e-02
1.204242091625928879e-02
5.244603753089904785e-02
5.764978379011154175e-02
-1.886848476715385914e-03
2.091976115480065346e-03
3.083154559135437012e-03
-3.985038492828607559e-03
1.662395149469375610e-02
-1.780901290476322174e-02
-4.049548879265785217e-02
1.515021082013845444e-02
7.066415250301361084e-02
8.246484212577342987e-04
-4.084153100848197937e-02
1.365152653306722641e-02
3.421480581164360046e-02
1.555510144680738449e-02
6.723561324179172516e-03
-2.919200807809829712e-02
1.679196767508983612e-02
1.086418284103274345e-03
3.329210355877876282e-02
3.553160279989242554e-02
-4.036071151494979858e-02
-1.830090209841728210e-02
1.340380497276782990e-02
-1.556778047233819962e-02
-6.605953094549477100e-04
-2.894747070968151093e-02
1.317125111818313599e-01
1.864019222557544708e-02
2.703452482819557190e-02
2.460345812141895294e-02
3.586315736174583435e-02
-1.421811338514089584e-02
-8.166696876287460327e-03
-1.573193073272705078e-02
1.043013110756874084e-02
3.871600329875946045e-02
-1.565733924508094788e-02
-2.063564024865627289e-02
-4.281237348914146423e-02
1.106371879577636719e-01
-1.740529201924800873e-02
-2.952124923467636108e-03
-1.807908527553081512e-03
-8.312837779521942139e-02
-1.379662100225687027e-02
-1.114447042346000671e-02
-4.698564484715461731e-02
-7.556981407105922699e-03
1.038496866822242737e-01
1.166464108973741531e-02
3.660959750413894653e-02
8.993248455226421356e-03
1.225372031331062317e-02
-3.406439721584320068e-02
-5.969712510704994202e-03
-2.022695727646350861e-02
-1.575335627421736717e-03
1.977226324379444122e-02
1.084574405103921890e-02
4.318987578153610229e-02
-4.140436276793479919e-02
6.732470821589231491e-03
1.037985738366842270e-02
1.449831202626228333e-02
-1.542259007692337036e-02
-2.570117078721523285e-02
1.130612120032310486e-01
6.075709685683250427e-02
-5.203115567564964294e-02
1.900238357484340668e-02
2.268131822347640991e-02
-3.913105931133031845e-03
9.999349713325500488e-04
-2.074326388537883759e-02
-9.510912932455539703e-03
-1.022532861679792404e-02
2.632296271622180939e-02
-2.268024906516075134e-02
-4.198579862713813782e-02
9.519923478364944458e-02
-1.521726697683334351e-02
-2.553584426641464233e-02
-3.896965831518173218e-02
-1.499403826892375946e-02
-1.261476706713438034e-02
4.829789977520704269e-03
-4.312616214156150818e-02
-1.337581872940063477e-02
6.247282028198242188e-02
-3.403726732358336449e-03
8.883139118552207947e-03
-2.496943250298500061e-02
2.752798050642013550e-02
-6.469540297985076904e-02
3.728078678250312805e-02
2.110390178859233856e-02
4.587124288082122803e-02
3.262377902865409851e-02
-3.557625412940979004e-02
-5.219750106334686279e-03
-3.102333843708038330e-02
-3.171878308057785034e-02
2.086216397583484650e-02
1.192841865122318268e-02
-9.611552581191062927e-03
1.760981418192386627e-02
1.113044619560241699e-01
4.001744557172060013e-03
8.031960576772689819e-03
5.044976249337196350e-02
-7.784659042954444885e-03
-8.341339416801929474e-03
-5.353539250791072845e-03
5.115803331136703491e-03
-4.593218117952346802e-02
-4.277590289711952209e-02
-4.540698975324630737e-02
1.223199162632226944e-02
-3.031277656555175781e-02
7.308100908994674683e-02
-2.043458446860313416e-02
3.846254432573914528e-03
3.075016196817159653e-03
-4.043155815452337265e-03
1.648209616541862488e-02
-1.715121604502201080e-02
1.256778687238693237e-01
1.848527602851390839e-02
2.975302748382091522e-02
-5.455073714256286621e-02
-3.129335865378379822e-02
1.160002499818801880e-02
1.975308172404766083e-02
2.210208447650074959e-03
6.660314276814460754e-03
-1.106673106551170349e-02
1.824126206338405609e-02
-1.048364117741584778e-02
5.099136009812355042e-02
-8.974122814834117889e-03
-4.448100179433822632e-02
-1.771464757621288300e-02
1.173586677759885788e-02
-1.414506416767835617e-02
-3.066394478082656860e-03
-2.199529111385345459e-02
1.763082481920719147e-02
2.494463231414556503e-03
2.100129425525665283e-02
7.794636767357587814e-03
1.246339641511440277e-02
-1.575662195682525635e-02
-1.021234691143035889e-02
-1.346884015947580338e-02
4.365855827927589417e-02
1.965142972767353058e-02
-2.422313764691352844e-02
-1.641988754272460938e-02
-4.603570327162742615e-02
-4.174904525279998779e-02
-2.252160757780075073e-02
-3.855506423860788345e-03
-2.875665901228785515e-03
-8.708778023719787598e-02
-1.086514163762331009e-02
-1.075813453644514084e-02
1.255888342857360840e-01
-1.719115185551345348e-03
4.877682775259017944e-02
-2.860399708151817322e-02
3.939155489206314087e-02
7.628755178302526474e-03
6.038601975888013840e-03
-8.510223589837551117e-03
-8.837936446070671082e-03
-1.091611012816429138e-02
-2.525256015360355377e-03
4.701988305896520615e-03
2.025089412927627563e-02
2.307826094329357147e-02
-4.493392258882522583e-02
7.002013269811868668e-03
5.749663338065147400e-03
1.618079841136932373e-02
-1.598662324249744415e-02
-2.109463885426521301e-02
1.698770932853221893e-02
3.695891052484512329e-02
-4.941477626562118530e-02
1.279020449146628380e-03
1.027442794293165207e-02
-4.038331098854541779e-03
2.307360991835594177e-04
-1.937380991876125336e-02
-3.391560399904847145e-03
-1.369873061776161194e-02
2.311887219548225403e-02
-2.137727290391921997e-02
-4.724464938044548035e-02
-3.931667655706405640e-02
-1.994437165558338165e-02
-2.937690727412700653e-02
-3.792060539126396179e-02
-8.670790120959281921e-03
-6.759853567928075790e-03
3.193347016349434853e-03
1.062530279159545898e-01
-5.549694411456584930e-03
2.808759734034538269e-02
-1.682424359023571014e-02
7.882454432547092438e-03
-2.805329114198684692e-02
1.748081482946872711e-02
-1.277614617720246315e-03
3.035316430032253265e-02
1.487179566174745560e-02
3.817893937230110168e-02
1.466668024659156799e-02
-4.501655325293540955e-02
4.309947136789560318e-03
-3.274206072092056274e-02
-2.697288058698177338e-02
1.262895762920379639e-02
1.586396060883998871e-02
-8.770843967795372009e-03
1.486335787922143936e-02
1.162041816860437393e-02
-8.054394274950027466e-03
1.207515317946672440e-02
2.625715732574462891e-02
-1.377077586948871613e-02
-9.393821470439434052e-03
-4.336774814873933792e-03
4.589783493429422379e-03
-8.651706576347351074e-02
-4.150300845503807068e-02
-4.098956659436225891e-02
9.782046079635620117e-03
-3.341429308056831360e-02
-3.179089725017547607e-02
-3.330707922577857971e-02
5.665105767548084259e-03
8.358570747077465057e-03
7.319630589336156845e-03
1.514839567244052887e-02
-2.035384066402912140e-02
-3.904985263943672180e-02
1.802616938948631287e-02
-4.516996070742607117e-02
-7.170050591230392456e-02
-2.410531416535377502e-02
2.730977023020386696e-03
9.294621646404266357e-03
-8.194401860237121582e-03
-2.577225212007761002e-03
-3.834999632090330124e-03
1.588089019060134888e-02
-1.870233565568923950e-02
3.587832674384117126e-02
-2.292157709598541260e-02
-3.538493067026138306e-02
-1.348510757088661194e-02
1.774791814386844635e-02
-2.813258906826376915e-03
-6.971358787268400192e-03
-2.175290510058403015e-02
-4.715806990861892700e-02
1.466349232941865921e-03
2.128921076655387878e-02
-1.288305129855871201e-02
4.797364119440317154e-03
-1.826660521328449249e-02
-1.139883883297443390e-02
-1.593241095542907715e-02
7.103312015533447266e-02
1.185442321002483368e-02
-2.530316263437271118e-02
-1.317182462662458420e-02
4.667795076966285706e-02
-1.280971467494964600e-01
-3.554486110806465149e-02
-9.133927524089813232e-03
-1.056077983230352402e-02
-8.280351012945175171e-02
-9.312526322901248932e-03
-1.253717392683029175e-02
-5.737915262579917908e-02
4.045647219754755497e-04
-5.560171231627464294e-02
-4.043007269501686096e-02
3.571167588233947754e-02
3.041276941075921059e-04
6.947676884010434151e-04
1.909521967172622681e-02
-1.588205248117446899e-02
-1.200778502970933914e-02
2.807583077810704708e-04
-5.622582510113716125e-03
5.531480535864830017e-03
1.953687891364097595e-02
-3.607938066124916077e-02
1.130040735006332397e-02
9.287099353969097137e-03
2.551490254700183868e-02
-1.776370964944362640e-02
-1.919903233647346497e-02
-3.814025595784187317e-02
2.187206968665122986e-02
-4.217793419957160950e-02
-1.334204524755477905e-02
6.001431029289960861e-03
-4.955390933901071548e-03
9.171981364488601685e-04
-1.962733082473278046e-02
2.869563642889261246e-03
-1.576509326696395874e-02
2.006595209240913391e-02
-1.602916046977043152e-02
3.856526315212249756e-02
-1.060034111142158508e-01
-3.229966759681701660e-02
-3.449254110455513000e-02
-3.948406875133514404e-02
-4.614224308170378208e-04
-1.782060717232525349e-03
1.081477501429617405e-03
-4.361500218510627747e-02
5.878060474060475826e-04
-3.301705047488212585e-02
-1.404079515486955643e-02
3.465237794443964958e-03
-3.281801939010620117e-02
4.579167347401380539e-03
6.486849486827850342e-02
2.571496553719043732e-02
3.307383973151445389e-03
3.930605575442314148e-02
9.422373026609420776e-03
-5.656466633081436157e-02
1.519361324608325958e-02
-3.291015326976776123e-02
-1.933960989117622375e-02
1.247850526124238968e-02
2.527637779712677002e-02
-9.159088134765625000e-03
1.326532009989023209e-02
-3.733300417661666870e-02
-1.102825719863176346e-02
1.081371121108531952e-02
8.877770043909549713e-03
-1.394590921700000763e-02
-8.818231523036956787e-03
-1.186772715300321579e-03
2.208436606451869011e-03
-1.047499924898147583e-01
-3.987425565719604492e-02
-3.835484012961387634e-02
1.075816061347723007e-02
4.498103260993957520e-02
-7.032902538776397705e-02
-5.571192502975463867e-02
-7.702718139626085758e-04
3.162881825119256973e-03
2.073583006858825684e-02
1.878344826400279999e-02
-1.221954729408025742e-02
3.881659731268882751e-02
1.157343294471502304e-02
-1.338619459420442581e-02
4.553102701902389526e-02
-3.058747388422489166e-02
2.163436263799667358e-02
1.539713423699140549e-02
8.981779962778091431e-02
-3.063911804929375648e-03
-6.158353388309478760e-02
1.191542670130729675e-02
9.670050814747810364e-03
1.315540913492441177e-02
5.827332660555839539e-02
2.227512560784816742e-02
-1.197868958115577698e-02
-3.615203499794006348e-02
-2.377697825431823730e-02
8.015731000341475010e-04
-2.498721890151500702e-02
-3.936594352126121521e-02
3.457298036664724350e-03
1.096734404563903809e-02
1.894779130816459656e-02
1.024629455059766769e-03
-1.208165474236011505e-02
-7.032199297100305557e-03
-1.269982289522886276e-02
-2.522727288305759430e-02
1.570090092718601227e-02
-1.551906857639551163e-02
-1.336032804101705551e-02
1.373509131371974945e-02
1.791307888925075531e-02
-1.126458216458559036e-02
8.518560935044661164e-05
-7.653411477804183960e-03
-6.031808257102966309e-02
-1.959196757525205612e-03
-7.393558509647846222e-03
5.194144323468208313e-02
-1.593548455275595188e-03
-2.699027210474014282e-02
4.160965979099273682e-02
3.248424828052520752e-02
2.395221590995788574e-02
1.594148762524127960e-02
3.010162152349948883e-02
-8.398635312914848328e-03
-3.201008215546607971e-02
7.694780360907316208e-04
1.445947494357824326e-02
-1.252834568731486797e-03
-3.723307978361845016e-03
2.198381721973419189e-02
5.220598075538873672e-03
-2.296653948724269867e-02
4.441904369741678238e-03
-6.930652540177106857e-03
-2.614013664424419403e-02
-4.017196595668792725e-02
2.075328864157199860e-02
-4.031153395771980286e-02
1.536630908958613873e-03
2.540498040616512299e-03
-6.056283600628376007e-03
3.257854550611227751e-04
-1.686690934002399445e-02
2.152210474014282227e-02
-7.585199549794197083e-03
3.085837326943874359e-02
-1.573038101196289062e-02
1.071192510426044464e-02
2.308469824492931366e-02
-2.159035578370094299e-02
-1.603894867002964020e-02
-2.924424782395362854e-02
2.999887056648731232e-02
5.914506502449512482e-03
8.355719968676567078e-03
4.610470682382583618e-02
7.762479945085942745e-04
-9.471252560615539551e-03
-8.238542824983596802e-03
9.993769228458404541e-03
8.348586969077587128e-03
2.584193274378776550e-02
-5.290423706173896790e-02
2.483767084777355194e-02
2.975855767726898193e-02
2.922653593122959137e-02
2.028706111013889313e-02
-1.853746734559535980e-02
-4.686351493000984192e-02
2.354603819549083710e-02
-2.055313624441623688e-02
-1.439420040696859360e-02
3.771526040509343147e-03
2.573415637016296387e-03
2.400525700068101287e-04
-2.577211521565914154e-02
-1.106228120625019073e-02
9.648514911532402039e-03
5.114655941724777222e-02
-1.718266308307647705e-02
-3.628815291449427605e-03
3.752721240743994713e-04
4.874986130744218826e-03
7.708565145730972290e-02
-2.350398711860179901e-02
-3.147721663117408752e-02
1.307001616805791855e-02
1.000243984162807465e-02
1.027781330049037933e-02
-3.543028235435485840e-02
4.506981931626796722e-04
3.692769678309559822e-03
2.917551063001155853e-02
2.065328136086463928e-02
-1.713942363858222961e-02
-6.925093382596969604e-02
1.495730783790349960e-02
-7.006487343460321426e-03
4.820510745048522949e-02
-4.029878973960876465e-02
1.958722621202468872e-02
2.877723798155784607e-02
7.524068653583526611e-02
-1.186601002700626850e-03
-5.725500732660293579e-02
1.640522852540016174e-02
6.593203172087669373e-03
3.034266456961631775e-02
6.787731498479843140e-02
4.798549041152000427e-02
-1.681641116738319397e-02
-1.955349557101726532e-02
-2.598062157630920410e-02
-1.156824990175664425e-03
-3.408755734562873840e-02
-7.214671373367309570e-02
2.300484478473663330e-02
2.343980967998504639e-02
2.726490050554275513e-02
2.516400255262851715e-02
-1.478377170860767365e-02
-1.041455473750829697e-02
-1.833963021636009216e-02
-1.494230236858129501e-02
3.817129880189895630e-02
-1.638906821608543396e-02
-2.211237698793411255e-02
-1.018125750124454498e-02
7.769478857517242432e-02
-2.746653929352760315e-02
-1.016837661154568195e-03
-7.470478303730487823e-03
-8.555296063423156738e-02
-6.383242085576057434e-03
-8.069763891398906708e-03
-7.050603628158569336e-02
-3.552901791408658028e-03
-9.723121300339698792e-03
4.790413007140159607e-02
3.737147897481918335e-02
1.898558437824249268e-02
2.434115484356880188e-02
-2.978464588522911072e-03
-4.313854500651359558e-03
-2.870083414018154144e-02
7.320182863622903824e-03
1.812089793384075165e-02
5.687132943421602249e-03
1.409552525728940964e-02
4.671496525406837463e-02
2.708411542698740959e-03
-8.812625892460346222e-03
8.325594477355480194e-03
-1.051220484077930450e-02
-3.069377131760120392e-02
-8.774957805871963501e-02
4.330761358141899109e-02
-4.002036526799201965e-02
1.164314150810241699e-02
1.844053901731967926e-02
-6.575202103704214096e-03
-1.173508935607969761e-03
-1.994359306991100311e-02
6.913882214576005936e-03
-1.986850518733263016e-03
3.297644108533859253e-02
-2.017876133322715759e-02
-1.052266731858253479e-02
7.212335616350173950e-02
-3.121006116271018982e-02
-1.941447705030441284e-02
-3.072106651961803436e-02
1.238680258393287659e-02
-6.179579067975282669e-04
1.043396443128585815e-02
-5.279672518372535706e-02
-2.740257885307073593e-03
-1.223360002040863037e-02
1.627939753234386444e-02
1.607793755829334259e-02
-4.227109719067811966e-03
3.381454944610595703e-02
-9.502848237752914429e-02
3.584134206175804138e-02
3.560810536146163940e-02
4.459167271852493286e-02
3.133699297904968262e-02
-3.405494242906570435e-02
-4.208646342158317566e-02
4.694219306111335754e-02
-2.874846942722797394e-02
1.262757927179336548e-03
1.113019417971372604e-02
-2.457811962813138962e-03
4.145165905356407166e-03
-6.481339037418365479e-02
2.439471893012523651e-03
1.395029015839099884e-02
5.467693880200386047e-02
-9.890401735901832581e-03
-7.310098968446254730e-03
-3.033517627045512199e-03
5.711264908313751221e-03
2.531953155994415283e-02
-2.811408042907714844e-02
-3.338726982474327087e-02
1.652368344366550446e-02
-2.289839554578065872e-03
5.495996773242950439e-02
-4.673407226800918579e-02
4.218392074108123779e-03
7.652043830603361130e-03
2.531976811587810516e-02
2.185321040451526642e-02
-1.794358156621456146e-02
-2.896394580602645874e-02
1.933642104268074036e-02
6.024036183953285217e-02
-5.790972150862216949e-03
-3.233576565980911255e-02
1.703144982457160950e-02
3.487604111433029175e-02
4.205974191427230835e-02
-5.131701473146677017e-03
-5.632815510034561157e-02
1.785452663898468018e-02
3.214249387383460999e-03
3.349026292562484741e-02
7.254827022552490234e-02
5.204983428120613098e-02
-1.594319380819797516e-02
-4.874830134212970734e-03
-1.090487185865640640e-02
-2.480200259014964104e-03
-3.309145569801330566e-02
5.605627968907356262e-02
3.115705773234367371e-02
2.861895225942134857e-02
4.517881572246551514e-02
3.227438405156135559e-02
-1.413105521351099014e-02
-7.470500655472278595e-03
-1.873936131596565247e-02
1.543184090405702591e-02
3.994060307741165161e-02
-2.194148860871791840e-02
-2.096840925514698029e-02
-3.877572715282440186e-02
-4.251429066061973572e-02
-2.879758551716804504e-02
-5.776792299002408981e-03
-9.956156834959983826e-03
-8.709794282913208008e-02
-7.844278588891029358e-03
-7.602986413985490799e-03
-2.564353495836257935e-02
-1.230373396538197994e-03
9.099425375461578369e-02
-4.309841606300324202e-04
4.323139414191246033e-02
1.396880857646465302e-02
2.807255834341049194e-02
-2.764966152608394623e-02
-9.571544826030731201e-03
-2.985698916018009186e-02
8.380025625228881836e-03
1.193952746689319611e-02
3.273698966950178146e-03
3.320486843585968018e-02
5.381627753376960754e-02
3.582668025046586990e-03
1.171168987639248371e-03
2.390400879085063934e-02
-1.280258968472480774e-02
-2.929412573575973511e-02
2.752882242202758789e-02
4.305355250835418701e-02
-3.900306671857833862e-02
3.273290395736694336e-02
2.321354858577251434e-02
-5.190181545913219452e-03
1.918608089908957481e-03
-1.985494233667850494e-02
-2.487074583768844604e-02
-4.805289208889007568e-03
2.877218648791313171e-02
-1.868231035768985748e-02
-4.350424557924270630e-02
-4.771722480654716492e-02
-3.241625800728797913e-02
-2.420682087540626526e-02
-3.273716941475868225e-02
1.636747643351554871e-02
-8.061043918132781982e-04
9.567787870764732361e-03
-2.128346450626850128e-02
1.131052151322364807e-03
5.078527331352233887e-02
-1.901458576321601868e-02
1.963022910058498383e-02
-1.362977642565965652e-02
3.590201213955879211e-02
-1.000264734029769897e-01
3.512175008654594421e-02
2.816617861390113831e-02
4.755619168281555176e-02
3.093020059168338776e-02
-5.257372558116912842e-02
-2.134169824421405792e-02
5.174058675765991211e-02
-2.935264632105827332e-02
1.321802474558353424e-02
2.657139487564563751e-02
-4.678497090935707092e-03
5.461613647639751434e-03
3.485195338726043701e-02
4.912888631224632263e-03
1.346317585557699203e-02
6.915282458066940308e-02
-6.449535023421049118e-03
-8.904858492314815521e-03
-5.574414390139281750e-04
4.909428767859935760e-03
-7.991577684879302979e-02
-3.578137978911399841e-02
-3.613302111625671387e-02
1.642472483217716217e-02
-2.591260895133018494e-02
-4.954500496387481689e-02
-4.838126525282859802e-02
5.330888554453849792e-03
8.785695768892765045e-03
3.027326241135597229e-02
2.018818445503711700e-02
-1.671673171222209930e-02
7.969164848327636719e-02
2.011866122484207153e-02
3.322212025523185730e-02
-3.434092923998832703e-02
-2.417998574674129486e-02
1.506798248738050461e-02
2.059655077755451202e-02
2.921134233474731445e-02
-7.058086805045604706e-03
-4.613877087831497192e-02
1.917514577507972717e-02
-8.791828528046607971e-03
4.315842315554618835e-02
3.464947640895843506e-02
3.061966039240360260e-02
-1.438424456864595413e-02
-4.691180773079395294e-03
-8.749878965318202972e-03
-5.481461528688669205e-03
-2.748898603022098541e-02
6.371070444583892822e-02
1.827972941100597382e-02
2.547805011272430420e-02
3.494308888912200928e-02
1.033233106136322021e-02
-1.454895734786987305e-02
-8.592298254370689392e-03
-1.604844257235527039e-02
3.454187512397766113e-02
2.162954397499561310e-02
-2.736112847924232483e-02
-1.429158728569746017e-02
2.909235656261444092e-02
-8.684557676315307617e-02
-1.403013151139020920e-02
-9.248991496860980988e-03
-1.171196997165679932e-02
-7.320085912942886353e-02
-5.901573691517114639e-03
-7.219108752906322479e-03
8.367285132408142090e-02
2.613671822473406792e-03
5.499883368611335754e-02
-1.870360597968101501e-02
4.417227953672409058e-02
1.236900407820940018e-02
2.188241295516490936e-02
-1.950374059379100800e-02
-1.481821574270725250e-02
-2.632859908044338226e-02
6.202098913490772247e-03
-4.844180308282375336e-03
1.263609994202852249e-02
1.578007452189922333e-02
3.746245428919792175e-02
5.082378629595041275e-03
-1.660311478190124035e-03
2.449448034167289734e-02
-1.430988963693380356e-02
-2.613085880875587463e-02
5.731252580881118774e-02
2.202915959060192108e-02
-3.392553701996803284e-02
2.393838949501514435e-02
1.204304024577140808e-02
-5.076119676232337952e-03
1.498959143646061420e-03
-1.870208792388439178e-02
-1.695198565721511841e-02
-8.362234570086002350e-03
2.680953778326511383e-02
-1.569208875298500061e-02
2.068470045924186707e-02
-6.778717041015625000e-02
-2.046684548258781433e-02
-2.870842814445495605e-02
-3.201640769839286804e-02
3.425725549459457397e-02
4.016440827399492264e-03
7.998851127922534943e-03
7.139977812767028809e-02
6.924224551767110825e-03
3.314975276589393616e-02
-1.092169992625713348e-02
1.660657115280628204e-02
-1.805580407381057739e-02
2.770915813744068146e-02
-6.004148721694946289e-02
2.492644265294075012e-02
2.196420542895793915e-02
3.850723430514335632e-02
9.844459593296051025e-03
-4.738404974341392517e-02
-1.831383630633354187e-02
3.719716146588325500e-02
-2.393273077905178070e-02
7.998480461537837982e-03
2.788909152150154114e-02
-4.273178521543741226e-03
1.335842767730355263e-03
4.938393086194992065e-02
-4.703013226389884949e-03
1.898138225078582764e-02
5.470086261630058289e-02
-1.055649202316999435e-02
-9.370781481266021729e-03
6.725539569742977619e-04
4.257309716194868088e-03
-1.007505729794502258e-01
-3.447136655449867249e-02
-2.883746847510337830e-02
1.548956800252199173e-02
3.354357928037643433e-02
-4.916238784790039062e-02
-4.316893219947814941e-02
5.735723301768302917e-03
1.307519618421792984e-02
4.865317046642303467e-02
2.005890011787414551e-02
-1.934125460684299469e-02
-2.692447043955326080e-02
2.162587642669677734e-02
-1.264055352658033371e-02
-5.225825682282447815e-02
-1.964834704995155334e-02
7.881985977292060852e-03
1.295182295143604279e-02
7.768150418996810913e-03
-1.568537019193172455e-02
-4.480749368667602539e-02
1.695775240659713745e-02
-1.539758127182722092e-02
1.870333962142467499e-02
3.016167506575584412e-02
2.157445438206195831e-02
-1.331795938313007355e-02
6.197276990860700607e-03
3.522394690662622452e-03
-9.841418825089931488e-03
-2.771001495420932770e-02
-6.326849572360515594e-03
1.743549108505249023e-02
2.574277482926845551e-02
3.826608508825302124e-02
7.035734131932258606e-03
-1.784235052764415741e-02
-9.453630074858665466e-03
-1.782485470175743103e-02
5.643225833773612976e-02
1.550294924527406693e-02
-2.768148109316825867e-02
-9.772910736501216888e-03
3.058580309152603149e-02
-2.644556201994419098e-02
-1.375508401542901993e-02
-1.505724526941776276e-02
-1.873025298118591309e-02
-6.319727003574371338e-02
-3.223199397325515747e-03
-8.839831687510013580e-03
-4.141472652554512024e-02
6.675148848444223404e-03
-1.886917836964130402e-02
-2.858625352382659912e-02
3.769469261169433594e-02
5.841808859258890152e-03
1.724512688815593719e-02
-7.252652198076248169e-03
-2.277969941496849060e-02
-3.272401914000511169e-02
7.531637791544198990e-03
-1.377262733876705170e-02
-3.125072224065661430e-03
2.656248025596141815e-02
3.052187152206897736e-02
6.991073954850435257e-03
5.449976306408643723e-03
3.320288658142089844e-02
-1.646432839334011078e-02
-2.428086288273334503e-02
8.939254097640514374e-03
8.559552952647209167e-03
-2.724643982946872711e-02
3.400550782680511475e-02
1.132739987224340439e-02
-6.932329386472702026e-03
2.168413018807768822e-03
-1.875903271138668060e-02
1.966712065041065216e-03
-9.369611740112304688e-03
2.314618043601512909e-02
-9.920450858771800995e-03
1.936845108866691589e-02
1.699740532785654068e-03
-2.048503048717975616e-02
-3.347291052341461182e-02
-3.400430083274841309e-02
4.051967337727546692e-02
9.972639381885528564e-03
5.999127868562936783e-03
-2.584505453705787659e-02
1.470383908599615097e-02
-6.538234301842749119e-04
-1.019574934616684914e-03
9.074904024600982666e-03
-2.377181127667427063e-02
1.690729148685932159e-02
-3.254771465435624123e-03
1.840701885521411896e-02
6.617448292672634125e-03
3.878342360258102417e-02
4.690908826887607574e-03
-5.165728554129600525e-02
4.892008379101753235e-03
3.089521639049053192e-02
-1.928143389523029327e-02
1.153776980936527252e-02
3.555049002170562744e-02
-4.738518036901950836e-03
2.516695531085133553e-04
-5.432954058051109314e-03
-7.201369386166334152e-03
1.815845817327499390e-02
6.442679464817047119e-02
-7.567312102764844894e-03
-9.538244456052780151e-03
3.763232845813035965e-03
2.240494592115283012e-03
-9.007748961448669434e-02
-3.285819292068481445e-02
-2.572497166693210602e-02
1.693465746939182281e-02
2.105128578841686249e-02
3.337168693542480469e-02
-4.971168190240859985e-02
-8.617751882411539555e-04
7.825816050171852112e-03
5.647659301757812500e-02
