-9.184415685012936592e-04
-2.060427330434322357e-02
1.586648635566234589e-02
-1.697788015007972717e-02
2.906802855432033539e-02
-3.075454756617546082e-02
-5.976157728582620621e-03
2.998491981998085976e-03
4.303944762796163559e-03
1.286927610635757446e-02
-1.576906815171241760e-02
-3.827777924016118050e-03
2.871615067124366760e-02
-2.922768332064151764e-02
-7.622772362083196640e-03
2.453416399657726288e-02
-3.293661400675773621e-02
1.700085029006004333e-02
-3.588146343827247620e-02
3.269435092806816101e-02
1.033348590135574341e-02
-6.136311683803796768e-03
1.979872211813926697e-02
4.024356603622436523e-02
-1.073930598795413971e-02
-5.387325212359428406e-02
-1.091828476637601852e-02
-6.115434691309928894e-03
-5.418422166258096695e-03
8.720764890313148499e-03
-3.121059946715831757e-02
1.680456101894378662e-02
4.878683760762214661e-02
2.099461853504180908e-02
4.809983819723129272e-02
-1.288466248661279678e-02
-2.361096069216728210e-02
-1.223428640514612198e-02
-2.561699226498603821e-02
-3.853405360132455826e-03
-5.117621272802352905e-03
-1.286205090582370758e-02
3.920125216245651245e-02
-1.037946902215480804e-02
-6.252448260784149170e-02
-7.844054140150547028e-03
1.831359602510929108e-02
3.701658174395561218e-02
2.467563562095165253e-02
-2.689636498689651489e-02
3.981254249811172485e-02
1.654530060477554798e-03
1.750629395246505737e-02
-1.627963967621326447e-02
8.964785374701023102e-03
-7.132587488740682602e-04
1.542081963270902634e-02
-3.652261570096015930e-02
-5.014426633715629578e-02
5.333479121327400208e-02
-9.902602760121226311e-04
-3.139392286539077759e-02
-2.471184358000755310e-02
1.586854830384254456e-02
1.003957819193601608e-02
9.280351921916007996e-03
3.948440030217170715e-02
-1.383107062429189682e-02
-2.872246690094470978e-02
1.971200108528137207e-02
4.817532375454902649e-03
3.058649972081184387e-02
1.679249480366706848e-02
-5.296830087900161743e-03
1.110583450645208359e-02
-4.783897474408149719e-02
-7.425608928315341473e-04
-2.549429796636104584e-02
-2.485872805118560791e-02
2.192807383835315704e-02
1.453837938606739044e-02
-7.871703244745731354e-03
-2.867350913584232330e-02
-2.343199215829372406e-03
3.414183855056762695e-02
2.107956097461283207e-04
-1.363867148756980896e-02
3.066476061940193176e-02
1.177643332630395889e-02
-9.980199392884969711e-04
-1.188931241631507874e-02
2.164641767740249634e-02
-1.435444410890340805e-02
-3.198411548510193825e-03
4.147439077496528625e-02
2.083091065287590027e-02
2.893699100241065025e-03
-3.000418655574321747e-02
-1.849487051367759705e-02
1.087157707661390305e-02
7.101476658135652542e-04
-4.984756931662559509e-03
-1.954969018697738647e-03
3.675904870033264160e-02
-6.433758139610290527e-02
8.959491737186908722e-03
-1.647854037582874298e-02
-9.554832242429256439e-03
3.844072809442877769e-03
4.076171293854713440e-02
-1.267003081738948822e-02
-3.324357047677040100e-02
2.666279859840869904e-02
-1.354677975177764893e-02
-2.201833575963973999e-02
3.049237187951803207e-03
1.105289626866579056e-02
6.832763552665710449e-02
-2.680107392370700836e-02
-1.967168599367141724e-02
-5.729246139526367188e-02
6.202701851725578308e-02
-3.455635905265808105e-02
1.632072962820529938e-02
-1.413728483021259308e-02
2.473936788737773895e-02
2.855659835040569305e-02
-2.406428568065166473e-02
-2.573548071086406708e-02
-1.592134474776685238e-03
1.542434096336364746e-02
-2.702815923839807510e-03
1.966983266174793243e-02
2.300631068646907806e-02
6.913281977176666260e-03
2.962140366435050964e-02
-4.268704727292060852e-02
-3.344564512372016907e-02
-3.274363279342651367e-02
-1.297567691653966904e-02
4.906643927097320557e-02
-1.176803745329380035e-02
-4.948541149497032166e-02
-1.704753027297556400e-03
-5.927793215960264206e-03
-3.189980611205101013e-02
-3.236904740333557129e-02
5.305380374193191528e-02
3.892014175653457642e-02
2.166286855936050415e-02
2.371433377265930176e-02
-2.082714438438415527e-02
-3.298083320260047913e-02
3.200228512287139893e-02
-2.132143266499042511e-02
-2.160127088427543640e-02
-3.146499162539839745e-03
1.509926281869411469e-02
3.259679302573204041e-02
4.638908430933952332e-03
9.103874675929546356e-03
-3.583532059565186501e-03
-4.309948906302452087e-02
2.311357297003269196e-02
2.691510692238807678e-02
-2.732235565781593323e-02
-4.559934139251708984e-02
1.733119040727615356e-02
6.874902546405792236e-02
-1.679092831909656525e-02
-2.471714280545711517e-02
2.096115052700042725e-02
2.243819646537303925e-02
-5.812159506604075432e-04
8.491428568959236145e-03
4.778413474559783936e-02
2.593810297548770905e-02
-3.330971673130989075e-02
-3.260598331689834595e-02
-2.588330581784248352e-02
-5.988821387290954590e-02
1.360080670565366745e-02
1.547967828810214996e-02
7.315009366720914841e-03
5.210251081734895706e-03
3.249776363372802734e-02
2.507099322974681854e-02
-2.605230174958705902e-02
-1.855284161865711212e-02
-4.370951279997825623e-02
1.586107909679412842e-02
-7.600203156471252441e-03
7.076912093907594681e-03
2.171247825026512146e-02
4.960580542683601379e-02
-2.857011556625366211e-02
-2.658495679497718811e-02
-1.633804291486740112e-02
-3.940021619200706482e-02
1.926780119538307190e-02
4.106390103697776794e-02
-2.458892762660980225e-02
1.390651427209377289e-02
9.045108221471309662e-03
-1.721974648535251617e-02
-1.535140164196491241e-02
3.968883305788040161e-03
3.569766413420438766e-04
-1.251831371337175369e-02
-2.462991513311862946e-03
1.910414546728134155e-02
4.754817637149244547e-04
2.183362655341625214e-02
9.519776329398155212e-03
-3.268079599365592003e-03
-5.705841258168220520e-02
-4.194290563464164734e-02
3.032767958939075470e-02
2.536418475210666656e-02
-2.077278122305870056e-02
-6.711776833981275558e-03
3.173915296792984009e-02
2.889823168516159058e-03
-1.172690466046333313e-02
5.169487744569778442e-02
1.610768027603626251e-02
-7.815622724592685699e-03
-3.117526136338710785e-02
-4.102052748203277588e-02
2.168543823063373566e-02
-5.384852644056081772e-03
2.321745036169886589e-03
5.015423521399497986e-03
-7.534530945122241974e-03
6.034430116415023804e-02
1.050831004977226257e-02
5.408927332609891891e-03
-4.550730437040328979e-02
-1.207188423722982407e-02
-2.505099028348922729e-02
-7.335894624702632427e-04
1.769892498850822449e-02
-2.283416688442230225e-02
3.687378950417041779e-03
1.134624145925045013e-02
-1.752484403550624847e-02
-4.343875870108604431e-02
6.833249237388372421e-03
1.983239315450191498e-02
3.297758102416992188e-02
2.022813074290752411e-02
4.068954288959503174e-02
-6.229837611317634583e-02
9.510830044746398926e-02
7.339426875114440918e-02
-5.106529220938682556e-02
-4.040113091468811035e-02
-4.928296897560358047e-03
-8.460081368684768677e-02
1.872501894831657410e-02
-4.648371785879135132e-02
3.864403814077377319e-02
2.242301777005195618e-02
1.040228828787803650e-02
-1.469901856034994125e-02
-3.539300337433815002e-02
2.140357857570052147e-03
-1.314226444810628891e-02
-1.987090148031711578e-02
3.216013312339782715e-02
5.727170407772064209e-02
4.668758064508438110e-02
-3.489333763718605042e-02
2.315378002822399139e-02
5.297849886119365692e-03
4.403199069201946259e-03
-5.794163420796394348e-02
-4.434708133339881897e-02
3.318149223923683167e-02
-3.246060013771057129e-02
-2.558081643655896187e-03
-1.559304073452949524e-02
-3.945491835474967957e-02
2.143089659512042999e-02
-3.656220808625221252e-02
5.160356871783733368e-03
1.718694530427455902e-02
4.960817098617553711e-02
2.362849377095699310e-02
-2.024533972144126892e-02
3.148113563656806946e-02
5.462251976132392883e-02
-3.380977734923362732e-02
-1.150240190327167511e-02
3.993159532546997070e-02
-2.019516378641128540e-02
-3.360358998179435730e-02
1.019423268735408783e-02
-4.249508958309888840e-03
-3.979046270251274109e-02
3.165522590279579163e-02
1.915975287556648254e-02
-8.665927685797214508e-03
1.836105715483427048e-03
3.141790628433227539e-02
-4.309631884098052979e-02
-9.357022121548652649e-03
3.460197895765304565e-02
-5.219225585460662842e-02
2.051843330264091492e-03
-4.823749139904975891e-02
2.358045894652605057e-03
3.594487532973289490e-02
-4.177071154117584229e-02
1.159228757023811340e-02
1.271056663244962692e-02
-3.143931925296783447e-02
5.373741965740919113e-03
-8.028483018279075623e-03
3.569384291768074036e-02
2.058372646570205688e-02
-7.105580065399408340e-03
-2.871563471853733063e-02
-8.818089030683040619e-03
-5.049952864646911621e-02
2.108929213136434555e-03
-7.206467539072036743e-02
3.632951900362968445e-02
3.045718558132648468e-02
3.923801705241203308e-02
-2.274825796484947205e-02
-2.301516570150852203e-02
3.011254966259002686e-02
-4.851354286074638367e-02
6.331284530460834503e-03
5.116298794746398926e-02
-2.195335924625396729e-03
-1.571238599717617035e-02
1.137140672653913498e-02
5.243156105279922485e-03
8.787133544683456421e-02
-4.483771324157714844e-02
-1.421168167144060135e-02
-3.806122811511158943e-03
3.025017865002155304e-02
-1.344187930226325989e-02
-2.030583284795284271e-02
-7.670775055885314941e-03
-3.041335381567478180e-03
-4.417413845658302307e-02
-5.020838975906372070e-02
-8.050445467233657837e-03
2.608445845544338226e-02
-2.474046126008033752e-02
-1.357504166662693024e-02
8.314439654350280762e-02
9.413450956344604492e-03
-1.230827998369932175e-02
-1.038736198097467422e-02
-1.593657210469245911e-02
1.093625742942094803e-02
-1.992752589285373688e-02
-3.398938570171594620e-04
-1.016156096011400223e-02
-2.061378769576549530e-02
3.189230803400278091e-03
6.332978140562772751e-03
3.447050694376230240e-03
1.137004327028989792e-02
1.109084696508944035e-03
-8.460655808448791504e-03
-1.115776877850294113e-02
3.109925612807273865e-02
-3.591663669794797897e-03
-4.043675214052200317e-02
9.407694451510906219e-03
2.981853298842906952e-02
2.658674307167530060e-02
-2.823865227401256561e-02
6.709193810820579529e-03
-1.250829733908176422e-02
-4.561467096209526062e-02
1.753485575318336487e-02
-2.088797092437744141e-02
6.542131304740905762e-04
-3.972839936614036560e-02
1.660437695682048798e-02
3.434179350733757019e-02
1.786249876022338867e-02
2.434696629643440247e-02
-3.458244726061820984e-02
4.588493611663579941e-03
-2.950321650132536888e-03
7.838299497961997986e-03
1.366591267287731171e-02
4.145986214280128479e-02
3.249793127179145813e-02
3.461772575974464417e-02
-4.447922110557556152e-02
-5.407587811350822449e-02
-3.307680133730173111e-03
1.028921920806169510e-02
1.190562848933041096e-03
-9.793308563530445099e-03
-4.474107641726732254e-03
-5.350393056869506836e-02
-1.712018437683582306e-02
2.964495308697223663e-02
-5.067600402981042862e-03
1.314028725028038025e-02
5.610682535916566849e-03
-5.565057694911956787e-02
-7.221905514597892761e-03
2.604722417891025543e-02
-1.071959733963012695e-03
7.554491981863975525e-03
1.396244112402200699e-02
1.959969988092780113e-03
-1.411363855004310608e-02
9.572418406605720520e-03
-1.992064900696277618e-02
-1.883571594953536987e-02
2.934705652296543121e-02
-1.329132914543151855e-02
3.344498202204704285e-02
4.027448128908872604e-03
-1.196100655943155289e-02
6.011778023093938828e-03
3.843290032818913460e-03
-1.253935322165489197e-02
1.775594241917133331e-02
-1.344821788370609283e-02
-5.271439626812934875e-02
-3.758292272686958313e-02
-1.399562880396842957e-02
-2.049443498253822327e-02
-6.394667923450469971e-02
5.873862653970718384e-02
4.748490452766418457e-02
6.206049025058746338e-02
2.003406733274459839e-02
-1.608698815107345581e-02
-2.631641551852226257e-02
3.991820663213729858e-02
-9.875609539449214935e-03
1.555529702454805374e-02
6.960613187402486801e-03
-1.699460670351982117e-02
-9.713391773402690887e-03
1.598957367241382599e-02
1.691573113203048706e-02
-6.377039011567831039e-03
1.956545747816562653e-02
-2.366607263684272766e-02
9.212905424647033215e-04
-6.166807562112808228e-02
-5.865422077476978302e-03
1.699790917336940765e-02
3.039324283599853516e-02
2.932195551693439484e-03
4.198836162686347961e-03
3.189165145158767700e-03
-8.077922277152538300e-03
-9.470885619521141052e-03
2.489023283123970032e-02
-3.911040723323822021e-02
-2.950052171945571899e-02
1.147654093801975250e-02
4.328211396932601929e-02
2.914829878136515617e-03
-3.695095330476760864e-02
1.758935675024986267e-02
2.536916173994541168e-02
-2.916781045496463776e-02
6.220651417970657349e-02
4.831759724766016006e-03
3.472463926300406456e-03
2.994738891720771790e-02
-4.517613351345062256e-02
-3.460688516497612000e-02
1.291157212108373642e-02
-1.706148125231266022e-02
1.608742587268352509e-02
1.611192524433135986e-02
2.379239723086357117e-02
2.276640571653842926e-02
-3.063267655670642853e-02
6.574677769094705582e-03
-3.952579945325851440e-02
-5.358561873435974121e-03
6.982821971178054810e-02
-4.911074414849281311e-02
-4.627118259668350220e-02
-3.558386862277984619e-02
1.356163062155246735e-02
-4.085451830178499222e-03
-6.974819116294384003e-04
-5.830111913383007050e-04
5.128910392522811890e-02
-1.128887291997671127e-02
5.370832234621047974e-02
-1.543598808348178864e-02
-1.718782261013984680e-02
1.222788076847791672e-02
5.846458952873945236e-03
-2.595178037881851196e-02
-2.044427581131458282e-02
9.226440452039241791e-03
-2.153332158923149109e-02
1.959766494110226631e-03
-8.645440451800823212e-03
7.795355748385190964e-03
-4.626393318176269531e-03
1.374766416847705841e-02
1.298494171351194382e-02
-3.094424121081829071e-02
1.279101055115461349e-02
2.451555570587515831e-03
-3.712391480803489685e-02
2.977462485432624817e-02
-1.387532800436019897e-02
-2.714564558118581772e-03
1.277706399559974670e-02
4.521688446402549744e-03
2.295438759028911591e-02
3.728827461600303650e-02
-1.943422295153141022e-02
-3.714148700237274170e-02
-1.632403396070003510e-02
-1.145195402204990387e-02
8.199690841138362885e-03
3.673383500427007675e-03
-2.903012745082378387e-02
4.711194336414337158e-02
6.031727790832519531e-02
-1.015629898756742477e-02
-2.637769095599651337e-02
-6.759960949420928955e-02
-2.917161956429481506e-02
1.739826239645481110e-02
4.235028848052024841e-02
2.143977582454681396e-02
-3.008616156876087189e-02
3.028992190957069397e-02
-1.486997492611408234e-02
4.851393401622772217e-03
-4.340653494000434875e-02
-3.766495734453201294e-02
3.048682212829589844e-02
3.793477267026901245e-02
-1.921849139034748077e-02
1.885595545172691345e-02
-3.119867481291294098e-02
5.560918152332305908e-02
3.019409999251365662e-02
2.522705681622028351e-02
7.536340970546007156e-03
-1.996021345257759094e-02
-3.893024101853370667e-02
-1.158166583627462387e-02
8.509866893291473389e-03
-7.016337011009454727e-03
-6.525737699121236801e-03
3.546772990375757217e-03
9.301691316068172455e-03
3.334055840969085693e-02
-3.455396741628646851e-02
6.028799805790185928e-03
-7.975698448717594147e-03
1.344191096723079681e-02
2.095145639032125473e-03
-2.301674149930477142e-02
3.608339000493288040e-03
4.328330978751182556e-02
-8.705749642103910446e-04
-8.483365178108215332e-03
3.008462488651275635e-03
-5.140375718474388123e-02
4.150510206818580627e-02
6.174777634441852570e-03
6.201563775539398193e-02
-3.867965191602706909e-02
-1.679526991210877895e-03
-3.759865462779998779e-02
-2.161052636802196503e-02
-4.053682088851928711e-02
-3.239766508340835571e-02
4.320362210273742676e-02
4.683977365493774414e-02
1.225678436458110809e-02
2.899686247110366821e-02
9.271290153264999390e-03
-4.662457213271409273e-04
-1.832325942814350128e-02
-3.915369883179664612e-02
-3.340806066989898682e-02
-4.102694243192672729e-02
3.047572635114192963e-02
2.051621116697788239e-02
4.217445477843284607e-02
-8.692105300724506378e-03
-1.996079459786415100e-02
2.375015616416931152e-02
-5.242847651243209839e-02
-2.255638316273689270e-02
1.416285615414381027e-02
-4.628378897905349731e-02
-1.943294890224933624e-03
3.981942310929298401e-02
6.064253672957420349e-02
-3.953420370817184448e-02
1.290081301704049110e-03
3.116768971085548401e-02
1.201950293034315109e-02
-8.594629354774951935e-03
-7.462837267667055130e-03
3.599720075726509094e-02
-3.424312686547636986e-03
-7.510263938456773758e-03
-1.455510221421718597e-02
4.988210275769233704e-03
-1.066148187965154648e-02
-2.166762016713619232e-02
5.714631639420986176e-03
2.083196677267551422e-02
5.325597012415528297e-04
-4.081332683563232422e-02
9.064909070730209351e-03
5.949458573013544083e-03
2.432714402675628662e-02
-3.655744343996047974e-02
3.388447314500808716e-02
1.630522124469280243e-02
3.639828041195869446e-02
3.219448029994964600e-02
2.406506612896919250e-02
-2.932699583470821381e-02
1.476892939535900950e-04
-3.331960365176200867e-02
5.207146052271127701e-03
2.291152812540531158e-02
-3.439602442085742950e-03
3.504231944680213928e-02
2.556584589183330536e-02
-1.604215800762176514e-02
-1.304338313639163971e-02
-1.520643197000026703e-02
-1.416407246142625809e-02
-3.273147856816649437e-03
-1.183721702545881271e-02
-2.157403714954853058e-02
-2.874462492763996124e-02
1.968991942703723907e-02
-3.017777763307094574e-02
-2.729702368378639221e-02
2.030677162110805511e-02
1.421590335667133331e-03
2.863782830536365509e-02
1.851498894393444061e-02
4.450434446334838867e-02
-2.137322165071964264e-02
3.549348562955856323e-02
-3.244984429329633713e-03
-6.380258500576019287e-02
3.973942622542381287e-02
-5.070535931736230850e-03
2.688982896506786346e-02
-6.364454049617052078e-03
2.163595706224441528e-02
-4.885677713900804520e-03
3.019435331225395203e-03
1.782203093171119690e-02
1.058046892285346985e-02
-4.048946779221296310e-03
2.730999514460563660e-02
1.990384608507156372e-02
-2.992753498256206512e-02
-1.485924329608678818e-02
-5.498979985713958740e-02
1.897400803864002228e-02
-1.330594345927238464e-02
-6.902182474732398987e-03
-2.875345014035701752e-02
3.278579190373420715e-02
4.026288539171218872e-02
7.058238983154296875e-02
-8.737602271139621735e-03
5.470999982208013535e-03
-4.266349971294403076e-02
-3.727623447775840759e-02
2.801820402964949608e-03
-2.256039716303348541e-02
1.138164941221475601e-02
-1.616835221648216248e-02
1.391718164086341858e-02
1.919636316597461700e-02
-4.363678768277168274e-02
5.652575567364692688e-02
1.597346155904233456e-03
1.387799344956874847e-02
9.088426828384399414e-03
-4.935139790177345276e-03
1.721531152725219727e-02
-1.934416033327579498e-02
-2.956215664744377136e-02
2.483720332384109497e-02
-1.923106051981449127e-02
8.328689262270927429e-03
1.636322028934955597e-02
2.074779011309146881e-02
-4.887839406728744507e-02
-2.984815277159214020e-02
3.371131047606468201e-02
-1.979431323707103729e-02
-1.214437279850244522e-02
3.860688582062721252e-02
-2.207722049206495285e-03
2.998073352500796318e-03
2.192743308842182159e-02
2.310257963836193085e-02
-2.875269018113613129e-02
-2.816665545105934143e-02
4.394096881151199341e-02
-2.440944127738475800e-02
-3.181971982121467590e-02
4.975321516394615173e-02
4.902268759906291962e-03
6.551376543939113617e-03
-2.754672244191169739e-02
-1.866599079221487045e-03
3.521692752838134766e-02
-8.338471874594688416e-03
-7.761329179629683495e-04
-1.601163670420646667e-02
-3.497522324323654175e-02
1.025375537574291229e-02
-3.391429409384727478e-02
3.798643127083778381e-03
4.238858446478843689e-02
-3.116915235295891762e-03
-3.054981492459774017e-02
4.341228678822517395e-02
-2.728443965315818787e-02
-3.950278274714946747e-03
3.320628777146339417e-02
-5.437893327325582504e-03
7.706186268478631973e-03
2.949650771915912628e-02
-4.283775575459003448e-03
-9.761750698089599609e-03
1.765704341232776642e-02
-2.630510367453098297e-02
1.061073620803654194e-03
-9.257630445063114166e-03
1.457719132304191589e-02
-1.139738596975803375e-02
2.343871630728244781e-02
2.529042959213256836e-02
-3.364654630422592163e-02
5.445272196084260941e-03
2.240832895040512085e-02
-4.188424721360206604e-02
1.064169313758611679e-02
-2.524497546255588531e-02
-2.481629606336355209e-03
-3.009975189343094826e-03
4.051457345485687256e-02
-1.321766246110200882e-02
-6.903447676450014114e-03
3.415798023343086243e-02
5.924711935222148895e-03
2.512926422059535980e-02
2.534224279224872589e-02
2.769405546132475138e-04
-2.233198843896389008e-02
-3.550627734512090683e-03
-1.494417153298854828e-02
3.612944565247744322e-04
9.522569365799427032e-03
-2.695984952151775360e-02
4.127299785614013672e-02
-2.990801446139812469e-02
4.667486250400543213e-02
1.318342238664627075e-02
-2.208667248487472534e-02
2.674850262701511383e-02
2.131122536957263947e-02
-2.895660884678363800e-02
-4.148804768919944763e-02
-1.285140402615070343e-02
9.062042809091508389e-04
-2.333956025540828705e-02
2.519091777503490448e-02
1.247505564242601395e-02
2.558890171349048615e-02
-1.305618934566155076e-04
2.797431871294975281e-02
-4.680494964122772217e-02
3.297047689557075500e-02
-2.464935742318630219e-02
7.237253244966268539e-03
2.072414616122841835e-03
7.108554244041442871e-03
-4.326028376817703247e-02
4.691628739237785339e-02
-1.967021264135837555e-02
8.556940010748803616e-04
1.853176951408386230e-02
2.470368705689907074e-02
-2.871981263160705566e-02
7.734646089375019073e-03
-4.945826902985572815e-02
1.351178810000419617e-02
6.338350474834442139e-03
1.071936450898647308e-02
-2.968705666717141867e-04
-2.638976275920867920e-02
1.602492667734622955e-02
2.322471886873245239e-02
-1.546027138829231262e-02
2.357381582260131836e-02
-2.913080900907516479e-02
1.322717405855655670e-03
2.346485108137130737e-02
-7.478523533791303635e-03
-2.363311313092708588e-02
-2.663842402398586273e-02
-2.114380709826946259e-02
2.565756440162658691e-02
1.403575856238603592e-02
-4.833335429430007935e-02
1.316119823604822159e-02
5.046977102756500244e-02
5.858422257006168365e-03
4.134862124919891357e-02
-9.156990796327590942e-03
-1.983304694294929504e-02
-1.782655902206897736e-02
-1.857606694102287292e-02
1.769831217825412750e-02
-6.525434553623199463e-02
4.297742620110511780e-02
3.413440659642219543e-02
-4.387054219841957092e-02
-3.608215600252151489e-02
6.908779032528400421e-04
1.750717684626579285e-02
-3.367530554533004761e-02
7.314380723983049393e-03
6.073909625411033630e-02
-2.568408614024519920e-03
-4.816761706024408340e-03
5.070329084992408752e-02
-4.604841768741607666e-02
-6.803314201533794403e-03
2.978285402059555054e-02
-1.273964904248714447e-02
3.020928613841533661e-02
2.147644571959972382e-02
-6.004446372389793396e-02
5.425097886472940445e-03
-5.464506149291992188e-02
4.135085269808769226e-02
-7.892202585935592651e-03
1.575016602873802185e-02
-1.172494702041149139e-02
3.343328833580017090e-02
2.416824735701084137e-02
-3.675269708037376404e-02
-1.271666679531335831e-02
-3.014474734663963318e-02
-7.171744480729103088e-03
2.947928011417388916e-02
-1.681580208241939545e-02
-2.978541702032089233e-02
4.634327813982963562e-02
4.493035841733217239e-03
4.215759225189685822e-03
2.195585891604423523e-02
-6.485010962933301926e-03
-9.110611863434314728e-03
-1.410554163157939911e-02
2.756460569798946381e-03
5.850719753652811050e-04
1.636627875268459320e-02
1.202479004859924316e-02
-1.419911440461874008e-02
4.034530371427536011e-03
1.899320445954799652e-02
-2.597775543108582497e-03
-3.549682442098855972e-03
-4.721119999885559082e-03
1.788833644241094589e-03
-2.184844575822353363e-02
4.638144746422767639e-02
8.295730687677860260e-03
-4.672927036881446838e-02
-2.205362357199192047e-02
-2.862365916371345520e-03
-1.154847256839275360e-02
2.411546185612678528e-03
1.144747156649827957e-02
-2.567008836194872856e-03
2.983393520116806030e-02
-6.974895298480987549e-02
2.940940856933593750e-02
2.632492221891880035e-02
-3.161770850419998169e-02
-5.413361359387636185e-03
1.956407539546489716e-02
-1.688233017921447754e-02
1.253231801092624664e-02
-3.418016945943236351e-03
1.951102912425994873e-02
3.118883445858955383e-02
4.082424938678741455e-02
5.411536432802677155e-03
1.002838462591171265e-02
-4.702233150601387024e-02
-2.787985280156135559e-02
1.600513234734535217e-02
-1.141051482409238815e-02
-5.207635927945375443e-03
6.269757449626922607e-02
3.289485583081841469e-03
-5.924702435731887817e-02
5.334874615073204041e-02
-5.774796381592750549e-02
-6.119514349848031998e-03
9.989454410970211029e-03
-2.216292172670364380e-02
-2.870939671993255615e-02
3.105818293988704681e-02
-4.958566650748252869e-02
-8.525411784648895264e-02
2.355367690324783325e-02
1.853728853166103363e-02
6.824978440999984741e-02
4.443433135747909546e-02
1.660103164613246918e-02
3.722781687974929810e-02
-6.006143614649772644e-02
-4.735585674643516541e-02
-1.565497182309627533e-02
1.863329112529754639e-02
-4.250976070761680603e-02
1.374935614876449108e-03
6.002171337604522705e-02
4.532176256179809570e-02
-2.262584678828716278e-02
7.544088177382946014e-03
-1.289156172424554825e-02
-1.806733384728431702e-02
2.675448916852474213e-02
2.304929494857788086e-02
-1.088873893022537231e-01
-2.948290482163429260e-02
1.368514541536569595e-02
7.427830994129180908e-02
3.660352900624275208e-02
4.649198055267333984e-02
-7.427268661558628082e-03
3.968992084264755249e-02
-6.181920319795608521e-02
2.852557972073554993e-02
-5.818179994821548462e-02
9.132198058068752289e-03
1.357995998114347458e-02
3.681446239352226257e-02
-4.552797228097915649e-02
3.798808902502059937e-03
1.970306970179080963e-02
-4.163682926446199417e-03
3.839595615863800049e-02
4.988243454135954380e-04
2.621694654226303101e-02
1.735880598425865173e-02
-3.921396657824516296e-02
-1.773454062640666962e-02
-8.015829138457775116e-03
-4.458869621157646179e-02
2.556989528238773346e-02
-2.344011794775724411e-03
5.692043900489807129e-02
-8.606239221990108490e-03
6.629893183708190918e-02
1.284359209239482880e-02
-1.412845682352781296e-03
-5.072403699159622192e-02
-2.894986420869827271e-02
5.760167725384235382e-03
-1.062563434243202209e-02
3.292476013302803040e-02
4.811006784439086914e-02
2.752943709492683411e-02
-7.078582793474197388e-02
7.241459563374519348e-03
-1.627965085208415985e-02
-2.162451297044754028e-02
5.151413846760988235e-03
5.628671869635581970e-02
-2.230304479598999023e-02
4.372543841600418091e-02
2.608765475451946259e-02
-3.318905085325241089e-02
-1.736423932015895844e-02
4.324826877564191818e-03
-3.916957229375839233e-02
3.665038570761680603e-02
-4.836035147309303284e-02
3.125937422737479210e-03
-1.311596948653459549e-02
-1.379736233502626419e-02
-3.141681477427482605e-02
4.029795154929161072e-02
4.516480490565299988e-03
-2.370248548686504364e-02
6.893800944089889526e-02
-9.634632617235183716e-03
-2.990741282701492310e-02
-5.708538740873336792e-02
2.253168448805809021e-02
-1.557938009500503540e-02
2.281666360795497894e-02
-1.091423071920871735e-02
5.437401309609413147e-02
7.696597371250391006e-03
4.694785922765731812e-03
-5.403498187661170959e-03
-3.488183021545410156e-02
1.999316550791263580e-02
-4.544188454747200012e-02
1.327530294656753540e-02
-3.070506639778614044e-02
8.413578569889068604e-02
-5.641528591513633728e-02
3.430438786745071411e-02
8.697180077433586121e-03
4.562401026487350464e-02
-7.993465662002563477e-02
-6.613964587450027466e-02
2.047398872673511505e-02
1.055274531245231628e-02
-4.065694287419319153e-02
-2.625359222292900085e-03
3.064586222171783447e-02
7.315804250538349152e-03
5.026757344603538513e-02
1.884875074028968811e-02
-7.372942753136157990e-03
-4.786245524883270264e-02
-1.301267067901790142e-03
2.116997726261615753e-02
-2.871503867208957672e-02
4.074066132307052612e-02
-3.413428366184234619e-02
1.882890053093433380e-02
5.179803352802991867e-03
-2.629920840263366699e-02
2.648865059018135071e-02
-2.518701739609241486e-02
1.437081117182970047e-02
-1.060090959072113037e-02
6.813091458752751350e-04
2.809887751936912537e-03
-7.917189039289951324e-03
-1.073359977453947067e-02
3.512739762663841248e-02
-7.170446217060089111e-03
9.751420468091964722e-03
2.322676405310630798e-02
-3.380549140274524689e-03
-3.524569422006607056e-02
2.365541644394397736e-02
-1.269191224128007889e-02
2.367144823074340820e-02
-6.377996411174535751e-03
4.623036831617355347e-02
-9.479071013629436493e-03
-1.931360922753810883e-02
8.987237699329853058e-03
2.295166812837123871e-02
-5.002324469387531281e-03
-5.814651103719370440e-06
-6.242178380489349365e-02
1.798759400844573975e-02
7.142948359251022339e-02
3.520252183079719543e-02
2.511297911405563354e-02
-1.114159375429153442e-01
4.755982384085655212e-02
2.237319760024547577e-02
1.050996780395507812e-02
1.135930512100458145e-02
1.383569836616516113e-02
-2.195983938872814178e-02
-1.863495819270610809e-02
-1.655860990285873413e-02
-1.347611472010612488e-02
-2.934353984892368317e-02
-7.167238742113113403e-02
1.557013718411326408e-03
-4.853340610861778259e-02
-6.551250815391540527e-02
2.683679759502410889e-02
5.045894533395767212e-02
3.704386577010154724e-02
3.584919124841690063e-02
-5.251942668110132217e-03
4.795379936695098877e-02
-3.264653310179710388e-02
2.941911295056343079e-02
-1.192418585560517386e-05
-3.550750762224197388e-02
7.730055134743452072e-03
-1.847115345299243927e-02
-9.095553308725357056e-03
1.650464348495006561e-02
1.919507421553134918e-02
-1.199202705174684525e-02
-3.593624010682106018e-02
-2.347569912672042847e-03
3.654775023460388184e-02
-1.003876049071550369e-02
-5.260387808084487915e-02
-3.000241413246840239e-04
-4.729086160659790039e-02
5.633604153990745544e-02
2.472039498388767242e-02
3.937053680419921875e-02
-4.383948072791099548e-02
1.044831890612840652e-02
1.108916010707616806e-02
-3.963968530297279358e-02
7.113409042358398438e-02
1.408102549612522125e-02
-5.286526866257190704e-03
4.213647916913032532e-02
-5.868930835276842117e-03
-1.867332309484481812e-02
5.018062423914670944e-03
-5.408812314271926880e-02
-2.442594990134239197e-02
7.501642219722270966e-03
7.571186125278472900e-02
-9.804548695683479309e-03
-1.699192449450492859e-02
2.721164003014564514e-02
-1.549081411212682724e-02
-1.196091528981924057e-02
-1.986524648964405060e-02
-1.015305612236261368e-02
2.166977338492870331e-02
-4.161258041858673096e-02
1.963524892926216125e-02
6.076984480023384094e-02
-2.886783331632614136e-02
2.432639151811599731e-02
-1.566620729863643646e-02
-5.759044084697961807e-03
1.593980751931667328e-02
-4.991243407130241394e-02
1.645044237375259399e-02
-2.442967146635055542e-02
1.737238094210624695e-02
-2.166753262281417847e-02
-4.473149776458740234e-03
4.855000600218772888e-02
8.265371434390544891e-03
1.587465405464172363e-02
-6.818015873432159424e-02
1.704459823668003082e-02
4.920005053281784058e-02
-1.320027187466621399e-02
-3.655351232737302780e-03
3.059535846114158630e-02
1.425899192690849304e-02
-6.310643162578344345e-03
-5.671378690749406815e-03
-3.739681839942932129e-02
2.225955761969089508e-02
-5.216941609978675842e-02
-3.594918549060821533e-02
-4.852445796132087708e-02
3.301521763205528259e-03
-3.342731669545173645e-02
3.320987522602081299e-02
4.060002788901329041e-02
1.722400449216365814e-02
1.729337126016616821e-02
1.674720831215381622e-02
-1.065429672598838806e-02
-3.173466771841049194e-02
2.109791710972785950e-02
-3.749835118651390076e-02
5.503023788332939148e-02
1.728527620434761047e-02
-3.601131727918982506e-03
-1.649748720228672028e-02
-2.747343853116035461e-02
-2.544047124683856964e-02
1.639407314360141754e-02
4.908690229058265686e-02
1.380482316017150879e-02
-4.400362446904182434e-02
-1.614046283066272736e-02
7.017298135906457901e-03
-1.104297209531068802e-02
-2.695083245635032654e-02
3.537543490529060364e-02
3.093825944233685732e-04
-6.085769739001989365e-03
-1.806604117155075073e-02
4.243027046322822571e-02
1.961213722825050354e-02
-3.522364422678947449e-02
-2.641821745783090591e-03
1.831906288862228394e-02
-3.639841079711914062e-02
-7.497460581362247467e-03
7.919086143374443054e-03
-2.343692258000373840e-02
1.750809699296951294e-02
2.654594741761684418e-02
-1.192934531718492508e-02
-2.212777920067310333e-02
-2.621069364249706268e-02
1.479467563331127167e-02
-1.586113125085830688e-02
1.001102570444345474e-02
1.349309179931879044e-02
4.999504308216273785e-04
-1.218176819384098053e-02
-2.220266312360763550e-02
-8.559527248144149780e-02
2.623916044831275940e-02
-4.990788921713829041e-02
6.579598039388656616e-02
8.617752045392990112e-02
-1.509995479136705399e-02
-1.050344668328762054e-02
-2.625873498618602753e-02
9.484753012657165527e-03
-1.262060645967721939e-02
-1.322959363460540771e-02
2.929695323109626770e-02
3.028982691466808319e-02
-6.975392811000347137e-03
-2.163600176572799683e-02
1.709008030593395233e-02
-8.031052350997924805e-02
8.635622216388583183e-04
9.196756035089492798e-02
-5.840249359607696533e-02
2.160770632326602936e-02
2.888052538037300110e-02
3.327981755137443542e-02
-1.325308252125978470e-02
-2.201825380325317383e-03
-1.137070078402757645e-02
1.171649154275655746e-02
-8.904754184186458588e-03
2.217275276780128479e-02
-7.005505263805389404e-03
2.562725357711315155e-02
-7.026752084493637085e-02
-7.582629472017288208e-02
-1.201353501528501511e-03
4.642883315682411194e-02
4.621392861008644104e-02
5.088814720511436462e-02
-1.547933835536241531e-02
-2.507943287491798401e-02
-1.034899577498435974e-01
3.302945196628570557e-02
-2.126048691570758820e-02
-5.578702315688133240e-03
3.361913934350013733e-02
2.231096103787422180e-02
2.023069374263286591e-02
2.708508446812629700e-02
-8.420054800808429718e-03
-2.479410171508789062e-02
2.885323762893676758e-02
-2.712661214172840118e-02
3.445342183113098145e-02
-1.615316979587078094e-02
-6.380700971931219101e-03
-2.223709225654602051e-02
8.734686300158500671e-03
2.974722348153591156e-02
1.926578767597675323e-02
-3.213483141735196114e-03
-3.067644312977790833e-02
8.563863486051559448e-02
3.723617875948548317e-03
-6.145787239074707031e-02
2.767456322908401489e-02
-1.466365810483694077e-02
-5.966187641024589539e-02
2.494143694639205933e-02
2.809777855873107910e-02
6.089085713028907776e-03
1.466267183423042297e-02
1.086623594164848328e-02
-2.553959377110004425e-03
-6.726506631821393967e-03
-5.346697755157947540e-03
-4.317899048328399658e-02
-3.657905384898185730e-02
-3.482729569077491760e-02
4.872380197048187256e-02
-4.021005332469940186e-02
-1.905070617794990540e-02
3.185952315106987953e-03
1.487048435956239700e-02
-1.458580978214740753e-02
2.708447352051734924e-02
9.398726746439933777e-03
9.441795758903026581e-03
1.468105707317590714e-02
1.440023304894566536e-03
2.136687561869621277e-02
-2.965171821415424347e-03
-1.442322041839361191e-02
2.231760509312152863e-02
-1.067760493606328964e-02
5.255980417132377625e-03
-2.078517898917198181e-02
-1.362327206879854202e-02
-3.244311362504959106e-02
-3.348859399557113647e-02
4.486907646059989929e-02
2.730284817516803741e-02
4.145728796720504761e-02
3.135938022751361132e-04
-5.029039923101663589e-03
-2.141780219972133636e-02
-1.322628557682037354e-02
2.827967703342437744e-02
3.683425486087799072e-02
-4.320736601948738098e-02
-4.573874920606613159e-02
1.790569163858890533e-02
4.893815889954566956e-02
1.127405092120170593e-02
-3.275261074304580688e-02
3.416121471673250198e-04
1.058483868837356567e-02
4.166436381638050079e-03
-3.753170743584632874e-02
2.129752887412905693e-03
-1.143641024827957153e-02
2.859905362129211426e-04
-1.182669494301080704e-02
-2.751044183969497681e-02
-3.456393489614129066e-03
2.549877762794494629e-02
1.049343775957822800e-02
5.111482366919517517e-02
-1.021655276417732239e-03
-1.290663494728505611e-03
-6.230061408132314682e-04
1.096757687628269196e-02
-5.188021808862686157e-02
3.110784105956554413e-02
-2.799902856349945068e-02
-1.598283275961875916e-02
-1.845732145011425018e-02
5.916683748364448547e-02
6.648995447903871536e-03
-3.445612266659736633e-02
2.971917390823364258e-02
2.292165718972682953e-02
4.616260994225740433e-03
1.991566643118858337e-02
-8.413858711719512939e-03
-2.585008926689624786e-02
-6.498712580651044846e-03
-1.277813338674604893e-03
2.482534199953079224e-02
-3.196520358324050903e-02
4.371077939867973328e-02
-6.909973919391632080e-02
3.784456988796591759e-03
-2.157568000257015228e-02
-1.377956126816570759e-03
2.807505056262016296e-02
2.755138091742992401e-02
2.149210311472415924e-02
4.923880100250244141e-02
3.313533216714859009e-02
-4.728561639785766602e-02
6.432728469371795654e-02
-1.084103509783744812e-01
3.765043802559375763e-03
-4.412734881043434143e-02
2.489147707819938660e-02
4.169525951147079468e-02
6.057261954993009567e-03
-1.727834343910217285e-02
3.428870067000389099e-02
-1.942727342247962952e-02
-1.207402255386114120e-02
-4.455629363656044006e-02
-5.328649654984474182e-02
-1.003809389658272266e-03
-2.389794588088989258e-02
3.330758959054946899e-02
5.630891770124435425e-02
1.230039075016975403e-02
-1.737735792994499207e-02
-3.755805268883705139e-02
-1.699112355709075928e-02
-6.293847411870956421e-02
-9.112846455536782742e-04
4.741097241640090942e-02
3.640424460172653198e-02
9.357687085866928101e-03
4.479752853512763977e-02
1.094567682594060898e-02
-5.165084823966026306e-02
-2.558405138552188873e-02
-2.457659877836704254e-02
3.231691569089889526e-02
-1.611378602683544159e-02
-6.713462062180042267e-03
7.761862128973007202e-02
2.669091336429119110e-03
3.581399470567703247e-02
-4.619417712092399597e-02
1.412341371178627014e-02
2.847993932664394379e-02
-1.598747912794351578e-03
-2.208570018410682678e-02
-1.363444840535521507e-03
7.926601683720946312e-04
5.593672767281532288e-02
7.454087026417255402e-03
-2.234756574034690857e-02
3.770980983972549438e-04
9.994477964937686920e-03
3.056820482015609741e-02
1.743315532803535461e-02
1.169627765193581581e-03
-5.934862792491912842e-02
7.667714264243841171e-03
-2.110779657959938049e-02
4.230090603232383728e-02
-4.650027025490999222e-03
-4.301617294549942017e-02
4.334552213549613953e-02
-5.648489110171794891e-03
-4.596826061606407166e-02
5.148750171065330505e-02
3.172780154272913933e-03
-2.897019498050212860e-02
7.285233587026596069e-03
2.529868483543395996e-02
-7.480652857339009643e-05
3.427232429385185242e-02
1.931073516607284546e-02
-2.760910801589488983e-02
3.347416967153549194e-02
-2.344876527786254883e-02
-1.346031296998262405e-02
-2.602676302194595337e-02
-3.308909758925437927e-02
6.992757320404052734e-02
-2.227653563022613525e-02
-1.078177616000175476e-02
1.942516490817070007e-02
-4.244356974959373474e-02
-3.853292390704154968e-02
9.979941695928573608e-02
1.985551323741674423e-03
-2.723755082115530968e-03
-4.410712281242012978e-04
-6.190838664770126343e-02
5.964295938611030579e-03
-1.632929034531116486e-02
6.183382496237754822e-02
-9.105065837502479553e-03
1.075133681297302246e-01
-3.415199369192123413e-02
-2.989488095045089722e-02
-4.533515125513076782e-02
-6.869498640298843384e-02
-1.751255430281162262e-02
2.599837630987167358e-02
-2.699481323361396790e-02
-1.757232099771499634e-02
2.037947252392768860e-02
5.202753096818923950e-02
1.851617172360420227e-02
-7.014770060777664185e-03
-3.469168394804000854e-02
-1.921247877180576324e-02
7.745508104562759399e-03
-9.878417477011680603e-03
-3.888145089149475098e-02
-1.735823974013328552e-02
6.611453741788864136e-02
-1.951306313276290894e-02
8.297406136989593506e-03
1.686603203415870667e-02
-4.606015980243682861e-03
2.164148166775703430e-02
-1.491125300526618958e-02
2.781367395073175430e-03
-2.974702604115009308e-02
-4.685346409678459167e-02
1.598532684147357941e-02
-6.903326511383056641e-02
1.674732193350791931e-02
8.670076727867126465e-02
3.813767805695533752e-03
-3.223267570137977600e-02
3.148143365979194641e-02
4.495087638497352600e-02
-1.787506230175495148e-02
3.669696673750877380e-02
2.969994954764842987e-02
-3.034988418221473694e-02
-4.285261034965515137e-03
2.286082319915294647e-02
1.922385534271597862e-03
-4.624218121170997620e-02
-6.458849529735743999e-04
2.155601978302001953e-02
2.978775650262832642e-02
-8.425348438322544098e-03
-4.658398404717445374e-02
1.618788950145244598e-02
-1.701300404965877533e-02
-5.282765254378318787e-02
-8.712533861398696899e-03
5.470141023397445679e-02
4.161435365676879883e-02
5.123110022395849228e-03
-1.370116230100393295e-02
9.739844128489494324e-03
-2.701069228351116180e-02
-6.682011764496564865e-03
1.307200174778699875e-02
-5.224159732460975647e-02
-7.059430703520774841e-03
4.326542094349861145e-02
2.985409647226333618e-02
5.838176701217889786e-03
3.461336717009544373e-02
-3.953033685684204102e-02
6.486008060164749622e-04
3.355212137103080750e-02
-5.776189733296632767e-03
-4.711983259767293930e-03
1.239525154232978821e-02
1.476784236729145050e-02
-5.435467697679996490e-03
-3.226243332028388977e-02
5.970421060919761658e-02
-3.759190067648887634e-02
8.482325822114944458e-02
-4.241942893713712692e-03
-6.065905094146728516e-02
-1.154824625700712204e-02
3.019661642611026764e-02
-2.849009260535240173e-02
-1.882910728454589844e-02
-3.648725152015686035e-02
1.345646101981401443e-02
1.461134292185306549e-03
1.640997268259525299e-02
2.403710735961794853e-03
-2.705513499677181244e-02
-1.401408202946186066e-02
1.961425133049488068e-02
-2.029875665903091431e-02
4.796272260136902332e-04
-1.607397757470607758e-02
5.453889444470405579e-02
-4.350817576050758362e-02
3.981487080454826355e-02
1.635798625648021698e-02
-6.302804104052484035e-04
1.227846741676330566e-02
-8.004586212337017059e-03
-3.035997215192764997e-04
-2.626217901706695557e-02
-2.334047481417655945e-02
-2.707027085125446320e-02
4.856073483824729919e-02
2.992436476051807404e-02
-4.296446219086647034e-02
-3.165448829531669617e-02
-1.863700710237026215e-02
4.006871208548545837e-02
-9.122552350163459778e-03
-1.626833342015743256e-02
2.794531919062137604e-02
-2.350643649697303772e-02
-2.198053337633609772e-02
2.980019152164459229e-02
-5.048958212137222290e-02
4.719167202711105347e-02
2.815813571214675903e-02
-2.055987156927585602e-02
1.917252317070960999e-02
2.419491298496723175e-02
-3.886587172746658325e-02
1.194008719176054001e-02
-4.311983287334442139e-02
2.598054520785808563e-02
-3.372467588633298874e-03
-4.066903609782457352e-03
2.393885049968957901e-03
1.688296534121036530e-02
-1.467678230255842209e-03
8.000542875379323959e-04
-3.008895553648471832e-02
-2.356486953794956207e-02
-2.054494805634021759e-02
1.803061552345752716e-02
6.022404413670301437e-03
2.019825764000415802e-02
-1.890158653259277344e-02
1.487434934824705124e-02
-2.445364743471145630e-02
1.368728931993246078e-02
9.121305309236049652e-03
-4.681972041726112366e-02
-4.413499496877193451e-03
2.485880069434642792e-02
-3.020588122308254242e-02
5.083172768354415894e-02
3.403909876942634583e-02
-2.584613114595413208e-02
2.712067915126681328e-03
-2.152077481150627136e-02
-1.066279970109462738e-02
-6.098802760243415833e-02
5.142137035727500916e-02
-9.948158636689186096e-03
-4.053141549229621887e-02
-2.009495906531810760e-02
3.831901401281356812e-02
3.608027100563049316e-02
-6.941801309585571289e-02
2.233780734241008759e-02
4.910495504736900330e-02
5.327325314283370972e-02
-5.050472449511289597e-03
8.601047843694686890e-02
-7.406301051378250122e-02
2.044058404862880707e-03
-5.412394646555185318e-03
2.877016365528106689e-02
-4.106518626213073730e-02
2.954917727038264275e-03
-5.871259048581123352e-02
5.846395506523549557e-04
2.420975361019372940e-03
2.073927409946918488e-02
-5.545180663466453552e-02
2.645133994519710541e-02
1.581412181258201599e-02
-1.951414346694946289e-02
-4.504792392253875732e-03
3.469906002283096313e-02
-6.422022357583045959e-03
-2.864601835608482361e-02
2.391788439126685262e-04
-2.006658166646957397e-02
-1.117029227316379547e-02
-5.457688122987747192e-02
7.378555089235305786e-02
8.752706460654735565e-03
2.593615092337131500e-02
1.859844289720058441e-02
-2.748576179146766663e-02
-2.569975145161151886e-02
-8.102925494313240051e-03
1.881588995456695557e-02
-7.677359040826559067e-03
-1.745881140232086182e-02
1.842113770544528961e-02
-8.132343180477619171e-03
-1.927416585385799408e-02
-8.783038938418030739e-04
3.881689906120300293e-02
4.179236292839050293e-02
-5.208035185933113098e-02
-1.658972911536693573e-02
-1.210946775972843170e-02
2.948249503970146179e-02
-3.489729017019271851e-02
-1.168350502848625183e-02
4.114916548132896423e-02
1.170285884290933609e-02
-5.280662700533866882e-02
-2.218081615865230560e-02
2.185177803039550781e-02
-9.282344835810363293e-04
2.413565292954444885e-02
-2.966244332492351532e-02
3.796318173408508301e-02
3.440842777490615845e-02
-3.900122269988059998e-02
-2.625561878085136414e-02
2.095188573002815247e-02
-3.191512450575828552e-02
1.294363569468259811e-02
7.252984214574098587e-04
4.435042664408683777e-02
4.752833023667335510e-02
8.425868116319179535e-03
-1.763274520635604858e-02
-8.312364108860492706e-03
-2.571026608347892761e-02
-1.035579293966293335e-02
3.523719310760498047e-02
-3.864374384284019470e-02
-3.771184757351875305e-02
6.282289326190948486e-02
1.884656213223934174e-02
-8.183981478214263916e-02
3.807564079761505127e-02
-5.578088760375976562e-02
1.818327419459819794e-02
3.807804360985755920e-02
-1.322149578481912613e-02
1.629284396767616272e-02
-1.328237913548946381e-02
-1.361874956637620926e-02
9.183981455862522125e-03
2.130240760743618011e-02
8.241572231054306030e-02
-4.357183352112770081e-02
-2.200543507933616638e-02
9.255442768335342407e-03
-1.838360726833343506e-02
-3.040540963411331177e-02
-4.384811222553253174e-02
-1.547449547797441483e-02
7.299840450286865234e-02
-2.849644050002098083e-02
2.683197893202304840e-02
2.165753580629825592e-02
3.230441361665725708e-02
1.367575954645872116e-02
1.945612137205898762e-03
-1.443339977413415909e-02
-3.191744163632392883e-02
3.931230679154396057e-02
4.475906118750572205e-02
-2.833788655698299408e-02
-2.231802977621555328e-02
-1.523065729998052120e-03
1.262697484344244003e-02
2.372036315500736237e-02
1.117790117859840393e-01
7.555128540843725204e-03
-2.840811945497989655e-02
-9.086112491786479950e-03
8.398237405344843864e-04
-2.863491140305995941e-02
-9.104679338634014130e-03
-1.072367373853921890e-02
2.804459631443023682e-02
-5.263327807188034058e-02
1.705822721123695374e-02
3.476532292552292347e-04
-1.070590410381555557e-02
4.727331548929214478e-02
-5.827698856592178345e-03
3.574476810172200203e-03
1.655411161482334137e-02
-1.183630526065826416e-02
-3.751583397388458252e-02
-8.934885263442993164e-03
-3.231381997466087341e-03
1.848416775465011597e-02
-2.234256640076637268e-02
6.470072269439697266e-02
1.172938034869730473e-03
5.493392422795295715e-02
-7.026953622698783875e-03
-1.713979057967662811e-02
-7.598003000020980835e-02
-2.136765420436859131e-02
-2.856692112982273102e-02
2.339628990739583969e-03
2.023039199411869049e-02
5.164184793829917908e-02
-1.220133993774652481e-02
-1.956639438867568970e-02
-5.282050464302301407e-03
2.160861156880855560e-02
-6.122889462858438492e-03
-1.077564619481563568e-02
7.657281309366226196e-02
-1.264232955873012543e-02
3.623744938522577286e-03
4.354047775268554688e-02
-5.045738443732261658e-02
-6.639617495238780975e-03
-9.155274368822574615e-03
-2.851500175893306732e-02
1.611910760402679443e-02
-3.467667847871780396e-02
1.304826047271490097e-02
1.575558679178357124e-03
1.855856925249099731e-02
1.815266720950603485e-02
-1.270253397524356842e-02
1.835982128977775574e-02
-4.056108742952346802e-02
5.982924252748489380e-02
-1.420823018997907639e-02
-3.060939721763134003e-02
5.775264464318752289e-03
-9.099142625927925110e-03
-3.251698240637779236e-02
2.946356311440467834e-02
1.210848684422671795e-03
-2.228539623320102692e-02
-1.346217561513185501e-02
6.583806127309799194e-02
-8.568108314648270607e-04
-2.012510597705841064e-02
1.555699016898870468e-02
-9.773647040128707886e-02
3.206593543291091919e-02
-1.586571522057056427e-02
3.934092819690704346e-02
-8.709376677870750427e-03
-1.656568795442581177e-02
6.666914373636245728e-02
1.275053154677152634e-02
-1.994658075273036957e-02
-3.786668181419372559e-02
2.587274648249149323e-02
-3.493722155690193176e-02
-3.340703994035720825e-02
2.260300889611244202e-02
1.200174912810325623e-02
-9.346219711005687714e-03
4.045864939689636230e-02
2.899231202900409698e-02
-1.509675849229097366e-02
-7.466858625411987305e-02
2.066678926348686218e-02
1.109835226088762283e-02
-5.214579403400421143e-02
-1.519180834293365479e-03
-1.930255908519029617e-03
3.045571222901344299e-02
5.607759207487106323e-02
2.207003068178892136e-03
6.660842336714267731e-03
-2.011706866323947906e-02
-7.074385415762662888e-03
1.256682164967060089e-02
1.128815673291683197e-02
-8.120537735521793365e-03
7.563909515738487244e-03
2.833496220409870148e-02
-4.887252580374479294e-03
-2.380125224590301514e-03
2.267715334892272949e-02
6.260748207569122314e-02
-5.198917817324399948e-03
-7.630118727684020996e-02
1.622045412659645081e-02
-2.195765078067779541e-02
6.522043608129024506e-03
3.678429499268531799e-02
2.489535324275493622e-02
-5.635336041450500488e-02
1.128871366381645203e-02
1.542995497584342957e-02
-1.568483561277389526e-02
9.955661371350288391e-03
1.880409009754657745e-02
-1.056353282183408737e-02
6.235668435692787170e-02
1.700888201594352722e-02
-3.791289776563644409e-02
-8.872689679265022278e-03
-4.270091280341148376e-02
4.835926368832588196e-02
-2.199742011725902557e-02
-2.824450470507144928e-02
-1.182411517947912216e-02
-3.917401190847158432e-03
1.068743877112865448e-02
-2.957809343934059143e-02
7.752831559628248215e-03
-2.351529547013342381e-04
1.513806264847517014e-02
-6.825610995292663574e-02
1.684518903493881226e-02
-4.987479001283645630e-02
-2.967869304120540619e-02
-1.094300858676433563e-02
-3.537985263392329216e-03
1.111149555072188377e-03
1.989680901169776917e-02
2.070879377424716949e-02
6.813280284404754639e-02
-3.586933389306068420e-02
3.510425239801406860e-02
-2.227123361080884933e-03
-2.231412567198276520e-02
6.515251006931066513e-03
-3.639511391520500183e-02
1.622178591787815094e-02
4.334980249404907227e-02
1.513994671404361725e-02
-2.469770982861518860e-02
-1.237854640930891037e-02
2.729508280754089355e-02
-9.063986944966018200e-04
3.909721970558166504e-03
-2.413376467302441597e-03
-5.461258697323501110e-04
1.380770094692707062e-02
-4.310215637087821960e-02
-1.355093810707330704e-02
2.477246150374412537e-02
2.346476912498474121e-02
-5.931698158383369446e-02
1.068828627467155457e-02
-5.784033983945846558e-02
5.012937635183334351e-02
1.389908790588378906e-02
1.154704764485359192e-02
4.720410332083702087e-02
-3.417319059371948242e-02
2.135355211794376373e-02
-2.605974860489368439e-02
-1.239503617398440838e-03
2.996304258704185486e-02
-2.377984859049320221e-02
5.231584422290325165e-03
1.092710625380277634e-02
1.506630331277847290e-02
5.577892530709505081e-03
-2.084493264555931091e-02
-1.035967259667813778e-03
-4.922648519277572632e-02
5.373810604214668274e-02
2.283719182014465332e-02
-3.310801833868026733e-02
-3.382267430424690247e-02
9.380347095429897308e-03
3.636736050248146057e-02
1.174697466194629669e-02
-2.366826683282852173e-02
2.074155211448669434e-02
1.100087631493806839e-02
-1.674181967973709106e-02
3.535417839884757996e-02
-3.352165454998612404e-03
4.272574558854103088e-02
-1.868980564177036285e-02
-4.276745487004518509e-03
-1.138290483504533768e-02
-1.602364145219326019e-02
-2.970812655985355377e-02
-4.208819195628166199e-02
-1.283767167478799820e-02
3.744459152221679688e-02
-4.211758449673652649e-02
1.315490808337926865e-02
1.592599973082542419e-02
4.538666084408760071e-02
-3.768255934119224548e-02
-7.962095551192760468e-03
9.410319849848747253e-03
3.984125331044197083e-02
-1.848362758755683899e-02
1.269539538770914078e-02
-5.607395991683006287e-02
-2.645662985742092133e-02
-5.163506139069795609e-03
-2.163745649158954620e-02
2.767181210219860077e-02
1.779632642865180969e-02
-1.361536514014005661e-02
1.797902397811412811e-02
-1.490078517235815525e-03
9.827252943068742752e-04
1.784395426511764526e-02
-3.230489417910575867e-02
1.107278279960155487e-03
-1.094141788780689240e-02
-2.649157866835594177e-02
1.315421890467405319e-02
1.066939439624547958e-02
-7.662269752472639084e-03
2.685714513063430786e-02
1.599667593836784363e-02
6.609688280150294304e-04
-4.939003288745880127e-02
1.268586236983537674e-02
-1.042082533240318298e-02
-5.526006966829299927e-02
-6.791891064494848251e-03
5.125493183732032776e-02
-3.220642730593681335e-02
1.325515564531087875e-03
3.188704838976264000e-03
9.938182309269905090e-03
1.056859549134969711e-02
8.168616914190351963e-04
-3.792218165472149849e-03
8.356533013284206390e-03
-9.773771744221448898e-04
1.189376879483461380e-02
1.794818788766860962e-02
8.696405566297471523e-04
2.507545240223407745e-02
9.220084175467491150e-03
1.707402244210243225e-02
-8.202004246413707733e-03
-2.701315842568874359e-02
-8.402811363339424133e-03
-2.245077490806579590e-02
3.270724264439195395e-04
5.089820362627506256e-03
1.750099658966064453e-02
-6.458209361881017685e-03
1.404095254838466644e-02
-3.139757737517356873e-02
-1.018535904586315155e-02
-6.551288813352584839e-02
1.539819687604904175e-02
6.424553692340850830e-02
1.129117980599403381e-02
1.437903009355068207e-02
3.355420753359794617e-02
-1.345609035342931747e-02
2.372186258435249329e-02
-9.706771932542324066e-03
-4.971503280103206635e-03
-4.000181704759597778e-02
-1.708482205867767334e-02
-7.486913353204727173e-03
-5.076099187135696411e-03
7.476300466805696487e-03
3.374017775058746338e-02
1.125734671950340271e-02
-1.725705713033676147e-02
1.386813912540674210e-02
-1.024718862026929855e-02
5.611935630440711975e-02
-5.637782439589500427e-02
-2.254497073590755463e-02
-1.218457613140344620e-02
-2.253961563110351562e-02
2.177191153168678284e-02
-4.742695484310388565e-03
-3.084825724363327026e-02
-3.288612514734268188e-02
2.080244198441505432e-02
-3.954151645302772522e-02
1.991604268550872803e-02
1.740005612373352051e-02
5.144244059920310974e-02
2.449131570756435394e-02
-2.765828743577003479e-03
-2.973059751093387604e-02
-8.057266473770141602e-02
1.394423842430114746e-02
-1.661695539951324463e-02
-1.655497960746288300e-02
3.455915302038192749e-02
2.418964356184005737e-02
1.261469256132841110e-02
1.750408858060836792e-02
-1.299498137086629868e-02
-3.973945230245590210e-02
1.139209792017936707e-02
-3.599101677536964417e-02
5.507373437285423279e-02
-1.285903807729482651e-02
-1.418254803866147995e-02
-1.748969219624996185e-02
3.708124160766601562e-02
-1.871619559824466705e-02
-5.302080139517784119e-02
-2.041107974946498871e-02
1.756188273429870605e-02
5.014226958155632019e-02
3.475869446992874146e-02
1.828608103096485138e-02
-3.994469344615936279e-02
-1.520003005862236023e-02
8.113559335470199585e-03
-3.763988614082336426e-03
-2.838875725865364075e-02
2.932870760560035706e-02
3.934794664382934570e-02
-9.839104488492012024e-03
-1.109412312507629395e-02
-8.636300452053546906e-03
4.957644734531641006e-03
-8.115313947200775146e-03
-2.784855663776397705e-02
-2.956081368029117584e-02
6.460370961576700211e-03
-7.669575861655175686e-04
3.250387730076909065e-03
2.937325509265065193e-03
4.769260436296463013e-02
-4.017401114106178284e-02
-2.214579470455646515e-02
2.967171370983123779e-02
-1.979884225875139236e-03
7.269035093486309052e-03
3.250229358673095703e-02
-1.984059810638427734e-02
-1.606913842260837555e-02
-9.385320357978343964e-03
4.001300316303968430e-03
-2.140050928574055433e-04
1.776037551462650299e-02
-4.315810278058052063e-03
-6.570900324732065201e-03
-1.143674086779356003e-02
-7.524595409631729126e-02
1.645501703023910522e-02
-1.742197945713996887e-02
1.998511143028736115e-03
1.291777100414037704e-02
1.687398739159107208e-02
4.507774114608764648e-02
-8.835230953991413116e-03
2.904880791902542114e-02
4.422660917043685913e-02
-6.976683437824249268e-02
-2.359474077820777893e-02
5.095895379781723022e-02
9.329511784017086029e-03
-9.567265398800373077e-03
-2.893737144768238068e-02
4.235301911830902100e-02
1.464582793414592743e-02
-4.141732305288314819e-02
-1.985313370823860168e-02
-2.291571907699108124e-02
-1.470376085489988327e-02
-3.746424568817019463e-03
-1.112996228039264679e-02
-4.851492866873741150e-02
7.249392103403806686e-03
7.915304601192474365e-02
2.229207567870616913e-02
3.060818836092948914e-02
-6.908747367560863495e-03
3.469857200980186462e-02
-8.276198990643024445e-03
2.296075597405433655e-02
-8.490618318319320679e-02
1.080557052046060562e-02
-2.535079605877399445e-02
-2.496073581278324127e-02
1.784122362732887268e-02
5.932961776852607727e-02
2.967195026576519012e-02
2.117521688342094421e-02
2.965913154184818268e-02
2.383982017636299133e-02
2.755825594067573547e-02
-4.905614629387855530e-02
1.613451726734638214e-02
-8.625181764364242554e-02
-1.753527484834194183e-02
-1.019471511244773865e-02
1.389235444366931915e-02
-8.510751649737358093e-03
4.152565822005271912e-02
-2.770274132490158081e-02
-1.325392257422208786e-02
3.109547542408108711e-03
2.327748760581016541e-02
-2.962845563888549805e-02
-6.458909250795841217e-03
2.552741765975952148e-02
8.557444438338279724e-03
4.660195205360651016e-03
-2.937054075300693512e-02
1.590425334870815277e-02
-6.044466421008110046e-02
3.353286162018775940e-02
-2.454672381281852722e-02
1.481048576533794403e-02
4.411513730883598328e-02
1.551668625324964523e-02
-1.391414436511695385e-03
5.508847907185554504e-02
-6.754851341247558594e-02
-1.978926174342632294e-02
-2.591601514723151922e-04
-1.000099107623100281e-01
5.676897615194320679e-02
-2.500255033373832703e-02
2.842053398489952087e-02
5.292841419577598572e-02
-1.231173053383827209e-02
-1.289404579438269138e-03
-4.536484833806753159e-03
-6.786906719207763672e-02
-3.822572156786918640e-02
2.035895548760890961e-02
7.446441054344177246e-02
1.330051384866237640e-02
-1.558011746965348721e-03
2.123538777232170105e-02
-3.211866132915019989e-03
-1.950713060796260834e-02
-1.105066668242216110e-02
-3.629010915756225586e-02
-9.137494489550590515e-03
-8.173528127372264862e-03
-1.154121104627847672e-02
4.033777117729187012e-02
-1.361038885079324245e-03
3.236352279782295227e-02
-2.403669245541095734e-02
2.966401865705847740e-03
-2.245760150253772736e-02
-8.719202131032943726e-03
5.580984987318515778e-03
9.727912023663520813e-03
-2.794674970209598541e-02
6.890606135129928589e-02
-3.638621419668197632e-03
-2.609206736087799072e-02
-3.987872973084449768e-02
4.623202141374349594e-03
3.859902918338775635e-02
-4.078172147274017334e-03
1.178574841469526291e-02
-3.489650785923004150e-02
3.451229259371757507e-02
-3.324528411030769348e-02
2.314308285713195801e-02
-1.817002543248236179e-03
-5.416882038116455078e-02
1.161953993141651154e-02
5.558176338672637939e-02
-4.779941588640213013e-02
1.521434541791677475e-02
1.343197189271450043e-02
5.251556634902954102e-03
7.415249478071928024e-03
-1.319489558227360249e-03
-1.407094858586788177e-02
4.069804772734642029e-02
-6.321400403976440430e-03
3.142209723591804504e-02
-5.334902554750442505e-03
-3.007390350103378296e-02
-6.959548592567443848e-02
6.279610097408294678e-02
-5.311084538698196411e-02
1.680168136954307556e-02
8.086671121418476105e-03
-1.017809566110372543e-02
-7.089842576533555984e-03
-3.941627591848373413e-02
-3.316106274724006653e-02
6.976168602705001831e-02
-2.754636574536561966e-03
-3.393892571330070496e-02
6.575531512498855591e-02
-1.710712537169456482e-02
3.209321526810526848e-03
-2.545504085719585419e-02
-1.368106901645660400e-02
-6.708412617444992065e-02
3.597992658615112305e-02
1.965998299419879913e-02
-3.492094948887825012e-02
-2.369620651006698608e-02
5.277994647622108459e-02
1.761411130428314209e-02
4.194863885641098022e-02
-4.283655062317848206e-02
5.421647429466247559e-02
-1.120562292635440826e-02
2.134521305561065674e-02
5.191896855831146240e-02
-3.078408353030681610e-02
9.642309509217739105e-03
-1.415544748306274414e-02
6.847780197858810425e-03
-1.927786134183406830e-02
-2.107672393321990967e-02
-3.431316232308745384e-03
3.236273676156997681e-02
-2.235375158488750458e-02
2.921135351061820984e-02
7.205861806869506836e-02
-2.599287405610084534e-02
-5.333138164132833481e-03
-4.853407293558120728e-02
-1.842807233333587646e-02
1.005122344940900803e-02
-3.742424026131629944e-02
-1.704265736043453217e-02
-3.890487924218177795e-02
4.618628323078155518e-02
-1.082617603242397308e-02
2.109072543680667877e-02
-2.394123375415802002e-02
1.677039079368114471e-02
4.537021368741989136e-02
8.080057799816131592e-03
4.047415778040885925e-02
4.176696296781301498e-03
-3.265457227826118469e-02
1.802698895335197449e-02
-2.243888564407825470e-02
-2.680145576596260071e-02
-3.199088945984840393e-02
7.559618679806590080e-04
-1.105768606066703796e-02
6.601774692535400391e-02
-3.649452235549688339e-03
-3.526224941015243530e-02
4.462909884750843048e-03
-2.746533229947090149e-02
-7.907577790319919586e-03
-4.290717095136642456e-02
2.746682055294513702e-02
1.828776672482490540e-02
-1.005729936878196895e-04
-1.668117754161357880e-02
-1.772150769829750061e-02
2.663450315594673157e-02
-6.214099004864692688e-02
1.495694834738969803e-02
-1.618331298232078552e-02
8.850174956023693085e-03
8.245643228292465210e-02
1.404198911041021347e-02
-3.635623306035995483e-02
2.860346436500549316e-02
-4.143574461340904236e-02
-7.710008881986141205e-03
7.001654803752899170e-02
-2.658436074852943420e-02
2.174727246165275574e-02
-3.502533584833145142e-02
2.131140790879726410e-03
1.191661879420280457e-02
-1.963761821389198303e-02
7.131244521588087082e-03
-2.609420940279960632e-02
4.010789096355438232e-03
-8.536292240023612976e-03
1.890699937939643860e-02
6.057959049940109253e-03
-1.163426320999860764e-02
-5.110263451933860779e-02
1.893047476187348366e-03
4.912492632865905762e-02
1.156974304467439651e-02
-2.106120809912681580e-03
4.263331647962331772e-03
-2.650908008217811584e-02
-2.057203091681003571e-02
1.339083258062601089e-02
3.679466620087623596e-02
-1.324273552745580673e-02
1.123449113219976425e-02
-1.031216420233249664e-02
5.043588951230049133e-02
-2.465347945690155029e-02
1.128927338868379593e-02
6.908707786351442337e-03
-2.209270931780338287e-02
2.480949833989143372e-02
-4.995374381542205811e-02
1.892035454511642456e-02
-3.360570222139358521e-02
3.704668022692203522e-03
-8.887497335672378540e-02
4.863096773624420166e-02
2.921220846474170685e-02
-2.288152836263179779e-02
8.029524236917495728e-03
-2.256552502512931824e-02
5.470857769250869751e-02
1.894914172589778900e-02
-1.720220781862735748e-02
1.267321407794952393e-02
-3.186480328440666199e-02
-2.133253775537014008e-02
3.331699594855308533e-02
-1.123941224068403244e-02
4.213435947895050049e-02
4.748542793095111847e-03
-1.831046864390373230e-02
2.056343294680118561e-02
8.210129104554653168e-03
-9.106346406042575836e-03
-1.038595754653215408e-02
-4.674278199672698975e-02
4.996888339519500732e-02
-1.073232293128967285e-02
-3.857282549142837524e-02
1.591025106608867645e-02
4.622463881969451904e-02
1.397555880248546600e-02
-5.130087025463581085e-03
-1.479430776089429855e-02
-3.678415343165397644e-02
-1.382714323699474335e-02
5.979966837912797928e-03
-1.148235145956277847e-02
3.721166402101516724e-02
2.709985710680484772e-02
-2.169178612530231476e-02
-9.476608596742153168e-03
1.311207562685012817e-02
3.417081024963408709e-04
-5.961288511753082275e-02
9.119574911892414093e-03
2.380283921957015991e-02
-1.488928683102130890e-02
4.061634093523025513e-02
4.890577495098114014e-02
-2.262619324028491974e-02
-1.187472511082887650e-02
3.744282992556691170e-03
-6.408106070011854172e-03
2.728598192334175110e-02
-3.520160913467407227e-03
-6.708747148513793945e-02
-1.817603595554828644e-02
-1.478223595768213272e-02
3.811425343155860901e-02
-1.865909318439662457e-03
2.949140034615993500e-02
1.785723492503166199e-02
9.176926687359809875e-03
3.995480388402938843e-02
-3.714736178517341614e-02
1.010593101382255554e-01
-9.109249711036682129e-02
5.170477926731109619e-02
-5.275351554155349731e-02
1.002893596887588501e-01
-6.310532987117767334e-02
7.758435793220996857e-03
-4.386281594634056091e-02
-6.419930141419172287e-03
5.858960375189781189e-02
6.018996983766555786e-02
-6.062451004981994629e-02
-1.808265037834644318e-02
9.378078393638134003e-03
-1.029901206493377686e-02
-8.900138735771179199e-02
4.236488044261932373e-02
1.674310863018035889e-02
-5.556922871619462967e-03
2.987886033952236176e-02
3.128451062366366386e-03
1.993711106479167938e-02
-5.136185511946678162e-02
2.741281129419803619e-02
-1.831101067364215851e-02
2.355002984404563904e-02
2.439612708985805511e-02
-7.432550936937332153e-02
-2.297089807689189911e-02
8.200590498745441437e-03
-8.513573557138442993e-03
1.109018176794052124e-02
-2.550393901765346527e-02
1.646931469440460205e-02
5.480400752276182175e-03
-1.614363305270671844e-02
-5.329773761332035065e-03
5.100331455469131470e-02
4.473148286342620850e-02
-6.184491142630577087e-02
-3.089138679206371307e-02
-3.571253910195082426e-04
2.701098658144474030e-02
-3.335428982973098755e-02
6.768904626369476318e-02
6.276351213455200195e-02
1.681228727102279663e-02
-4.297268763184547424e-02
1.081711333245038986e-02
1.613116823136806488e-02
-5.452982615679502487e-03
4.570804536342620850e-02
-3.248053044080734253e-02
2.919793687760829926e-02
-3.296304121613502502e-02
-1.513687148690223694e-02
-3.708415478467941284e-02
1.919890381395816803e-02
-4.993152990937232971e-02
1.164182834327220917e-02
2.820903249084949493e-02
5.070368945598602295e-02
3.044138103723526001e-02
-2.091748826205730438e-02
-5.598902329802513123e-02
-3.154056519269943237e-02
-3.022639639675617218e-02
8.110587485134601593e-03
-1.195321790874004364e-02
-7.381531596183776855e-02
-9.030332416296005249e-02
1.129215303808450699e-02
3.515983000397682190e-02
-5.982549395412206650e-03
1.806494966149330139e-02
6.394726037979125977e-02
-2.337305195396766067e-04
2.637313120067119598e-02
1.123424619436264038e-02
-2.335632778704166412e-02
-8.937863633036613464e-03
-4.789395257830619812e-02
2.257231250405311584e-02
2.719462383538484573e-03
3.005101345479488373e-02
2.135281823575496674e-02
1.596847921609878540e-02
-2.960908599197864532e-02
-3.226490691304206848e-02
4.010933451354503632e-03
-7.428141683340072632e-02
5.455670878291130066e-02
5.897281691431999207e-02
-1.509981695562601089e-02
-2.549706026911735535e-03
4.283265396952629089e-02
-1.238403841853141785e-02
-2.776766894385218620e-03
2.269727550446987152e-02
-3.134380280971527100e-02
-3.365665674209594727e-02
1.432898640632629395e-02
1.688973419368267059e-02
8.061475120484828949e-03
-3.059330396354198456e-03
-6.436592899262905121e-03
-1.442105975002050400e-02
-9.684796445071697235e-03
9.820816665887832642e-02
9.059392847120761871e-03
-1.752323284745216370e-02
2.962766215205192566e-02
-2.451638877391815186e-02
-4.117832705378532410e-02
-7.235761731863021851e-04
-6.619767099618911743e-02
7.654176093637943268e-03
-1.030285935848951340e-02
1.438060589134693146e-02
-4.056769609451293945e-02
-1.777962595224380493e-02
3.521299362182617188e-02
-6.226098630577325821e-04
-1.786253042519092560e-02
2.595667261630296707e-03
5.072721280157566071e-03
-2.096551656723022461e-02
2.523708529770374298e-02
-8.444526232779026031e-03
2.877283468842506409e-02
-1.056921202689409256e-03
3.944053500890731812e-02
-1.394217368215322495e-02
3.697431832551956177e-02
-3.253655880689620972e-02
9.097866714000701904e-03
-4.880125448107719421e-02
-1.147476839832961559e-03
-1.936602964997291565e-02
1.930060051381587982e-02
-1.584607921540737152e-02
2.702877111732959747e-02
-3.711533918976783752e-02
-3.114781901240348816e-02
-1.381634734570980072e-02
3.864077851176261902e-02
7.526649627834558487e-03
1.048609707504510880e-02
6.187057495117187500e-02
7.794295670464634895e-04
3.958843648433685303e-02
1.675184257328510284e-02
-2.511736005544662476e-02
-8.926314301788806915e-03
-4.619161132723093033e-03
-2.580561488866806030e-02
1.112162414938211441e-02
-4.531592875719070435e-02
2.063641510903835297e-02
1.454156078398227692e-02
-4.048104456160217524e-04
-1.272543892264366150e-02
-2.925224043428897858e-02
-7.943811826407909393e-03
-2.186474576592445374e-02
3.111584670841693878e-02
-2.956421300768852234e-02
3.949538990855216980e-02
3.180034691467881203e-03
-4.202815704047679901e-03
-2.875994890928268433e-02
5.119064822793006897e-02
-7.352177053689956665e-04
-3.865449503064155579e-02
2.431778796017169952e-02
6.647519767284393311e-02
-8.889080025255680084e-03
-7.215616852045059204e-02
-5.249537061899900436e-03
-6.073301658034324646e-02
2.345248498022556305e-02
-1.148852892220020294e-02
2.838367596268653870e-03
-3.070560749620199203e-03
1.018736790865659714e-02
8.955709636211395264e-02
-2.624053321778774261e-02
-1.546901930123567581e-02
-2.239185851067304611e-03
5.103882029652595520e-02
-8.840325288474559784e-03
-2.948050945997238159e-02
1.604015193879604340e-02
-1.986955665051937103e-02
-1.512975618243217468e-02
-1.218877825886011124e-02
4.749060422182083130e-02
-2.996928803622722626e-02
-6.355994194746017456e-02
6.642133742570877075e-02
-5.087632685899734497e-02
3.700956935063004494e-03
6.828042864799499512e-02
1.137845776975154877e-02
4.652967303991317749e-02
-2.402760088443756104e-02
-3.930466994643211365e-02
3.043575026094913483e-02
4.236139729619026184e-02
3.489598166197538376e-04
-1.651817187666893005e-02
-7.987194694578647614e-03
-2.389721572399139404e-03
1.229171641170978546e-02
1.981923542916774750e-02
-4.190562292933464050e-02
1.145832799375057220e-02
1.387086603790521622e-02
5.233813822269439697e-02
-1.449270732700824738e-02
-5.078899487853050232e-02
3.272702172398567200e-02
2.931316755712032318e-02
-3.298796946182847023e-04
9.488278999924659729e-03
-1.814454048871994019e-02
-2.857591398060321808e-02
-1.461808662861585617e-02
5.266476422548294067e-02
5.302683450281620026e-03
4.289160668849945068e-02
-4.936671257019042969e-02
1.960111549124121666e-03
-1.541750505566596985e-02
-5.213275086134672165e-03
-3.422119840979576111e-02
-6.667217705398797989e-03
1.260762009769678116e-02
2.894688583910465240e-02
1.676573650911450386e-03
-5.260986462235450745e-02
-3.272143751382827759e-02
1.207148772664368153e-03
2.535932883620262146e-02
2.684779278934001923e-02
1.000867318361997604e-02
-1.005597412586212158e-03
3.566215559840202332e-02
-5.742120370268821716e-02
5.974252521991729736e-02
-3.950773179531097412e-02
3.937673941254615784e-02
-4.114016890525817871e-02
-1.169883832335472107e-02
-6.404730491340160370e-03
-2.254142658784985542e-03
1.925745233893394470e-02
4.563780874013900757e-02
-2.069405093789100647e-02
3.946594893932342529e-02
1.100504305213689804e-02
6.575962994247674942e-03
6.374263204634189606e-03
-5.742604658007621765e-02
1.529317721724510193e-02
3.463053330779075623e-02
4.216881003230810165e-03
-2.219381183385848999e-02
7.481579668819904327e-04
4.107533022761344910e-02
-1.173431053757667542e-02
-2.825509756803512573e-03
-1.672830618917942047e-02
-6.512963678687810898e-03
8.147249929606914520e-03
-1.429217122495174408e-02
-7.647802587598562241e-03
1.035744044929742813e-02
-4.076093318872153759e-04
-5.432164669036865234e-02
1.621101982891559601e-02
-1.963554508984088898e-02
4.092918243259191513e-03
2.721633948385715485e-02
-3.132531419396400452e-02
5.892481654882431030e-02
-3.713116422295570374e-02
1.039254758507013321e-02
-3.010362572968006134e-02
4.854054749011993408e-02
5.439149215817451477e-02
-1.725321076810359955e-02
-1.040311902761459351e-02
-1.655354164540767670e-02
-4.591619223356246948e-02
-2.245712652802467346e-02
-9.475408121943473816e-03
3.722962364554405212e-02
-6.003830209374427795e-02
6.826244294643402100e-02
1.501291710883378983e-02
-8.179316297173500061e-03
-8.362101763486862183e-02
-1.604394428431987762e-02
4.357799515128135681e-02
2.103635668754577637e-02
-2.858383022248744965e-02
4.414810985326766968e-02
-1.947354525327682495e-02
2.206759713590145111e-02
2.455569058656692505e-02
3.652066690847277641e-03
-8.115905337035655975e-03
1.137516926974058151e-02
1.833076588809490204e-02
4.722584970295429230e-03
1.499846810474991798e-03
-6.417679786682128906e-02
1.277564465999603271e-02
-8.226800709962844849e-03
2.034681662917137146e-02
-1.744330674409866333e-02
-2.397775463759899139e-02
1.051156548783183098e-03
4.476052522659301758e-02
3.353808820247650146e-02
-1.387968007475137711e-02
-1.628049649298191071e-02
5.446211900562047958e-03
1.906894380226731300e-03
6.906784325838088989e-02
-6.025347113609313965e-02
-3.173450380563735962e-02
-5.407959967851638794e-02
-6.896746810525655746e-03
6.100491620600223541e-03
2.170882932841777802e-02
-6.231817882508039474e-03
-3.527454659342765808e-02
-2.213026862591505051e-03
4.701252281665802002e-02
3.360952017828822136e-03
-2.051150612533092499e-02
-5.653811618685722351e-02
3.123411210253834724e-03
1.745857298374176025e-02
1.594341010786592960e-03
8.987583220005035400e-03
-1.243674103170633316e-02
2.466615103185176849e-02
-8.249719627201557159e-03
-2.096315845847129822e-03
-6.705027539283037186e-03
8.778332732617855072e-03
-3.412697091698646545e-02
-3.412798419594764709e-02
-2.888331376016139984e-02
3.525464981794357300e-02
-2.466282621026039124e-02
1.533061731606721878e-02
3.837915137410163879e-03
-1.251877378672361374e-02
-2.039828104898333549e-03
2.527694217860698700e-02
-2.749319560825824738e-02
7.445153314620256424e-04
-1.673490926623344421e-02
3.541946783661842346e-02
1.940914802253246307e-02
2.878410369157791138e-02
-1.444023847579956055e-02
2.304706349968910217e-02
2.967093698680400848e-02
3.319524927064776421e-03
-1.407300215214490891e-02
-1.234123762696981430e-02
-2.517634443938732147e-02
-3.347643092274665833e-02
9.006505832076072693e-03
5.650736764073371887e-02
-1.523011829704046249e-03
-1.700203865766525269e-02
-6.120103225111961365e-02
-4.413943737745285034e-03
-1.505787391215562820e-02
-2.266740053892135620e-02
4.550678655505180359e-02
1.428350154310464859e-02
1.198654063045978546e-02
2.084819786250591278e-02
-4.323655273765325546e-03
3.740205615758895874e-02
5.157352425158023834e-03
-1.207709964364767075e-02
-5.500623211264610291e-02
-6.739610806107521057e-03
1.005218084901571274e-02
2.538207545876502991e-02
-1.435482222586870193e-02
4.722304642200469971e-02
6.034043431282043457e-02
-2.352707646787166595e-02
2.085143141448497772e-02
-2.530311793088912964e-02
4.854707047343254089e-02
-7.037116587162017822e-02
9.732133708894252777e-03
-4.050807282328605652e-02
1.657160930335521698e-02
2.992871776223182678e-02
-3.436654806137084961e-02
-2.499654330313205719e-02
-4.803088307380676270e-02
2.277188561856746674e-02
-2.630735374987125397e-02
1.347386650741100311e-02
1.144708693027496338e-02
3.171870484948158264e-02
1.572568714618682861e-02
2.868799027055501938e-03
-1.941316202282905579e-02
-3.947740048170089722e-02
-1.472117565572261810e-02
-2.077840454876422882e-02
3.569360822439193726e-02
1.767291501164436340e-02
-7.337262388318777084e-03
2.675358392298221588e-02
-7.565147243440151215e-03
1.476416855439310893e-05
-2.668276429176330566e-02
2.064635232090950012e-02
-2.727781422436237335e-02
4.280543327331542969e-02
3.146243514493107796e-03
-3.605839982628822327e-02
-1.645803637802600861e-02
5.334196984767913818e-02
4.869978502392768860e-02
-5.070894956588745117e-02
-5.867599695920944214e-02
-1.326652616262435913e-02
3.966742381453514099e-02
-4.956563469022512436e-03
-8.527301251888275146e-03
2.947647683322429657e-02
2.830742858350276947e-02
-1.496205013245344162e-02
1.551314722746610641e-02
-1.886677555739879608e-02
8.070806972682476044e-03
1.311442535370588303e-02
1.214232668280601501e-02
1.519050449132919312e-02
-3.542540967464447021e-02
2.849717065691947937e-02
-2.141863480210304260e-02
-2.182577550411224365e-02
-1.273359917104244232e-02
-1.251542661339044571e-02
4.558430984616279602e-02
-1.430596876889467239e-02
-2.342467755079269409e-02
4.033758118748664856e-02
-5.463095381855964661e-02
-1.204978302121162415e-02
4.995327070355415344e-02
-1.675538532435894012e-02
-1.435888186097145081e-02
4.371507838368415833e-02
-1.625473424792289734e-02
-2.247204445302486420e-02
-2.061726758256554604e-03
1.374573726207017899e-02
2.793889306485652924e-02
-1.970022358000278473e-02
-1.974840089678764343e-02
-1.766611938364803791e-03
3.514801710844039917e-02
-5.155143886804580688e-02
-1.992722786962985992e-02
-3.617900423705577850e-03
-2.026899717748165131e-02
1.093753054738044739e-02
-4.741671960800886154e-03
6.404281407594680786e-02
-2.998379245400428772e-02
2.455322770401835442e-03
3.494098782539367676e-02
-5.935606360435485840e-02
-2.617746777832508087e-02
4.693389870226383209e-03
-1.241299510002136230e-02
2.135928720235824585e-03
-1.670949533581733704e-02
7.194834947586059570e-02
3.012830764055252075e-02
-3.694289922714233398e-02
-2.860260568559169769e-02
-1.088555995374917984e-02
7.986360229551792145e-03
9.620752185583114624e-03
-1.842844113707542419e-02
-3.023525886237621307e-02
1.946983113884925842e-02
6.147271767258644104e-02
5.532458424568176270e-03
1.973989885300397873e-03
7.365126628428697586e-03
1.606832444667816162e-02
-2.386979199945926666e-02
-1.890720985829830170e-02
-7.789252698421478271e-02
2.073519118130207062e-02
-1.300492044538259506e-02
6.623883731663227081e-03
1.054953504353761673e-02
4.358555004000663757e-02
3.961487859487533569e-02
2.747213654220104218e-02
5.793374404311180115e-02
-3.688557818531990051e-02
6.220126524567604065e-02
-2.572805993258953094e-02
2.312345057725906372e-02
-1.008514314889907837e-01
-9.580118581652641296e-03
-5.024349689483642578e-02
7.338653318583965302e-03
1.531321438960731030e-03
3.053639270365238190e-02
-5.404286831617355347e-02
-2.372252009809017181e-02
7.000859826803207397e-03
8.751728571951389313e-03
-1.519285887479782104e-02
-1.167216058820486069e-02
4.090822488069534302e-02
-6.093676667660474777e-03
3.994230180978775024e-03
-1.552468817681074142e-02
-1.102789863944053650e-02
-3.431588411331176758e-02
5.492626130580902100e-02
-2.705098688602447510e-02
2.438798081129789352e-03
3.570785745978355408e-02
-2.438463969156146049e-03
1.073316857218742371e-02
4.566647857427597046e-02
-4.591251257807016373e-03
-1.094072218984365463e-02
8.613277226686477661e-03
-1.001375392079353333e-01
1.623071543872356415e-02
-4.206576198339462280e-02
1.150275766849517822e-02
4.841958731412887573e-02
1.553857419639825821e-02
4.432294517755508423e-02
1.754263788461685181e-02
-2.423684857785701752e-02
-1.482094358652830124e-02
-3.178817778825759888e-02
6.847100704908370972e-02
-6.218291819095611572e-02
1.567794382572174072e-02
-2.551588229835033417e-02
-2.059344574809074402e-02
2.890630997717380524e-02
-1.620981283485889435e-02
3.027284890413284302e-02
-1.342920772731304169e-02
-3.535927273333072662e-03
1.485565025359392166e-02
-1.047400012612342834e-02
-1.662165299057960510e-02
1.834543794393539429e-02
-2.777091227471828461e-02
-7.548415102064609528e-03
-2.531418204307556152e-02
2.636666223406791687e-02
-3.228023648262023926e-02
1.292029768228530884e-02
3.248383104801177979e-02
6.507222354412078857e-02
-2.606029063463211060e-02
-5.276066809892654419e-02
-2.728698030114173889e-02
-1.143862213939428329e-02
7.720476388931274414e-02
-2.319916523993015289e-02
5.293525755405426025e-03
-1.409903867170214653e-03
4.069030657410621643e-02
-6.471568346023559570e-02
1.038080267608165741e-02
-2.360423281788825989e-02
-1.260428223758935928e-02
7.879876648075878620e-04
3.060478158295154572e-02
-2.335738390684127808e-02
-2.416969649493694305e-02
9.025954641401767731e-03
1.334536541253328323e-02
-1.697533065453171730e-03
-1.504898350685834885e-02
1.399708166718482971e-02
2.500208280980587006e-02
3.044878877699375153e-02
2.435837499797344208e-02
-6.717419624328613281e-02
-3.881804272532463074e-02
-2.236138284206390381e-02
1.024342030286788940e-01
-5.706194043159484863e-02
3.105683717876672745e-03
-4.279325949028134346e-04
-2.866697683930397034e-02
-1.183933857828378677e-02
-3.613226860761642456e-02
5.378163233399391174e-02
5.778155755251646042e-03
-5.096346512436866760e-02
-2.793944068253040314e-02
7.467713952064514160e-02
1.418069284409284592e-02
2.112987823784351349e-02
-1.546891685575246811e-02
-5.551242083311080933e-02
-8.047510683536529541e-02
3.264360129833221436e-02
1.466974895447492599e-02
-4.810696467757225037e-02
1.393450237810611725e-02
9.003448486328125000e-02
2.143098227679729462e-02
3.762784600257873535e-02
-3.359128907322883606e-02
3.666083142161369324e-02
-3.836777806282043457e-02
1.085378602147102356e-02
5.216578394174575806e-02
-3.701290115714073181e-02
-2.017067279666662216e-03
-2.312096580862998962e-02
-1.586249470710754395e-02
2.011270495131611824e-03
-2.969154715538024902e-02
-1.798152178525924683e-02
3.761654719710350037e-02
-3.322899341583251953e-02
3.312483429908752441e-02
5.976883322000503540e-02
-3.025503829121589661e-02
3.279857337474822998e-02
-4.392818361520767212e-02
1.553843867441173643e-05
2.326998114585876465e-02
-4.252428933978080750e-02
-2.215568535029888153e-02
-1.902930252254009247e-02
4.841152578592300415e-02
-8.692802488803863525e-02
7.276807725429534912e-02
1.429288182407617569e-02
-3.106795484200119972e-03
3.483619913458824158e-02
6.124974694103002548e-03
1.846627332270145416e-02
1.200370956212282181e-02
-5.198608268983662128e-04
-8.222883334383368492e-04
-1.656712591648101807e-02
-5.077587440609931946e-02
5.783721804618835449e-02
-1.415455341339111328e-02
-1.365737244486808777e-02
7.093130797147750854e-02
1.228509645443409681e-04
-1.863844506442546844e-02
9.180251508951187134e-03
-1.788085326552391052e-02
3.682548925280570984e-02
-3.667926788330078125e-02
-6.971102673560380936e-03
1.540737971663475037e-02
-3.894738480448722839e-02
-1.109568122774362564e-02
-6.501369923353195190e-02
7.269432768225669861e-03
-3.879850357770919800e-02
1.907116919755935669e-02
-2.800434827804565430e-03
3.181494399905204773e-02
4.418274760246276855e-02
-2.715841308236122131e-02
1.526042912155389786e-02
9.419018402695655823e-03
-2.076780796051025391e-02
1.325774937868118286e-02
7.570433616638183594e-02
-1.980434730648994446e-02
1.802213862538337708e-02
-4.637258127331733704e-02
-1.102787349373102188e-02
4.798925947397947311e-03
-2.951987646520137787e-02
-4.549290519207715988e-03
5.443898495286703110e-03
6.297661922872066498e-03
1.035348139703273773e-02
3.125343844294548035e-02
6.784682627767324448e-03
-3.489360213279724121e-02
-4.799125890713185072e-04
2.403284236788749695e-02
-8.026846684515476227e-03
7.917646318674087524e-03
-1.192538347095251083e-02
2.775108441710472107e-02
1.565689407289028168e-02
-1.178959198296070099e-02
6.534350104629993439e-03
3.155493736267089844e-02
-2.505358308553695679e-02
6.760915857739746571e-04
-1.538270339369773865e-02
4.337171837687492371e-02
6.508869584649801254e-03
5.017067864537239075e-02
-4.621006548404693604e-02
1.813079416751861572e-02
3.783920034766197205e-02
-7.444331049919128418e-02
1.014546584337949753e-02
-1.636518724262714386e-02
4.679747857153415680e-03
-5.974775552749633789e-02
3.292234987020492554e-02
4.580428451299667358e-02
4.930663853883743286e-03
2.466312842443585396e-03
-2.768356353044509888e-02
4.190445691347122192e-02
7.936579175293445587e-03
-2.238953858613967896e-02
1.024423725903034210e-02
-1.505382731556892395e-02
-4.049455747008323669e-03
-5.460429005324840546e-03
2.624628506600856781e-02
3.828652948141098022e-02
-2.826524339616298676e-02
-1.961979083716869354e-02
2.476145513355731964e-02
-1.885389164090156555e-02
1.216581370681524277e-02
-3.004608489573001862e-02
-2.333332039415836334e-02
8.228064328432083130e-02
-4.468893166631460190e-03
1.633892394602298737e-02
-3.411544114351272583e-02
2.008826099336147308e-02
1.241153106093406677e-02
-2.711274102330207825e-02
7.687107659876346588e-03
-8.834263309836387634e-03
-3.977218270301818848e-02
-7.944202050566673279e-03
-1.554605364799499512e-02
-1.255317940376698971e-03
2.665629982948303223e-02
-4.445974156260490417e-02
1.078022923320531845e-02
2.873643673956394196e-02
2.234450541436672211e-02
-4.419328644871711731e-02
-4.832950886338949203e-03
4.213730990886688232e-02
-6.236152723431587219e-03
3.619653731584548950e-02
3.672020509839057922e-02
-3.194038942456245422e-02
-1.923868991434574127e-02
-5.219954531639814377e-03
-9.605853701941668987e-04
2.982077561318874359e-02
-6.719025224447250366e-02
-4.273523390293121338e-02
3.293977305293083191e-02
4.920275881886482239e-03
-2.481962926685810089e-02
-4.097889177501201630e-03
6.387991458177566528e-02
1.497886329889297485e-02
8.593298494815826416e-03
4.347835853695869446e-02
-2.940616197884082794e-02
2.657680958509445190e-02
-6.480950117111206055e-02
4.502517729997634888e-02
-2.140443958342075348e-02
6.527615338563919067e-02
-4.458071663975715637e-02
2.061624825000762939e-02
-5.321032553911209106e-02
9.130808175541460514e-04
3.014380484819412231e-02
1.471492275595664978e-02
-5.551732704043388367e-02
-9.993682615458965302e-03
-1.705167070031166077e-02
2.408995479345321655e-02
-1.911379955708980560e-02
-5.854352377355098724e-03
3.731447458267211914e-02
1.708531007170677185e-02
4.348627850413322449e-02
2.766457328107208014e-04
-4.708020947873592377e-03
-5.152591690421104431e-02
1.725205220282077789e-02
-8.895694278180599213e-03
8.680629543960094452e-03
3.643620014190673828e-02
-5.097907036542892456e-02
-2.237465232610702515e-02
1.951838284730911255e-02
-1.001168321818113327e-02
4.812835715711116791e-03
-3.721535205841064453e-02
3.236868605017662048e-02
1.967743271961808205e-03
4.746610298752784729e-03
-7.334913592785596848e-03
3.311399370431900024e-02
9.264256805181503296e-04
-1.303047779947519302e-02
-1.750865252688527107e-03
1.356508582830429077e-02
2.069017663598060608e-02
-3.251968696713447571e-02
5.077231675386428833e-02
-1.217007543891668320e-02
-2.679513767361640930e-03
-3.234784677624702454e-02
1.991429738700389862e-02
-4.330035764724016190e-03
8.679291233420372009e-03
-2.831576566677540541e-04
-6.787512451410293579e-02
4.542139172554016113e-02
-5.452664196491241455e-02
-6.612465716898441315e-03
-2.015281654894351959e-02
3.510906919836997986e-02
-1.439530984498560429e-03
-1.248478423804044724e-02
3.896962385624647141e-03
7.503169029951095581e-02
3.411283716559410095e-02
-3.358821570873260498e-02
-3.967016190290451050e-02
-6.873979698866605759e-03
-2.287291362881660461e-02
9.204826317727565765e-03
-2.538178302347660065e-02
-2.499506250023841858e-02
-4.973069950938224792e-02
3.103139251470565796e-02
7.312413305044174194e-02
-7.775466889142990112e-02
8.793674060143530369e-04
5.772894620895385742e-02
5.000394582748413086e-02
-2.477532625198364258e-02
4.242191556841135025e-03
-7.770105451345443726e-02
-1.222996879369020462e-02
-9.316227585077285767e-02
3.452226519584655762e-02
2.413444407284259796e-02
1.808773353695869446e-02
1.183638870716094971e-01
1.719190366566181183e-02
-4.287835955619812012e-02
-1.289593055844306946e-02
4.363391175866127014e-02
-5.707621946930885315e-02
3.888334333896636963e-02
3.054528869688510895e-02
-1.722051389515399933e-02
-2.958447672426700592e-02
3.836525976657867432e-02
-6.008551921695470810e-03
3.216746496036648750e-03
5.294723436236381531e-02
-6.439960002899169922e-02
-1.942068338394165039e-02
1.135390158742666245e-02
2.775432169437408447e-02
2.477667294442653656e-03
-1.360791269689798355e-02
-2.591217402368783951e-03
1.542137935757637024e-02
-1.898806914687156677e-02
1.692385040223598480e-02
-2.747320942580699921e-02
3.020003810524940491e-02
-4.902766272425651550e-02
-3.032743558287620544e-02
-5.988493189215660095e-02
1.107804402709007263e-01
-1.979114487767219543e-02
9.829844348132610321e-03
2.541487105190753937e-02
2.310618013143539429e-02
-4.749215766787528992e-02
-1.700878143310546875e-03
1.627526804804801941e-02
-2.433159155771136284e-03
1.173621229827404022e-02
1.191085111349821091e-02
1.515082921832799911e-02
-2.275862544775009155e-02
1.357690058648586273e-02
1.570948399603366852e-02
1.202655863016843796e-02
5.855708383023738861e-03
4.708295315504074097e-02
-6.002845708280801773e-03
2.998382598161697388e-02
-2.276609092950820923e-02
2.454446442425251007e-02
-4.900181293487548828e-02
-3.056157380342483521e-02
-4.011818673461675644e-03
2.557589299976825714e-02
9.323216974735260010e-03
-1.805683039128780365e-02
-2.857228182256221771e-02
-6.478755734860897064e-03
-9.276391938328742981e-03
3.849470987915992737e-02
1.407834887504577637e-02
9.144648909568786621e-03
2.169924482586793602e-05
6.878849235363304615e-04
5.279289186000823975e-02
6.385010667145252228e-03
2.546755038201808929e-02
-1.193869765847921371e-02
-1.492146309465169907e-02
-3.336960449814796448e-02
3.982776030898094177e-02
-3.280235454440116882e-02
-5.277420580387115479e-02
3.888025879859924316e-02
3.624113043770194054e-03
-2.595236152410507202e-02
4.585233982652425766e-03
2.391295693814754486e-02
2.891515381634235382e-02
-1.918700337409973145e-02
-5.280335247516632080e-02
6.515064090490341187e-02
4.011014848947525024e-02
-1.428490271791815758e-03
-1.816450431942939758e-02
4.014940559864044189e-02
4.948103800415992737e-02
-5.924038961529731750e-02
2.378483116626739502e-02
-1.033839490264654160e-02
-5.170796997845172882e-03
-5.042386800050735474e-02
-2.487748395651578903e-03
-3.619664162397384644e-02
2.214206382632255554e-02
-3.543875738978385925e-02
1.307418849319219589e-02
-1.186938025057315826e-03
7.663069292902946472e-03
3.661794587969779968e-02
-9.232579730451107025e-03
-2.364940382540225983e-02
-8.299567736685276031e-03
6.197546422481536865e-02
1.112938765436410904e-02
-3.759476169943809509e-02
3.722038865089416504e-02
-4.026425257325172424e-02
-1.593081094324588776e-02
-3.671232238411903381e-02
3.907751664519309998e-02
-2.058506384491920471e-02
-3.796911984682083130e-02
7.667712122201919556e-02
-3.938109055161476135e-02
1.730568893253803253e-02
4.518106952309608459e-02
-2.339281700551509857e-02
2.653150260448455811e-02
-4.413444548845291138e-02
-4.531668499112129211e-02
5.673810839653015137e-03
1.466653402894735336e-02
2.511250041425228119e-02
-4.901056736707687378e-02
-3.485851222649216652e-03
2.244806848466396332e-02
-4.020393267273902893e-02
3.033295646309852600e-02
-1.892908476293087006e-02
7.077537942677736282e-03
9.736466221511363983e-03
5.275105312466621399e-02
-2.959050796926021576e-02
-4.312010854482650757e-02
7.015950395725667477e-04
1.090911030769348145e-02
3.014188818633556366e-02
1.087187696248292923e-02
7.079383824020624161e-03
-1.019550673663616180e-02
-3.619876131415367126e-02
5.833600088953971863e-02
-1.076013129204511642e-02
-1.997962594032287598e-02
-9.064146317541599274e-03
-1.254447922110557556e-02
-3.759245201945304871e-02
1.520223915576934814e-03
-6.581594236195087433e-03
-5.486956331878900528e-03
2.399594523012638092e-02
-5.021211132407188416e-02
1.509928889572620392e-02
-2.541314065456390381e-02
-3.659059107303619385e-02
-5.706381052732467651e-03
2.530595473945140839e-02
4.870299622416496277e-02
5.713813006877899170e-03
-1.676044985651969910e-02
3.518026694655418396e-02
-6.169596686959266663e-02
6.845515221357345581e-02
-2.214655466377735138e-02
-4.376586526632308960e-03
-7.044549286365509033e-02
-1.434234087355434895e-03
4.892480373382568359e-02
1.805200614035129547e-02
9.317799471318721771e-03
2.050467580556869507e-02
-4.836205393075942993e-02
1.164295151829719543e-02
2.390703186392784119e-02
5.305351316928863525e-02
-1.947148889303207397e-02
-7.738924771547317505e-02
3.725463524460792542e-03
2.901028655469417572e-02
-2.939485758543014526e-02
3.709752857685089111e-02
-4.387471824884414673e-02
2.239715680480003357e-02
-2.658108435571193695e-02
-1.944905705749988556e-02
6.680164951831102371e-03
2.922639250755310059e-03
-3.439125791192054749e-02
5.318793002516031265e-03
2.622641064226627350e-02
6.116261333227157593e-02
-2.062777243554592133e-02
-1.530026085674762726e-02
5.461806058883666992e-02
1.555605046451091766e-02
-5.567620508372783661e-03
-1.339322328567504883e-02
-2.982809580862522125e-02
1.056064944714307785e-02
-1.830519735813140869e-02
1.433389727026224136e-02
-4.457379505038261414e-02
4.180376976728439331e-02
4.894683882594108582e-02
-2.093302458524703979e-02
-2.032694406807422638e-02
-7.330477237701416016e-03
-2.502655982971191406e-02
-3.310361504554748535e-02
4.266097024083137512e-02
4.112582653760910034e-02
-3.248446062207221985e-02
4.552874341607093811e-02
-1.018882356584072113e-02
2.975770039483904839e-03
-3.255477175116539001e-02
-4.477655887603759766e-02
3.108392935246229172e-03
1.137565635144710541e-02
1.377739245072007179e-03
2.715612202882766724e-02
-6.710934452712535858e-03
1.215305086225271225e-02
3.691542521119117737e-02
-5.341186001896858215e-02
1.474260818213224411e-02
1.447196304798126221e-02
3.396399319171905518e-02
-2.237492706626653671e-03
-7.997874170541763306e-03
-2.359464578330516815e-02
1.200887933373451233e-02
-1.106125023216009140e-02
-5.413786275312304497e-04
-2.276360802352428436e-02
-4.725675657391548157e-02
1.329471706412732601e-03
4.409809410572052002e-02
6.139129027724266052e-02
-1.177935674786567688e-02
-2.535054087638854980e-02
2.787145413458347321e-02
1.224100403487682343e-02
2.870496362447738647e-02
-6.148330494761466980e-02
-7.236121688038110733e-03
-1.790503971278667450e-02
4.015105962753295898e-02
-1.335187070071697235e-02
6.445933133363723755e-03
7.938207127153873444e-03
-5.243793129920959473e-03
1.791302114725112915e-02
-2.833799272775650024e-02
1.773766800761222839e-02
8.501119911670684814e-03
-3.756067901849746704e-02
-3.162730950862169266e-03
3.399834735319018364e-03
1.623125746846199036e-02
1.592137478291988373e-02
-4.508508741855621338e-02
3.664625808596611023e-02
-1.050595473498106003e-02
4.316697828471660614e-03
2.504322212189435959e-03
-7.803811691701412201e-03
-3.331949189305305481e-02
2.359882555902004242e-02
-3.438843786716461182e-02
3.435441106557846069e-02
3.287590807303786278e-03
7.980900816619396210e-03
-1.984504237771034241e-02
-6.027380470186471939e-03
-2.005859836935997009e-02
3.548925975337624550e-03
-6.221949122846126556e-03
2.521874569356441498e-02
-2.648478746414184570e-02
3.595136851072311401e-02
4.119203425943851471e-03
4.098132997751235962e-02
-1.498789060860872269e-02
-4.913530428893864155e-04
2.893917262554168701e-02
-1.465123426169157028e-02
-1.650960184633731842e-03
1.087481528520584106e-02
-2.888908423483371735e-02
-3.396474197506904602e-02
1.162377744913101196e-02
5.213061720132827759e-02
-2.309858566150069237e-03
-4.365064948797225952e-02
-3.877905756235122681e-02
1.467963773757219315e-02
-1.721359416842460632e-02
-4.186571016907691956e-02
1.823492161929607391e-02
1.687790080904960632e-02
2.480459213256835938e-02
6.991520640440285206e-04
-4.567736759781837463e-03
-2.169405110180377960e-03
1.361855072900652885e-03
-1.325865369290113449e-02
-4.815166443586349487e-02
1.397187821567058563e-02
2.574459463357925415e-02
2.390052936971187592e-02
3.315110225230455399e-03
1.986815407872200012e-02
2.006241865456104279e-02
-3.949617967009544373e-02
1.720898225903511047e-02
1.369363255798816681e-02
2.674841322004795074e-02
-5.005497112870216370e-02
3.849184513092041016e-02
-1.013439428061246872e-02
3.721249476075172424e-02
2.169635891914367676e-02
-1.254376769065856934e-02
-2.007533423602581024e-02
-3.219121322035789490e-02
1.367521565407514572e-02
-3.276010602712631226e-02
8.647323586046695709e-03
3.404843062162399292e-02
2.000282146036624908e-02
2.586350217461585999e-02
1.955726183950901031e-02
2.804594300687313080e-02
-5.409539118409156799e-02
-1.617375388741493225e-02
-3.090730682015419006e-02
5.852185562252998352e-02
2.708625048398971558e-02
-9.771930985152721405e-03
-6.067933514714241028e-02
-9.315218776464462280e-03
2.815758809447288513e-02
-3.546736016869544983e-02
3.962803166359663010e-03
-6.281444430351257324e-02
4.917574673891067505e-02
1.310060266405344009e-02
-3.830452263355255127e-02
-2.158538438379764557e-02
5.619327723979949951e-02
1.500448677688837051e-02
-1.584973372519016266e-02
-6.994889676570892334e-02
5.481912195682525635e-02
1.509105227887630463e-02
-4.591736942529678345e-02
6.488526239991188049e-03
2.372824773192405701e-02
1.353401597589254379e-02
-1.664357818663120270e-02
-1.541614066809415817e-02
6.188510451465845108e-03
2.593605965375900269e-02
-1.419300120323896408e-02
-3.101888112723827362e-03
2.908808737993240356e-02
-9.153855964541435242e-03
1.834191964007914066e-03
-1.382322795689105988e-02
2.591956174001097679e-03
-7.280510908458381891e-05
2.470002043992280960e-03
-1.192766241729259491e-02
-2.865900052711367607e-03
-1.363567076623439789e-02
-8.369989693164825439e-03
1.371340267360210419e-02
-1.845155842602252960e-02
2.924831211566925049e-02
8.271051570773124695e-03
-5.320525262504816055e-03
1.033008098602294922e-02
-1.772881858050823212e-02
1.213020086288452148e-02
-4.446735233068466187e-02
1.847436837852001190e-02
4.293546453118324280e-02
1.095162518322467804e-02
-3.059815242886543274e-02
1.778651028871536255e-02
8.727170526981353760e-03
-2.497168257832527161e-02
-6.976958364248275757e-03
1.959650218486785889e-02
-2.522633783519268036e-02
1.699889265000820160e-02
-3.114828374236822128e-03
3.846415504813194275e-02
-2.028478868305683136e-02
3.173035569489002228e-03
-6.741537712514400482e-03
-3.180362109560519457e-04
-3.956563305109739304e-03
2.704994520172476768e-03
-2.353314496576786041e-02
1.677364669740200043e-02
5.582812707871198654e-03
1.969545334577560425e-02
1.926416717469692230e-02
-1.137498114258050919e-02
-3.825258836150169373e-02
1.384620741009712219e-02
7.655230909585952759e-02
-2.998427301645278931e-02
1.483653951436281204e-02
6.678977608680725098e-02
-1.765515469014644623e-02
-4.719099029898643494e-02
-1.359157171100378036e-02
1.488413847982883453e-02
7.924427278339862823e-03
2.038358524441719055e-02
-3.868132457137107849e-02
-2.530047297477722168e-02
-7.029282301664352417e-02
3.946178406476974487e-02
-4.536979831755161285e-03
9.528538212180137634e-03
1.833959249779582024e-03
3.932075202465057373e-02
5.566999688744544983e-02
2.967857755720615387e-02
-8.935295976698398590e-03
-2.015276439487934113e-02
1.275277230888605118e-02
1.050138846039772034e-03
-1.285605039447546005e-02
-2.325916197150945663e-03
5.322581622749567032e-03
-4.699664190411567688e-02
5.103888362646102905e-02
2.115294523537158966e-02
7.471858523786067963e-03
-6.721141189336776733e-02
-2.591704204678535461e-02
-1.657434366643428802e-02
1.126986835151910782e-02
1.632286608219146729e-02
1.354262814857065678e-03
1.690980419516563416e-02
3.269829088822007179e-03
-1.014934852719306946e-02
1.217816490679979324e-02
-2.625852264463901520e-02
-4.083341732621192932e-02
6.188962981104850769e-02
-1.229962054640054703e-02
6.417111493647098541e-03
3.345185890793800354e-02
2.752827107906341553e-02
2.822543494403362274e-02
4.729485139250755310e-03
-1.655185781419277191e-02
-2.982303313910961151e-02
5.763961002230644226e-03
-3.343849629163742065e-02
6.619364023208618164e-03
-7.185969036072492599e-03
-1.351328846067190170e-02
4.384345561265945435e-02
4.666577652096748352e-02
-1.533196680247783661e-02
-1.707690767943859100e-02
3.095454163849353790e-02
-3.892385214567184448e-02
-1.533831842243671417e-02
8.281376212835311890e-02
-3.979597613215446472e-02
-1.310864742845296860e-02
-1.645115576684474945e-02
-1.818544790148735046e-02
3.956588730216026306e-02
-2.919943258166313171e-02
2.379270456731319427e-02
9.086289443075656891e-03
2.133802883327007294e-02
-2.592524699866771698e-02
-5.039845593273639679e-03
-8.012451231479644775e-03
-5.356316920369863510e-03
5.218056961894035339e-03
1.776283420622348785e-02
1.321823336184024811e-02
-3.312233090400695801e-02
-7.564143091440200806e-02
6.321436911821365356e-02
4.794500023126602173e-02
1.679401472210884094e-02
9.541844483464956284e-04
-3.612359985709190369e-02
2.588225528597831726e-02
-2.055999636650085449e-02
3.685738518834114075e-02
-2.305421791970729828e-02
-2.087531052529811859e-02
-3.291772678494453430e-03
5.699415504932403564e-02
-2.540987916290760040e-02
2.224829234182834625e-02
-2.290331572294235229e-02
4.157237336039543152e-02
2.952218288555741310e-03
-2.045216597616672516e-02
-2.941124513745307922e-02
-4.709875956177711487e-02
3.176553873345255852e-03
2.224131301045417786e-02
-3.455990459769964218e-03
-7.601076271384954453e-03
1.589781022630631924e-03
-5.553383845835924149e-03
6.090227887034416199e-02
4.340096563100814819e-02
-5.827400833368301392e-02
-1.296257600188255310e-02
1.948364824056625366e-02
3.799760714173316956e-02
-1.269890666007995605e-01
3.390144929289817810e-02
2.772394567728042603e-02
-5.331042222678661346e-03
-1.227657217532396317e-02
-6.333740893751382828e-03
4.820888116955757141e-02
-2.209981530904769897e-02
-1.890955120325088501e-02
7.452376652508974075e-03
3.353925130795687437e-04
2.163021126762032509e-03
1.048905029892921448e-02
4.032634198665618896e-02
-5.394963920116424561e-02
-5.851490050554275513e-02
5.828462541103363037e-03
2.181836962699890137e-02
-1.784482039511203766e-02
-5.981867201626300812e-03
1.958549208939075470e-02
-4.646772053092718124e-03
5.097432434558868408e-02
-7.579375058412551880e-02
1.162758003920316696e-02
3.229009360074996948e-02
1.929966360330581665e-02
6.863701343536376953e-02
-5.961388722062110901e-02
-1.014758180826902390e-02
-1.776517182588577271e-02
-1.380997564410790801e-04
4.462877660989761353e-02
-3.309068828821182251e-02
-5.188694968819618225e-02
3.296733647584915161e-02
-2.759597264230251312e-02
1.966664195060729980e-02
5.020507797598838806e-02
-2.264246903359889984e-02
1.883842609822750092e-02
-1.764902099967002869e-02
9.442066773772239685e-03
-5.786202847957611084e-03
-4.906729236245155334e-02
-2.025164104998111725e-02
-1.375982258468866348e-02
9.941715002059936523e-02
-4.507992044091224670e-02
4.251385480165481567e-02
2.449242398142814636e-02
7.323951460421085358e-03
-1.844020001590251923e-02
-2.857652492821216583e-02
