-2.766481786966323853e-02
3.782295808196067810e-02
1.260335091501474380e-03
2.314183162525296211e-03
4.731401428580284119e-02
3.871799260377883911e-02
-2.732636965811252594e-02
-2.823176607489585876e-02
-3.616384463384747505e-03
-4.283202812075614929e-02
-3.708204627037048340e-02
1.635911501944065094e-02
2.204032242298126221e-02
-4.753932729363441467e-02
-4.527843371033668518e-02
2.251120284199714661e-02
4.451999068260192871e-02
8.821120718494057655e-05
5.781013518571853638e-03
3.486296534538269043e-02
8.780551142990589142e-03
-1.093994244001805782e-03
-2.225879579782485962e-02
-3.879011841490864754e-03
-1.489535812288522720e-02
-8.405989035964012146e-03
-2.138398773968219757e-02
1.342020835727453232e-02
-2.238932996988296509e-02
4.824611917138099670e-02
-6.266474723815917969e-03
1.840326935052871704e-02
6.720872223377227783e-02
8.738489821553230286e-03
-8.413532748818397522e-03
3.435276821255683899e-02
4.345350712537765503e-02
-4.836673289537429810e-02
-4.803665727376937866e-02
-5.877451226115226746e-02
-5.532382428646087646e-02
1.724671013653278351e-02
-1.830725814215838909e-03
-1.182366162538528442e-02
2.591194398701190948e-02
-2.474084310233592987e-02
1.090402528643608093e-02
2.800175920128822327e-02
7.759950589388608932e-03
1.628851518034934998e-02
6.656701862812042236e-02
-2.323005348443984985e-02
-1.236793468706309795e-04
-6.470649968832731247e-03
6.469381041824817657e-03
-3.283683583140373230e-02
-2.908358909189701080e-02
-4.435383901000022888e-02
4.576674848794937134e-02
2.599867805838584900e-02
-1.418960466980934143e-02
6.624846719205379486e-03
1.527638453990221024e-02
1.398498751223087311e-02
3.121023438870906830e-02
-3.861271217465400696e-02
-1.480249315500259399e-02
4.197657480835914612e-02
-1.764295808970928192e-02
-2.683041617274284363e-02
-3.007597848773002625e-02
1.304601132869720459e-02
4.960073158144950867e-02
-1.900788024067878723e-02
1.702377013862133026e-02
8.252017199993133545e-03
1.112406235188245773e-02
-1.496631186455488205e-02
-2.936973050236701965e-02
-2.524744905531406403e-02
-1.495354529470205307e-02
-7.719574496150016785e-04
-9.178465232253074646e-03
-9.518756531178951263e-03
3.810065984725952148e-02
3.742939978837966919e-02
2.888053469359874725e-02
-2.398037537932395935e-02
-1.959762535989284515e-02
-1.013499032706022263e-02
-8.759874850511550903e-02
2.613141201436519623e-02
1.205765921622514725e-02
3.270509093999862671e-02
9.731121361255645752e-03
4.770656302571296692e-02
4.997424408793449402e-02
-8.416960947215557098e-03
-5.067146569490432739e-02
-3.225772455334663391e-02
1.773225888609886169e-02
3.116405103355646133e-03
1.026003505103290081e-03
2.512036077678203583e-02
-8.342052996158599854e-02
1.347255054861307144e-02
1.691357977688312531e-02
-6.231266632676124573e-02
9.682550095021724701e-03
3.966309502720832825e-02
-5.863464437425136566e-03
2.157175727188587189e-02
-9.782227687537670135e-03
-3.445924958214163780e-03
-1.052353065460920334e-02
4.477928578853607178e-02
1.974421739578247070e-02
-6.719554215669631958e-02
-1.622969470918178558e-02
2.139650285243988037e-02
3.724547848105430603e-02
2.332288399338722229e-02
-1.512927468866109848e-02
1.505869813263416290e-02
4.896997474133968353e-03
-2.263882383704185486e-02
-2.441941946744918823e-02
-2.123239450156688690e-02
1.835425943136215210e-02
-1.533369533717632294e-02
1.544567290693521500e-02
-2.784625440835952759e-02
-2.175558591261506081e-03
-1.558562088757753372e-02
-3.341408073902130127e-02
1.827988401055335999e-02
4.842494148761034012e-03
2.004757337272167206e-02
-2.756905555725097656e-02
3.742343187332153320e-02
3.384684398770332336e-02
-1.452917582355439663e-03
-4.562374961096793413e-04
2.574503794312477112e-02
3.405994269996881485e-03
8.492525084875524044e-04
-1.500438991934061050e-02
8.211634703911840916e-04
-1.479830686002969742e-02
-3.915460780262947083e-03
-5.089152604341506958e-03
-7.393572013825178146e-03
9.357613511383533478e-03
1.260451972484588623e-02
-5.119779612869024277e-03
1.699605397880077362e-02
2.141497470438480377e-02
-1.839500479400157928e-02
-2.448572032153606415e-02
1.016421895474195480e-02
3.551486134529113770e-02
5.056245252490043640e-03
1.847061701118946075e-02
-4.520220309495925903e-02
-1.262970641255378723e-02
-1.692966674454510212e-03
-2.473626472055912018e-02
-2.225631289184093475e-02
5.641185492277145386e-02
1.263476815074682236e-02
-4.774532467126846313e-02
5.354426801204681396e-02
3.367395326495170593e-02
-4.227485507726669312e-03
1.757401973009109497e-02
1.117679849267005920e-02
3.818973526358604431e-02
-1.825672760605812073e-02
-6.347718089818954468e-02
-4.017597436904907227e-02
-5.723574757575988770e-02
-1.037862896919250488e-02
8.784054080024361610e-04
2.360699931159615517e-03
2.887976355850696564e-02
-9.245806373655796051e-03
-1.012594997882843018e-02
4.175113886594772339e-02
8.357594721019268036e-03
-2.650868147611618042e-03
1.159679889678955078e-02
-3.384369611740112305e-02
2.286556549370288849e-02
-3.833694383502006531e-02
-5.713242292404174805e-02
1.405709516257047653e-02
-1.996093802154064178e-02
-3.948813769966363907e-03
2.585266903042793274e-02
6.350000202655792236e-02
2.073590271174907684e-02
-1.720438525080680847e-02
2.082502702251076698e-03
1.530728489160537720e-02
-2.781835757195949554e-02
-1.725089922547340393e-02
1.819404028356075287e-02
-2.657486125826835632e-02
3.481310978531837463e-02
3.358431905508041382e-02
4.249853640794754028e-02
6.421228870749473572e-03
-6.269120424985885620e-02
-4.310875013470649719e-02
4.774808883666992188e-03
2.158644376322627068e-03
1.176621578633785248e-02
3.887577354907989502e-02
1.678253896534442902e-02
9.293253533542156219e-03
-4.837213549762964249e-03
-3.174249827861785889e-02
2.092223614454269409e-02
-4.592591896653175354e-02
3.861428052186965942e-02
-3.260824456810951233e-02
1.334283780306577682e-02
6.560318171977996826e-03
5.386427044868469238e-02
1.082832738757133484e-02
-5.737822968512773514e-03
7.742904563201591372e-05
-3.733143955469131470e-02
-1.369479810819029808e-03
-6.637126789428293705e-04
-1.735893636941909790e-02
3.034608624875545502e-02
5.635583773255348206e-03
-1.228912733495235443e-02
1.827260665595531464e-02
-8.613562211394309998e-03
1.818198710680007935e-02
2.447077631950378418e-02
-3.031769022345542908e-02
-3.486416488885879517e-02
1.737270504236221313e-02
2.589867450296878815e-02
-7.803281303495168686e-03
-5.071698687970638275e-03
1.619422622025012970e-02
-3.706804011017084122e-03
2.100984565913677216e-02
-1.790699752746149898e-04
-5.850656423717737198e-03
-3.791880980134010315e-02
-1.262104604393243790e-02
1.720614172518253326e-02
-1.703360490500926971e-02
2.918026968836784363e-02
-1.167383231222629547e-02
7.648720592260360718e-02
-6.060229241847991943e-02
-2.242130599915981293e-02
-1.601106021553277969e-03
1.008316595107316971e-02
-5.795797333121299744e-03
-1.404660195112228394e-02
3.706048801541328430e-02
3.940195217728614807e-02
-4.027463123202323914e-02
-3.050400875508785248e-03
-1.773057971149682999e-03
-5.684355273842811584e-03
4.762715846300125122e-02
7.766286283731460571e-02
-9.901405312120914459e-03
-4.399262368679046631e-02
-3.473010659217834473e-02
-1.539877057075500488e-02
-6.199838593602180481e-03
1.057201996445655823e-02
6.380849517881870270e-03
-1.101775467395782471e-02
-4.580382630228996277e-02
-2.510973624885082245e-02
9.678458794951438904e-03
1.988510135561227798e-03
3.355040214955806732e-03
1.111363992094993591e-02
3.753185644745826721e-02
-4.872079938650131226e-02
1.344603672623634338e-02
3.808399196714162827e-03
-2.290908887516707182e-04
-2.054901793599128723e-02
4.346027225255966187e-02
-1.801708858693018556e-04
-2.946588955819606781e-02
-1.555277500301599503e-02
4.490216448903083801e-02
-1.026635989546775818e-02
1.573233678936958313e-02
-2.446078695356845856e-02
5.214676726609468460e-03
-1.827801391482353210e-02
1.372677925974130630e-02
-4.314565565437078476e-03
-4.225325770676136017e-03
1.292470283806324005e-02
1.422851346433162689e-02
-7.859783247113227844e-03
-1.226686406880617142e-02
5.265026167035102844e-02
-3.962688520550727844e-02
-4.887124896049499512e-02
6.970255821943283081e-02
3.978553041815757751e-02
-1.122379861772060394e-02
-5.222038016654551029e-04
-1.810884475708007812e-02
-4.937012121081352234e-02
5.595658719539642334e-02
9.793600998818874359e-03
-5.657770670950412750e-03
5.101767182350158691e-02
-8.099651895463466644e-03
-1.949730329215526581e-02
4.193697869777679443e-02
-7.457604631781578064e-03
-3.231914341449737549e-02
4.589288681745529175e-02
-2.403495274484157562e-02
-1.274442300200462341e-02
-1.453803852200508118e-02
6.969769299030303955e-02
-5.359589308500289917e-02
-1.154132839292287827e-02
3.965655341744422913e-02
2.951973304152488708e-02
-3.561013936996459961e-02
1.338826399296522141e-02
-3.677042573690414429e-02
7.577528245747089386e-03
-3.634296730160713196e-02
2.457208372652530670e-02
9.411748498678207397e-03
-1.178374700248241425e-02
-2.134199626743793488e-02
-3.487122012302279472e-03
4.977641627192497253e-02
-1.160448510199785233e-02
-1.835572719573974609e-02
-1.162394881248474121e-02
3.270987793803215027e-02
2.216074988245964050e-02
-1.867683604359626770e-02
-2.190774492919445038e-02
-2.776513621211051941e-02
1.536663342267274857e-02
2.613092772662639618e-02
-2.084270119667053223e-02
-4.719924926757812500e-02
5.977028980851173401e-02
-2.687853202223777771e-02
-2.948054857552051544e-02
5.336957424879074097e-02
5.330889672040939331e-02
1.177244167774915695e-02
1.214080024510622025e-02
-3.044065460562705994e-02
1.670667156577110291e-02
9.953969158232212067e-03
-3.113579563796520233e-02
2.154500223696231842e-02
-2.890493348240852356e-02
2.626023488119244576e-03
3.894463926553726196e-02
-4.210856556892395020e-02
1.054714247584342957e-02
-5.763197783380746841e-03
1.173992827534675598e-02
1.402201782912015915e-02
-2.792214974761009216e-02
2.745944075286388397e-02
-2.242933958768844604e-02
-3.850504523143172264e-03
-8.330262266099452972e-03
1.181457936763763428e-02
-9.345175698399543762e-03
1.214580144733190536e-02
-1.258238218724727631e-02
1.773220254108309746e-03
5.773201584815979004e-02
3.190647438168525696e-02
-2.275152876973152161e-02
-5.436936393380165100e-03
2.505107596516609192e-02
-5.249967798590660095e-02
-1.432010531425476074e-02
-2.030122093856334686e-02
-8.936936967074871063e-03
-1.507128961384296417e-02
-5.372750014066696167e-02
8.873798884451389313e-03
-2.352396957576274872e-02
-1.271182578057050705e-02
4.709913954138755798e-02
5.043798312544822693e-02
1.264745276421308517e-02
-7.879755576141178608e-04
1.499237027019262314e-03
3.162260865792632103e-03
-5.027684848755598068e-03
-2.291215956211090088e-02
-3.618061169981956482e-02
2.862131409347057343e-02
1.336880866438150406e-02
1.437967456877231598e-02
2.973247133195400238e-02
4.709749482572078705e-03
8.061498403549194336e-03
6.581193767488002777e-03
-2.183278277516365051e-02
-2.072394266724586487e-02
-1.954898238182067871e-02
1.381107885390520096e-02
2.424424514174461365e-02
-1.809583604335784912e-02
1.145991869270801544e-02
1.099377521313726902e-03
3.542982973158359528e-03
-3.931056242436170578e-03
-1.880203001201152802e-02
1.790341362357139587e-02
6.529472768306732178e-02
3.329087048768997192e-04
4.769573919475078583e-03
-1.553736045025289059e-03
-1.185019314289093018e-02
-6.680457293987274170e-02
-2.554908953607082367e-02
-3.500730090308934450e-04
-8.176564238965511322e-03
1.562505774199962616e-02
-2.885909378528594971e-02
2.790175005793571472e-02
2.547606639564037323e-02
-2.354910224676132202e-02
-3.157411888241767883e-02
3.090164065361022949e-02
1.419311575591564178e-02
1.165101677179336548e-02
1.686373725533485413e-02
-3.752120956778526306e-02
-2.666600979864597321e-02
4.592433979269117117e-04
1.620063371956348419e-02
-2.915284968912601471e-02
-7.567208725959062576e-03
2.195973508059978485e-02
-1.545416191220283508e-02
9.859660640358924866e-03
-5.038088187575340271e-02
-2.445646375417709351e-02
5.614562425762414932e-03
3.931875154376029968e-02
-8.641440654173493385e-04
5.677099339663982391e-03
3.072360903024673462e-02
-1.572770881466567516e-03
3.967820201069116592e-03
4.604195058345794678e-02
-1.838807202875614166e-02
4.020571708679199219e-02
3.591306041926145554e-03
1.532837189733982086e-02
-2.246800251305103302e-02
-4.450479522347450256e-02
3.997972235083580017e-02
-3.143030777573585510e-02
-3.185819834470748901e-02
2.123020589351654053e-02
2.994694933295249939e-02
-1.361701753921806812e-03
8.301419764757156372e-02
2.477880381047725677e-02
3.288872539997100830e-02
-2.356092073023319244e-02
-5.406696721911430359e-02
-7.616484165191650391e-02
2.825451083481311798e-02
-2.601107116788625717e-03
-2.748477645218372345e-02
8.033321355469524860e-04
-8.887685835361480713e-03
-5.048620328307151794e-02
1.388803590089082718e-02
8.962538093328475952e-03
1.382489688694477081e-02
1.823288761079311371e-02
-3.774518147110939026e-02
9.364257566630840302e-03
-7.043194957077503204e-03
8.570519834756851196e-02
-2.802311815321445465e-02
7.794221490621566772e-02
4.390126839280128479e-02
-3.521498665213584900e-02
-3.129059448838233948e-02
-7.155019789934158325e-02
-3.815865889191627502e-02
2.353592589497566223e-02
-1.470276527106761932e-02
-2.955021336674690247e-02
2.712998539209365845e-02
-4.559048265218734741e-02
6.640190258622169495e-03
6.401126831769943237e-02
-1.532729715108871460e-02
6.619450170546770096e-03
-1.273603085428476334e-02
-1.514723710715770721e-02
-2.199625596404075623e-03
-3.190433140844106674e-03
8.146923035383224487e-03
-1.701044291257858276e-02
4.703435115516185760e-03
-3.167626261711120605e-02
1.284506730735301971e-02
7.636989653110504150e-02
-3.645250946283340454e-02
-1.128753367811441422e-02
-5.999868735671043396e-03
1.624803803861141205e-02
-2.019570767879486084e-02
9.572105482220649719e-03
2.616970334202051163e-03
3.365073353052139282e-02
-1.937938854098320007e-02
3.972547128796577454e-02
3.516332805156707764e-02
1.666811644099652767e-03
-5.877705756574869156e-03
6.321217119693756104e-02
4.787751939147710800e-03
-7.090318202972412109e-02
-3.742682561278343201e-02
-6.741802208125591278e-03
3.490006923675537109e-02
-1.327535882592201233e-02
3.122476302087306976e-02
-3.010291419923305511e-02
1.643366739153862000e-02
1.999300904572010040e-02
-6.621076259762048721e-03
-2.348422259092330933e-02
-1.060108095407485962e-02
-2.947421045973896980e-03
2.290296927094459534e-02
-4.158496391028165817e-03
-6.412161141633987427e-02
-7.652784232050180435e-03
4.564321786165237427e-02
-4.055824875831604004e-02
-3.770657815039157867e-03
7.651754468679428101e-02
2.052758820354938507e-03
-3.368273004889488220e-02
3.665699809789657593e-02
8.705726824700832367e-03
-3.305273875594139099e-02
6.042484194040298462e-03
-5.731345620006322861e-03
-2.055425755679607391e-02
2.673013322055339813e-02
-4.264067392796278000e-03
2.380916476249694824e-02
3.023117966949939728e-02
1.050879713147878647e-03
7.595886010676622391e-03
-1.482017058879137039e-02
2.325297892093658447e-02
3.282730234786868095e-03
-3.947660792618989944e-03
-1.053249463438987732e-02
8.431077934801578522e-03
6.882067769765853882e-03
-1.904704235494136810e-02
-3.308791667222976685e-03
-1.126546598970890045e-02
1.208123285323381424e-02
-5.801599472761154175e-03
-2.544168010354042053e-02
-2.072354964911937714e-02
1.219735015183687210e-02
-2.627098560333251953e-02
2.254382241517305374e-03
-9.163129143416881561e-03
1.159888040274381638e-02
8.768501691520214081e-03
-4.096326604485511780e-02
-5.165429785847663879e-03
-3.565645590424537659e-02
9.120516479015350342e-03
3.028333187103271484e-02
2.599814534187316895e-02
3.323606029152870178e-02
-2.686894126236438751e-02
-4.044310189783573151e-03
-1.592319924384355545e-03
1.762164384126663208e-02
-1.435160916298627853e-02
-2.630082657560706139e-03
-4.142957925796508789e-02
4.068359266966581345e-03
-2.512986026704311371e-02
-1.305345725268125534e-02
3.689822182059288025e-02
-6.236136425286531448e-03
2.038426697254180908e-02
-1.511844154447317123e-02
1.574809476733207703e-02
8.738568983972072601e-03
2.636728063225746155e-02
-2.384236827492713928e-02
2.038085088133811951e-02
3.656237199902534485e-02
-2.020994015038013458e-02
-4.183481447398662567e-03
-3.314470499753952026e-02
1.885018125176429749e-02
5.243801046162843704e-03
4.588004946708679199e-02
-1.067340001463890076e-02
5.507534835487604141e-03
-1.775014586746692657e-02
-1.678721420466899872e-02
-2.889428474009037018e-02
2.277453243732452393e-02
-1.333374157547950745e-02
-2.582696080207824707e-02
5.803183186799287796e-03
8.932477794587612152e-03
1.166266016662120819e-02
7.863672450184822083e-03
-1.694368943572044373e-02
3.191630542278289795e-02
-2.599646337330341339e-02
8.649651892483234406e-03
-1.237782835960388184e-02
-1.496197935193777084e-02
-2.485765330493450165e-02
6.216148030944168568e-04
-2.721466869115829468e-02
-4.183620586991310120e-02
2.449152059853076935e-02
2.509455196559429169e-02
1.604220457375049591e-02
5.840606987476348877e-02
1.907678879797458649e-02
2.436073869466781616e-02
-7.114006672054529190e-03
8.010404999367892742e-04
-3.631229698657989502e-02
-5.033056717365980148e-03
-4.191936179995536804e-02
-3.324594814330339432e-03
1.827301271259784698e-02
-1.932897837832570076e-03
4.667995125055313110e-02
-3.275966271758079529e-02
8.017359650693833828e-04
5.258846562355756760e-03
-4.078508168458938599e-02
3.101642429828643799e-02
9.195933118462562561e-03
1.726958528161048889e-02
1.886514201760292053e-02
6.715789437294006348e-03
-6.043906789273023605e-03
-3.573235869407653809e-02
-3.132020309567451477e-02
2.318172901868820190e-02
-3.173223137855529785e-02
-2.290761098265647888e-02
3.912248089909553528e-02
1.326691545546054840e-02
3.983291797339916229e-03
8.703668601810932159e-03
7.208450697362422943e-03
4.265679419040679932e-02
-4.800359904766082764e-02
3.270453074946999550e-03
-1.096266414970159531e-02
-2.205398865044116974e-02
2.104561403393745422e-02
-4.598158877342939377e-03
8.991313166916370392e-03
-2.934103645384311676e-02
9.328613057732582092e-03
3.611661493778228760e-02
-2.979532815515995026e-02
7.752167992293834686e-03
-1.559194549918174744e-02
-2.397771365940570831e-02
4.285410046577453613e-03
-1.008366048336029053e-02
1.573942974209785461e-02
4.087263345718383789e-02
9.077248163521289825e-03
-3.206803649663925171e-02
2.815387770533561707e-02
1.298931543715298176e-03
-4.892988875508308411e-02
-7.997689768671989441e-03
5.365259945392608643e-03
1.922995969653129578e-02
-2.514146734029054642e-03
3.664977476000785828e-02
1.380311441607773304e-03
-2.542077330872416496e-03
1.782989688217639923e-02
-3.803766891360282898e-02
1.539943367242813110e-02
-2.115604653954505920e-02
-2.525196038186550140e-02
2.957934141159057617e-02
8.714377763681113720e-04
1.607885211706161499e-02
-7.080365903675556183e-03
-2.384745329618453979e-02
-3.127755224704742432e-02
4.402086604386568069e-03
4.746237397193908691e-02
-1.201941817998886108e-02
-3.466926142573356628e-02
-7.199382409453392029e-03
1.866931095719337463e-02
-2.098466455936431885e-02
5.813106149435043335e-02
-3.133948892354965210e-02
3.179621323943138123e-02
2.454567234963178635e-03
1.244049984961748123e-02
1.354317530058324337e-03
3.775002434849739075e-03
1.941803097724914551e-02
-1.151712704449892044e-02
-1.504819747060537338e-02
-3.069809265434741974e-02
-6.171297281980514526e-03
2.789880707859992981e-02
-9.435250423848628998e-03
-2.321858145296573639e-02
-2.484419196844100952e-02
-1.975561463041231036e-04
4.447352886199951172e-02
-2.994243055582046509e-02
1.219027955085039139e-02
-1.598118431866168976e-02
-4.235769063234329224e-02
1.554816309362649918e-02
9.247266687452793121e-03
-2.504845336079597473e-02
5.528839305043220520e-03
4.680873453617095947e-02
3.606484085321426392e-02
-2.574557065963745117e-02
-2.257710136473178864e-02
1.007245574146509171e-02
1.675860211253166199e-02
-1.262512430548667908e-02
2.615607809275388718e-03
-1.596204750239849091e-02
-1.364303519949316978e-03
3.906294703483581543e-03
4.681881982833147049e-03
2.787110395729541779e-02
1.621913164854049683e-03
3.867533290758728981e-03
-2.885975502431392670e-02
-1.564458571374416351e-02
1.105411164462566376e-02
-2.270518057048320770e-02
4.564492404460906982e-02
3.961889073252677917e-02
2.568880096077919006e-02
2.042929455637931824e-02
-4.854904860258102417e-02
-2.455782331526279449e-02
-5.483486503362655640e-02
3.304445743560791016e-02
-2.772990986704826355e-02
-5.371709819883108139e-03
-2.000399306416511536e-02
5.182258784770965576e-03
3.253977745771408081e-02
2.702070586383342743e-02
2.400859817862510681e-02
2.842894522473216057e-03
-9.527943097054958344e-03
1.784116216003894806e-02
9.331429377198219299e-03
6.549671292304992676e-03
2.076090872287750244e-02
3.479591757059097290e-02
-1.032807864248752594e-02
-2.311416715383529663e-02
-1.747475378215312958e-02
-4.814641177654266357e-02
-8.109313994646072388e-02
2.481572329998016357e-02
-8.801031857728958130e-02
-3.349336981773376465e-02
7.480986416339874268e-02
1.507096271961927414e-02
2.425700612366199493e-02
1.964611560106277466e-02
8.208040148019790649e-03
1.472313888370990753e-02
6.961972918361425400e-03
1.940570399165153503e-02
-8.847367949783802032e-03
4.467496275901794434e-02
3.906388953328132629e-02
-4.602560400962829590e-02
-2.214510925114154816e-02
-2.423095982521772385e-03
2.987493574619293213e-02
-2.562744915485382080e-02
2.057092078030109406e-02
-1.318651344627141953e-02
5.135549977421760559e-02
-1.194419059902429581e-02
9.009958058595657349e-02
-1.625557057559490204e-02
4.002225771546363831e-02
-8.486695587635040283e-02
-3.620900958776473999e-02
-2.537833759561181068e-03
-3.776193596422672272e-03
2.720630168914794922e-02
-6.307405978441238403e-02
-9.966745041310787201e-03
-1.536147110164165497e-02
5.415164679288864136e-02
-1.346320845186710358e-02
2.209830097854137421e-02
-3.584732860326766968e-02
2.032775804400444031e-02
6.820861715823411942e-03
-2.560967206954956055e-02
3.622822836041450500e-02
8.804393932223320007e-03
-1.561663206666707993e-02
-4.115419089794158936e-02
-1.498159766197204590e-02
2.826775889843702316e-03
3.084209375083446503e-02
1.662109047174453735e-02
7.056713104248046875e-02
-2.904099598526954651e-02
-4.584556072950363159e-02
4.402302578091621399e-02
-1.046060211956501007e-02
-1.603873446583747864e-02
3.865922335535287857e-03
-3.843992599286139011e-04
1.662251912057399750e-02
-4.439938068389892578e-02
-2.580256201326847076e-03
5.147306248545646667e-02
3.306654095649719238e-02
5.639772862195968628e-02
7.363245240412652493e-04
-2.105640433728694916e-02
8.926285430788993835e-03
-4.495762661099433899e-02
-4.877309128642082214e-02
-1.066262461245059967e-02
-2.667851559817790985e-02
-4.133433103561401367e-03
-2.427366748452186584e-02
1.385842170566320419e-02
4.003306105732917786e-02
8.446582593023777008e-03
6.461025774478912354e-02
-1.583228260278701782e-02
-1.200226787477731705e-02
-1.486472785472869873e-02
-9.133393317461013794e-02
4.066739697009325027e-03
2.121430449187755585e-02
-9.229964576661586761e-03
7.780883461236953735e-02
1.503910461906343699e-04
5.843072384595870972e-02
2.247635088860988617e-02
-3.636994212865829468e-02
-3.184092417359352112e-02
-2.676281332969665527e-02
3.640658780932426453e-02
-3.066677134484052658e-03
-2.609680406749248505e-02
-4.848668351769447327e-02
2.295787259936332703e-02
4.286332055926322937e-02
-8.426682325080037117e-05
-7.447164389304816723e-04
1.775443367660045624e-02
-1.187203917652368546e-02
-2.271936461329460144e-02
-7.490096613764762878e-03
1.264322921633720398e-02
1.135716866701841354e-02
-1.311700139194726944e-02
3.073534555733203888e-02
-1.039182394742965698e-02
7.682474795728921890e-03
3.430896205827593803e-03
6.669075042009353638e-02
-2.330103330314159393e-02
-3.712143376469612122e-02
4.784786328673362732e-02
-1.052544079720973969e-02
-6.012848392128944397e-02
-2.007879503071308136e-02
8.250384707935154438e-04
2.617084188386797905e-03
2.620719745755195618e-02
2.466634660959243774e-02
4.746397025883197784e-03
7.229263335466384888e-02
3.403493762016296387e-02
-5.723108351230621338e-02
2.379976958036422729e-02
2.623753435909748077e-02
-3.660475090146064758e-02
-3.996666520833969116e-02
-4.816127195954322815e-02
1.393007300794124603e-02
1.953684166073799133e-02
2.710323035717010498e-02
-8.050509728491306305e-03
-9.119695983827114105e-03
-2.661512233316898346e-02
-9.880997240543365479e-03
2.994158491492271423e-02
-3.520640358328819275e-02
3.345251828432083130e-02
7.000745274126529694e-03
-1.319797430187463760e-02
-2.098213694989681244e-02
2.242650091648101807e-02
3.065820084884762764e-03
7.319188117980957031e-02
3.129298985004425049e-02
-2.382782101631164551e-02
-5.231377482414245605e-02
-2.416096813976764679e-02
7.957622408866882324e-02
-4.494837671518325806e-02
-4.013116285204887390e-02
4.066484048962593079e-02
1.032595336437225342e-02
-5.219618976116180420e-02
-5.895026028156280518e-02
-5.092004686594009399e-02
5.859243869781494141e-02
3.895859047770500183e-02
2.047437429428100586e-02
-1.248558145016431808e-02
-3.254575282335281372e-02
6.591051816940307617e-02
-1.763990381732583046e-03
-1.895832270383834839e-02
-2.541688084602355957e-02
6.542881950736045837e-03
6.402224971679970622e-05
8.567993529140949249e-03
1.885918341577053070e-02
-1.889190636575222015e-02
-7.587235886603593826e-03
-4.518330097198486328e-03
-5.362262949347496033e-02
4.568298161029815674e-02
1.867276243865489960e-02
-6.888835225254297256e-03
3.836664929986000061e-02
8.888227865099906921e-03
8.497100323438644409e-03
-3.033934393897652626e-03
8.612633682787418365e-03
1.052200235426425934e-02
-3.511757403612136841e-02
3.172817407175898552e-03
-2.787250652909278870e-02
-5.145045928657054901e-03
3.260177746415138245e-02
1.298501435667276382e-02
-2.008355222642421722e-02
-3.282015025615692139e-02
-1.556801958940923214e-03
-1.228311751037836075e-02
2.081230096518993378e-02
8.975449949502944946e-03
2.576733380556106567e-02
1.026788819581270218e-02
-1.668222062289714813e-02
-3.316628513857722282e-03
3.297244757413864136e-02
4.831107333302497864e-02
-6.058600544929504395e-02
-2.671094797551631927e-02
-5.481433495879173279e-02
1.361857913434505463e-02
1.027016434818506241e-02
2.560063451528549194e-02
-1.707319356501102448e-02
6.729850079864263535e-03
3.383424133062362671e-02
-3.572243452072143555e-02
3.542788699269294739e-02
-4.652614146471023560e-02
4.441044293344020844e-03
-1.349414419382810593e-02
-1.220320165157318115e-02
1.603876613080501556e-02
4.253064095973968506e-02
3.225069958716630936e-04
1.100810430943965912e-02
-3.414561040699481964e-03
-3.372811526060104370e-02
4.083851724863052368e-02
-1.759705878794193268e-02
1.451353076845407486e-03
-1.690337620675563812e-02
-6.393542978912591934e-03
-1.194469537585973740e-02
-8.913208730518817902e-03
-1.170911919325590134e-02
4.228242114186286926e-02
2.490561269223690033e-02
2.907464653253555298e-02
-2.294231392443180084e-02
3.878402709960937500e-02
-5.078196898102760315e-02
-2.141240425407886505e-02
-1.059625484049320221e-02
-1.423623040318489075e-02
-9.936156682670116425e-03
5.362525582313537598e-03
-1.052789576351642609e-02
-9.283308871090412140e-03
-6.835353095084428787e-03
1.034631859511137009e-03
3.691709041595458984e-02
-1.038435380905866623e-02
1.541881822049617767e-02
-1.148936804383993149e-02
4.146820306777954102e-02
-8.550395071506500244e-02
-1.261196285486221313e-02
1.432433258742094040e-03
-2.328636683523654938e-02
4.517870396375656128e-02
8.028778247535228729e-04
4.944775253534317017e-02
6.077792961150407791e-03
-3.922991454601287842e-02
2.983256988227367401e-02
-9.112252853810787201e-03
-5.254414305090904236e-02
9.926847368478775024e-02
2.084881067276000977e-02
1.158014289103448391e-03
-7.473840564489364624e-02
2.867647632956504822e-02
-5.818356573581695557e-02
4.140180349349975586e-02
4.277335479855537415e-02
-2.709161490201950073e-02
-3.211440984159708023e-03
-3.281359747052192688e-02
1.026080921292304993e-02
1.877515763044357300e-02
-1.312929578125476837e-02
1.349952816963195801e-02
-9.187709540128707886e-03
1.931401342153549194e-02
-7.083673775196075439e-02
8.290067315101623535e-03
4.023425653576850891e-02
4.474581778049468994e-02
-5.282458662986755371e-02
-4.488625563681125641e-03
-2.008565643336623907e-04
-6.084804236888885498e-02
-2.593941427767276764e-02
8.689782768487930298e-02
-1.542677520774304867e-03
5.392112582921981812e-02
3.388060629367828369e-02
-9.919138392433524132e-04
-1.723409071564674377e-02
6.349752843379974365e-02
-2.900857850909233093e-02
-4.037310928106307983e-02
-2.490670979022979736e-02
-3.474368527531623840e-02
1.750301569700241089e-02
7.528427522629499435e-03
-4.729558248072862625e-03
-2.709130756556987762e-03
5.520199891179800034e-03
-1.383589394390583038e-02
2.543872036039829254e-02
7.825279608368873596e-03
-5.045250989496707916e-03
-3.834366053342819214e-02
-3.654057160019874573e-02
1.733830012381076813e-02
-3.103350102901458740e-02
3.621606156229972839e-02
-2.655706554651260376e-02
2.079235389828681946e-02
8.259409107267856598e-03
-2.879575081169605255e-02
-3.150498494505882263e-02
5.361481383442878723e-02
3.439340367913246155e-02
5.750521272420883179e-02
-6.162934005260467529e-02
1.076560243964195251e-01
-3.959821537137031555e-03
-9.699216112494468689e-03
-2.301060594618320465e-02
-3.843449056148529053e-02
-4.574971646070480347e-02
-1.788597367703914642e-02
6.604764610528945923e-02
-3.836050629615783691e-02
-6.193910259753465652e-03
-9.215489961206912994e-03
-3.141937032341957092e-02
4.842201247811317444e-02
-1.184479612857103348e-02
-6.196632049977779388e-03
2.194382483139634132e-03
1.939034089446067810e-02
3.680588677525520325e-02
-4.342607036232948303e-02
-1.125133596360683441e-02
5.365239456295967102e-02
-4.386641550809144974e-03
-2.239183289930224419e-03
-4.207139834761619568e-02
8.897705934941768646e-03
1.660248450934886932e-02
-2.015090733766555786e-02
4.746918380260467529e-02
-5.418487358838319778e-03
1.129053346812725067e-02
-1.693673059344291687e-02
8.487326093018054962e-03
2.391079999506473541e-02
5.712928250432014465e-03
-2.493032440543174744e-02
6.077195983380079269e-03
-5.347755551338195801e-02
1.222720742225646973e-02
5.719121545553207397e-02
-8.135084062814712524e-02
2.912523038685321808e-02
-2.447194885462522507e-03
3.817959502339363098e-02
-4.151309840381145477e-03
-5.605360493063926697e-02
9.490052238106727600e-03
-7.079581264406442642e-04
2.591759338974952698e-02
2.301612496376037598e-02
-2.986529842019081116e-02
3.349240496754646301e-02
-1.909948140382766724e-02
-1.822876371443271637e-02
5.121057108044624329e-02
2.371054701507091522e-02
-7.090818136930465698e-02
-1.049449550919234753e-03
4.967831820249557495e-02
-2.912295050919055939e-02
2.884731255471706390e-02
2.677072770893573761e-02
3.138280659914016724e-02
-4.887804854661226273e-03
-2.507053688168525696e-02
-3.400576114654541016e-02
-1.090135239064693451e-02
-1.035803556442260742e-02
-5.092166736721992493e-02
-3.064812906086444855e-02
1.373934093862771988e-02
3.285987302660942078e-02
2.745231240987777710e-02
4.267238453030586243e-02
-4.527458921074867249e-03
-1.410030666738748550e-02
-2.072000131011009216e-02
5.352976731956005096e-03
-2.657744102180004120e-02
-4.950808826833963394e-03
1.170321949757635593e-03
-3.446072712540626526e-02
-4.432669281959533691e-02
1.321156509220600128e-02
4.884019866585731506e-02
-3.846829291433095932e-03
1.084105391055345535e-02
1.503938157111406326e-02
-1.032417826354503632e-02
8.737062104046344757e-03
-9.422490838915109634e-04
2.871882170438766479e-03
3.594058752059936523e-02
-1.868936792016029358e-02
-9.515444748103618622e-03
9.730012156069278717e-03
4.533484578132629395e-03
-2.204395644366741180e-02
8.796602487564086914e-03
-5.110678076744079590e-02
-5.001685395836830139e-02
4.348558560013771057e-02
5.706818774342536926e-03
-6.142900325357913971e-03
-1.210032589733600616e-02
3.346333280205726624e-02
-2.449934929609298706e-02
2.010587230324745178e-02
-3.467184025794267654e-03
-1.630154810845851898e-02
-3.195000439882278442e-02
2.041137777268886566e-02
-1.906931586563587189e-02
1.559300534427165985e-02
3.651684150099754333e-02
-4.570014029741287231e-02
1.697872206568717957e-02
2.456801757216453552e-02
2.247574366629123688e-02
3.794453665614128113e-02
2.502216026186943054e-02
3.181432140991091728e-03
-1.163222454488277435e-02
-4.703347384929656982e-02
-1.917047239840030670e-02
-9.678584523499011993e-03
1.305417343974113464e-02
1.629727892577648163e-02
-7.662959396839141846e-04
6.375722587108612061e-02
-7.693175971508026123e-02
3.551349043846130371e-02
-1.322613097727298737e-02
-9.299688041210174561e-03
2.163496799767017365e-02
-4.200993105769157410e-02
-7.432744372636079788e-03
1.155512221157550812e-02
-1.027682237327098846e-02
2.589095756411552429e-02
-4.438937827944755554e-02
5.973601713776588440e-02
1.502558775246143341e-02
-1.021994184702634811e-02
-7.166906725615262985e-03
-9.027958847582340240e-03
1.651433669030666351e-02
-4.956280812621116638e-02
3.150044009089469910e-02
4.376572032924741507e-04
-6.309198588132858276e-02
1.363851688802242279e-02
-3.689887374639511108e-02
1.614644750952720642e-02
2.660743333399295807e-02
-1.081596128642559052e-02
1.287648081779479980e-02
1.509149279445409775e-02
2.479954995214939117e-02
-1.882706955075263977e-02
-4.663854092359542847e-02
2.097303792834281921e-02
-2.623580209910869598e-02
-2.179433405399322510e-02
2.755708433687686920e-02
1.604370214045047760e-02
-1.087811216711997986e-02
2.102050557732582092e-02
-1.602601259946823120e-02
1.032377220690250397e-02
-3.039426729083061218e-02
1.138849998824298382e-03
7.854163646697998047e-02
-1.812955946661531925e-03
4.627716168761253357e-02
-1.721771620213985443e-02
-6.178734451532363892e-02
-2.057942561805248260e-02
-3.425663709640502930e-02
2.570837922394275665e-02
6.281431764364242554e-03
-1.212308276444673538e-02
-2.679068420547991991e-04
-6.186997517943382263e-03
6.913992110639810562e-03
8.154749870300292969e-02
-4.157760366797447205e-02
5.170064978301525116e-03
-2.301847748458385468e-02
5.622414406388998032e-03
2.308232150971889496e-02
-2.512353239580988884e-04
-3.297325968742370605e-02
-2.574954181909561157e-02
1.423053164035081863e-02
-2.318550646305084229e-02
-2.438661269843578339e-02
5.647054314613342285e-02
-4.220683872699737549e-02
1.634184643626213074e-02
9.637702256441116333e-03
-3.137210011482238770e-02
4.637441411614418030e-02
-2.286205813288688660e-02
3.794720023870468140e-02
2.880420070141553879e-03
-2.089770976454019547e-03
-2.117919921875000000e-02
5.684280768036842346e-02
-1.248320098966360092e-02
2.075267769396305084e-02
-4.003627691417932510e-03
3.821225604042410851e-03
-7.176872342824935913e-02
-2.366228960454463959e-02
-5.675275810062885284e-03
4.428676515817642212e-02
1.165087916888296604e-03
2.940310398116707802e-03
3.742697881534695625e-03
2.341334009543061256e-03
6.916572153568267822e-02
-6.051708012819290161e-02
-2.338400483131408691e-02
-1.791561953723430634e-02
-3.629866614937782288e-02
3.761946782469749451e-02
2.787487581372261047e-02
-5.639236420392990112e-02
7.456488162279129028e-02
4.227149114012718201e-02
-7.215568330138921738e-03
-6.509225070476531982e-02
8.391761034727096558e-02
5.083450675010681152e-02
-3.022042475640773773e-02
-7.571400701999664307e-02
8.244912140071392059e-03
-4.083757847547531128e-02
-1.712710969150066376e-02
4.740579053759574890e-02
-1.233511976897716522e-02
4.972076043486595154e-02
1.874231849797070026e-03
-1.581735163927078247e-02
-1.974392868578433990e-02
-1.133610028773546219e-03
1.928773894906044006e-02
-4.167776927351951599e-02
6.667404621839523315e-02
-1.785610616207122803e-02
4.195058252662420273e-03
-4.731471464037895203e-02
1.115298047661781311e-01
4.036881774663925171e-02
-4.421902447938919067e-02
-3.612544015049934387e-02
-4.087434150278568268e-03
5.902459844946861267e-02
1.747794449329376221e-02
-3.016548976302146912e-02
-3.820798546075820923e-02
-1.842295750975608826e-02
-2.503883279860019684e-02
4.629897419363260269e-03
-1.625608839094638824e-02
1.929629780352115631e-02
2.082036808133125305e-02
-6.396663840860128403e-03
-1.578957960009574890e-02
4.610645119100809097e-03
-1.545932755107060075e-04
-3.990158811211585999e-02
-5.681182816624641418e-02
5.786389112472534180e-02
9.527596645057201385e-03
3.453232720494270325e-02
1.868567802011966705e-02
-2.125527150928974152e-02
7.682775147259235382e-03
-1.335000153630971909e-02
2.255382761359214783e-02
2.557876892387866974e-02
1.088308356702327728e-02
-2.166404016315937042e-02
-1.876677758991718292e-02
-6.172291003167629242e-03
-2.236456610262393951e-02
1.700080186128616333e-02
-4.309562966227531433e-02
-5.281522870063781738e-02
-1.709039695560932159e-02
4.560176655650138855e-02
3.759841620922088623e-02
-2.245295979082584381e-02
2.930121868848800659e-02
3.900889679789543152e-02
-5.919230356812477112e-02
5.915711633861064911e-03
-1.341707259416580200e-02
9.191431850194931030e-02
-2.978122606873512268e-02
-2.568329498171806335e-02
2.465145662426948547e-02
-5.547177791595458984e-02
1.447906158864498138e-02
5.168874748051166534e-03
-5.817557685077190399e-03
-1.129816938191652298e-02
7.974296808242797852e-03
2.732814662158489227e-02
-4.377299919724464417e-02
-6.143198348581790924e-03
1.180820725858211517e-02
1.387376803904771805e-02
-6.660550134256482124e-04
6.847792770713567734e-03
-2.292106673121452332e-02
4.006049130111932755e-03
2.386665530502796173e-02
2.184493839740753174e-02
-4.849206283688545227e-02
-3.443608805537223816e-02
5.334384739398956299e-03
1.503114472143352032e-03
-2.926639467477798462e-02
2.538222260773181915e-02
9.838578291237354279e-03
9.358306415379047394e-03
-5.098822712898254395e-02
8.449628017842769623e-03
-7.549944519996643066e-02
-4.500148817896842957e-03
-3.626092895865440369e-02
1.646065711975097656e-02
5.792574584484100342e-02
1.039393246173858643e-02
4.464152827858924866e-02
-2.304049208760261536e-03
2.598390355706214905e-02
1.582964509725570679e-02
-6.215886399149894714e-02
6.652391701936721802e-02
-4.362650588154792786e-02
1.413032994605600834e-03
-3.026199899613857269e-02
4.191526398062705994e-02
1.147977076470851898e-02
-3.193137422204017639e-02
5.280127283185720444e-03
3.088414296507835388e-02
-2.119317464530467987e-02
-3.968119248747825623e-02
3.108222596347332001e-02
1.192469429224729538e-02
1.552229467779397964e-02
2.285264804959297180e-02
-1.579014584422111511e-02
3.251701220870018005e-02
-6.056077778339385986e-03
5.152104888111352921e-03
2.346105314791202545e-02
-6.345054507255554199e-02
1.459240447729825974e-02
1.586251892149448395e-02
-4.998514195904135704e-04
-4.331908375024795532e-02
1.113477069884538651e-02
4.222251940518617630e-03
-7.412548642605543137e-03
8.551932871341705322e-03
-4.625321924686431885e-02
-2.239815145730972290e-02
4.695228859782218933e-02
-1.087447442114353180e-02
1.857736892998218536e-02
4.038690403103828430e-02
-1.661003567278385162e-02
-2.675350196659564972e-02
7.239358965307474136e-03
-4.065753892064094543e-03
-3.119232133030891418e-02
2.958489395678043365e-02
2.484969329088926315e-03
1.209991797804832458e-02
1.726770587265491486e-02
3.688042610883712769e-02
-4.684292525053024292e-02
-6.562845315784215927e-03
-8.014389313757419586e-03
-2.675632573664188385e-02
1.505532418377697468e-03
-2.038025669753551483e-02
4.003285616636276245e-02
1.492052618414163589e-02
-7.121547125279903412e-03
2.373666502535343170e-02
-2.637706510722637177e-02
-4.795407876372337341e-02
5.121938884258270264e-02
3.416150808334350586e-02
-3.483101353049278259e-02
-6.511820852756500244e-02
-2.801807783544063568e-02
2.529697120189666748e-02
-3.262588055804371834e-03
-4.249591380357742310e-02
1.167330220341682434e-01
4.112985334359109402e-04
2.124425582587718964e-02
9.609131142497062683e-03
2.510456182062625885e-02
2.816582564264535904e-03
-1.955138752236962318e-03
9.083241457119584084e-04
-2.170212380588054657e-02
-2.343027293682098389e-02
1.019247993826866150e-02
-6.724424194544553757e-03
3.304728120565414429e-02
-1.649648416787385941e-03
-5.793342832475900650e-03
-1.768389344215393066e-02
1.217276230454444885e-02
1.262670382857322693e-02
-3.843711316585540771e-02
4.208393860608339310e-03
6.585588306188583374e-02
-4.626355692744255066e-02
2.189763449132442474e-02
3.328533843159675598e-02
-2.872841805219650269e-02
-1.513423398137092590e-02
3.376836702227592468e-02
5.333050712943077087e-02
-6.802146881818771362e-02
-3.372985124588012695e-02
2.432817220687866211e-02
2.719987556338310242e-02
-3.684121370315551758e-02
-5.098881665617227554e-03
-6.240755692124366760e-02
1.775479130446910858e-02
2.116983383893966675e-02
9.966350160539150238e-03
1.993595808744430542e-02
3.492784127593040466e-02
-1.441719126887619495e-03
-3.367937356233596802e-02
-4.336423799395561218e-02
1.235533563885837793e-04
-2.883043326437473297e-02
4.449190944433212280e-02
-2.190233906731009483e-03
6.502720527350902557e-03
2.832896076142787933e-02
-1.155956648290157318e-02
1.990137249231338501e-02
-4.422638192772865295e-02
2.810192108154296875e-02
-4.799881204962730408e-02
1.338933035731315613e-02
-2.243759855628013611e-02
5.435191094875335693e-03
3.246041759848594666e-02
1.228628680109977722e-02
1.945943920873105526e-03
-5.579969380050897598e-03
2.230305783450603485e-02
-1.466019824147224426e-02
-1.160467136651277542e-02
1.751974411308765411e-02
1.072336453944444656e-03
3.930325806140899658e-02
1.538001094013452530e-02
-2.865102887153625488e-02
-2.334494842216372490e-03
-1.520535326562821865e-03
-6.523134559392929077e-02
-1.576181687414646149e-02
2.091444097459316254e-02
-2.245670743286609650e-02
2.233770489692687988e-02
7.801298797130584717e-02
8.912648772820830345e-04
3.092784248292446136e-02
-4.698782227933406830e-03
-3.224952146410942078e-02
1.330105774104595184e-02
-2.599758096039295197e-02
5.837737582623958588e-03
3.726106137037277222e-03
2.505072392523288727e-02
-2.946110256016254425e-02
-3.442640602588653564e-02
4.777518659830093384e-02
3.814150393009185791e-02
-3.933811932802200317e-02
3.996470570564270020e-02
-1.331696379929780960e-02
6.427986174821853638e-02
4.100270569324493408e-03
4.712845757603645325e-02
-4.014091100543737411e-03
2.137761749327182770e-02
-8.887536823749542236e-02
-4.219127073884010315e-02
-4.019491374492645264e-02
-3.789866343140602112e-02
5.359796807169914246e-03
3.192121163010597229e-02
-1.018869597464799881e-02
-1.197126135230064392e-02
-1.149416342377662659e-02
-3.495642170310020447e-02
7.415075600147247314e-02
-2.987486310303211212e-02
5.719480663537979126e-02
3.968902677297592163e-02
-1.943057985045015812e-03
-1.309877447783946991e-02
-1.147150527685880661e-03
-1.465746853500604630e-02
-4.455965757369995117e-02
1.851560734212398529e-02
4.156256094574928284e-03
9.110803715884685516e-03
1.934461854398250580e-02
1.345209591090679169e-02
-5.583604425191879272e-02
7.417515735141932964e-04
2.874687127768993378e-02
-1.923915185034275055e-02
6.803260184824466705e-03
-4.561490193009376526e-02
9.523094445466995239e-02
4.148596525192260742e-02
-6.244118511676788330e-02
-1.518802251666784286e-02
1.225079037249088287e-02
-1.538964174687862396e-02
-7.755779079161584377e-04
2.061572857201099396e-02
-2.274389751255512238e-02
4.349167272448539734e-02
-1.464207656681537628e-02
-3.414435312151908875e-02
-2.761782519519329071e-02
2.387033076956868172e-03
-1.265065837651491165e-02
-8.501032367348670959e-03
2.952381968498229980e-02
-5.536892451345920563e-03
-5.391506478190422058e-02
3.125968575477600098e-02
2.563697658479213715e-02
-1.512536127120256424e-02
-2.774647902697324753e-03
-5.367390438914299011e-02
-8.778774179518222809e-03
-1.818040572106838226e-02
-2.047621877864003181e-03
5.418195575475692749e-02
-2.716007456183433533e-02
2.385636977851390839e-02
7.087859511375427246e-02
-3.387420997023582458e-02
-2.308163791894912720e-02
-1.828997768461704254e-02
5.878654774278402328e-03
2.542325854301452637e-02
-5.457301158457994461e-03
-1.458413247019052505e-02
4.537575691938400269e-02
1.145169697701931000e-02
-4.679498821496963501e-02
-6.142248865216970444e-03
1.828700886107981205e-03
5.331475753337144852e-03
-2.748407423496246338e-02
-3.311157226562500000e-02
2.018568105995655060e-02
3.127273544669151306e-02
-1.043509785085916519e-02
5.885513033717870712e-03
-3.523941710591316223e-02
-1.690435037016868591e-02
2.861592173576354980e-02
3.262789174914360046e-02
-5.119611509144306183e-03
9.823889704421162605e-04
1.676782779395580292e-02
-4.768021404743194580e-02
-3.547408059239387512e-02
-1.608850248157978058e-02
3.533362597227096558e-02
6.332001183182001114e-03
1.072839740663766861e-02
-3.892372921109199524e-02
2.464987104758620262e-03
5.909944698214530945e-02
-1.999509753659367561e-03
5.075443536043167114e-02
-1.637195050716400146e-02
4.773202538490295410e-02
-9.814222343266010284e-03
-3.088937327265739441e-02
-5.621368810534477234e-02
-1.940048299729824066e-02
1.848313584923744202e-02
2.814173139631748199e-02
-2.195255644619464874e-02
-3.825475275516510010e-02
7.163294404745101929e-02
-2.850683964788913727e-02
2.738008834421634674e-02
-1.311216852627694607e-03
-1.679443009197711945e-02
3.353055194020271301e-02
-4.305195063352584839e-02
-2.738232724368572235e-02
2.513893693685531616e-02
2.145096100866794586e-02
5.239166319370269775e-02
2.469205111265182495e-02
-6.838456727564334869e-03
-4.614534787833690643e-03
-4.932969063520431519e-02
5.696478113532066345e-02
-7.387330383062362671e-02
4.367762804031372070e-02
3.767148777842521667e-02
-4.921884834766387939e-02
-2.703635580837726593e-02
-3.170724492520093918e-03
-2.635819092392921448e-02
5.121732503175735474e-02
2.534090168774127960e-02
-8.061241358518600464e-03
-2.838897518813610077e-02
-1.300396956503391266e-02
-1.771977287717163563e-03
-2.254051528871059418e-02
1.942286454141139984e-02
7.505253888666629791e-03
4.828449338674545288e-02
8.794847875833511353e-03
-7.572358008474111557e-03
1.698481850326061249e-02
2.408422529697418213e-02
-2.929284423589706421e-02
-1.540812104940414429e-02
-2.766805328428745270e-02
1.208281982690095901e-02
5.259732156991958618e-02
-4.065046831965446472e-02
1.657774113118648529e-02
3.985923249274492264e-03
3.490127250552177429e-02
-1.055882312357425690e-02
1.020846795290708542e-02
-6.396122276782989502e-03
-9.385200217366218567e-03
3.825671272352337837e-03
-1.497356686741113663e-02
-1.608537323772907257e-02
1.772422343492507935e-02
-6.015905644744634628e-03
1.696600951254367828e-02
-3.709479700773954391e-03
-2.311399392783641815e-02
-4.479326307773590088e-02
4.563562572002410889e-02
-3.108659293502569199e-03
5.323131382465362549e-02
5.178961437195539474e-03
-2.599583752453327179e-02
-4.633662477135658264e-02
8.219753392040729523e-03
1.697962358593940735e-02
-2.061434276401996613e-02
-1.108712982386350632e-02
-4.196213185787200928e-02
-1.932289451360702515e-02
-5.127199925482273102e-03
3.931646421551704407e-02
9.934771806001663208e-03
3.550919936969876289e-03
7.271798700094223022e-02
-1.262510102242231369e-02
3.155361395329236984e-03
-9.851845912635326385e-03
-2.135720336809754372e-03
-3.556017577648162842e-02
3.256875090301036835e-03
-1.410209015011787415e-02
-1.005957834422588348e-02
-1.444368716329336166e-02
3.141777589917182922e-03
1.151968841440975666e-03
4.866817500442266464e-03
-6.224259734153747559e-03
4.342598840594291687e-03
3.803033381700515747e-03
-1.426349394023418427e-02
-8.324418216943740845e-03
-6.507718469947576523e-03
1.233993563801050186e-02
-1.681943796575069427e-02
8.704958483576774597e-03
1.083846203982830048e-02
1.433171983808279037e-02
1.433528680354356766e-02
3.224801272153854370e-02
-1.558953081257641315e-03
-4.755761940032243729e-03
-7.910544984042644501e-03
-4.881992191076278687e-02
2.081437967717647552e-02
-1.911183120682835579e-03
-6.875514052808284760e-03
-1.100336015224456787e-02
2.253926731646060944e-02
-1.549166068434715271e-02
3.392224758863449097e-02
-1.509152725338935852e-02
1.224089413881301880e-02
-2.544889412820339203e-02
1.505377423018217087e-02
-3.518953546881675720e-02
-1.512607210315763950e-03
2.456104150041937828e-03
-1.314102113246917725e-02
3.979741781949996948e-02
-9.806833229959011078e-03
2.496436424553394318e-02
6.003433838486671448e-02
-5.967951193451881409e-02
6.668289750814437866e-02
-9.460316039621829987e-03
-6.260167807340621948e-02
3.471475839614868164e-02
6.780599057674407959e-02
-8.721776306629180908e-02
-3.935386613011360168e-02
3.442428773269057274e-03
-1.048614736646413803e-02
6.030666641891002655e-03
2.032414264976978302e-02
-2.032446302473545074e-02
-3.574965288862586021e-03
-1.632708869874477386e-02
-6.280202069319784641e-04
3.482472524046897888e-02
-2.861553337424993515e-03
7.920417003333568573e-03
-1.091803982853889465e-02
1.376112829893827438e-02
-4.871856793761253357e-02
4.106460139155387878e-02
3.776160627603530884e-02
-8.454552851617336273e-03
-3.763090819120407104e-02
4.244802519679069519e-02
2.199488319456577301e-02
-7.862062752246856689e-02
-3.597713261842727661e-02
5.113603919744491577e-02
-1.122069172561168671e-02
3.466307371854782104e-02
1.331852376461029053e-02
1.853276044130325317e-02
-3.750079497694969177e-02
5.808294191956520081e-02
-3.991052880883216858e-02
3.645684942603111267e-02
-3.721845522522926331e-02
-5.302023887634277344e-02
3.114195913076400757e-02
3.619770333170890808e-02
-1.301479618996381760e-02
-7.360675837844610214e-03
2.842843532562255859e-02
-3.104949370026588440e-02
2.726733870804309845e-02
1.951638842001557350e-04
-9.312537498772144318e-03
-3.947453573346138000e-02
-5.480548366904258728e-02
7.988356053829193115e-03
1.498361350968480110e-03
3.934292122721672058e-02
-2.783862501382827759e-02
5.694068968296051025e-03
2.710864506661891937e-02
-2.653987146914005280e-02
-7.471423596143722534e-03
5.758536234498023987e-02
1.681655645370483398e-02
1.765694469213485718e-02
7.381900213658809662e-03
1.217951253056526184e-01
-7.241101004183292389e-03
-2.940147370100021362e-02
-8.951672166585922241e-02
-1.295025832951068878e-02
-2.882074005901813507e-02
1.057159341871738434e-02
5.432745814323425293e-02
-5.758214369416236877e-02
3.771086223423480988e-03
-1.998450048267841339e-02
3.619200317189097404e-03
-2.621877379715442657e-02
1.930645480751991272e-02
2.555718459188938141e-02
1.972413249313831329e-02
-1.500290632247924805e-02
5.901746079325675964e-02
6.242701783776283264e-03
1.526114437729120255e-02
1.348915323615074158e-02
-3.282499313354492188e-02
-1.178068225271999836e-03
-2.881943946704268456e-03
-4.329259973019361496e-03
-8.633635938167572021e-03
-2.822346799075603485e-02
4.285152256488800049e-02
1.913886703550815582e-02
4.934790357947349548e-02
5.293636769056320190e-02
4.599536303430795670e-03
-2.514832653105258942e-02
-2.888018079102039337e-02
-2.757952921092510223e-02
-4.346489161252975464e-02
-1.229691784828901291e-02
2.401100704446434975e-03
6.944867223501205444e-02
-4.355766251683235168e-02
1.945863105356693268e-02
3.721904754638671875e-02
-3.032444417476654053e-02
-1.907597482204437256e-02
-2.468394488096237183e-02
1.840614527463912964e-02
-1.174928620457649231e-02
-3.890258446335792542e-02
6.806163117289543152e-03
-1.262525795027613640e-03
1.483946666121482849e-02
-1.327254064381122589e-02
2.494992502033710480e-02
2.885936200618743896e-02
-4.498688131570816040e-02
-1.112300623208284378e-02
6.705163419246673584e-02
2.462977357208728790e-02
-5.821577738970518112e-03
1.081117056310176849e-02
-4.180168733000755310e-03
3.052067942917346954e-02
-4.689959064126014709e-02
7.639932911843061447e-03
2.670352533459663391e-02
-2.369247376918792725e-03
-4.201546311378479004e-02
1.124217058531939983e-03
1.562611199915409088e-02
2.961455658078193665e-02
3.875052928924560547e-02
1.162142120301723480e-02
4.230092838406562805e-02
-3.921319171786308289e-02
-5.059167277067899704e-03
-3.777319565415382385e-02
-4.827748611569404602e-02
8.176449686288833618e-03
-2.086777472868561745e-03
-5.481276661157608032e-02
-1.057881396263837814e-02
-2.372703142464160919e-02
-1.366314128972589970e-03
6.334605067968368530e-02
-2.726603299379348755e-02
2.475765533745288849e-02
8.140594698488712311e-03
1.086753979325294495e-02
-3.410002961754798889e-02
-1.840853132307529449e-02
3.269151598215103149e-02
-2.022688835859298706e-02
-1.405746955424547195e-02
-2.421058900654315948e-02
4.782769456505775452e-02
-3.895226167514920235e-03
9.876871481537818909e-03
2.983486652374267578e-02
-7.301688194274902344e-02
-3.948953002691268921e-02
1.337979268282651901e-02
4.679853469133377075e-02
-4.224293678998947144e-02
-1.692388951778411865e-02
5.236338078975677490e-02
7.721535395830869675e-03
2.542751468718051910e-02
-4.465186502784490585e-03
-1.812671497464179993e-02
2.486292505636811256e-03
8.882451802492141724e-03
-7.919779978692531586e-03
3.944711387157440186e-02
-4.364799335598945618e-02
-3.398717567324638367e-02
8.846509270370006561e-03
2.639954350888729095e-02
-1.424853224307298660e-02
4.705560859292745590e-03
-2.480828668922185898e-03
-2.134576439857482910e-02
5.209048744291067123e-03
-1.310011185705661774e-02
-3.099398314952850342e-02
1.513945590704679489e-02
3.502392396330833435e-02
-3.646222758106887341e-04
6.113984622061252594e-03
4.877638816833496094e-02
-3.508285805583000183e-02
4.597193375229835510e-02
5.317910574376583099e-03
-2.048257924616336823e-02
-2.595697902143001556e-02
-2.895791083574295044e-02
-2.374788932502269745e-02
5.716860760003328323e-03
-4.956502816639840603e-04
1.842212863266468048e-02
2.628896757960319519e-02
-1.496515795588493347e-02
-2.789012156426906586e-02
-6.930661853402853012e-03
-3.897793358191847801e-03
1.791842468082904816e-02
2.461084909737110138e-02
-5.606657359749078751e-04
-2.867227420210838318e-02
3.994411602616310120e-02
-8.693421259522438049e-04
-7.283357530832290649e-02
2.247409150004386902e-02
2.339023351669311523e-02
-2.285295166075229645e-02
-1.973348669707775116e-02
3.588644787669181824e-02
2.623226866126060486e-02
-1.096812169998884201e-02
-3.262789547443389893e-02
-3.661433234810829163e-02
4.159049689769744873e-02
-3.354917839169502258e-02
3.257461637258529663e-02
4.563686624169349670e-02
-2.599308639764785767e-02
-1.008472777903079987e-02
4.219738766551017761e-02
1.073087379336357117e-02
-1.790431706467643380e-04
-1.132140023401007056e-04
8.184742182493209839e-03
5.199811980128288269e-02
1.364420820027589798e-02
8.658602833747863770e-03
-3.311707451939582825e-02
-2.905236743390560150e-02
-2.764497697353363037e-02
4.836013540625572205e-03
1.916080713272094727e-02
1.731571555137634277e-02
-3.169908747076988220e-02
-1.547609828412532806e-02
-5.669659748673439026e-02
-2.323533594608306885e-02
2.244406566023826599e-02
4.581599682569503784e-02
1.010460220277309418e-02
-4.169652238488197327e-02
-2.370904898270964622e-03
4.069603979587554932e-02
1.290020346641540527e-02
2.594463527202606201e-03
-2.109259553253650665e-02
1.801054179668426514e-02
2.314841561019420624e-02
-1.119992788881063461e-02
1.269654743373394012e-02
-5.865318700671195984e-02
-6.966873072087764740e-03
1.433922443538904190e-02
-6.212288513779640198e-02
4.640739038586616516e-02
-6.722313165664672852e-02
7.012614607810974121e-02
2.325926348567008972e-02
4.186524078249931335e-02
-1.040459610521793365e-02
4.286764189600944519e-02
-3.564296290278434753e-03
1.420400943607091904e-02
-2.535570226609706879e-02
-1.305183209478855133e-02
-6.609064340591430664e-02
-2.751493453979492188e-02
-3.380250884220004082e-03
1.828817650675773621e-02
2.824443019926548004e-02
9.878852404654026031e-03
-3.285152197349816561e-04
1.721613667905330658e-02
4.002153128385543823e-02
-2.858047559857368469e-02
-1.572984829545021057e-02
-8.477841503918170929e-03
-4.915152490139007568e-02
5.083386227488517761e-02
5.452013108879327774e-03
2.080055139958858490e-02
4.265482723712921143e-02
4.566737264394760132e-02
3.084578551352024078e-02
-9.275428019464015961e-03
4.825160652399063110e-02
-3.451284486800432205e-03
-1.216452270746231079e-01
-1.109586805105209351e-01
4.694132506847381592e-02
-5.508344992995262146e-02
3.185138851404190063e-02
5.785176903009414673e-02
1.122109778225421906e-02
1.605577953159809113e-02
-3.440660238265991211e-02
-1.933526806533336639e-02
-1.333355717360973358e-02
-3.944759722799062729e-03
9.718066081404685974e-03
-6.152836605906486511e-03
6.404490768909454346e-02
-2.797301486134529114e-02
-1.146644586697220802e-03
-2.308974787592887878e-02
7.569795101881027222e-02
-4.433237016201019287e-03
-8.825156837701797485e-02
-9.809953160583972931e-03
2.131938375532627106e-02
1.083354000002145767e-02
4.712732508778572083e-03
2.109279111027717590e-02
-2.418983727693557739e-02
-1.619892194867134094e-02
-2.219261229038238525e-02
1.055503264069557190e-03
-9.253317490220069885e-03
3.620387986302375793e-03
1.611621305346488953e-02
7.620940450578927994e-03
1.911289989948272705e-02
8.160036988556385040e-03
-1.436220575124025345e-02
-5.362514033913612366e-02
-1.388271711766719818e-02
2.080921782180666924e-03
2.118942141532897949e-02
3.385020792484283447e-02
2.960960753262042999e-02
-6.441357545554637909e-03
-2.220653928816318512e-02
-1.330095808953046799e-02
4.724492318928241730e-04
-2.735214121639728546e-02
1.156802289187908173e-02
3.548201173543930054e-02
2.503296360373497009e-02
-1.376834977418184280e-02
7.845676504075527191e-03
3.227191418409347534e-02
-6.193882599472999573e-02
1.317077409476041794e-02
1.623026444576680660e-03
2.434674650430679321e-02
-5.109725147485733032e-02
-1.214656978845596313e-02
8.590528368949890137e-02
1.162481307983398438e-02
-5.247551947832107544e-02
4.280824586749076843e-02
-5.246850475668907166e-02
-1.049824338406324387e-02
1.078880112618207932e-02
-5.084630101919174194e-02
4.337123781442642212e-02
-4.630410298705101013e-02
9.435345977544784546e-02
-1.648033224046230316e-02
4.223311785608530045e-03
-4.649817012250423431e-03
-1.141451112926006317e-02
-3.677082434296607971e-02
-2.629107795655727386e-03
-1.814497169107198715e-03
1.160402130335569382e-02
5.719712376594543457e-02
2.100069820880889893e-02
-6.151763722300529480e-03
-4.210727289319038391e-02
-2.206659130752086639e-02
4.327585175633430481e-02
2.028718517976813018e-05
-3.476924449205398560e-02
-1.942866109311580658e-02
1.217151712626218796e-02
-1.231561228632926941e-02
1.298971590586006641e-03
-1.197767443954944611e-03
1.497974619269371033e-02
2.602473460137844086e-02
-1.704328507184982300e-02
6.815250497311353683e-03
-1.266222354024648666e-02
1.669543213210999966e-03
8.011129684746265411e-04
3.487629070878028870e-02
-2.389204315841197968e-02
-1.651827618479728699e-02
-1.228654850274324417e-02
3.342777490615844727e-02
-6.126203108578920364e-03
-2.353724557906389236e-03
-1.993276178836822510e-02
-5.605593789368867874e-03
-1.539647299796342850e-02
-1.134488917887210846e-02
4.691110178828239441e-02
8.321511559188365936e-03
-4.038307070732116699e-02
-4.974240902811288834e-03
2.053375355899333954e-02
-1.054728287272155285e-03
-4.898714367300271988e-03
-5.249948427081108093e-02
2.579911611974239349e-03
-3.678408917039632797e-03
1.303936354815959930e-02
2.543113939464092255e-02
-1.876676268875598907e-02
1.713022775948047638e-02
1.883906498551368713e-02
-5.400039628148078918e-02
4.309262707829475403e-02
-1.968011632561683655e-02
1.055422611534595490e-02
-1.260455418378114700e-02
-1.491589285433292389e-02
-2.796532353386282921e-03
1.281389314681291580e-02
4.840111359953880310e-03
4.128633532673120499e-03
3.920766711235046387e-02
-5.086546018719673157e-02
-2.174779400229454041e-02
3.937497362494468689e-02
-8.901829831302165985e-03
-1.708870567381381989e-02
1.982880197465419769e-02
-6.604120600968599319e-03
-1.733243232592940331e-03
-1.359955221414566040e-02
-1.767443679273128510e-02
-2.999077364802360535e-02
4.790659621357917786e-02
-6.521785631775856018e-03
1.913723535835742950e-02
2.846588613465428352e-03
-2.029233798384666443e-02
-1.558356545865535736e-02
1.212143618613481522e-02
-4.451179504394531250e-02
2.725555375218391418e-02
-1.778932847082614899e-02
-3.157312050461769104e-03
-3.531866474077105522e-03
-1.278930716216564178e-02
2.902019955217838287e-02
2.239010483026504517e-02
-7.104173419065773487e-04
-1.009015738964080811e-01
1.148899719119071960e-01
1.416410412639379501e-02
1.438319589942693710e-02
-4.459246620535850525e-02
3.627777844667434692e-02
1.044088043272495270e-03
-3.235943242907524109e-02
-6.715004891157150269e-02
8.194013684988021851e-02
-5.111763719469308853e-03
-1.938273571431636810e-02
2.283514477312564850e-04
3.263693302869796753e-02
3.263020887970924377e-02
-2.607873268425464630e-02
2.434533648192882538e-02
-1.554333139210939407e-02
-6.392681971192359924e-03
-1.950247585773468018e-02
-2.846902795135974884e-02
-3.197744116187095642e-02
6.600694358348846436e-02
1.527808979153633118e-02
8.924878202378749847e-03
2.621951885521411896e-02
-2.046880684792995453e-02
-2.591389697045087814e-03
3.694702638313174248e-03
-4.291855264455080032e-03
-1.270153373479843140e-02
9.951982647180557251e-03
-7.146307732909917831e-03
7.323991507291793823e-03
1.205388922244310379e-02
9.914926253259181976e-03
2.131742425262928009e-02
-6.617011129856109619e-02
1.030374411493539810e-02
1.273792795836925507e-02
-2.510440768674015999e-03
-1.059421803802251816e-02
2.904613502323627472e-02
-1.555698364973068237e-02
1.729997992515563965e-02
-6.992144510149955750e-03
-1.813354156911373138e-02
-7.083248812705278397e-03
3.379769995808601379e-02
-1.015281490981578827e-02
-3.103714436292648315e-02
1.499134302139282227e-02
-1.568045839667320251e-02
-5.402178317308425903e-02
1.778620481491088867e-02
1.003453973680734634e-02
2.232242561876773834e-02
-6.578884087502956390e-03
1.528009213507175446e-02
1.080022100359201431e-02
-1.647398807108402252e-02
2.143349312245845795e-02
-1.550333760678768158e-02
-2.223355881869792938e-02
3.329214453697204590e-02
-9.328343905508518219e-03
1.124254614114761353e-02
-9.811460040509700775e-03
1.538940332829952240e-02
-2.118210121989250183e-02
2.427387051284313202e-02
-4.409984871745109558e-02
-1.690318249166011810e-02
2.834212034940719604e-02
-1.649421453475952148e-02
1.879568584263324738e-02
4.138984531164169312e-02
-1.367486640810966492e-02
-1.195421162992715836e-02
-7.984102703630924225e-03
-6.319402903318405151e-02
-7.081038784235715866e-03
3.841989487409591675e-02
-2.078442135825753212e-03
-5.870177876204252243e-03
4.261539503931999207e-02
-2.930297283455729485e-03
1.205160003155469894e-02
-3.466812893748283386e-02
2.189124375581741333e-02
4.453229252249002457e-03
-3.322907537221908569e-02
-2.451570471748709679e-03
1.439287140965461731e-02
1.199581287801265717e-02
-2.947833761572837830e-02
-3.189084678888320923e-02
3.740071505308151245e-02
5.143925175070762634e-02
-3.106312826275825500e-02
5.297060683369636536e-02
-1.203905045986175537e-02
4.201987385749816895e-02
3.619125112891197205e-03
3.026104345917701721e-02
-2.043038234114646912e-02
-3.109623794443905354e-04
-9.476964361965656281e-03
-2.100688032805919647e-02
-4.283463209867477417e-02
1.543703582137823105e-02
-2.429900877177715302e-02
-1.320079248398542404e-02
1.300303079187870026e-02
-1.028919406235218048e-02
4.260646179318428040e-02
-5.700967460870742798e-02
3.793362528085708618e-02
-4.094383865594863892e-02
6.352464109659194946e-02
2.036064490675926208e-02
1.197374239563941956e-02
-1.719658635556697845e-02
-1.315885689109563828e-02
-1.665374636650085449e-02
-3.603004291653633118e-02
1.573922298848628998e-02
1.893659867346286774e-02
1.427399402018636465e-04
-6.073690485209226608e-03
3.877067938446998596e-02
-5.325988680124282837e-02
2.389243990182876587e-02
3.992909193038940430e-02
6.056727841496467590e-03
1.210176502354443073e-03
-2.165247686207294464e-03
2.507903985679149628e-02
-3.646912425756454468e-02
-4.486621171236038208e-02
-7.652809843420982361e-03
-2.647021599113941193e-02
-2.026866935193538666e-02
2.884960733354091644e-02
3.558617085218429565e-02
-2.212011441588401794e-02
4.268463328480720520e-02
1.751905493438243866e-02
-2.296074666082859039e-02
-1.212501991540193558e-02
-4.818753805011510849e-03
-1.011763885617256165e-02
4.585622344166040421e-03
3.750418499112129211e-02
-4.163249861449003220e-03
-2.820613235235214233e-02
-7.323507685214281082e-03
2.548223547637462616e-02
-2.461018785834312439e-02
-5.371017381548881531e-03
-4.000220075249671936e-02
-1.737316139042377472e-02
-4.530015867203474045e-03
-9.419326670467853546e-03
6.514453887939453125e-02
-6.633804738521575928e-02
5.489306524395942688e-02
5.761349946260452271e-02
-2.949243783950805664e-02
-2.429305342957377434e-03
-3.135331720113754272e-02
-2.027506940066814423e-02
6.116648763418197632e-02
-4.827694594860076904e-02
-2.180348895490169525e-02
3.752773255109786987e-02
-1.645874790847301483e-02
-2.578403335064649582e-03
8.637770079076290131e-03
3.425986692309379578e-02
-5.408182740211486816e-03
-2.078814432024955750e-02
-4.981965199112892151e-02
4.192712903022766113e-02
3.759710490703582764e-02
-2.234185487031936646e-02
3.659737529233098030e-03
-1.600707322359085083e-02
1.451092772185802460e-02
2.683914639055728912e-02
-1.094874087721109390e-02
1.975708454847335815e-02
8.154208771884441376e-03
-1.174359489232301712e-02
-1.480037067085504532e-02
-2.052066614851355553e-03
-2.271359227597713470e-02
1.765648648142814636e-02
1.284166984260082245e-02
1.355294720269739628e-03
-2.074072510004043579e-02
-1.480909623205661774e-02
4.432268906384706497e-03
3.730590268969535828e-02
1.930733770132064819e-02
-1.494640577584505081e-02
4.133546026423573494e-04
-1.938407495617866516e-02
-4.363125935196876526e-02
3.510135039687156677e-02
-1.740233600139617920e-02
2.617943845689296722e-02
4.312548786401748657e-02
-2.112820558249950409e-02
-5.092849582433700562e-02
7.267992198467254639e-02
-1.152535062283277512e-02
-2.119529619812965393e-02
-1.572987809777259827e-02
1.908488944172859192e-02
2.985146269202232361e-02
-6.554023176431655884e-02
-2.383236028254032135e-02
8.833887986838817596e-03
6.524323951452970505e-03
2.817425876855850220e-02
1.096735056489706039e-02
-1.373580936342477798e-02
1.270254608243703842e-02
-3.185752406716346741e-02
7.631666213274002075e-02
-1.190869510173797607e-01
-3.255791589617729187e-02
2.701401710510253906e-02
-8.389404416084289551e-02
-1.470654737204313278e-02
4.748196527361869812e-02
7.553204894065856934e-02
3.361499682068824768e-02
-6.904149777255952358e-04
-2.792291715741157532e-02
-3.468801826238632202e-02
3.032670356333255768e-02
-4.117281176149845123e-03
-1.799253979697823524e-03
1.493064779788255692e-02
6.062953919172286987e-02
-2.314747311174869537e-02
-9.270340524381026626e-05
2.497479552403092384e-03
8.334793150424957275e-03
3.330018371343612671e-02
5.632111337035894394e-03
-2.150724455714225769e-02
2.419493719935417175e-02
-3.606118634343147278e-02
1.817002333700656891e-02
-2.051539160311222076e-02
2.493597008287906647e-02
-4.356998950242996216e-03
3.492987900972366333e-02
2.976724645122885704e-03
1.922433264553546906e-02
-9.860376827418804169e-03
-2.658379636704921722e-02
1.435360591858625412e-02
8.682552725076675415e-03
-1.956346631050109863e-02
5.814337782794609666e-05
-1.168922241777181625e-02
3.553054109215736389e-02
-9.621511213481426239e-03
-6.059500854462385178e-03
7.172416895627975464e-03
1.698847115039825439e-02
2.065425552427768707e-02
2.495764195919036865e-02
-5.393806099891662598e-02
8.138492703437805176e-04
-3.614182025194168091e-02
1.769709028303623199e-02
3.252312913537025452e-02
-3.839593008160591125e-02
2.023967541754245758e-02
-4.618071392178535461e-02
-5.216592922806739807e-02
4.975786898285150528e-03
3.607467561960220337e-02
5.367862991988658905e-03
2.104778215289115906e-02
7.913225144147872925e-02
-3.335295990109443665e-02
3.749621333554387093e-03
1.043085381388664246e-02
1.229564007371664047e-02
-4.225783795118331909e-02
1.215475797653198242e-02
2.193537075072526932e-04
1.181252021342515945e-02
-4.619982838630676270e-02
-7.672167848795652390e-03
1.666795276105403900e-02
-9.002194274216890335e-04
-1.623569428920745850e-02
1.196190435439348221e-02
-1.074161473661661148e-02
-3.807330131530761719e-02
6.257532164454460144e-03
3.264453262090682983e-02
1.347389724105596542e-02
7.246688008308410645e-03
-1.886054128408432007e-02
-1.765246689319610596e-02
2.757079713046550751e-02
3.582491073757410049e-03
3.038854524493217468e-02
-6.059118546545505524e-03
1.970064453780651093e-02
2.217524684965610504e-02
-5.706961452960968018e-02
4.188578203320503235e-02
-2.449552901089191437e-02
-2.014197595417499542e-02
5.162888672202825546e-03
8.322989568114280701e-03
-2.860596403479576111e-02
1.037440821528434753e-02
-5.116112530231475830e-03
-1.220997655764222145e-04
-1.783593744039535522e-02
-2.001530677080154419e-02
4.746316466480493546e-03
2.233017235994338989e-02
-1.030450779944658279e-02
-1.596531365066766739e-03
2.130972780287265778e-02
-9.332615882158279419e-03
3.599911183118820190e-02
2.908406965434551239e-02
-6.085862591862678528e-02
2.725965902209281921e-02
3.573612868785858154e-02
-4.922841116786003113e-02
-1.995543017983436584e-02
1.035520881414413452e-01
-6.570658087730407715e-02
-1.037630718201398849e-02
-3.054314479231834412e-02
2.110443636775016785e-02
-1.919441856443881989e-02
-2.459558472037315369e-02
8.158652344718575478e-04
3.553666174411773682e-02
3.998006694018840790e-03
-1.350755244493484497e-02
2.783884294331073761e-02
-1.497629191726446152e-02
-3.250709921121597290e-02
-6.887535098940134048e-03
4.453704878687858582e-02
-3.900653123855590820e-02
3.701163455843925476e-02
-4.051831550896167755e-03
-5.591398105025291443e-02
5.033018533140420914e-03
4.263370111584663391e-02
-9.134744293987751007e-03
-2.517366781830787659e-03
2.220965456217527390e-03
-2.528072101995348930e-03
8.901210501790046692e-03
3.808384388685226440e-02
4.304771777242422104e-03
-6.931370124220848083e-03
-2.326589450240135193e-02
4.221389815211296082e-02
-3.186900168657302856e-02
3.680303320288658142e-02
-3.123413026332855225e-02
-1.812582649290561676e-02
5.969531368464231491e-03
1.361799985170364380e-02
2.030590362846851349e-02
3.911478444933891296e-02
2.294349111616611481e-02
-7.635881006717681885e-02
7.018079981207847595e-03
1.846132334321737289e-03
-3.040906973183155060e-03
-1.580268330872058868e-02
-3.707222267985343933e-02
3.193419054150581360e-02
-1.085719186812639236e-02
6.245696917176246643e-02
-1.243949029594659805e-02
-1.262436807155609131e-02
-7.243087515234947205e-03
6.534148473292589188e-03
-3.115373291075229645e-02
2.256950549781322479e-02
-4.838936403393745422e-02
4.438153654336929321e-02
7.048977073282003403e-03
9.022116661071777344e-03
4.225815460085868835e-02
3.890840709209442139e-02
-8.470103144645690918e-02
-1.155199366621673107e-03
2.017183415591716766e-02
-1.788967661559581757e-02
-1.612669974565505981e-02
-4.824640229344367981e-02
1.661797240376472473e-02
-7.354853674769401550e-03
6.379824131727218628e-02
-3.970179706811904907e-02
1.764339953660964966e-02
9.968948550522327423e-03
2.486156672239303589e-02
-7.442617788910865784e-03
3.228532522916793823e-02
5.770436301827430725e-02
7.356336712837219238e-02
-2.293240465223789215e-02
-1.950507424771785736e-02
1.569889299571514130e-02
1.207983773201704025e-02
-9.279175847768783569e-02
-1.306061539798974991e-02
-2.347326464951038361e-02
-8.229444734752178192e-03
-5.987148266285657883e-03
1.040068939328193665e-01
-2.300145104527473450e-02
-5.679623782634735107e-02
-1.323127280920743942e-02
3.627107292413711548e-02
1.217107195407152176e-02
-1.020309049636125565e-02
-1.242407970130443573e-02
-4.959979560226202011e-04
6.125322356820106506e-02
-3.434073925018310547e-02
1.031201891601085663e-02
1.876826398074626923e-02
-2.433028258383274078e-02
-1.074087526649236679e-02
-1.661355048418045044e-02
4.506793804466724396e-03
-9.759399108588695526e-03
-9.608756750822067261e-03
5.769640672951936722e-03
-8.486486971378326416e-03
2.877534925937652588e-02
7.752914912998676300e-03
-3.705540904775261879e-03
-6.516711413860321045e-02
-3.823014348745346069e-02
1.153091620653867722e-02
8.272016048431396484e-02
-5.322735384106636047e-02
1.537054404616355896e-02
7.658492773771286011e-03
3.920962288975715637e-02
5.353908985853195190e-02
-5.039548128843307495e-02
-1.417441666126251221e-02
-5.619558505713939667e-04
2.208535745739936829e-02
-2.651459723711013794e-02
7.612363249063491821e-02
-1.465378422290086746e-02
-6.350552290678024292e-02
1.965958625078201294e-02
3.339060023427009583e-02
7.817760109901428223e-02
-5.716409534215927124e-02
4.567272961139678955e-02
-6.231315433979034424e-02
-6.381111592054367065e-02
1.851386763155460358e-02
2.231965959072113037e-02
-6.566284596920013428e-02
3.022086573764681816e-03
-4.087492451071739197e-02
-7.224129512906074524e-03
5.142027884721755981e-02
-3.185731545090675354e-02
2.819985896348953247e-02
-9.321454912424087524e-03
-2.360370755195617676e-02
-1.686841598711907864e-03
1.366460695862770081e-02
5.300902202725410461e-02
-5.226598586887121201e-03
-1.532447058707475662e-02
3.766845539212226868e-02
-3.208021447062492371e-02
-1.584658399224281311e-02
3.337956964969635010e-02
1.506067812442779541e-02
-7.810445874929428101e-02
4.185350146144628525e-03
-7.778033148497343063e-03
5.812199041247367859e-02
-1.659508794546127319e-02
-4.651749879121780396e-02
3.156958892941474915e-02
2.459896542131900787e-02
1.896005938760936260e-03
2.735430002212524414e-02
-2.738624112680554390e-03
-8.975057862699031830e-03
2.172506041824817657e-02
-2.562486752867698669e-02
2.339785173535346985e-02
-3.252829983830451965e-02
-4.937273263931274414e-02
-5.615909118205308914e-03
3.057872690260410309e-02
-1.634861715137958527e-02
-2.368707954883575439e-02
-1.524776406586170197e-02
-3.478780388832092285e-02
5.239170510321855545e-03
3.411068022251129150e-02
-2.796022221446037292e-02
6.060083955526351929e-02
2.821754291653633118e-02
-2.517297305166721344e-02
7.882220670580863953e-03
-1.457973942160606384e-02
-2.753837965428829193e-02
2.141043916344642639e-02
2.011989802122116089e-02
7.725309580564498901e-03
-3.480237349867820740e-02
-8.941196836531162262e-03
-3.111799946054816246e-03
2.822884172201156616e-02
8.015453815460205078e-03
1.340677123516798019e-02
-1.878117583692073822e-02
1.949034631252288818e-02
5.830229492858052254e-04
-1.570155285298824310e-02
-1.465624850243330002e-02
-6.655872613191604614e-02
3.552243486046791077e-02
3.076635859906673431e-02
3.587642684578895569e-03
4.845046997070312500e-02
-5.461304448544979095e-03
-8.615505695343017578e-02
-1.525597646832466125e-03
-1.151412818580865860e-02
-3.372140973806381226e-02
4.930524155497550964e-02
2.248633466660976410e-02
1.754407025873661041e-02
5.326586542651057243e-04
-2.782617881894111633e-02
-3.671520203351974487e-02
1.629506610333919525e-02
-9.840489365160465240e-04
2.511762268841266632e-02
3.567933291196823120e-02
-6.145726516842842102e-02
-7.837616838514804840e-03
3.260479867458343506e-02
4.853897262364625931e-03
-3.202480822801589966e-02
3.238231316208839417e-02
-4.623089625965803862e-04
6.641592085361480713e-02
8.560595451854169369e-04
5.153687205165624619e-03
-2.889286912977695465e-02
-1.649855822324752808e-02
-1.483526639640331268e-02
6.374472379684448242e-02
3.023250028491020203e-02
-2.823191694915294647e-03
-8.272270672023296356e-03
-1.736770384013652802e-02
-4.087087884545326233e-02
-2.719258889555931091e-02
-7.003556191921234131e-02
4.868284240365028381e-02
2.302002161741256714e-02
-1.005384232848882675e-02
-5.433335527777671814e-02
4.822153598070144653e-02
-4.347364231944084167e-02
2.151569910347461700e-02
2.011123672127723694e-02
2.382462378591299057e-03
2.641503885388374329e-02
-3.377837827429175377e-03
8.108116686344146729e-03
-1.922346092760562897e-02
1.275567803531885147e-02
3.062148578464984894e-02
-9.627318382263183594e-02
3.963116928935050964e-02
-3.271111473441123962e-02
6.731615215539932251e-02
-1.674890704452991486e-02
4.218625277280807495e-02
-1.892992667853832245e-02
2.274680882692337036e-02
3.596988320350646973e-02
2.162704616785049438e-02
-7.062654197216033936e-02
1.147907879203557968e-02
-5.336052924394607544e-02
1.968954131007194519e-02
-4.786076769232749939e-02
9.737850050441920757e-04
3.954803571105003357e-02
-3.010704880580306053e-03
-1.009864173829555511e-02
-2.351545728743076324e-02
2.909772656857967377e-02
1.402230001986026764e-02
2.705518156290054321e-02
2.965105930343270302e-03
-6.073054391890764236e-04
1.828202046453952789e-02
-4.149631410837173462e-02
3.698130324482917786e-02
9.943773970007896423e-03
3.420400619506835938e-02
3.202542290091514587e-02
3.198102861642837524e-02
1.059814449399709702e-02
-1.113330200314521790e-02
-7.059933245182037354e-02
-6.185291334986686707e-02
-8.528429316356778145e-04
-2.935845032334327698e-02
6.260026991367340088e-02
1.436400506645441055e-02
1.413021422922611237e-02
-1.483787409961223602e-02
-5.236252024769783020e-02
-2.333733998239040375e-02
2.064659260213375092e-02
-3.102785442024469376e-03
3.844432067126035690e-03
2.738649956881999969e-02
6.640107929706573486e-02
-2.694356068968772888e-02
2.922783978283405304e-02
-2.356529980897903442e-02
1.487440895289182663e-02
-5.628958716988563538e-02
-8.272279798984527588e-02
1.899921707808971405e-02
1.694867573678493500e-02
1.553034782409667969e-02
-1.774521660991013050e-03
-4.610534012317657471e-02
-7.347875274717807770e-03
-4.278799891471862793e-02
4.488508775830268860e-02
1.193405501544475555e-02
1.400982029736042023e-02
-6.253145169466733932e-03
2.474640682339668274e-02
-3.992819692939519882e-03
2.406101115047931671e-02
1.935188286006450653e-02
-1.302559208124876022e-02
-3.934022411704063416e-02
-1.211540680378675461e-02
-8.422820828855037689e-03
-2.230564132332801819e-02
-5.536273121833801270e-03
2.699281275272369385e-02
-5.709810554981231689e-02
5.207412876188755035e-03
-8.952974341809749603e-03
4.392207413911819458e-02
-1.769502647221088409e-02
1.401600800454616547e-02
4.206221923232078552e-02
-1.589973270893096924e-02
-3.460172796621918678e-03
1.731676980853080750e-02
2.748601697385311127e-02
-6.531230360269546509e-02
2.012010104954242706e-02
7.578514516353607178e-02
-1.951492577791213989e-02
-3.568050265312194824e-02
-2.419203147292137146e-02
8.040092885494232178e-03
3.438159450888633728e-02
-1.597112976014614105e-02
1.306304801255464554e-02
-6.699594855308532715e-02
3.142257407307624817e-02
2.208379469811916351e-02
-6.528505682945251465e-02
2.738116309046745300e-02
1.835465990006923676e-02
4.150039330124855042e-02
-4.595758393406867981e-03
-2.800560789182782173e-03
-1.397571526467800140e-02
-3.243636339902877808e-02
-3.217107057571411133e-02
4.938697814941406250e-02
3.993787616491317749e-02
1.730918069370090961e-03
4.249751195311546326e-02
-1.341772358864545822e-02
-4.911751952022314072e-03
-1.993377320468425751e-02
-5.715006217360496521e-02
-6.259599700570106506e-03
1.598613522946834564e-02
2.790027111768722534e-02
2.624081820249557495e-02
-2.815156942233443260e-03
2.421233570203185081e-03
-9.533721953630447388e-03
3.580666845664381981e-03
-6.376920733600854874e-03
2.657291293144226074e-02
2.559385728091001511e-03
3.114627301692962646e-02
-5.159114301204681396e-02
3.083828091621398926e-02
2.364307641983032227e-02
2.531060390174388885e-02
-6.790228933095932007e-02
-8.779580821283161640e-05
-3.064245916903018951e-02
7.172893732786178589e-02
-1.323475223034620285e-02
7.687507197260856628e-03
-5.397628620266914368e-02
4.097809270024299622e-02
-1.831432990729808807e-02
2.469800412654876709e-02
1.529991067945957184e-02
-1.951590366661548615e-02
-3.033440560102462769e-02
-2.413409762084484100e-02
3.738056402653455734e-03
2.669026330113410950e-02
5.034118890762329102e-03
-1.883854530751705170e-02
-1.752095855772495270e-02
3.500379621982574463e-02
-3.424596041440963745e-02
9.264261461794376373e-03
-1.829188503324985504e-02
4.384351521730422974e-02
1.730274409055709839e-02
-5.215096846222877502e-02
5.497388541698455811e-02
2.466108882799744606e-03
-1.343409623950719833e-02
-2.904741279780864716e-02
-1.728558912873268127e-02
1.131981611251831055e-02
8.390652947127819061e-03
1.147263403981924057e-02
-1.808938570320606232e-02
3.452321514487266541e-02
-4.383799061179161072e-02
-9.919751901179552078e-04
3.662833571434020996e-02
-5.115461070090532303e-03
-3.788820281624794006e-02
2.568077994510531425e-03
-1.097401045262813568e-02
4.800165817141532898e-02
-1.875852118246257305e-03
-3.241816908121109009e-02
-2.574193989858031273e-03
3.306628763675689697e-02
1.437593158334493637e-02
1.947204582393169403e-02
-2.271362207829952240e-02
-7.006403524428606033e-03
-1.671249605715274811e-02
4.062597453594207764e-02
-3.780342638492584229e-02
-2.194794267416000366e-02
1.950925216078758240e-02
3.662496805191040039e-03
3.303572535514831543e-02
-2.931411191821098328e-02
5.822286475449800491e-03
-2.903797104954719543e-02
1.157048251479864120e-02
-7.837573438882827759e-02
5.659769475460052490e-02
8.444911986589431763e-02
-5.089316517114639282e-03
-2.626847103238105774e-02
4.134177044034004211e-02
2.500837668776512146e-03
-1.096004024147987366e-01
-3.784817084670066833e-02
1.193905100226402283e-01
-1.338586956262588501e-02
-3.856888040900230408e-02
-7.589746732264757156e-03
1.597711443901062012e-02
3.690952435135841370e-02
-5.748149938881397247e-03
3.266163542866706848e-02
-1.612208783626556396e-02
-1.298356987535953522e-02
-1.577563583850860596e-02
6.128075998276472092e-03
-8.970607072114944458e-02
-2.062096633017063141e-02
-2.216425351798534393e-02
9.268341585993766785e-03
1.053046956658363342e-01
-4.000932723283767700e-02
2.629230543971061707e-02
3.347514942288398743e-02
-2.247930690646171570e-02
1.465447619557380676e-02
-1.439520623534917831e-02
1.735073141753673553e-02
-2.061458770185709000e-03
2.548377588391304016e-02
4.057914949953556061e-03
-1.929824985563755035e-02
-5.166995152831077576e-02
1.641216129064559937e-02
-4.529173020273447037e-03
6.566077470779418945e-03
3.560641407966613770e-02
3.307294845581054688e-02
-2.405479177832603455e-02
-1.383359823375940323e-02
-2.716796472668647766e-02
-5.873271450400352478e-02
-1.568834669888019562e-02
2.155600115656852722e-02
2.847583405673503876e-02
-1.658662781119346619e-02
2.718541771173477173e-02
-2.047656662762165070e-02
1.899362727999687195e-02
3.031503967940807343e-02
6.219953764230012894e-03
-1.336696743965148926e-02
3.877854207530617714e-03
-3.784675896167755127e-02
-1.497505791485309601e-02
-7.439206354320049286e-03
5.880198441445827484e-03
1.862427592277526855e-02
-4.897346720099449158e-02
1.610030606389045715e-02
-3.164795786142349243e-02
2.109763026237487793e-02
6.532453466206789017e-03
1.368077099323272705e-02
7.288614870049059391e-04
-8.725467137992382050e-03
-3.071483038365840912e-02
2.554544247686862946e-03
-2.206610515713691711e-02
-6.626845803111791611e-03
1.597922854125499725e-02
5.325382575392723083e-02
-1.092545688152313232e-03
-1.558647397905588150e-02
-1.353304181247949600e-02
-4.700346663594245911e-02
-1.343409810215234756e-02
1.565100252628326416e-02
-3.441173955798149109e-02
3.301235288381576538e-02
-4.996479838155210018e-04
-1.871547475457191467e-02
3.906786441802978516e-02
3.449700307101011276e-03
2.793828211724758148e-02
2.797521091997623444e-02
-1.625388860702514648e-02
-1.515585463494062424e-02
5.120995454490184784e-03
3.585921972990036011e-02
-6.504741311073303223e-02
-5.661005619913339615e-03
1.670581637881696224e-03
3.905778378248214722e-02
-3.248007595539093018e-02
2.786621823906898499e-02
-5.475312471389770508e-03
5.600560456514358521e-03
5.675467196851968765e-03
2.630312554538249969e-02
-2.450071275234222412e-02
2.689679339528083801e-02
-7.638263981789350510e-03
2.523712581023573875e-03
-3.889953717589378357e-02
5.185865610837936401e-02
1.319897733628749847e-02
-1.951765455305576324e-02
8.944836445152759552e-03
-1.128934673033654690e-03
2.864215895533561707e-02
-9.163427166640758514e-03
-2.271064184606075287e-02
-5.478213727474212646e-02
2.348479814827442169e-02
-1.714800484478473663e-02
1.989753916859626770e-02
6.326235085725784302e-02
-5.450238659977912903e-02
-1.217157579958438873e-02
-2.995250374078750610e-02
-2.983007766306400299e-02
5.594085529446601868e-02
4.064451437443494797e-03
-2.080552652478218079e-02
8.938054740428924561e-02
-2.236238121986389160e-02
3.485738858580589294e-02
-3.773999959230422974e-02
1.188006531447172165e-02
4.732871428132057190e-02
-1.847209408879280090e-02
-2.074884949252009392e-03
-8.199121057987213135e-02
-2.582585066556930542e-02
3.380087669938802719e-03
-2.139096520841121674e-02
-2.340644039213657379e-02
6.151896342635154724e-02
3.869878873229026794e-02
-3.506674244999885559e-02
9.983675554394721985e-03
1.452257670462131500e-02
-2.974435687065124512e-02
-3.469113633036613464e-02
2.351141534745693207e-02
-1.968760415911674500e-02
1.097923843190073967e-03
-1.829914166592061520e-03
-4.014638718217611313e-03
2.914681332185864449e-03
-3.655701503157615662e-02
2.698471955955028534e-02
-1.113454718142747879e-02
1.039209309965372086e-02
-4.165323078632354736e-02
-1.293662562966346741e-02
1.503070932812988758e-03
-4.114192724227905273e-02
7.932904362678527832e-02
-4.980101436376571655e-02
4.595557227730751038e-02
3.412071615457534790e-02
-1.881480216979980469e-02
-1.207221485674381256e-02
7.015077397227287292e-03
-4.164220020174980164e-02
3.055908903479576111e-02
-2.109206840395927429e-02
2.505039051175117493e-02
1.046668505296111107e-03
-4.565110057592391968e-02
1.108630001544952393e-02
3.820374375209212303e-03
1.759850187227129936e-03
1.530259288847446442e-02
-3.066180273890495300e-03
-2.221455052495002747e-02
7.738562999293208122e-04
2.613687328994274139e-02
-4.466490074992179871e-02
-4.997729510068893433e-02
9.329271502792835236e-03
5.332471430301666260e-02
2.132463268935680389e-02
-2.497410215437412262e-02
3.936450183391571045e-02
-9.959825314581394196e-03
-2.043667249381542206e-02
4.587530624121427536e-03
2.635494433343410492e-02
-4.358983412384986877e-02
-1.171173155307769775e-02
2.918977104127407074e-02
1.102299615740776062e-02
3.690415062010288239e-03
-4.278093203902244568e-02
6.089575961232185364e-02
3.136213123798370361e-02
-3.436782211065292358e-02
3.079806827008724213e-02
-2.268814295530319214e-02
-1.848996430635452271e-02
-5.198871716856956482e-02
3.012309223413467407e-02
-3.095490112900733948e-02
3.673812374472618103e-02
4.351430386304855347e-02
-1.791444793343544006e-02
-1.129469275474548340e-01
7.278369367122650146e-02
1.737774908542633057e-02
-1.443986501544713974e-02
-8.227865910157561302e-04
1.572702080011367798e-02
7.165002636611461639e-03
-6.788912415504455566e-02
-2.368298545479774475e-02
2.348534762859344482e-02
2.062411047518253326e-02
3.483560308814048767e-02
2.222438715398311615e-02
3.661797847598791122e-03
-9.764238260686397552e-03
-1.611840911209583282e-02
-2.678838744759559631e-02
-4.981734976172447205e-02
2.829064847901463509e-03
-2.368215471506118774e-02
-2.748942561447620392e-02
1.809298805892467499e-02
7.340214215219020844e-03
6.903351098299026489e-02
4.379569366574287415e-02
-7.992647588253021240e-03
-1.950893492903560400e-04
-3.083945065736770630e-02
2.495670877397060394e-02
2.715611644089221954e-02
-9.328015148639678955e-03
3.063540346920490265e-02
1.395597867667675018e-02
-4.872440919280052185e-02
-1.868362538516521454e-02
-2.097049728035926819e-02
3.050056099891662598e-02
2.334038726985454559e-02
2.602792344987392426e-02
4.640703555196523666e-03
2.194444276392459869e-02
-2.742535993456840515e-02
-2.883288450539112091e-02
-2.062645927071571350e-02
5.071666557341814041e-03
-1.566404663026332855e-02
4.651179909706115723e-02
8.562914095818996429e-03
1.283333264291286469e-02
-3.183293715119361877e-02
-1.103329006582498550e-02
2.058403007686138153e-02
-8.780058473348617554e-03
-2.183653973042964935e-02
-1.460317638702690601e-03
3.148619784042239189e-03
3.877384215593338013e-02
-9.810500778257846832e-03
7.792355027049779892e-03
-2.354023233056068420e-02
2.514083124697208405e-02
3.600076586008071899e-02
-2.280074637383222580e-03
-4.647407308220863342e-02
-1.414670608937740326e-02
-3.583636507391929626e-02
3.932150825858116150e-02
3.494651615619659424e-02
-5.660498514771461487e-02
-6.907414179295301437e-03
-3.165419027209281921e-02
-3.916834667325019836e-02
1.136630401015281677e-02
4.024397209286689758e-02
6.648817798122763634e-04
2.255450189113616943e-02
5.433506146073341370e-02
-1.576102897524833679e-02
7.459605578333139420e-03
3.147138282656669617e-03
3.861197503283619881e-03
-4.777454584836959839e-02
7.768454495817422867e-03
1.554505061358213425e-02
3.565944358706474304e-02
-3.500075638294219971e-02
-3.985150251537561417e-03
1.220062933862209320e-02
-1.372678391635417938e-02
7.075868546962738037e-03
6.550496909767389297e-04
6.788098253309726715e-04
-9.927328675985336304e-03
2.160660736262798309e-02
1.814989000558853149e-02
-2.537629008293151855e-02
2.994993142783641815e-02
-3.541164100170135498e-02
-5.476184654980897903e-03
8.646556176245212555e-03
1.617732830345630646e-02
-3.978106006979942322e-02
-1.119314786046743393e-02
5.363994464278221130e-02
3.551487997174263000e-02
-4.523057118058204651e-02
6.037851050496101379e-02
-3.939997777342796326e-02
-1.983299478888511658e-02
-1.794858835637569427e-02
2.045578323304653168e-02
-4.494875296950340271e-02
1.170563139021396637e-02
4.537670873105525970e-03
2.553798258304595947e-02
-2.392570301890373230e-02
-2.967355586588382721e-02
-1.756605878472328186e-02
4.921269789338111877e-02
-1.294681220315396786e-03
8.983850479125976562e-03
-1.010270230472087860e-02
-4.355809069238603115e-04
1.650904677808284760e-02
7.464142981916666031e-03
-3.020488843321800232e-02
-1.104094367474317551e-02
5.470417090691626072e-04
1.564812473952770233e-02
-4.493367671966552734e-02
6.084823235869407654e-02
2.000532299280166626e-02
2.333213761448860168e-02
-5.497025325894355774e-02
2.275612950325012207e-02
-2.064474858343601227e-02
-7.233528047800064087e-02
1.877982728183269501e-02
4.776560887694358826e-02
4.686368256807327271e-02
-2.867110446095466614e-02
-1.252857409417629242e-02
-1.103691849857568741e-02
-4.043344873934984207e-03
-5.785204004496335983e-03
3.899032995104789734e-02
4.127091914415359497e-02
9.868916124105453491e-03
-6.109404936432838440e-02
1.164814829826354980e-02
-1.106534153223037720e-02
-9.166654199361801147e-03
-3.811251372098922729e-02
6.652131676673889160e-02
1.620060764253139496e-02
-2.273008972406387329e-02
2.696916647255420685e-02
2.311759255826473236e-02
2.303885109722614288e-02
7.728774799033999443e-04
-6.514354143291711807e-03
8.830043487250804901e-03
-3.547503438312560320e-04
-1.673566363751888275e-02
-2.749581821262836456e-02
-2.426488557830452919e-03
2.517122589051723480e-02
-2.360627427697181702e-02
3.081286139786243439e-02
5.208344385027885437e-02
-1.715647755190730095e-03
-7.546733319759368896e-02
-1.963232830166816711e-02
4.524723626673221588e-03
-9.643859229981899261e-03
-8.056376129388809204e-03
-2.213165909051895142e-02
4.891518503427505493e-02
-1.888423413038253784e-02
2.104136347770690918e-02
-4.970250278711318970e-02
7.817487232387065887e-03
-2.499389834702014923e-02
1.600270345807075500e-02
-2.539228461682796478e-02
2.211956679821014404e-02
-4.694443568587303162e-02
8.022712171077728271e-02
-4.106150195002555847e-02
6.500492244958877563e-02
-4.198074713349342346e-02
2.045179717242717743e-02
-4.857778549194335938e-02
-1.977173238992691040e-02
-2.837571781128644943e-03
4.431755840778350830e-02
-2.827674895524978638e-02
-2.753526717424392700e-02
3.556021302938461304e-02
1.689866185188293457e-02
3.447250276803970337e-02
-4.873078688979148865e-02
2.855652011930942535e-03
3.287847712635993958e-02
1.123612863011658192e-03
-2.595123276114463806e-02
1.878624968230724335e-02
4.372263327240943909e-02
6.354977935552597046e-02
-3.114289045333862305e-02
1.508742664009332657e-02
3.243909031152725220e-02
3.107746597379446030e-03
-8.861462026834487915e-02
-1.590334251523017883e-02
-3.021986968815326691e-02
-2.852985169738531113e-03
-3.122124448418617249e-02
1.629576273262500763e-02
-3.562242537736892700e-02
-4.863441735506057739e-02
3.364858031272888184e-02
1.352368108928203583e-02
6.068581715226173401e-02
-1.397175621241331100e-02
1.680645905435085297e-02
-2.282351814210414886e-02
2.866243943572044373e-02
-6.449706852436065674e-02
-1.584962010383605957e-02
4.188012704253196716e-02
4.765109717845916748e-02
-5.952728912234306335e-03
-3.660291060805320740e-02
-2.205844211857765913e-04
1.737046986818313599e-02
5.257367156445980072e-03
1.207205932587385178e-02
-5.781452357769012451e-02
2.506885305047035217e-02
-3.821552544832229614e-02
-7.520864252001047134e-03
-5.038721486926078796e-02
4.587599635124206543e-02
-1.307085715234279633e-02
6.355334818363189697e-02
-5.656649544835090637e-02
4.540256224572658539e-03
-1.609523408114910126e-02
2.623477019369602203e-02
3.922988846898078918e-02
-1.646255142986774445e-02
7.692045066505670547e-03
1.626763865351676941e-02
1.465083193033933640e-02
-1.499655842781066895e-02
1.048221997916698456e-02
4.652646556496620178e-02
-4.652865231037139893e-02
3.504157438874244690e-02
7.280403375625610352e-02
3.215330466628074646e-02
-9.431187063455581665e-02
3.941350430250167847e-02
-1.222109887748956680e-02
-6.254716217517852783e-02
1.724730432033538818e-02
2.284157089889049530e-02
-3.024393320083618164e-02
-1.678717508912086487e-02
-3.146401047706604004e-02
1.134309638291597366e-02
4.298103228211402893e-02
-8.494625799357891083e-03
3.954842686653137207e-02
-1.693445630371570587e-02
-4.630251205526292324e-04
1.344600226730108261e-02
1.646128669381141663e-02
3.776500932872295380e-03
2.362574823200702667e-02
-1.233365479856729507e-02
3.356311097741127014e-02
-4.028443992137908936e-02
-1.849478296935558319e-02
-5.968666169792413712e-03
-3.957504779100418091e-02
-2.933948859572410583e-02
7.165384013205766678e-03
-5.844216328114271164e-03
5.737296119332313538e-02
1.767964684404432774e-03
-2.380930632352828979e-02
-1.033221837133169174e-02
1.085789315402507782e-02
1.900458894670009613e-02
7.414461579173803329e-03
2.806565538048744202e-02
1.538121956400573254e-03
9.441914036870002747e-03
1.617584936320781708e-02
8.301137015223503113e-03
-4.211363848298788071e-03
-3.960321471095085144e-02
-1.524050626903772354e-02
1.932707242667675018e-02
-1.612924598157405853e-02
-9.107827208936214447e-03
8.939797990024089813e-03
-3.772993013262748718e-02
4.147115722298622131e-02
1.283933222293853760e-02
2.541158581152558327e-03
6.790656130760908127e-03
-7.209794421214610338e-05
-2.329083345830440521e-02
1.368066854774951935e-02
-3.138391673564910889e-02
-2.802436053752899170e-02
1.737293601036071777e-02
1.225036755204200745e-02
-2.260004403069615364e-03
-2.738396823406219482e-02
1.869863830506801605e-02
7.034149020910263062e-03
-1.039840839803218842e-02
1.253621745854616165e-02
1.980018801987171173e-02
-2.112965844571590424e-02
-3.383948700502514839e-03
1.374209858477115631e-02
-1.952723972499370575e-02
-1.601461134850978851e-02
-5.597858503460884094e-02
3.355382755398750305e-02
4.020394384860992432e-02
1.354461628943681717e-02
-2.638819860294461250e-03
8.985725231468677521e-03
-6.307093054056167603e-02
2.263949066400527954e-02
1.128982938826084137e-02
-2.419666573405265808e-02
-3.753501514438539743e-04
7.054895162582397461e-03
3.812348237261176109e-03
-5.754915997385978699e-03
1.596737839281558990e-02
-2.697150781750679016e-02
-9.036615490913391113e-03
1.274290215224027634e-02
8.790359832346439362e-03
-1.631683483719825745e-02
-8.189461659640073776e-04
3.574438393115997314e-03
8.732177666388452053e-04
3.607329726219177246e-02
-2.132869325578212738e-02
-1.438265107572078705e-02
3.017730079591274261e-02
7.888906449079513550e-02
-4.979929700493812561e-02
1.149563118815422058e-02
-3.661631047725677490e-02
-3.004654683172702789e-02
-1.648375764489173889e-02
3.514871746301651001e-02
3.623431921005249023e-02
-6.127194967120885849e-03
1.228846330195665359e-02
-4.550822079181671143e-02
-1.735999435186386108e-02
8.983592502772808075e-03
-4.357425495982170105e-02
1.434075832366943359e-02
-2.202146686613559723e-03
1.623693481087684631e-02
-2.540088444948196411e-02
5.084783211350440979e-02
-5.031796544790267944e-02
2.964199706912040710e-02
1.667070947587490082e-02
-3.670704364776611328e-02
1.258848514407873154e-02
-4.816306289285421371e-03
1.312073599547147751e-02
-2.672893553972244263e-02
5.063733458518981934e-02
-8.794260211288928986e-03
-3.809461370110511780e-02
-3.767180023714900017e-03
-7.294634822756052017e-03
6.128127127885818481e-02
-3.318660333752632141e-02
7.751276716589927673e-03
-3.383549395948648453e-03
1.894593052566051483e-02
5.908846855163574219e-02
-4.541662987321615219e-03
-7.587175071239471436e-02
2.749143540859222412e-02
-1.528464723378419876e-02
1.879637129604816437e-02
-5.621661245822906494e-02
9.526900947093963623e-03
2.547364495694637299e-02
-1.615327596664428711e-02
1.024795812554657459e-03
-6.104124709963798523e-02
1.367420610040426254e-02
2.171509340405464172e-02
7.969743013381958008e-02
-7.011086679995059967e-03
1.906780898571014404e-02
1.450262730941176414e-03
-3.864244744181632996e-02
5.999286100268363953e-02
-5.226688459515571594e-02
-2.433805353939533234e-02
1.313967816531658173e-02
1.424375642091035843e-02
-2.519200183451175690e-02
-2.130757085978984833e-03
-7.032795250415802002e-02
1.380777545273303986e-02
4.154049232602119446e-02
1.595084369182586670e-02
3.099412657320499420e-02
-2.337702084332704544e-03
1.290214993059635162e-02
-1.281328685581684113e-02
-4.227611050009727478e-02
-2.161286771297454834e-02
2.867036685347557068e-02
-2.355946414172649384e-02
1.230182498693466187e-02
4.948464035987854004e-02
7.301940768957138062e-02
-3.287538420408964157e-03
2.021851763129234314e-02
-5.629318580031394958e-02
-1.669849827885627747e-02
-5.155753344297409058e-02
-4.495074599981307983e-02
2.623026631772518158e-02
-1.695058494806289673e-02
1.429164968430995941e-02
-4.099854733794927597e-03
-7.190488278865814209e-02
-8.558138273656368256e-03
-4.669246077537536621e-02
2.001693844795227051e-02
1.637967675924301147e-02
5.395204946398735046e-02
1.631479477509856224e-03
2.113356627523899078e-02
5.379199609160423279e-02
2.084232121706008911e-02
4.539947491139173508e-03
-3.720141947269439697e-02
-5.239088460803031921e-02
2.223765477538108826e-03
1.314015127718448639e-02
-1.058219745755195618e-02
8.035135455429553986e-03
5.660889204591512680e-03
-5.903158709406852722e-02
2.995969727635383606e-02
1.555908098816871643e-02
4.394752904772758484e-02
-1.012972276657819748e-02
-9.719029068946838379e-03
6.368596572428941727e-03
-4.949487745761871338e-03
1.493634562939405441e-02
7.654236629605293274e-03
1.031523346900939941e-01
9.713188046589493752e-05
-3.805135842412710190e-03
9.431513026356697083e-03
-4.125131294131278992e-02
-4.390574619174003601e-02
-2.152488194406032562e-02
-1.235515251755714417e-02
1.521093863993883133e-02
-1.347027625888586044e-02
1.876015588641166687e-02
-2.704552002251148224e-02
9.271005541086196899e-02
-9.185690432786941528e-03
-4.681842401623725891e-02
1.314348727464675903e-02
2.220489829778671265e-02
-2.412976138293743134e-02
-2.521954709663987160e-03
-2.173338271677494049e-02
-4.304707422852516174e-02
-1.650341600179672241e-02
-2.127463743090629578e-02
4.443044587969779968e-02
4.275199398398399353e-02
1.091937255114316940e-02
2.534420974552631378e-02
-3.230313211679458618e-02
1.164615433663129807e-02
-2.158514782786369324e-02
3.422353789210319519e-02
-9.413944557309150696e-03
-2.322106249630451202e-02
3.332608938217163086e-02
1.727010868489742279e-02
-6.891644094139337540e-03
-1.081840693950653076e-02
-9.250259958207607269e-03
-5.212138872593641281e-03
-2.421597763895988464e-02
4.946435336023569107e-03
3.944542258977890015e-02
5.146726965904235840e-03
-2.852933667600154877e-02
-3.684988012537360191e-03
2.382141305133700371e-03
7.979733869433403015e-03
-4.173198342323303223e-02
5.736916512250900269e-02
-2.687440626323223114e-02
3.082757256925106049e-02
-1.783626712858676910e-02
1.595704630017280579e-02
-5.217643082141876221e-02
5.936482548713684082e-02
-2.621345780789852142e-02
7.189831882715225220e-02
-8.745487034320831299e-02
-1.634097099304199219e-02
1.867091283202171326e-02
1.019185874611139297e-02
9.717677021399140358e-04
4.119532927870750427e-02
-5.966154113411903381e-02
-1.393144601024687290e-03
-1.893742941319942474e-02
4.793680459260940552e-02
-8.232174441218376160e-03
2.378629334270954132e-02
-3.063844703137874603e-02
3.676821663975715637e-02
1.397918164730072021e-02
-6.111062318086624146e-02
2.251553721725940704e-02
-2.439291775226593018e-02
2.455886453390121460e-02
-1.016690116375684738e-02
1.590145938098430634e-02
4.500303883105516434e-03
-1.011782884597778320e-02
1.033066958189010620e-02
-8.782641962170600891e-03
8.056491613388061523e-03
-3.084055706858634949e-02
1.061854138970375061e-02
3.455183655023574829e-02
-4.525512456893920898e-03
-2.913653664290904999e-02
1.061710901558399200e-02
-1.159102097153663635e-02
4.261740297079086304e-02
8.077490143477916718e-03
-1.640938967466354370e-02
2.492903359234333038e-02
-2.209077775478363037e-02
-2.318539470434188843e-02
1.041238289326429367e-02
1.498061511665582657e-02
-1.213047187775373459e-02
-1.553717628121376038e-02
3.261024132370948792e-02
